11
64
2
5
2
2
-0.024563998	-0.104770094	-0.060504198	0.05280027	0.16865031	-0.0132899685	0.1493149	0.014204191	-0.080724925	-0.18535607	-0.35930178	0.0146943955	-0.09387603	-0.04187833	0.0033684825	-0.03309766	-0.026732642	0.01222989	-0.03518677	-0.18672599	0.033259407	0.23000027	0.098458536	-0.02575537	0.21867298	0.20293021	0.18709183	0.008160894	0.16626754	0.0006380963	0.14800806	0.32228857	-0.020417586	-0.0014725325	-0.009191657	0.012279357	-0.005147563	0.012659243	-0.08664378	-0.08395035	0.1862534	0.13645333	-0.15759864	0.08907779	0.08666191	0.0025658899	0.017642977	-0.2034939	-0.036369767	0.23410761	-0.030376842	0.0036217321	0.0353403	-0.11241729	-0.06613342	0.060718264	-0.07273851	0.20037828	-0.17593959	-0.17223002	-0.30577728	-0.12590122	-0.0070964983	-0.008766599	
0.19610776	0.07267277	0.19778189	-0.082543194	-0.3215509	0.08131952	0.023703577	0.03664413	0.019575568	-0.03418353	0.22278336	-0.19940573	-0.04708645	-0.14696649	-0.0018844946	0.1693291	-0.14522636	-0.061478585	0.059101973	0.25695845	-0.18985465	-0.1599981	0.07363935	0.02168798	0.23267438	0.022168532	-0.034003176	0.033107176	-0.4180129	0.20343712	0.11907284	-0.3611792	-0.037307903	-0.03588604	0.18174735	-0.021064369	0.065551005	-0.016954003	-0.23277467	0.03796222	0.24127771	-0.4110705	0.23293062	-0.035696633	0.20155506	-0.012222795	0.06563894	-0.016617263	0.19278169	0.033155195	0.07749881	0.050030828	-0.2031622	0.37628087	0.051516596	-0.23434354	0.31236184	-0.11246371	-0.045277294	0.12441516	0.13919672	-0.29455376	-0.29683104	-0.028629817	
0.23157334	-0.114404894	-0.1357724	-0.12794949	0.276127	-0.19101623	0.14951769	0.25221303	0.03426291	0.27234903	0.12149312	-0.121423	0.020905295	0.47024423	0.3343952	0.15037984	0.36037892	0.0016464251	-0.42456228	-0.20852154	0.08039448	0.071183935	0.13449335	-0.08794827	-0.0888688	-0.3521529	-0.30274704	0.050978925	0.20715787	-0.31599963	0.14247023	-0.010451326	0.08506572	-0.1384651	0.08025733	-0.077372685	-0.010118454	0.07994137	-0.22429648	-0.121036634	-0.02131016	0.24566695	-0.0534129	0.091956735	0.134182	-0.010070528	0.07738354	-0.20126843	0.2024752	-0.14136328	-0.3441759	-0.115972646	-0.21012627	-0.22626147	0.0073752934	0.3107444	-0.17875253	-0.022695327	0.35989898	-0.0473378	-0.07658463	0.09651146	-0.10479949	-0.25425035	
-0.19745035	0.061079733	-0.20623411	0.4336876	-0.16351077	0.0035224268	-0.011812744	-0.13534118	0.032209612	-0.018261619	0.14865965	0.19863158	0.10461483	-0.34391904	0.19225322	-0.4720397	-0.34994876	0.19401821	0.18038678	0.31403428	-0.07430727	-0.15452671	-0.034617174	0.049361076	-0.010727123	0.0604711	0.21110973	0.02665849	0.20540595	0.0018792159	0.061540693	0.014411307	-0.09210692	-0.22975582	-0.117596455	0.28453565	-0.18376264	-0.13799867	-0.24421805	-0.021965522	0.01059065	-0.14139336	0.08022524	0.07402088	-0.040684387	-0.059524275	-0.27422276	0.093364224	-0.031103542	0.040635157	-0.2500499	-0.07210978	0.200099	-0.12936758	0.06425925	-0.19209594	-0.020044731	-0.21794763	-0.06923252	0.07587294	-0.044864893	0.09714913	-0.015443692	0.12291356	
0.07999907	-0.19126646	0.15952654	-0.27947602	0.049227558	0.23117922	-0.021472301	-0.14298582	-0.058076188	-0.08447147	-0.02553438	-0.17021047	0.08455065	0.021160277	-0.20901404	-0.010270626	0.18182194	0.12137998	0.026346566	0.05181697	0.029151078	0.02264689	-0.005120119	0.4687943	-0.024767162	0.063742295	-0.02949296	-0.021333557	-0.12827882	0.048049614	-0.0030543718	0.047948174	0.05885274	-0.24808933	0.14342843	-0.20515978	-0.1131935	0.059041392	-0.042275794	-0.12831488	-0.014857087	0.0692169	-0.09630872	0.20771934	0.02991363	-0.19709694	-0.25509965	0.024167556	0.012149799	-0.13670139	0.19376689	0.09596155	-0.086647145	0.074725	0.032071456	0.06475432	-0.038882766	0.017999198	-0.05229888	-0.0591955	0.0439984	0.05163411	-0.010801986	0.16367543	
0.10876374	0.25683844	-0.09253191	-0.06459701	0.08953086	-0.02122851	0.098748945	0.08331626	0.4997109	-0.22662413	0.17640954	-0.31800014	-0.051056236	-0.0972463	-0.015610723	0.03650449	0.18717669	0.058323264	0.052350808	0.27829173	0.37079573	-0.022573864	0.035995048	0.023819812	-0.1933892	0.018991698	-0.013139643	0.034947015	-0.014637399	-0.17022425	-0.25757453	-0.31596288	0.00909158	-0.003843341	0.19798808	0.013543275	-0.059018217	-0.016266096	-0.013343527	0.22657485	0.38703266	-0.005301371	0.12538758	-0.24637447	-0.31005076	0.08776368	-0.03175503	0.15487288	-0.05649478	-0.3257682	0.05604632	-0.023902392	-0.11771378	0.20986734	-0.07405038	-0.12459046	-0.37405637	-0.23150861	-0.022600982	-0.07840162	0.34214076	0.31802186	0.29336867	-0.07446928	
-0.40000695	0.11097679	0.17293154	0.112868495	-0.29000974	0.07224716	0.048522037	-0.2185903	-0.0216058	0.22876824	-0.076172695	0.1907817	-0.044698916	0.3385849	-0.096691184	0.025231428	-0.12256312	0.21683325	-0.08273819	-0.36699325	-0.19683385	0.2838187	-0.020151589	-0.040104996	-0.36066028	-0.2226122	-0.4142027	0.528759	-0.18312345	0.48002687	0.3269566	0.19711946	-0.4408687	0.1640737	-0.07930655	0.059449013	-0.20790297	0.014506301	0.112192385	-0.312241	-0.19621791	0.29483557	-0.4227942	0.017176753	-0.1963751	0.0740961	-0.19916536	-0.03443246	-0.6589878	0.08912591	-0.15783414	0.19460522	0.39325538	-0.38968706	0.2746073	0.23927662	0.20692337	-0.18207456	0.21789381	-0.04430476	0.25793302	0.31290853	-0.17086755	0.20216836	
0.41421524	0.283057	-0.38583615	0.14175963	0.36420676	0.14924783	-0.04551182	-0.43419057	-0.13008825	0.23440515	-0.00788411	0.38403472	-0.0760139	-0.27161843	-0.2670302	0.14018048	-0.1696332	-0.5116248	0.32841137	0.11294974	-0.28828824	-0.179867	-0.043301664	0.0939004	0.052765407	0.41362512	0.27503148	-0.035057735	0.30273592	-0.19685514	-0.121665075	-0.031702887	0.24654955	0.38366875	-0.44637376	-0.34435117	0.46764463	0.49284488	0.24583085	0.39365306	-0.22754875	-0.2263369	0.31512034	-0.37784094	-0.21322517	0.011308067	-0.06667965	0.2835381	-0.19575225	-0.057083655	0.4431011	0.2819844	-0.4217281	0.12223602	-0.33617124	-0.13873877	-0.001434019	0.21109824	-0.42577916	-0.051637292	-0.16309543	0.15295875	-0.02326357	0.4346079	
-0.11165057	-0.08552994	0.30492413	-0.44282988	-0.22212917	-0.4462899	0.01740591	-0.13878629	0.023713637	-0.22879894	-0.25194165	-0.019349322	-0.06857604	-0.11022141	0.17732403	-0.03794572	0.29820532	-0.23973477	-0.25463468	-0.14312361	0.1720819	0.12121534	-0.3266228	-0.33194646	0.0071457215	0.0446312	-0.012928109	-0.06250823	-0.092577904	-0.038245663	-0.031709965	0.015530592	0.21764018	0.27489156	-0.05082577	0.46048054	0.24268928	-0.47060513	0.24808767	-0.18999222	0.023119757	-0.06299075	-0.19485256	0.067165606	-0.08116745	0.16893837	0.26296502	0.04171178	0.041654717	-0.0424855	0.056489717	-0.09779308	0.120590754	0.19541298	0.37072188	0.21120113	0.11224475	0.14082588	-0.021908026	0.00026941975	0.1808499	-0.18627737	0.0040887697	0.15407218	
-0.06045356	-0.055849846	-0.022986464	0.28044227	0.073135994	0.1903447	0.012461994	0.23585534	0.042194173	0.022626841	-0.017483212	-0.14545329	0.22960277	0.18655129	0.031210259	-0.01444719	-0.2176502	-0.17686664	0.019379996	-0.056503564	0.009223071	-0.00095872453	-0.06491715	-0.22653548	-0.009465461	0.067909665	-0.016526863	0.041786697	-0.04983626	0.0013769997	-0.04771642	-0.057938535	-0.044208404	-0.0011816934	0.21704963	-0.17186448	0.16205943	-0.08443714	0.22062452	0.09366624	-0.0034425987	-0.02140731	0.1319252	0.035494532	0.014500141	0.28205785	0.2638357	0.0548196	-0.02124589	0.07946108	-0.07799693	0.059878174	0.05719098	-0.10353028	-0.31072646	-0.05481885	0.03639858	-0.13875557	-0.09078942	-0.07990205	-0.04769074	-0.06485565	0.015656866	-0.2472545	
0.045047246	-0.18241045	-0.01200599	0.020590056	-0.011228146	0.047951635	0.26296374	-0.14285393	-0.55079544	0.00587091	-0.03391888	0.3250869	-0.037692484	0.06804373	0.013370034	0.022608323	-0.18919155	0.4850151	-0.05268663	-0.11773823	-0.40110126	-0.02979496	-0.045016386	-0.016275799	-0.06314325	-0.032325614	-0.20213515	-0.014289639	-0.019953515	-0.15049142	-0.25083455	-0.13358787	0.02029137	-0.009592128	-0.21033645	-0.010883306	-0.45390186	-0.0073536765	0.017323984	-0.1936521	-0.005705113	-0.19055945	0.28657103	0.20180124	0.044239625	0.115100555	0.008650983	0.22169778	0.10625011	0.24732122	0.0021607124	-0.17899366	-0.037599437	-0.04589614	0.058301	0.17883094	0.40225747	0.039950896	0.018315533	-0.45833364	-0.07019619	-0.13314533	0.28530228	0.12919262	
0.20657362	-0.19878028	-0.16097823	0.09721381	-0.06983134	0.035738528	0.21241617	-0.1582957	-0.16992913	-0.025064336	0.21976896	-0.13091317	-0.0546926	-0.21295038	0.024091348	0.25597566	0.030149877	-0.124813445	-0.018312195	0.19180895	-0.208088	-0.34904552	-0.052065976	-0.10625648	-0.031164804	-0.013259683	-0.30220515	-0.19444726	0.13081591	-0.11274099	-0.15968193	0.34309676	-0.15430671	0.028616808	0.07554718	-0.061360516	0.09889761	-0.12118003	0.07164486	0.09178522	0.036917783	-0.025569532	0.108708546	-0.11664253	0.009564158	-0.07533661	0.151921	0.29232097	0.021052286	-0.22449674	0.2068152	0.19167006	-0.53475	0.008356718	-0.4178267	-0.14457387	0.076540805	0.0449585	0.1437069	-0.012853322	-0.1178813	0.1347707	0.09118499	0.18476018	
0.08173295	0.038806025	0.062611	0.14923678	0.013026007	0.026351022	-0.016373426	-0.24752437	-0.09811141	-0.06864295	-0.102475	0.06330933	-0.13257945	-0.055239066	0.27663404	0.013341598	-0.43824473	-0.17284682	0.016419806	0.10095366	0.01272302	0.09660368	-0.019575015	-0.054156967	0.1371445	0.24838227	-0.10347706	0.14511263	0.2122503	0.20807967	0.0055685835	-0.22833343	-0.02119643	0.02660266	0.17266652	-0.15078376	0.22335824	0.1327742	0.0064024916	-0.13189821	-0.19985501	-0.059896775	-0.15000252	-0.17058827	0.0061925803	-0.20193025	0.059644554	0.07007619	-0.010679574	-0.35652405	-0.029089343	-0.14088707	0.23452905	0.158896	-0.0976224	0.08094926	0.060722172	0.22602113	0.05378223	-0.0008223501	-0.06824697	-0.0052548964	-0.021690926	-0.104898624	
-0.056218084	-0.27021292	-0.119540796	-0.10652562	0.101618975	-0.128236	0.080356196	0.14103843	-0.077843465	-0.30674717	0.17749366	-0.020426704	-0.21694112	-0.20019169	0.039156824	-0.11825335	0.13595705	-0.019312907	0.26021332	-0.28717873	0.21830317	-0.1300434	0.080009066	0.13660032	-0.17146097	-0.13663885	0.21755517	-0.23446864	0.17817198	-0.042191505	0.058565807	-0.051326558	-0.107708946	0.011894466	-0.15882063	-0.099731274	-0.19158302	-0.10075187	0.082606696	-0.0007958285	0.16732632	-0.45824307	0.2192747	-0.03758272	0.17740764	-0.08528807	0.004510478	0.2603691	-0.16084506	0.016521957	-0.3266242	0.13682318	0.10349517	0.06138276	0.3128784	0.09546151	0.21819955	-0.07976538	-0.054193847	0.12156096	0.36958656	-0.030487679	0.17519628	-0.22548752	
0.23153056	0.22804421	-0.18555434	-0.04432325	-0.08949706	-0.4071185	0.110138275	0.3345955	-0.29852766	0.075887695	0.07842086	-0.14662617	0.081939735	-0.07503404	-0.18378916	0.4768782	0.53314257	-0.020971179	0.3279015	0.09973168	-0.32619196	0.07395205	0.15859386	-0.1413404	0.020737251	0.22159873	-0.07433067	-0.23592052	0.06257899	0.056778826	0.30872393	-0.15250666	0.59769756	-0.09982285	0.060163435	-0.0842592	-0.039524868	-0.597435	-0.26294863	0.329529	-0.06765151	0.18126445	0.12884891	0.49040413	0.11731694	0.030388838	0.17104259	-0.062860936	0.063392706	0.32423985	-0.319491	0.20244418	0.35671553	0.0059917574	-0.24139081	0.21199794	-0.048846945	0.3328491	-0.086297505	-0.05363462	-0.116309814	0.0015925976	-0.07101967	0.013174525	
-0.013754252	0.22379227	-0.18942958	0.24468155	-0.012024263	0.06903069	-0.19619794	0.38610244	0.2816044	-0.5377092	0.035305455	-0.10236766	0.068350755	-0.027174978	-0.09939561	0.16865848	0.15895483	0.054585285	-0.0739203	-0.048409246	0.26871544	-0.07092062	-0.04735992	-0.15674807	0.08732323	-0.016445277	0.057803977	0.09080234	0.22956422	0.26375946	0.15416557	0.072899275	0.3227862	0.0148152	-0.26026237	-0.013754893	0.07344841	-0.17555569	0.06545306	-0.040594026	0.38039333	-0.43913448	-0.051138964	-0.008192081	0.009922973	-0.20736748	-0.12550491	0.2920753	0.25121596	0.014937315	0.010078121	0.039305374	-0.40471062	0.32221115	-0.16016531	0.050089948	-0.19910483	-0.031101853	-0.05561699	-0.3532199	-0.3246763	-0.029919935	0.0020599174	-0.017663257	
-0.24612811	0.117756486	0.1454702	0.3551323	-0.04251013	0.25388664	-0.12923893	0.19245967	0.033870503	-0.09112019	-0.17045195	-0.10084806	0.23516034	-0.13393265	0.002487176	-0.01913434	-0.1998893	0.13660261	0.098667726	0.010052216	0.191341	-0.06527451	-0.052821953	-0.20719375	0.08552646	-0.24316901	0.18575053	0.05209909	0.061095133	0.13625535	-0.016389031	0.15833068	0.079040445	0.20004596	0.05771016	-0.15495946	0.4576266	-0.2830707	0.056709047	-0.07012635	-0.2014218	0.0038515988	-0.43234962	-0.16108787	-0.39657742	0.096701	0.22761431	-0.06778844	-0.054145057	-0.04394062	-0.048119467	0.041092534	-0.063504376	-0.046940207	-0.24104068	0.21996945	-0.50774324	0.092113115	0.09748896	-0.7891882	-0.25107688	0.12783863	-0.24924451	0.0063810525	
0.012775806	-0.032727152	0.037499897	0.15967631	-0.12226953	0.057947766	0.08474396	0.16429466	-0.1264915	0.09763275	0.035840586	-0.49110147	0.14683163	-0.043223146	0.051658954	-0.2118011	0.10347636	-0.047157772	0.10653714	0.12066708	-0.20070094	-0.1588591	-0.3721556	0.055984072	0.14474778	-8.814156e-05	-0.10388858	0.104412414	-0.051146355	-0.15197419	0.11787946	0.009536205	0.0043468107	-0.36773473	0.04184259	-0.37373587	-0.18297699	0.112667836	-0.059001625	0.16645658	0.30195656	0.15146516	-0.11374489	0.07780199	-0.039183836	0.020787036	-0.06254481	0.17733157	-0.011078727	0.1647174	-0.21107508	-0.017838923	-0.044826593	0.112434156	-0.0739486	-0.15403679	0.104853965	0.08885975	0.1781917	-0.049866125	0.15353963	0.079736054	-0.07297984	-0.11426891	
0.078376964	0.25103673	-0.026523259	-0.04468965	-0.22057174	-0.10006369	-0.11127145	-0.03083411	0.042392083	0.14785078	-0.05627185	0.07359554	0.1044055	0.027991172	0.06052125	0.110209286	-0.16226198	0.3876383	0.106604315	-0.030502575	-0.014962906	-0.14252155	-0.21548034	0.17405035	-0.011849082	0.043193243	0.16545303	-0.057758026	-0.04747673	0.08015866	0.089248605	-0.15552656	-0.09033473	0.21094266	0.100821294	0.15317318	-0.346091	-0.04244508	-0.08245542	0.25240812	-0.23946978	0.018094528	-0.06940649	0.19438425	0.07648216	0.12905955	-0.13237394	-0.007395336	0.3393585	-0.024005508	0.100089945	-0.061344832	-0.21791299	0.026579771	0.15825605	0.2641315	-0.12025328	0.013174835	-0.32307765	0.23079331	0.23724143	-0.065366946	0.16665947	-0.059489388	
0.093353376	0.12835273	0.1495174	0.05441216	0.04322069	-0.08365517	-0.25410658	-0.31490076	-0.028041694	0.034047607	0.08557101	0.40145627	-0.041223373	0.049412105	0.13749285	0.047457606	0.01971162	0.097284555	-0.016156988	-0.07800176	0.06722832	0.16190097	-0.015469723	-0.049791306	-0.116315804	-0.027093751	-0.48443866	-0.054228142	-0.0022677686	-0.08013739	0.19966301	0.51288116	0.04871978	0.18237	0.04621961	0.10592505	-0.16643216	0.1888303	-0.20555224	-0.025382822	-0.36268988	0.2895816	0.15993856	0.25549683	-0.019709373	-0.008910123	-0.044958904	-0.09703482	-0.14071435	0.19062349	-0.088276245	0.394543	-0.050979935	-0.065774694	0.050539166	-0.08320707	-0.014913046	-0.13623607	-0.32063437	0.07280173	-0.15765621	0.105271645	-0.044309825	-0.072166875	
0.016701186	-0.108531035	-0.15975189	-0.09391441	0.18894732	-0.04615586	0.105473	0.10365017	-0.031351767	-0.29810503	0.08058779	0.06461665	-0.30384237	-0.026727198	-0.1172512	-0.09749381	0.111947216	0.029530652	-0.13270114	-0.015864762	0.38914984	0.017105486	0.11187429	-0.11724983	0.04376584	-0.08644575	0.261886	-0.23607773	0.15855461	0.2605547	-0.009658469	0.13563038	-0.2730669	-0.20505615	-0.03237437	-0.14700657	0.21122235	-0.15929693	-0.24364306	0.19878605	0.13469262	-0.50441396	0.12304443	-0.014120427	0.070067346	0.01202891	-0.24291162	-0.10063957	0.16912365	-0.122929424	0.13572904	-0.106954664	-0.1231611	-0.1854945	-0.057022642	-0.01469404	0.070537224	-0.06899967	0.18597434	-0.027838236	-0.24212043	-0.043926515	0.09270937	-0.16273957	
0.2362714	0.033912547	0.23012881	0.012300613	0.021403715	0.4044106	0.18389112	0.076141	0.2690198	0.25282872	-0.21758452	-0.002621665	-0.07003579	-0.12407056	0.078687884	0.22911234	-0.23625492	0.14367329	0.3032792	0.030889753	-0.0734902	-0.15522243	0.1571063	0.084752634	-0.1600211	-0.0019031432	-0.024689872	-0.18823251	0.2662747	0.050105937	-0.08167524	-0.07938042	-0.06138022	-0.19816409	-0.015652223	0.13791627	-0.08281588	0.15570262	0.027324153	0.010121235	0.05781751	-0.17044394	-0.038389727	0.105589315	0.031378016	-0.2248591	0.11169152	0.13877432	0.26138303	0.12986982	-0.1484242	0.17199421	-0.016690865	-0.25899026	-0.13901237	0.055333424	-0.027354913	-0.005612926	0.109703794	-0.10376773	0.09764561	-0.028621795	0.008501747	0.17263487	
-0.28910652	-0.11040684	0.1802752	-0.050709277	0.27159664	0.025037922	-0.1421033	-0.1752072	-0.1569595	0.12165778	-0.06833493	-0.16283089	0.034655333	-0.043767713	-0.37373856	0.08363323	-0.25916448	0.012978016	-0.041842163	-0.12283862	0.02860316	0.03743201	-0.010935985	-0.15898938	0.02220975	0.21562195	0.20946036	0.103767976	-0.14860287	-0.07294209	0.019960854	-0.08675001	0.03629968	-0.36829397	-0.13945977	-0.01771192	0.17687412	0.1717329	-0.066482484	-0.15360525	0.0817328	0.06836947	0.39798257	-0.012775662	0.016849855	0.025567815	-0.008770287	0.06923627	-0.17129843	-0.24916454	-0.11894853	-0.0061823255	-0.09541424	0.14550282	-0.03743712	0.026737131	0.22364107	0.14823475	0.05022834	0.09859181	0.04965419	0.25399214	-0.0898132	-0.28445393	
0.05489505	-0.013513835	0.17458	0.22612242	0.2592804	0.2872958	0.12062521	-0.06958277	0.19473067	-0.09725807	-0.6495258	0.050826225	-0.015522259	0.099006236	-0.18091612	-0.019639904	0.07373523	0.1994679	-0.1692165	0.20295237	0.0788595	0.073555365	0.13581592	0.18714556	0.029675433	-0.1639918	0.05189079	0.37683588	0.07354024	0.26732925	0.026963389	-0.07319672	-0.13966517	0.010676984	0.15928262	0.0001323948	0.08427766	0.047506336	0.18082923	0.11308089	0.044635646	0.0026844442	-0.05802573	0.19865628	0.060367573	0.28219917	-0.09178302	0.0055323355	0.009993862	0.28658256	0.20477329	-0.019428791	0.18009125	-0.0025120587	-0.05395296	-0.002589422	0.05798338	0.12106553	0.0033506437	-0.15275443	0.0032302144	-0.005220695	0.05785369	0.26622498	
0.12100068	-0.04426541	-0.028487792	0.10242827	0.11843884	-0.14653157	0.070730984	0.27601415	-0.32876143	-0.13027403	0.05677168	-0.13069113	-0.24878682	-0.09714815	0.0073140683	0.14944415	0.16919607	-0.050796527	0.046719175	-0.017043723	0.19021758	0.15688068	-0.07969442	-0.25713667	0.02507378	0.20459771	0.16847056	-0.32627994	0.23019075	-0.1347803	0.14542691	0.0031294439	0.20179933	-0.07161416	-0.18202898	-0.005597715	-0.004212473	-0.27809557	0.06028975	0.09964208	0.13283795	-0.50295293	0.02147112	0.059227005	0.032603785	-0.1401693	-0.26689953	0.24252154	0.0760141	-0.06310849	-0.43525538	-0.124360465	-0.31839147	0.07821558	0.3361666	0.12863031	-0.26128206	0.26997104	0.060254037	0.2723415	-0.100822955	0.007134995	0.16646546	-0.22909951	
0.27568245	-0.013284925	0.089675695	-0.27615985	-0.089920565	0.017353782	0.32831764	-0.19571257	-0.20965128	0.42572618	-0.08748284	0.09055851	0.028309334	-0.04205408	0.023611967	-0.35505477	-0.058101792	0.057623778	-0.110053405	0.11982114	-0.06889863	-0.16538425	0.09010318	0.47984758	-0.14395058	-0.33684668	5.7844973e-05	0.049938336	0.041620623	-0.06892897	-0.22991374	0.107658796	0.19165537	0.039686173	0.051988117	-0.011525317	-0.12400188	0.14489332	0.24369387	0.23549727	-0.009546626	0.27982804	-0.020917252	0.14006247	-0.054450274	0.01781539	0.19333813	0.11462301	0.18086307	-0.022927376	-0.024191208	0.05456985	0.015952101	0.17109843	-0.121435344	-0.22373626	-0.007646518	0.061440296	0.194984	0.07268056	-0.16402636	0.07341727	-0.0285658	0.21970579	
0.15038668	-0.12609208	0.053505957	0.051603194	0.33610994	0.14756435	0.26253414	0.015735826	0.14315127	0.110014945	-0.09013315	0.039822258	-0.12463916	-0.21244484	-0.073884726	-0.25650743	0.010879715	-0.19334188	-0.03515601	-0.44894907	0.18412787	0.14940195	-0.19115062	0.037912957	-0.098770455	0.065942846	0.050339498	0.17323	0.05454887	-0.041615296	0.0009246444	0.1185013	0.1806933	0.4122153	-0.25541368	-0.04854051	0.24326397	-0.16814573	-0.11740123	-0.0380932	0.032567777	-0.0021703253	-0.2990125	0.044928458	-0.2289405	0.14652112	-0.12295058	-0.040485263	0.24753818	-0.21983232	-0.039631203	0.17037179	-0.024694879	0.15531223	-0.025397	0.112173915	-0.025849154	0.013313365	0.20432812	-0.14683537	-0.16573493	0.08149639	-0.12508817	0.0012324336	
0.17546596	0.58762187	-0.043622084	0.16349904	0.15659659	0.009671757	0.083320215	-0.25467446	0.2643234	0.13482623	-0.12155604	0.16591425	0.15190408	0.24053389	0.24623573	-0.08828221	-0.08735232	-0.2343306	0.0027146325	-0.065961905	-0.2109279	-0.011486651	-0.07717178	-0.1465118	0.44785056	-0.18471305	-0.25317198	-0.12410778	0.126826	-0.21726382	-0.18882543	0.09043911	0.42885253	0.18112023	-0.2730706	0.1546045	0.21296246	-0.17634846	0.24962817	-0.089499645	-0.05017603	0.23930465	-0.5476197	-0.14028388	0.12572746	-0.3857578	0.32740983	-0.23918761	-0.028343162	0.36321	0.20207593	0.22312434	-0.06669171	-0.1468658	0.04720962	-0.06262684	0.3637203	0.26102906	0.120142065	-0.3267621	0.4528375	-0.07455659	-0.015141462	0.046554692	
0.0033506958	0.23772267	0.20097046	0.21367662	-0.06617769	-0.062154617	0.25661507	0.06250671	0.2332473	0.14780554	0.086149156	-0.32855013	-0.10635599	0.0897824	0.0714906	0.022510968	-0.15041213	0.24139819	-0.01917623	0.10548159	0.29756922	-0.042536136	-0.20189166	-0.042009838	-0.24627455	-0.031308204	0.02715934	-0.23066314	-0.13057052	-0.19699475	-0.0048173396	-0.12755577	0.15127306	0.10665924	0.25337794	0.17235045	0.023076301	0.056049082	-0.13810919	0.116711654	0.16162568	0.053183146	0.11900939	-0.08954859	-0.10713801	0.18764403	-0.038679074	-0.082867056	0.005246092	0.20066398	0.24116385	-0.15981808	0.06403936	-0.11040111	0.18723805	0.40161726	0.008371266	0.033882782	-0.26301357	-0.14770949	0.15551938	0.40226588	-0.21165095	-0.20112365	
-0.3294267	-0.251059	-0.020810472	-0.5266069	0.18455163	-0.20236968	-0.16573417	0.24714038	-0.075482994	0.05056549	-0.07037993	0.14691652	0.044558935	-0.008715972	-0.27352732	0.23546904	0.015799219	-0.25566557	0.26655763	-0.1820575	-0.19060798	0.01367721	0.2931098	0.026528092	0.1884963	0.11523279	-0.02932475	-0.09685262	0.22196014	-0.035502076	-0.2236198	0.038315974	0.016966505	0.13569297	0.32236445	0.091399916	0.096460216	0.06746244	-0.21333937	-0.094505854	0.027719818	0.017491272	0.034141645	-0.022721006	-0.32372186	-0.31168038	0.03705279	-0.22776677	-0.106312126	-0.010644862	0.21971525	0.102679804	0.023736756	0.20051138	-0.29109448	0.24477656	-0.19784515	0.011351971	-0.25375542	-0.22276832	0.047486212	-0.15626368	-0.07996455	0.31853944	
-0.006783314	0.0419449	-0.1862888	0.32808533	0.26459342	0.16803539	0.13298212	-0.21917939	-0.13713144	-0.002164639	0.004255035	0.20157912	-0.26327938	-0.5889984	0.1614473	0.28027388	0.39822373	0.18771623	0.19977184	0.009625545	-0.051124766	-0.13141839	0.024768764	-0.15165326	0.07651943	0.0958539	0.0401811	-0.20905517	0.014199092	-0.16453317	0.08516264	-0.18732728	-0.13952379	0.06336032	-0.22348118	0.011673073	-0.23050983	-0.30754474	-0.2965204	0.0837288	0.11554392	0.1883196	0.22732262	-0.21664189	-0.21922372	-0.31260043	-0.026068473	0.14933914	0.119173415	-0.032146815	-0.115508966	0.008409622	0.41726667	-0.08099276	0.26614526	0.016282102	-0.087216	0.1536752	0.11897114	-0.07469582	0.2612311	-0.12869547	0.06442184	-0.13734926	
-0.116175964	-0.003560772	0.09433043	0.09211646	0.083655976	-0.17651337	-0.14243686	-0.1971662	0.18104824	-0.13621107	0.15298817	0.13394304	-0.073570654	0.1871075	-0.000881498	0.25355235	0.036931477	-0.21249557	-0.12797388	0.13064383	-0.076968014	0.11988405	-0.21881278	0.039486792	-0.3144011	-0.09749988	-0.025126988	-0.12410366	-0.08493384	-0.044957727	0.13781673	0.111333266	-0.20912413	-0.016675837	0.050569914	0.1157477	0.082081	0.050258134	0.14693396	0.33661988	-0.044498242	0.38229597	-0.17934847	-0.120664954	-0.16771697	-0.25507587	-0.3516506	-0.02806529	-0.03718334	-0.19511741	0.15039547	0.014746327	0.12378504	-0.23713821	-0.09636295	0.21924964	0.13026994	0.19458489	-0.04538275	0.11998697	0.0065496694	-0.1369745	0.35468715	0.21574636	
-0.019548703	-0.055448856	-0.15343189	0.13780122	0.15189643	-0.36891	-0.21330854	0.14231159	-0.07608232	0.07591375	-0.20946588	0.04805904	-0.0031432419	0.076620236	0.09305868	-0.059182297	0.31790727	-0.20436306	-0.20421645	-0.16872528	0.008490319	0.06754592	0.23870465	-0.024276981	0.06142111	0.0723938	-0.25062293	0.21347466	0.10806261	0.11023156	-0.4409101	-0.049467877	0.053921834	0.051536165	-0.20259455	0.038047794	0.1771045	0.040888097	0.23763736	-0.045298304	0.16644327	0.30337068	-0.26959756	0.026281126	0.18472348	0.28253022	0.04255975	-0.1697658	0.009731708	0.18629089	0.07238276	0.07825738	0.15269734	-0.10398471	-0.10619681	0.12344522	0.12566975	0.20174134	-0.08148143	0.069336295	0.048739437	0.03154712	-0.002988792	-0.037448633	
-0.25616974	0.02084111	-0.25953045	0.07569504	-0.27095246	0.10397219	-0.054859903	0.2429278	0.30104315	-0.22322965	0.24670158	0.1545504	0.079594165	0.09816879	0.29916808	0.023137083	-0.016668944	0.2146655	0.027135681	0.2733292	0.22954339	-0.098002814	-0.12507235	-0.05264901	0.018396819	0.41516328	-0.07977897	0.20873468	0.16542423	-0.03654942	-0.13944338	-0.07101627	0.009639223	-0.09785328	0.2262916	0.13647673	0.068749085	0.058575485	0.001782405	-0.10805675	-0.09950902	-0.18801445	0.050653838	-0.043187562	0.117572494	-0.22264935	-0.070229806	-0.10939362	0.13037075	-0.19504523	-0.2591852	0.028721377	0.05443103	-0.12366238	-0.089950174	0.022306927	0.019803166	-0.042227715	0.027510663	0.07183941	-0.05147717	-0.107159704	0.17215936	0.010962272	
0.0009309968	-0.18974796	0.08274869	-0.22227445	0.09182885	-0.07512494	0.26331452	-0.18105745	-0.14561273	0.19213815	-0.27035517	0.077679075	0.02923561	0.23557428	0.085411035	0.2020653	0.22649011	-0.15142125	0.006765187	0.36675	-0.040024478	0.16262217	0.06877292	0.10348413	0.18295367	0.106247656	-0.016452888	0.2502054	-0.006112641	-0.03510264	-0.21232478	0.12970816	0.31264037	0.04710031	-0.017100766	-0.049291816	-0.036124352	0.19188836	-0.0148174595	0.122714736	-0.11033251	0.07519283	0.14659853	-0.5152744	-0.21138763	0.1341147	-0.020990647	0.017389823	0.003846118	0.35697058	-0.064485475	0.06331904	-0.15243459	0.1844286	0.009797169	0.032195896	0.26302728	-0.24770626	-0.19348948	-1.0676284	0.07112741	-0.1353683	-0.08444124	0.3946597	
0.2939696	-0.0991177	-0.4465659	0.17753026	0.20335965	-0.1187057	-0.11497719	-0.26965362	0.13724601	0.24604292	0.11214245	0.086193234	0.32775244	0.052049775	0.003953123	0.2696398	-0.090238884	-0.048726548	0.030560259	0.119963914	-0.063582785	-0.6839065	0.21169813	-0.044631895	0.11102199	0.10406129	-0.1474465	-0.10038113	-0.017484	-0.07583608	-0.23767464	-0.114389315	-0.037881106	0.011582078	-0.019899093	0.13070917	0.0667731	0.06487879	-0.01652574	-0.24440455	0.019758726	-0.08671021	0.045204923	-0.06232078	0.09671467	-0.21990706	0.089761406	-0.13154685	0.109496124	0.12331098	-0.34976193	0.09910992	-0.010155978	-0.6378553	0.05080721	-0.0040322687	0.09102829	-0.2832103	-0.031646613	0.12517439	0.008165101	-0.049475573	-0.1568671	-0.15578547	
-0.38978136	-0.19969189	-0.34498376	0.016069414	0.17565106	-0.20333882	-0.043206893	0.07438978	-0.07879112	-0.06254582	0.052107096	-0.011350147	0.14202799	0.13680205	0.017879507	0.19504748	0.14618167	-0.028511427	0.068056	-0.2533335	-0.057331827	-0.080459975	-0.2509468	0.1307516	-0.03761009	-0.12951355	-0.17683424	0.1913349	0.24883956	-0.13332339	0.19471008	0.06863015	-0.04218945	0.02866181	-0.07970397	0.00567793	0.16985682	0.1367173	-0.035630763	-0.07268303	-0.086185776	-0.16068248	-0.07133079	0.15263452	0.2422281	0.0077355565	0.28196886	0.27476832	-0.027836142	-0.018990925	-0.18787599	-0.07358665	0.20636834	-0.03205622	-0.21943483	-0.15780275	-0.26573405	-0.15368335	0.3112089	0.08802099	0.1652578	0.24891795	0.068088226	0.10415077	
-0.13510522	-0.11314085	-0.72815216	0.21062139	0.24810025	-0.0018507899	-0.22538006	-0.21364395	-0.021405503	-0.31566137	0.058600165	0.08744005	-0.21355647	0.12256152	-0.0771252	0.24285288	-0.1965196	0.22838087	0.0011949261	0.031352393	0.17147817	-0.21675621	-0.15776357	-0.08995326	0.041996002	0.14429486	-0.22146428	0.09958522	0.051666606	0.36823627	0.066033326	0.05644831	-0.20894149	0.084917374	0.060912438	-0.1779247	-0.22622754	0.2537506	-0.40082023	0.23361205	-0.16055082	-0.58721393	0.0423768	-0.25937814	0.15754607	-0.052637238	-0.11090104	0.05581194	0.09317448	0.028717533	0.14917059	0.084534466	0.04747033	0.0023471704	0.2221495	-0.003720691	-0.04973965	-0.4089872	0.039903697	0.011738032	0.055746123	-0.18047154	0.065000705	-0.19274831	
0.065758824	-0.3128524	0.09217919	-0.22346315	0.15525293	0.0028540804	-0.20954303	0.1278686	-0.24562599	0.16011213	-0.10130962	-0.06313416	-0.31376407	0.13011378	0.2544985	0.108468615	-0.22191676	0.07862818	-0.2275443	0.07624941	0.036428384	0.25440124	0.1318869	-0.09101524	-0.04755987	-0.13913277	-0.12989551	-0.07948816	-0.20361206	0.019385353	0.082742706	0.0054358845	-0.028985318	-0.048896264	0.18215668	-0.19108716	-0.15764795	0.1463093	0.036209058	0.17976747	0.20942122	0.0027749196	-0.0849704	-0.016277758	-0.027040876	0.1892727	0.24237429	-0.26308838	0.0456636	-0.07822039	-0.321465	-0.055275947	0.07947632	0.35090518	-0.34918928	-0.19399884	-0.1447067	0.15079476	0.104669906	0.007315237	-0.19933926	0.11075628	0.09687908	-0.18416989	
0.18764041	0.06745153	-0.11541045	0.2848372	0.40748444	0.09275199	-0.04102424	0.10318545	0.09845242	-0.04049792	-0.1478168	0.06535071	-0.09647486	0.23938078	0.10398093	-0.07074114	0.098088264	0.23839094	0.016783988	0.19305605	0.24316747	0.07487103	-0.40492973	-0.04148811	-0.004061982	0.1555507	0.09255833	-0.16946848	0.43266296	0.07814491	-0.3325791	0.07321287	0.010286716	0.20514372	-0.17920516	0.08648043	-0.010977977	0.08816855	-0.22110003	-0.030024478	0.051718235	-0.45221245	-0.10148515	-0.018104222	0.058514103	-0.20648363	-0.17226359	0.24373211	0.078903705	-0.16549619	0.04950484	0.017971782	-0.20617403	-0.051812083	0.015359741	-0.022887269	0.049211975	0.087237455	0.33084762	-0.12479851	-0.28145736	-0.06345172	-0.0107795745	-0.22720858	
-0.16283077	-0.22455502	0.011804431	0.08440672	-0.017132098	0.01010475	0.102074146	0.118296206	0.10194901	-0.24716035	0.16831121	-0.07407469	-0.28232002	-0.21917525	-0.027051756	0.07288346	0.18800676	-0.14558594	-0.016411876	0.005735274	0.30516595	0.12944767	-0.028870316	0.34107512	-0.1474995	-0.117979325	0.048208952	-0.09043537	-0.119766556	0.40009418	0.12577179	0.3799192	0.07288059	0.18158267	0.024915626	0.19538921	0.16478442	0.048749454	0.30232742	0.12602417	0.054009102	-0.035402473	-0.090783626	0.12239062	-0.22101735	-0.15356697	-0.10708766	-0.13221414	0.15740548	0.07766201	0.008250676	0.18452796	0.3301699	-0.16315377	0.23519762	0.12365222	0.06492432	-0.05570279	0.09548428	-0.29183516	0.03527848	-0.18384527	-0.019229315	0.17551604	
0.21369617	-0.2360548	0.36683595	-0.09253196	0.18490312	0.06719966	0.16187398	0.08129018	0.20286217	0.14307827	0.16355188	0.42070246	-0.028230662	0.05494003	0.06036917	-0.23425302	-0.19850355	0.035815943	-0.21131809	0.16370796	0.064811416	-0.08385013	0.017113991	-0.04505327	-0.18778922	0.0075027095	-0.35291168	-0.09341178	-0.04096206	0.26358953	-0.113346465	-0.32138187	0.12661484	-0.12463801	-0.001889052	-0.0045926925	0.09321848	0.013680765	0.024795305	0.14276117	-0.101939194	0.11493153	0.06395071	-0.09131628	-0.09666625	0.100005545	0.07520348	-0.31333885	0.13332464	-0.1289761	-0.21051498	0.15279602	0.05251816	-0.31334758	-0.17717905	-0.05563145	-0.016207164	0.255131	0.09694615	-0.12257564	-0.022101616	-0.3334925	0.11195233	0.0057828426	
-0.043119557	-0.034546312	-0.2359808	-0.24892727	0.3260903	0.1014777	0.14685456	0.08651309	0.015533782	0.06734829	-0.13314521	0.04926238	0.041713867	0.27755573	-0.019364504	-0.03859727	0.14211535	-0.0024624497	-0.12936358	-0.11342527	-0.37017027	-0.027821572	0.22604407	0.016132127	0.2262213	-0.030397538	0.17903478	-0.2518019	0.052103758	-0.047009427	-0.036453262	-0.20039524	-0.0486359	-0.2139567	0.10241736	0.24241617	0.1778679	0.057844244	0.32487237	0.022704195	0.47139922	-0.06526565	0.33562118	0.0036271913	0.07511169	-0.14387582	-0.021222986	-0.3288008	-0.0581419	0.1001924	-0.30082718	-0.057840016	0.1716768	-0.45084068	-0.00710832	0.10926934	0.18632236	0.0996229	-0.11260124	0.025851144	-0.06420357	-0.1220874	0.005292295	0.09684064	
0.051420767	0.12216509	0.13499588	0.13405305	-0.11658143	0.043631986	0.04024311	0.12237825	0.116211325	-0.16190909	0.025094831	0.12781532	0.096092656	-0.17378472	0.10955498	0.18249378	-0.19706193	-0.22784224	0.0013670532	0.085186906	-0.13927864	0.014834574	0.04212696	0.2851459	-0.32744166	-0.018081527	0.14936322	0.15291962	-0.11586295	0.14964586	0.076531716	0.011857709	0.14796054	-0.033415277	-0.20089102	0.038636394	-0.043319263	0.030906327	0.16497707	0.05298863	0.10900974	0.2206806	0.10009329	-0.07053066	0.053583138	-0.12136031	-0.19279961	0.1613896	0.21949387	-0.08956826	0.13220608	-0.07815946	0.085902765	-0.012831186	0.09836219	0.23234335	0.24227725	-0.03460652	0.13495773	0.11059178	0.15656413	0.28936154	0.42617166	0.046301596	
-0.19695988	0.035112396	-0.0035219842	-0.43961143	-0.20798509	-0.1059624	-0.0358488	-0.032640077	-0.46414977	0.01349194	0.25578788	0.032638084	0.06014537	0.20105962	0.10706884	0.19879764	0.023987163	-0.59085166	-0.014178326	-0.3253336	0.059009288	0.2121061	0.19152954	-0.046961017	0.07588122	-0.12969194	0.092913315	0.22774081	-0.27981254	-0.031846337	-0.2912441	0.34068987	0.24645652	0.39390376	0.037065696	0.38181973	0.17570598	-0.06704826	0.10823669	-0.26280114	-0.06853493	0.3600114	-0.17520031	0.07442116	-0.08188472	0.44217387	0.010895558	0.19713412	-0.07689593	0.033206675	0.09612472	0.014282184	-0.060706664	0.04594978	0.13250355	-0.21956591	-0.06782993	-0.33997673	-0.051661655	-0.50915873	-0.1026834	-0.03693366	-0.26103008	0.19020015	
0.33304718	0.19046387	-0.21329655	0.17592356	-0.3495213	-0.0029983104	0.3017422	-0.11766527	0.009319058	-0.10194168	-0.44546053	0.10660998	0.07072154	0.031592198	0.24129732	0.092965	-0.09775233	0.118532084	-0.1416478	0.07056175	0.19185689	-0.05613656	-0.15167435	-0.16755232	-0.12749425	-0.26301384	-0.2004756	-0.15121274	0.14218864	0.17222938	0.08648285	-0.21718276	-0.021662813	-0.02249512	0.012946871	0.07811946	0.144357	0.022378564	-0.093503065	0.19890386	0.12116899	-0.11525623	-0.22960614	0.027334059	0.23227271	-0.04271574	-0.1479909	-0.028291408	0.104242586	-0.010926823	0.24937524	-0.07604439	0.035737365	0.0033821098	0.33177656	-0.062375084	-0.38782692	-0.10175682	-0.13396282	0.06812934	0.0061472966	-0.1741358	0.053671923	0.14366853	
0.007335783	0.37260053	-0.15229902	0.17539984	-0.23561361	0.17100722	0.07496193	0.06674292	0.11118708	-0.6385994	-0.09664063	-0.12813088	0.1104621	-0.092474796	0.042160638	0.050631106	0.06998424	-0.079446144	0.08905376	-0.020110488	0.2909703	-0.052825946	-0.2721842	0.0524991	0.4158269	0.16635947	-0.114238925	-0.05186723	0.021417761	0.00051595643	0.011983196	0.1757899	0.21718557	0.09106984	-0.23450676	0.023027206	0.43948102	-0.17849073	0.23946694	0.22668858	-0.13460883	-0.19111304	-0.46855515	-0.14198242	-0.21502322	0.018265873	-0.18575454	0.19977322	-0.015275435	0.2849011	0.08984606	0.09208779	0.33724806	-0.10884708	0.20099667	0.20588179	0.0139043685	0.042893175	0.18290366	-0.9319658	-0.07804826	-0.03396288	0.2794158	-0.4927694	
-0.13183522	-0.01999971	-0.1310131	-0.04950123	-0.13265735	0.24747515	-0.10622152	-0.042642143	-0.122097135	-0.0046436586	0.023497328	0.40153012	0.22336042	-0.06944761	-0.044390246	0.14767173	0.12988074	-0.24958432	0.055300113	-0.023767665	-0.3229723	0.022544987	0.06455372	0.012895003	0.09742772	0.09661581	-0.106711075	0.20898554	0.15371752	0.12669587	0.1622746	0.25470224	-0.0491556	-0.11902783	-0.22122703	-0.097298875	0.1829101	-0.06824341	-0.043491174	-0.087363385	0.01680358	0.0773963	-0.14030837	0.1810091	0.10816777	0.12524763	0.107017964	0.06133187	-0.08236223	-0.04480279	-0.12489877	-0.07842008	-0.083457805	-0.2500788	0.23391786	-0.36675066	-0.12706056	0.075166084	0.255356	-0.001201761	0.023282211	-0.45373583	0.2746917	0.055636346	
-0.15018967	-0.0022216467	0.054914966	-0.08975558	-0.032525126	-0.06667546	-0.23789832	0.23628658	0.017862367	-0.1408175	-0.16459765	-0.10774543	0.114960276	-0.10585152	-0.062106825	0.14954968	-0.18022916	-0.094082616	0.01439123	0.156029	-0.029675845	-0.015605715	-0.27958992	0.077463634	-0.055271816	-0.13319987	0.033133086	0.122057065	-0.30110344	-0.14412913	-0.043221317	0.30529132	-0.07970243	-0.27673757	0.31599537	-0.10703852	-0.01083505	-0.31345695	0.1575636	0.16953638	-0.26568037	-0.12955251	0.24903455	-0.09549146	-0.19640851	0.30977717	0.02532662	-0.09758282	0.045603108	-0.09679253	0.06589844	0.017427642	-0.11160558	-0.072333395	0.02831569	0.23658583	0.33450526	0.15096042	-0.050262526	-0.21861792	-0.08322531	0.050166793	0.24716678	0.42957938	
-0.1496423	0.027630592	-0.18932422	-0.13439295	0.29655564	-0.0492107	-0.27177766	-0.19592032	-0.31545645	0.17321065	0.46275187	-0.05423215	-0.11485372	-0.0312679	0.25089315	-0.031268615	-0.47855297	-0.18230794	-0.027434468	-0.34569588	0.088359565	0.052101325	-0.29822087	-0.109315395	0.1459406	-0.054329462	0.07038366	0.045232866	0.15405361	-0.011373551	-0.020886466	0.09591186	-0.009034976	-0.4214746	0.19409885	-0.085343964	-0.32109603	0.07772807	0.03498467	-0.073511004	0.2267498	-0.609406	0.02548131	-0.0033798313	0.25460342	0.06264167	-0.046756856	-0.16567367	0.05873772	0.15813884	0.022090355	-0.011045753	-0.053146407	-0.009283649	0.05721169	-0.096993774	0.04892116	0.013440808	-0.059381332	0.035107445	-0.094901174	0.049557235	0.15794908	-0.086617336	
-0.10331922	0.13506769	0.07167092	0.3375481	-0.29593942	0.10152294	0.036074482	0.24973005	0.007616504	-0.16228864	-0.1011259	-0.049191825	0.18154737	-0.05311885	-0.101359196	0.20225261	-0.26939896	-0.012958534	0.26412895	-0.14950307	-0.1611968	0.14313631	-0.048392512	-0.2535296	0.2997389	0.20507003	-0.090264484	0.107947424	0.08601154	0.09820583	-0.10845184	0.013814035	-0.2559394	0.13309093	0.05966797	0.07969999	0.1322321	-0.21265016	-0.30547887	0.0345988	0.001027611	0.041201234	0.12589459	0.20058705	-0.32274324	-0.032570183	0.12696816	-0.057198517	-0.052193966	0.08582739	0.16676952	-0.19560882	-0.13787022	-0.5335615	-0.097001806	-0.077633105	-0.14770214	-0.5096673	-0.055353925	0.091569334	-0.026810236	-0.25248578	-0.212507	-0.19397709	
0.16535805	0.060699277	-0.50000817	-0.11037508	0.19947162	0.102164276	-0.17181015	-0.1761404	0.24180868	-0.043474052	0.15860492	-0.17436628	-0.041368343	0.02898073	-0.031874783	0.13067812	-0.043186378	0.14123246	-0.14425312	0.0795412	0.03757788	-0.015052695	-0.40951008	-0.04520618	0.14979914	-0.03001628	0.46602702	-0.13008128	0.20591612	0.14789563	0.3820037	-0.011707962	-0.19793524	-0.14083476	0.020835666	-0.052168813	-0.09312508	0.14847952	0.07709759	-0.14266407	0.049393564	-0.48503894	0.3013408	-0.061670262	-0.014996108	0.007869659	-0.010151932	0.13629329	0.2641956	0.032863703	-0.27486196	-0.20601517	0.044874992	-0.15442336	0.20964725	0.026106386	0.12532891	-0.2572358	0.04200046	0.06818664	-0.07870653	0.13572802	0.120266266	-0.03792403	
0.06960818	0.27691495	0.26231474	0.1334524	-0.069330096	0.030150373	-0.29720986	0.2121429	0.019196335	0.082739905	0.014809538	-0.021341125	0.10844866	0.14126782	-0.32736638	-0.020441696	0.123098165	-0.04085505	-0.32518828	-0.00924282	-0.06584235	0.15495159	-0.14475414	-0.25038248	0.23598734	-0.18078598	0.17792618	0.13266738	-0.11799696	0.1368919	-0.13634063	-0.098298356	0.23024197	-0.122201495	-0.072715804	0.21688302	-0.08045907	-0.19821765	0.20580512	0.24124712	0.08137896	0.3219787	-0.18386355	0.049003817	-0.22289473	-0.14189069	-0.05464581	-0.017579252	0.18436234	-0.11102601	-0.16720864	-0.37967488	0.30819944	-0.03247743	-0.1375825	0.21092443	-0.1463626	0.11313054	0.029615385	-0.10966463	-0.12358696	-0.31464863	0.11301452	0.011672085	
-0.06460739	0.12657699	0.16767788	0.24458322	0.07381928	0.17375296	0.0999634	-0.043891456	-0.06667447	-0.18795513	-0.05048878	-0.2854727	-0.03856958	-0.3612179	0.029513156	0.2823456	-0.16059731	0.06884858	-0.13011332	0.2512869	0.047294512	-0.09105995	0.169517	0.14759056	-0.063335635	0.35407096	-0.06240559	-0.0016235875	-0.0016153975	-0.10892701	0.08905933	0.14038913	0.22547771	-0.026306165	0.05564157	0.03605325	0.2409282	0.044134118	0.0062721833	0.18500781	-0.092297055	0.33585307	-0.43455365	0.09327324	-0.14297754	-0.29152253	-0.08924472	0.11904043	0.12076703	0.09443158	0.27781194	0.05547928	0.078108884	0.18503785	0.11474283	-0.16258633	0.04178235	0.09411079	0.18171254	0.04418989	-0.04040016	0.16034785	-0.1254483	0.079802334	
0.067727216	0.23084895	-0.05120604	-0.04123695	-0.15164217	-0.18072303	0.22363801	0.19677266	-0.02043207	-0.17922226	-0.14987113	-0.13455874	0.07332976	0.08864257	-0.1107304	-0.15265547	0.17140536	0.19300765	-0.18277062	0.1476025	0.18659769	-0.21504904	-0.04481288	0.040621005	-0.21271068	-0.3550132	0.06871415	0.17568873	-0.14374408	0.09855136	-0.071718425	0.040516026	0.07016105	-0.20965673	-0.17215796	-0.02824232	-0.1400081	-0.021481397	-0.23306984	-0.04837065	-0.033866502	0.21890095	-0.110402405	0.005578581	-0.2655856	-0.03720976	-0.24664938	0.02647532	-0.058756143	-0.018164558	0.0722015	0.17994136	-0.036038067	-0.042485286	0.11804855	-0.021705946	-0.32176864	0.020225648	-0.036715478	-0.17049854	0.0076960456	0.1621728	0.29787064	-0.12880976	
0.06042303	-0.22238584	-0.07670215	-0.21195237	0.09058223	0.09751271	-0.08473061	0.32230347	0.038291927	0.2569147	0.15612258	0.12074275	0.35238624	-0.19331725	0.00017618282	0.08750438	-0.19442943	-0.0029366445	-0.13988853	3.5100908e-05	-0.057305194	-0.3618508	0.015336641	-0.010341931	0.015796766	-0.10190778	0.20463496	-0.0013851484	0.21511498	0.24885021	0.07597059	0.088082604	0.14450982	-0.19599728	0.09074698	0.030922193	-0.18716681	0.07644034	-0.047430698	-0.13199915	0.23343891	-0.07808245	-0.13542071	-0.005137315	-0.08183644	0.13892001	-0.014588434	0.08616182	0.42789158	0.11662079	-0.19399317	0.20393218	0.012738042	-0.3504262	0.11724352	0.015093357	0.1043788	0.09794662	-0.028046852	-0.360965	-0.14604169	-0.018695677	-0.03237013	0.17522603	
-0.117561184	-0.16183837	0.14865771	0.0045917644	-0.2911363	-0.09303459	-0.18164119	0.06469713	-0.3870499	-0.104461655	-0.07686382	-0.19494508	0.22269471	0.17452332	0.17497733	0.05740477	-0.19864123	-0.23883842	0.06293409	0.067355886	-0.15150288	0.23484443	0.026883334	0.19668955	0.1746738	0.025068084	0.09038795	-0.25452852	0.1490678	-0.10603676	0.14194784	0.10792853	-0.014891797	0.17523733	0.0017576547	-0.036841683	-0.32457167	-0.12486992	0.06238911	0.08274348	-0.09362154	-0.1399118	-0.23582622	0.009230885	-0.03815209	-0.08605531	-0.041267775	-0.050937556	-0.34358898	0.11647259	-0.047458496	-0.19267873	0.0030013665	0.08043652	-0.07665637	0.16293393	-0.09723418	0.07790154	0.05902294	0.20958729	0.015800375	0.07401954	0.05118387	0.3117921	
-0.07194032	0.021963665	-0.17952463	-0.19340052	0.25096625	-0.28661478	0.3514635	-0.09074264	-0.26372787	0.07056962	-0.31892407	0.0030621728	-0.19044703	-0.10274385	-0.09520008	-0.10511405	-0.25262934	-0.059269883	0.18077911	-0.13471712	0.003433838	-0.24858777	0.063048385	-0.18935357	0.03342447	0.13351984	-0.053971086	0.13432746	-0.022545831	0.0271256	0.14696182	-0.13693692	0.13272734	-0.22270179	-0.03744767	0.13480115	-0.2299485	0.08087373	0.06746386	0.22492924	-0.056560308	0.18404706	0.023026811	0.4863872	-0.0028831183	0.28941223	0.3417096	0.020387778	0.125467	0.13388547	0.29204965	0.052059162	0.11510716	-0.0143923415	-0.2627556	-0.0626891	0.30555114	0.16893558	0.00045112788	0.29126227	0.27451074	0.14760424	0.14228283	-0.2609508	
0.07381318	0.0873431	-0.065014705	0.15029716	-0.09507101	0.14498082	0.024334062	0.11294691	0.17345719	0.2515295	-0.03963776	-0.20746163	-0.25609687	-0.084542364	-0.091841795	0.053040113	-0.22686629	-0.008604943	0.009026556	-0.079041764	-0.06113038	0.104660675	0.07941527	0.016047258	0.08074052	-0.21719992	0.088065505	-0.2144309	-0.17793761	-0.08860336	0.11457643	-0.044573445	-0.07591136	0.20572354	-0.18506502	0.23325069	0.0752543	-0.024197843	-0.01761963	-0.13282833	-0.21467803	-0.16204421	0.25931004	-0.0067016105	0.09331016	0.15370846	-0.09277152	-0.013796298	-0.07182198	0.034120496	0.043000005	-0.047216117	0.035808414	0.11387728	0.078675605	-0.08506457	-0.08729383	-0.09562345	0.22048067	-0.0235172	-0.06871433	-0.012424646	0.21322897	-0.19687477	
0.06974969	0.3394086	-0.22030254	-0.581823	0.30865628	-0.16182598	-0.28458127	-0.22397982	0.016982688	0.0970547	0.20747368	-0.09055952	0.19548029	0.0026296997	-0.14342298	0.31308657	0.16981515	0.014169629	0.2158112	0.28877634	0.10370518	-0.21859452	0.3781691	-0.07222058	-0.067830674	-0.1217568	-0.09713429	0.048309345	-0.36551377	0.065934815	-0.06332922	-0.19653568	0.0021906297	0.13880166	-0.06343131	-0.061578307	-0.21923515	0.2187757	0.06187134	-0.20406732	0.11273345	0.08904629	-0.088959284	-0.15338908	0.036063142	0.2984135	0.18293957	0.17337538	-0.14004126	-0.07680751	0.13588092	0.28901526	0.014575812	-0.45859912	-0.29953545	0.06761405	-0.073761374	0.24040595	-0.12115778	-0.020257128	0.019541226	0.010937907	0.05392474	0.06979256	
-0.16112071	-0.24062906	-0.0150365895	0.059832364	0.13466609	-0.0020048348	-0.09866177	0.13583133	-0.24359865	0.18257838	-0.058815952	-0.024950692	-0.03456126	0.09326957	0.22522518	-0.009462911	0.23642264	0.03180622	-0.09885984	-0.07530187	0.07154555	-0.18557858	-0.015760958	0.11880496	-0.09714034	0.2656752	-0.10718589	0.1975103	-0.0041566715	-0.19767909	-0.11288662	0.15558033	-0.14063339	0.18262956	-0.14532882	0.14361826	-0.11655982	-0.035348114	0.06142253	0.028200677	-0.10939031	0.07683039	-0.02214384	0.12337999	-0.23499936	0.1653315	-0.06596428	-0.0067661614	-0.12772703	-0.11948289	-0.12524441	0.32125238	-0.013086762	0.17865199	0.04847229	0.11873837	-0.04334843	-0.18490876	-0.12855558	0.28651863	-0.01331733	0.19431014	0.10488428	0.037400823	
-0.22960915	0.06996723	-0.21749026	-0.2143008	0.18834087	-0.2820992	0.0788534	-0.1802044	-0.13146596	0.11760206	-0.12111141	0.10525185	-0.1094411	-0.10418185	-0.08958115	-0.04733248	0.0023526328	-0.15984602	0.13086314	-0.77852523	-0.18473518	0.057097755	0.32551757	-0.458102	0.15804751	-0.1980194	-0.050887957	-0.10676111	-0.07416073	-0.002544439	0.3419797	-0.3646242	0.19771388	-0.034604736	0.22606502	-0.11761049	-0.11496949	0.04234439	-0.35720035	-0.2560529	-0.094660476	0.34019354	0.048558842	0.1672744	0.103040576	0.09390189	0.1306991	0.1255225	0.12933062	-0.042246662	0.21794285	0.16600125	0.0032454673	-0.041845266	0.10768167	0.0923416	0.12356167	-0.21533221	0.009176329	-0.14124614	0.19574293	0.03403373	-0.04436518	0.07967937	
0.011555414	0.14137869	0.053087506	-0.02141221	-0.33783758	0.07642857	-0.14513774	-0.008677364	0.075445235	0.006389399	0.109911874	0.15126488	0.12426423	-0.064359404	0.040092487	0.0016114983	-0.014962619	0.20258868	0.046323985	0.0057184775	0.026729194	0.00504806	0.117153935	-0.15882592	-0.028997932	-0.11540727	-0.14817949	0.18395407	-0.37021515	0.1767878	-0.0029049353	0.010890628	0.0923196	0.25339803	-0.10424036	0.18047659	0.08761331	0.16644952	0.18071926	-0.18332882	-0.024956167	0.11918819	0.022687767	-0.011556635	-0.02965634	0.0011979566	0.16125923	-0.02168067	-0.1150735	0.15968663	-0.033284795	0.15422694	-0.18198308	0.111481234	-0.43690568	0.031172935	-0.13973536	-0.07738718	0.25386906	-0.059475	-0.05471528	-0.051624738	-0.14218192	-0.018862225	
-0.08732626	-0.18975778	0.26721662	-0.12952726	0.073916525	0.092882976	0.07029808	0.12470764	-0.1192238	0.006110777	-0.11428775	0.07669884	0.21886869	0.29286018	0.07533042	-0.22027475	-0.32382992	0.09169182	0.15916525	0.02308796	0.1804345	0.23670058	-0.041109316	0.33959845	-0.22087446	-0.02013716	0.23439194	0.1829842	-0.046652354	0.02722687	-0.23345214	-0.25049362	0.011960533	0.0042128526	0.12084739	0.1347772	-0.04593538	0.26519534	0.16173828	0.03461469	0.18406628	-0.026751503	-0.033895507	0.07239044	-0.020496305	0.095955625	-0.039456587	-0.28386226	0.025812361	0.16739042	-0.12938145	-0.04906629	0.2320239	0.027660115	0.2460086	0.11459108	-0.22678304	0.12749149	0.052100707	0.027314145	0.02420059	-0.18921378	-0.111059345	0.09587027	
0.08314489	0.08105127	0.03516997	-0.24848282	0.029041953	-0.015275796	0.060505968	-0.13085464	0.09426843	0.09062567	0.1383944	-0.044579133	0.08107104	-0.25273964	0.09478594	0.20122932	0.12915073	-0.10946745	0.24687546	-0.24347742	0.030301776	-0.022063486	-0.12815067	-0.008057671	0.12624177	0.1738782	-0.3995774	0.05201236	0.33259204	-0.07670701	0.014628874	-0.063389756	-0.03390638	0.1722708	-0.06629933	0.09984641	0.10450727	-0.10793413	-0.26874933	-0.095350966	0.28525686	0.15898654	0.024379764	-0.011348956	0.20554541	-0.43902403	-0.17867775	0.01068127	-0.0044905776	0.012960271	0.05210637	0.4947141	0.0053665345	0.20447943	0.05049274	0.12046976	-0.04038079	0.029493487	-0.073776014	-0.035404235	0.2533507	0.010117587	0.11992768	-0.028636068	
-0.062034477	-0.11106151	-0.034049273	0.26236963	0.0076316264	-0.08785258	-0.13368507	0.18999147	0.12242288	-0.5063718	0.09435614	-0.039652333	0.006029902	0.11831924	0.120039426	0.1243598	-0.033056363	-0.048088446	-0.26030272	0.13609882	0.060952656	-0.02162647	0.08121782	0.15944202	0.22712019	0.22655159	0.06644626	-0.0630533	0.096533455	0.25405985	0.20022535	-0.20340475	-0.079606615	-0.028161945	0.06327754	0.068861924	0.02322203	-0.022143783	-0.08864368	0.012098767	0.2497227	-0.6253011	0.16287349	-0.06952835	0.31694046	0.15510733	-0.17067018	-0.3206327	0.07834538	-0.11892622	-0.020153925	0.1307409	0.10825321	0.18343098	0.14231388	-0.14998268	0.40857264	-0.031031938	-0.04170207	0.20267017	0.38037658	0.014043981	0.29683816	-0.100004196	
0.21767898	-0.014757669	0.09826899	-0.09184408	-0.14110903	-0.41752285	-0.026112955	0.19638912	0.18968049	0.006799226	-0.061158467	-0.36860377	0.10977814	0.27902564	-0.20472345	-0.29824048	0.16040696	-0.13756083	0.14201477	0.08087686	-0.26855114	-0.03180327	0.11349028	-0.061063237	-0.080246925	0.25600767	0.022098511	-0.05171083	0.13717493	0.0062971925	-0.25469187	0.1971479	0.19969206	0.251124	0.16251992	0.019677585	0.15304321	-0.09549122	-0.06802615	0.1117651	0.28372702	0.1533302	0.07498533	-0.07502808	0.17426944	0.18456222	-0.069008484	-0.33856696	0.118537076	0.09097966	0.07004673	0.3963776	-0.44165567	0.0519307	-0.39983538	-0.28754613	-0.20218189	-0.03235135	0.08678689	0.43855736	-0.062807165	0.07672494	0.06599549	0.071427196	
0.14587566	0.036078382	0.1585533	0.17258346	0.046507306	0.38522065	-0.17070358	0.081417374	0.21655045	0.20667815	-0.030314656	-0.19914389	0.18363751	0.33284932	0.17974499	0.19106068	-0.053331554	-0.0740891	0.1819769	-0.056879956	-0.15062942	-0.29553604	0.2982009	0.12838514	0.063549325	-0.07242156	-0.045216635	-0.3857486	-0.07238704	0.21489255	0.1333439	-0.007752431	0.16333356	-0.08667859	-0.007129376	0.3001585	0.14055517	-0.046883177	-0.030392025	-0.08994341	0.03788649	0.114742965	-0.23351747	-0.03479056	0.22976609	-0.15068962	0.47846636	-0.31147075	0.15615673	0.25381318	-0.2673602	0.23034786	0.22796422	0.079082854	-0.2242713	-0.09135751	-0.14143896	-0.04861569	-0.04105261	-0.27164355	-0.05913916	0.14882801	-0.09374624	-0.14771174	
-0.16940345	-0.12530336	-0.11386042	-0.018753102	-0.11149292	0.06768574	-0.13605545	0.0055039977	-0.172339	0.28065264	-0.0993386	-0.20831694	0.40295663	0.20503017	-0.10362922	0.062106833	-0.2663485	-0.06034766	-0.012584658	-0.18736447	0.11282413	-0.2540695	0.26137343	0.088299036	0.15639725	-0.19342192	-0.22394928	-0.08614332	0.14124872	-0.07663675	-0.02757189	0.17671318	0.0017454368	-0.13993399	-0.25092256	0.09165083	-0.018823208	-0.041982606	0.05950461	-0.20141125	0.18731064	0.10390359	0.13938981	-0.07507667	-0.016508397	-0.02018428	-0.017617466	0.059764873	-0.032009766	-0.1257052	-0.08589531	-0.20406383	-0.2132538	0.13058208	0.019297777	-0.05513929	0.03618778	-0.14985996	-0.25185505	0.0043900856	-0.13692768	0.0050048614	-0.006813533	-0.03585467	
0.23117845	0.15023263	0.24821131	-0.11060243	-0.09482354	0.031947024	-0.03115487	-0.13045394	0.13637726	-0.01710301	0.07037021	-0.027827272	-0.0070185857	-0.22592635	-0.13674195	-0.35841754	0.15434973	-0.00548407	0.040727403	0.2314972	-0.03630448	0.07600873	0.011162474	-0.032322638	0.22233887	0.20847908	-0.005078484	0.14631906	-0.06965255	-0.026658507	-0.11488035	-0.14862642	0.018099552	-0.13020748	-0.14269428	-0.09940887	-0.28608173	-0.003960084	0.028809758	0.21970253	-0.049594928	0.06805266	-0.13158014	-0.06076	-0.05982382	0.13198653	-0.08146939	-0.10086359	0.19133554	-0.09869505	-0.090659015	0.05543495	-0.2311753	0.1419097	0.2754994	0.29461196	0.23199604	0.13358992	-0.26264152	0.0956554	-0.0045538424	0.039339364	-0.21781695	-0.021797093	
-0.11654511	-0.03784411	0.13382736	0.17057271	-0.11754458	0.30506036	-0.14384082	0.12546785	0.14657241	0.09257333	-0.112303145	-0.20895232	0.08180042	-0.2659541	-0.16703373	-0.01187851	0.06523106	0.11423724	0.04966307	-0.06741847	-0.07954694	-0.03502745	-0.1049387	-0.005090095	0.23709692	-0.08898104	0.1781229	-0.013541308	-0.077612974	0.2531199	-0.087294385	-0.034715053	0.09073428	0.0033442774	0.25128865	-0.0009097722	-0.08985105	0.100546554	0.04058361	0.081848614	-0.14186157	-0.25488123	-0.09980793	-0.20173877	0.082083106	0.04649168	-0.0067413724	0.15480384	-0.04612253	-0.21272504	0.2799492	0.14321771	-0.025010495	-0.3697071	0.06193934	0.16091456	-0.17092077	-0.17631514	0.085776955	0.0043986095	0.2900454	-0.6055168	-0.21365368	-0.07348325	
0.26590866	0.12763576	0.15781517	-0.07077015	0.015972627	0.2719591	-0.24726388	-0.28305382	-0.09897985	-0.030611565	0.13582969	-0.07218644	-0.22146305	-0.2412843	-0.15587166	-0.015894607	0.13862257	-0.043921	0.044797674	-0.06080541	0.0005865895	0.2809269	-0.17933309	0.03874469	0.18605642	0.06577649	0.28999496	-0.18113409	-0.097180784	-0.20478526	0.007827103	-0.016742863	-0.134609	-0.026145013	0.083909765	-0.11127296	0.063397266	-0.04660215	0.0047649443	0.039092854	0.28906742	-0.4322288	0.12026373	-0.058798812	-0.08575144	-0.21791576	-0.06353503	-0.12849359	0.08590684	-0.013000416	-0.44500902	0.033585384	-0.08960753	-0.01696238	-0.1201228	-0.08021276	-0.10512783	-0.2135836	-0.06687511	0.11505251	0.24523683	0.033713765	0.19556442	-0.03939791	
0.15458784	-0.1375074	0.043978922	-0.06455363	0.10389053	-0.17373462	-0.09482676	0.18276858	0.2611621	0.15433967	0.102357976	0.13535851	-0.24227192	0.14213714	0.30443013	-0.11957479	-0.014591954	0.2952788	0.032444645	0.07851925	-0.031664718	0.40740424	0.035181455	-0.09552893	-0.106632665	0.07615517	-0.15886638	0.101082526	0.28182688	0.20762984	0.13164775	0.092956945	-0.0495761	-0.29675397	-0.1188434	0.09125389	-0.13654599	0.40174827	0.1913181	-0.10094471	0.014379366	0.059080202	0.004892574	-0.034381416	0.053496167	0.06879345	0.19498713	0.25731462	0.097582385	0.10904833	0.18798518	-0.26535094	-0.00011280927	-0.14547974	-0.1279937	-0.07838703	0.036224816	-0.14847259	-0.1711703	-0.06939806	-0.011850629	0.0012089334	0.01385784	0.052147713	
-0.14735384	0.017656129	0.19775094	0.06266053	0.061447497	0.16508207	0.09168598	-0.18867709	-0.072498456	0.089395426	-0.047906727	-0.3262744	0.022215044	0.089066	-0.10016601	-0.15560476	0.037192106	-0.22292738	0.23078597	-0.2828731	0.33538345	0.24867491	-0.08863259	0.011980677	0.18311553	-0.2731516	-0.23229489	0.17005177	0.12808785	-0.16998982	-0.013004617	0.122013286	0.07066242	0.20847955	-0.120669045	0.036410324	0.1065003	0.10646377	0.08822042	-0.23835427	-0.20096341	0.10874761	-0.10347956	0.07043502	-0.060138863	-0.07324111	0.057789024	0.1708469	0.11410615	0.030406538	0.08604777	0.14776592	-0.025408326	0.14554174	-0.04559642	-0.0009874254	-0.07795606	0.17368837	-0.12977174	-0.007417625	-0.2523176	0.39408234	0.1382891	0.16921958	
-0.26976532	-0.2530384	0.14354958	-0.19254026	-0.0060261753	-0.016326513	0.101914026	0.14895022	-0.10635478	-0.13096097	0.0015616813	-0.14754099	0.062717274	0.17879876	-0.12613982	-0.0008718292	0.21940143	0.20147955	0.031694267	-0.04078303	-0.026953224	0.14853302	0.057850428	-0.25755468	0.10313709	0.06366547	0.15057833	0.012215734	0.1216809	0.07147948	-0.14864777	0.106459685	0.20539528	-0.19207025	0.03278957	-0.2184987	0.14417535	0.05437265	-0.047127835	-0.23119946	-0.19810247	0.084813476	0.33045644	-0.01913247	0.10982507	0.033038944	0.36233038	0.03038088	-0.15196805	-0.19007182	-0.14223489	-0.065611936	0.28101605	-0.008685734	-0.256715	-0.3083535	0.11466463	0.004069843	0.37373817	-0.29177746	0.31396988	-0.025747804	0.19231115	-0.044596467	
-0.11116407	0.22529237	0.109923005	-0.07048331	0.012979075	-0.1144615	0.2279145	0.09011309	-0.0848511	-0.3466956	-0.1712846	0.02702401	0.16124298	-0.008987742	0.07395319	0.003519379	0.17213614	0.053778056	-0.10321504	0.11974785	-0.22857897	-0.10617729	0.15393098	-0.022301465	0.30930677	0.15693928	-0.3370398	-0.21545817	0.03735403	0.20026739	0.17425701	-0.28378233	0.11962892	0.09169694	0.24914053	0.22098038	0.032041673	-0.14946143	-0.24167532	0.38221028	0.004415865	-0.10210825	-0.07941198	-0.33701587	-0.04334846	-0.08183542	-0.13450383	-0.5313045	0.03508083	0.14542767	-0.3167579	-0.024734868	0.12849808	0.10231361	0.047801137	0.032579508	-0.3842949	0.016980449	0.05608886	-0.55688083	-0.14112255	0.15901184	0.22723396	0.19133396	
-0.07921001	-0.1156344	-0.03820879	-0.21653911	-0.08283031	0.012697146	-0.008664065	0.32046044	-0.13029246	-0.105521776	-0.23410454	0.02937855	-0.22863796	-0.21193384	-0.09894471	-0.09817064	0.09829456	-0.10874831	0.05182798	-0.06562253	-0.022653565	-0.31362846	-0.12144886	-0.1053791	-0.08026975	0.12947088	-0.4350488	-0.07483133	0.16413659	0.010979544	0.18385373	0.02383375	0.010010147	0.20978616	-0.024832448	-0.15196677	-0.2022271	0.049534816	0.030562244	0.14268123	-0.21586362	0.011518606	0.099386774	0.28491813	-0.08249744	-0.07653057	0.1330244	0.042894904	0.09147695	-0.07682008	-0.071611434	0.085267186	0.15959762	-0.35698962	0.18325594	-0.22017798	-0.06916971	0.2250209	0.057137024	0.27460882	-0.01491092	-0.22721423	0.03879253	0.03712182	
0.035193734	0.012942743	0.071466364	0.15964563	0.1393031	0.06556531	-0.060102437	-0.6363955	-0.16617435	0.12140867	0.021412818	0.0016033527	0.03286393	-0.045356818	-0.14710371	0.006731796	0.11366972	0.08579168	-0.087884605	-0.013547261	-0.18447995	-0.108793624	0.1311379	-0.17128606	0.039142318	-0.14628983	-0.11125954	-0.27971917	0.04562306	0.13805132	0.04184673	0.17648214	-0.049816508	-0.030220212	0.285613	0.017683966	0.27064866	0.029808775	0.03171578	0.060343064	0.3426552	-0.030482804	-0.01813097	0.035182036	0.05988395	0.12697013	-0.009763863	0.069984525	0.077624135	-0.22321773	0.13315563	-0.021917695	-0.1307469	0.15382883	-0.31585142	0.06470008	0.09311989	-0.19601628	-0.3312463	0.12067546	0.4203743	0.21252702	0.1680467	0.07660862	
0.052466705	0.10894606	-0.25445607	-0.06187077	0.07293025	-0.24991861	0.051768165	-0.082662985	-0.093184516	0.05502128	0.008264559	0.15551326	0.020338338	0.23381318	-0.10967149	-0.046899837	-0.036693208	-0.16632865	0.24353884	-0.06822819	0.18807283	0.068883106	-0.004475771	-0.46515432	-0.27977973	0.14245807	-0.25928134	-0.12099987	-0.0991247	-0.10897063	0.0069059557	-0.14101093	-0.027305683	-0.24649093	-0.18419343	0.3136052	0.4548227	-0.051558074	0.1161586	-0.38145617	-0.18848777	-0.033029955	-0.025451114	-0.036106788	-0.022997502	-0.63410765	-0.04665975	0.14078936	-0.04385955	-0.24666716	-0.20861645	0.25218442	-0.031945053	-0.16777444	-0.06656973	-0.11926642	0.033234082	-0.17709	-0.013587048	0.18927784	0.4105764	0.16494843	-0.33238697	-0.035656404	
-0.24303308	0.090006776	0.23782887	-0.30299893	-0.16337919	0.1984368	0.039465692	-0.08642775	-0.24104847	-0.01295568	-0.12645514	0.15323886	-0.112873964	-0.14245917	-0.13431811	0.04208464	0.15395662	-0.013876329	-0.05448253	-0.19674873	-0.4513804	-0.06497994	-0.0077779824	-0.0944909	-0.2923443	0.36859265	-0.1272445	0.16526079	0.069968395	0.5243558	-0.07422982	-0.11173099	0.07494818	0.08067857	0.24145913	-0.049318396	0.031536393	0.06420707	-0.2522096	-0.14783233	-0.1160987	-0.32134932	0.10703359	-0.22040673	-0.03466342	0.04033226	0.0740009	-0.28026584	0.2800468	-0.30602664	0.12474695	-0.23711279	0.016777571	-0.112720504	-0.13818939	0.20269129	-0.20228288	-0.05429955	-0.14790748	-0.32834926	0.028438143	-0.22390293	-0.1400315	-0.16287845	
-0.114813186	0.0032931634	-0.10578396	-0.15425077	-0.21591197	-0.01036132	0.14047217	-0.13877125	-0.33806774	-0.28505543	-0.17146116	0.328465	0.09861804	-0.06871818	0.17458677	0.0766354	0.12679052	-0.061108153	-0.09030129	-0.122831106	-0.0014942993	0.14736795	0.040985275	-0.11132037	0.121138304	0.3154508	0.13363118	0.05619449	-0.06857826	0.14899778	-0.15637687	-0.034694076	0.12414452	-0.09831012	-0.17740081	0.17633183	-0.100888155	0.01379	0.14725006	-0.06257946	-0.19776997	-0.004843619	0.18630224	-0.106290005	0.0883817	-0.20376231	0.10719949	0.24680373	0.12618542	0.18416996	-0.06584039	-0.19381607	-0.14851625	0.10594231	0.06484417	0.15990688	0.05410112	0.008137094	-0.22675492	0.05236537	0.1039922	-0.08246582	-0.12362245	-0.076911576	
-0.07246765	-0.07858458	-0.13052705	-0.11643867	0.11383273	-0.025078787	-0.19783033	-0.028298473	0.13090046	-0.3936784	0.043914318	-0.13795082	0.011487477	0.18542957	-0.12529077	-0.053917423	0.14590661	0.1947338	0.43248928	0.028152963	0.23077069	-0.08558912	-0.13198078	0.18415157	-0.17207491	-0.08286609	0.11203686	-0.13898571	-0.040481344	-0.38190413	0.15842205	0.29488555	0.01571601	0.16017854	-0.08195157	-0.008693722	0.14388062	-0.25585556	-0.08577101	-0.18341154	0.08294848	0.07230121	-0.056619626	0.0038817415	0.12074877	-0.40376624	-0.33009848	-0.07086285	0.30215102	-0.14917156	-0.14974828	0.20537147	-0.054544475	0.058902044	0.21278681	-0.11283029	-0.19958079	0.001395484	0.017411873	0.22287458	-0.5614968	0.090810835	-0.16250435	-0.0692847	
-0.16305853	0.14233455	0.03038833	0.005564778	-0.087632544	-0.041008733	0.07901027	-0.15203047	0.58156174	0.019406438	0.11234687	0.17895238	0.011151408	0.011130799	-0.21559653	0.23566449	0.061722506	-0.13177271	-0.20894974	0.23564845	-0.08574476	0.0017174379	-0.046727553	-0.1906661	-0.18064088	0.23678748	0.1889729	0.01249117	-0.2450366	0.10645248	-0.0017935708	0.07617672	-0.089143775	-0.056033716	0.11266411	0.22818698	0.26168463	-0.19706699	0.03471181	-0.25801778	0.22367334	-0.38085273	0.16529314	0.12269327	0.20369956	-0.08020882	0.22973993	0.11933231	-0.08065908	0.19751468	0.1418399	-0.05450081	0.15696158	-0.26496112	-0.16288331	-0.22403449	-0.010010722	0.08421006	0.20299219	-0.11508367	0.24002466	0.101021476	0.22528033	-0.144836	
-0.15855405	-0.12847252	-0.26695582	-0.14045112	-0.0040583266	-0.051061902	-0.12498279	0.19866824	0.07393312	0.14836025	-0.03040231	0.044779956	0.09250688	0.1036578	0.090917096	-0.21900319	0.12771553	0.10890599	-0.21901987	-0.07591603	-0.12871663	-0.058013674	0.06293044	-0.03424068	0.13292502	0.20060717	-0.17441158	0.10274407	-0.10298776	0.16204385	-0.017919634	0.08931999	-0.21080473	-0.2175572	-0.049357828	-0.11656561	0.22967112	0.039079506	0.26176488	0.03898185	-0.39551526	-0.039410606	0.11475209	-0.14044563	0.20567329	0.07190104	0.032214705	-0.07656416	0.027691474	-0.008200591	-0.18666624	0.018937109	-0.053355716	0.09534072	0.11824631	0.0201664	0.14727892	-0.15410972	0.022267625	0.02973668	-0.014057089	-0.06377112	-0.12478118	-0.018168537	
0.094518855	0.041218076	-0.3175973	0.02336014	-0.28930682	-0.14751244	0.16835788	0.05159358	-0.0688199	0.04909528	0.13067594	0.31551674	0.24402091	-0.17624168	0.11455206	0.29378346	-0.22858809	-0.103479095	0.2164641	0.08825693	-0.012615968	-0.24103674	-0.060809538	0.1218729	-0.20472112	-0.2430507	0.007883571	-0.08877773	-0.13570818	0.123143025	-0.024250897	0.30052137	-0.059431486	-0.09910952	-0.042432036	0.15488699	0.36151755	0.009307788	-0.13058528	-0.049746525	-0.39216623	0.12885848	0.16870049	-0.14804766	-0.26250866	0.2814903	-0.22414337	0.010357431	0.16868204	0.054120738	-0.11474559	0.029376833	-0.11617727	-0.23658307	-0.033067353	-0.12905352	-0.33694798	0.12992974	-0.02719183	-0.21008925	-0.22477561	-0.07024341	-0.14548205	0.19030349	
-0.052964464	0.10442881	0.024448922	-0.12683485	0.036068913	0.015407207	-0.18495664	-0.05015638	0.1065836	-0.1324475	0.07485604	-0.035883307	-0.21697676	0.32298326	-0.14991288	0.005345688	0.06771975	0.32812893	0.05914526	-0.20158324	-0.10760108	0.16168636	0.0020504522	0.38027328	0.1918551	-0.004980723	-0.051991783	-0.1265774	0.050025977	0.0041926797	-0.16030982	0.14918311	0.016409831	0.06499087	-0.24199362	-0.047282767	-0.046214197	0.17674632	0.16244362	0.0822675	0.07791429	0.2312061	0.03285029	0.2789794	0.18840489	0.1415093	-0.15813446	-0.30590636	-0.013291962	-0.1596439	-0.09682805	-0.17755085	-0.14266585	0.11833653	-0.103977524	-0.04172169	-0.033054672	-0.18698125	0.13533923	0.01575886	0.06414992	-0.21586968	-0.2064301	-0.15034258	
0.073696196	0.23239173	0.085007824	-0.27076513	-0.28922808	0.3017525	0.31563616	-0.060625374	0.05884035	0.00047826633	-0.0040935306	0.08799973	0.38137618	-0.44834617	-0.41323557	-0.03432691	-0.12232618	-0.06042584	-1.0489084	-0.08291505	0.11137681	0.15062207	0.2432457	0.011906853	0.07832024	-0.21899875	0.0040168134	0.12975544	-0.073590994	-0.27507475	0.12765442	-0.14239489	0.11567314	-0.25561103	-0.0030748772	-0.39086452	0.18729699	0.067778185	-0.029722229	0.16761182	-0.23125614	-0.016690265	-0.16083555	0.12142969	0.2341989	-0.2708418	-0.13810724	-0.0110768005	0.13066344	-0.0176376	-0.08823441	0.31158382	0.028320936	-0.15445481	-0.30020922	0.04327875	-0.0067583057	0.3038553	-0.047105674	-0.09444213	0.007395352	0.24837124	0.2536333	0.2867609	
-0.05191639	0.09807829	0.09874538	-0.32911697	0.075736046	0.15077658	0.065257	0.086421855	0.16967319	-0.3880954	-0.109836	-0.024005251	-0.098934434	0.28860438	0.1172444	0.22149727	-0.023490416	0.087977335	0.16817263	0.37157223	-0.16361152	0.0900498	-0.18614894	-0.13655366	-0.049194194	0.038939077	-0.5190799	0.3073072	0.0014956675	-0.17725483	0.06742896	0.06374585	-0.013147889	0.005379346	-0.014928856	-0.25353274	-0.029994646	0.060021665	0.15021747	0.35504147	-0.05525252	-0.003035063	0.016211683	-0.023056682	-0.11050211	0.09307366	0.09768897	-0.26339164	-0.011826843	0.113732606	-0.065177426	0.09060228	-0.009609112	-0.29881427	-0.18693306	0.06095675	0.0045069885	-0.1830784	0.03330083	-0.18301544	-0.09136019	-0.049779553	-0.024890682	0.033851624	
-0.29289547	0.20421569	0.05954723	-0.115554534	-0.21522959	-0.045385607	0.14411779	0.36933142	0.07335851	-0.25290036	0.09165364	0.08181741	0.20684195	0.040248625	0.08211186	-0.1817823	-0.05028537	-0.059008464	-0.009535693	0.05134003	0.16238648	-0.20976523	0.02780478	0.21770605	-0.75981694	0.023709035	0.2622743	0.022504892	-0.18052953	-0.04382912	0.019356355	0.17080744	0.039778627	0.098497145	0.19109696	-0.034483634	0.0067478903	0.2045327	-0.09828435	-0.19862275	-0.35967523	0.2378612	0.04409187	-0.12508304	-0.14517207	0.10035577	0.09799027	0.027377455	0.1631673	-0.013752101	-0.17814036	0.12379201	-0.15415278	0.40284464	-0.04028382	-0.20713545	0.0683125	0.014723667	0.08589625	0.11215569	0.19103794	0.05108397	0.14442478	0.090984695	
0.058422133	-0.12028318	-0.13025986	0.16687013	0.11408936	-0.012445372	-0.008968578	-0.013113671	-0.037244912	-0.11643606	-0.05480211	0.21913894	0.19009884	-0.024014171	0.048357464	-0.06061169	0.034344286	0.3457501	0.09925764	-0.06555943	0.025045699	-0.30736983	0.05035558	0.120255455	0.24216694	0.13420032	-0.19430202	-0.025920792	-0.006599691	0.16860579	-0.16888429	0.2728264	0.11239303	0.08567987	0.13891448	-0.0678948	0.007510071	-0.040760167	0.23191799	-0.14114153	0.03812756	-0.08086639	0.1798731	0.11295107	0.18656234	0.1904975	-0.3218718	-0.48963	-0.085324824	-0.38676813	-0.041172974	-0.55245686	0.022705445	-0.1330144	0.03700483	0.103841	-0.2681365	0.29965997	-0.25657418	-0.34853756	0.38461244	-0.1431216	0.24918334	-0.039724033	
0.1395259	0.27182037	0.25081393	-0.050914448	0.27535647	0.13655595	-0.12050513	0.19576588	-0.22018556	0.013083251	-0.08333258	0.12420164	-0.2133283	-0.086191736	-0.05485426	0.17454407	0.22305569	-0.21910278	-0.1589099	-0.04238202	-0.43870902	0.11334513	0.12657823	0.20901605	0.09141988	0.1787593	-0.071690746	-0.07306386	-0.121106096	-0.1426012	-0.23088692	0.18817116	0.24611919	-0.07004449	-0.11866739	-0.053165715	0.13713288	0.04152833	-0.00207606	0.09203574	0.05977081	-0.071320124	-0.08026329	0.20532691	0.24834402	0.013336543	0.150971	-0.12474837	-0.01516382	0.013515023	-0.018456904	-0.0715183	-0.09594036	0.03701781	0.27191627	-0.22485015	0.06211305	0.09707921	0.14483632	-0.22416139	-0.11363946	-0.47807544	-0.24936831	-0.15348652	
-0.06780142	-0.093320295	0.18594876	0.13016848	0.29003054	-0.11651299	-0.44579828	-0.045161635	0.09952523	-0.3114127	-0.23734078	-0.0063976776	-0.2797309	0.16469848	-0.25605425	0.062519856	-0.039592404	0.123623475	0.34992754	-0.069971316	-0.091903985	-0.14643924	0.17478904	0.056718737	0.06927471	-0.051215272	0.22088757	-0.17991364	-0.052287687	-0.16048886	-0.27777785	0.046175417	-0.014815591	-0.06114276	-0.19264086	0.10481408	0.088702776	0.24025317	-0.026681924	0.22214979	0.1512795	0.015220648	-0.05335036	0.01229549	-0.26209754	-0.5544946	-0.107290566	-0.32480955	-0.0014896117	-0.010806862	-0.08980529	-0.21464966	-0.27640584	-0.22229382	-0.11679952	-0.0006373972	0.24829403	-0.055476263	-0.0263358	-0.04980075	-0.3747266	0.07417767	0.0048702587	-0.17680235	
0.2523872	0.08100726	-0.6167373	-0.04426186	-0.049131487	-0.06726181	-0.4822666	-0.06473696	-0.086021855	-0.19518292	0.1391802	0.19088691	-0.012878871	-0.03905707	-0.18644796	0.0046579335	0.04892339	-0.037012883	0.03792205	0.18386884	-0.13207331	-0.20176475	0.058363985	-0.1489749	-0.03915851	-0.12298804	0.02607864	0.005578748	0.08988065	0.03542097	-0.028064085	0.06529506	0.093438834	-0.04670567	0.15949433	-0.13973534	-0.13941257	-0.3060499	-0.04551235	0.27697074	0.015842183	0.14128761	0.02250793	-0.13862944	-0.15561666	-0.07117749	0.010717135	0.055368252	0.07726385	-0.028898155	-0.28292006	-0.23235929	0.259209	-3.3008924e-05	0.18844967	-0.18781252	-0.24234411	0.03136134	0.19696154	-0.011763791	-0.43384245	-0.10716295	0.0049486943	0.24491334	
0.026118029	-0.009783177	-0.1060855	0.12551376	-0.11019457	0.09465854	0.10192216	0.09518361	0.30696714	-0.12032765	0.11139667	-0.15941465	-0.14275137	0.13082322	0.1686848	0.066957094	-0.13505231	-0.07110074	0.04639408	-0.025937308	0.3162878	0.0012920868	-0.29185596	-0.30434075	0.2124511	-0.00125754	0.07929475	-0.23246509	-0.04830036	-0.21199836	-0.3980957	0.032280445	0.107113175	0.34962204	0.035552487	-0.080980614	-0.069844455	0.08663107	-0.30183768	-0.07347411	-0.29465276	-0.020226514	0.118283436	0.051303163	-0.011111737	0.080056466	0.10528493	-0.28991622	0.16832446	-0.030315524	0.15208028	-0.075546	0.1274457	0.32070518	0.06963068	-0.016719675	0.34515294	-0.03203156	-0.03710154	0.25740373	0.08137058	-0.007193074	0.02302018	0.00812463	
-0.14788477	0.08725259	0.25682986	0.17062272	-0.058745794	-0.06868249	-0.1339367	-0.116947	0.21985094	0.07112488	0.21105056	0.15875572	-0.19875254	-0.20578994	-0.17956825	-0.061805576	-0.12993272	0.0972601	-0.010169204	-0.1523858	-0.35852852	0.03149328	-0.011844402	0.0775735	-0.21693446	-0.40203804	-0.16657507	0.05193643	0.23109648	0.10914312	-0.021249587	-0.9863932	0.030176802	0.19281541	0.09517261	-0.19232501	-0.3185968	0.28428906	-0.26491585	0.26325825	0.00579358	-0.4595255	-0.04147079	0.1923994	-0.18735856	-0.6115426	0.19488107	-0.33061063	0.08304718	-0.07692983	0.22726794	0.17687942	0.08905189	0.13091551	-0.08077486	0.14769243	0.07277494	-0.00636334	-0.26055273	0.13118687	-0.32121554	0.0049643167	-0.053168338	-0.024398	
-0.1748304	-0.4212214	0.15403326	0.21787505	-0.2334326	-0.03034374	0.010019608	0.11099698	-0.031882513	-0.097991616	-0.12529546	-0.02760504	0.19250757	-0.10721577	0.32329407	-0.0654435	-0.03476098	0.21738893	0.24106301	-0.0424083	0.020723969	0.11148618	-0.12136452	0.09310086	-0.08479694	0.038057998	0.0007026165	0.028003814	0.18647122	-0.017617298	-0.18745637	0.19561514	-0.08551257	0.332435	0.2502628	-0.54318184	0.023403494	0.27976462	0.27063787	0.19431853	0.19151473	0.1659698	0.013368502	0.020112423	0.019270614	0.18264474	0.30655	0.10231515	-0.025156362	0.22262277	-0.008344651	-0.08652871	-0.075157575	0.0065310365	-0.06862992	0.017781697	-0.27951434	0.062921986	0.13687758	-0.20630755	-0.18668748	0.20666613	-0.23247	-0.21943308	
-0.16946314	0.022404067	-0.18569623	0.1474097	0.04818923	-0.17498276	-0.014273984	0.17156148	0.01876832	0.035066705	-0.050767913	0.001675921	-0.45578787	-0.23772526	-0.044749457	0.028922664	0.12389714	0.06801219	0.0047950433	-0.17745602	-0.22887263	-0.20562987	0.16764197	-0.22330853	-0.15421662	0.043524154	-0.26150015	-0.29332283	0.005849191	0.070788726	-0.21627161	-0.08756084	0.18450673	-0.07569869	0.1480087	-0.18608105	-0.34112763	-0.031454913	-0.019579224	-0.22536816	0.18810277	-0.1466229	0.18137604	0.15261346	0.021339623	-0.013570069	-0.17894872	-0.577656	0.11330245	-0.08227145	-0.22531424	-0.31117877	-0.2787868	0.039949454	0.11739393	-0.061333645	-0.45946786	-0.06056494	-0.28641024	-0.081505865	-0.44215608	-0.25634786	0.22654344	0.173251	
0.09883328	0.024393335	-0.259336	0.27309254	-0.27553573	0.27365723	0.16272856	0.11437864	-0.29888025	0.19560973	0.065796934	0.129478	-0.042961076	0.040914245	-0.1471263	0.015287507	-0.020659685	0.39852154	-0.09532646	-0.2616569	0.076733015	-0.0036185896	0.001299417	0.18189903	-0.35220337	-0.19776371	0.07014522	-0.109520555	0.21861121	-0.08227813	0.053890254	-0.3178978	0.21165647	-0.07325119	0.21482402	0.3185491	-0.067369536	-0.03270886	0.20635685	-0.20219639	-0.482093	-0.5014269	0.067590244	-0.72436416	0.16569903	-0.076878175	0.18744358	0.6919865	-0.12125202	-0.038884126	-0.30671108	0.32418257	0.24988672	0.30202046	-0.2519102	0.14380404	-0.06786701	-0.1303207	0.13350204	0.26316917	-0.12476132	-0.29921842	0.028330127	0.14754477	
0.03560748	-0.82174635	-0.04606175	0.016105834	0.06328799	-0.21165566	-0.1484359	0.20595658	-0.09398461	-0.05587176	0.35725847	0.23217846	0.1891513	0.26383314	-0.042414118	-0.051750574	-0.0222677	0.28130683	0.051287998	-0.065338664	0.15524144	0.23497707	-0.069817126	-0.22420244	-0.28601176	0.05414953	0.27162316	-0.019315151	0.14961949	-0.13331191	0.009397994	0.0048976443	0.15561093	0.11091187	-0.007483143	-0.2710837	-0.102339186	0.102085665	-0.05504474	-0.027225342	-0.299123	0.103211895	-0.06708748	-0.036516175	0.003035904	0.4099702	0.20619145	0.37948248	-0.109295525	0.027119538	-0.20898622	0.29902756	0.09723708	0.18290026	-0.024719644	-0.025801707	-0.03903408	0.17041755	0.25837606	-0.14080083	-0.018016066	-0.043821305	-0.16543601	0.107977234	
-0.034280032	0.06856747	-0.03979939	-0.16557737	0.17404242	-0.09102923	0.0887399	-0.048970256	-0.13438322	-0.16584672	0.25706506	0.11297696	-0.033514205	0.15108438	-0.16874276	0.029944476	-0.092155375	-0.13290198	0.21492803	0.13037734	0.31177244	0.28502825	-0.3324363	0.07195473	0.22321069	0.1407468	0.005857803	0.05518814	0.03415598	-0.5159136	0.15835653	0.21681143	0.13814518	-0.15350376	0.018687105	0.12741725	0.054363117	0.12150411	-0.0777028	0.055735786	-0.2298267	0.048035536	-0.3563734	-0.3493049	0.10670916	-0.27151096	-0.17355281	-0.39636686	-0.34522453	0.10542646	-0.04127881	-0.20022994	0.053236384	0.09734886	-0.21703118	0.118458286	-0.019798215	0.13155478	-0.040583793	-0.10476216	0.060978625	-0.07350981	-0.123100474	-0.03784553	
0.030555123	0.07111711	-0.14235951	0.08114771	-0.17693323	-0.3473798	-0.010798863	-0.12433411	-0.26130316	-0.033878624	-0.07119643	0.0060958276	0.1495889	0.19505225	0.06067704	-0.0074946163	-0.15335692	0.15249337	0.07605054	-0.031205688	0.28790474	-0.20215689	0.06512532	-0.00898686	-0.43814778	-0.00459732	0.023890631	-0.053742226	-0.10812542	0.08309846	-0.34979153	-0.19355714	0.07281922	-0.25282612	0.20401518	-0.026554815	0.32541993	0.28637442	0.19748797	-0.22501329	-0.18992284	-0.04931514	0.14623903	-0.29426825	0.11887837	-0.0130267525	0.023294447	0.068705246	0.0077277953	-0.007345108	-0.16593671	-0.1269506	-0.10742407	0.22864313	0.022777649	0.0311641	0.026071202	0.03737005	0.07650216	0.11096969	0.4497865	-0.102365	-0.13214305	0.014689025	
0.22235769	0.1294354	-0.16567495	0.0776812	-0.014789373	-0.11172112	0.052926313	-0.12718664	-0.108113214	-0.28692278	-0.08776949	-0.2427109	0.051408414	0.10091183	-0.04595082	-0.10176054	-0.035239123	0.05785172	-0.13648689	0.1274919	0.086822666	-0.15674432	-0.12367892	-0.014963615	0.11021254	0.32312113	-0.11000473	0.26256594	-0.00037162713	0.08339357	-0.015053195	-0.05739381	-0.20686504	-0.25336948	0.23593585	-0.08254063	0.25269634	0.18043117	-0.15328655	-0.03526649	-0.0805877	0.28284755	0.14300524	0.07193423	-0.049025442	-0.02749931	0.026514601	0.047638863	0.048109036	-0.28588018	0.18386447	0.14946178	-0.0064330865	-0.26991585	-0.06807019	0.08335535	0.0038032774	0.14137687	0.1846505	-0.2800572	0.43527678	0.079779334	-0.20411423	-0.16360359	
0.14442427	-0.41788036	-0.0012459327	-0.10467701	-0.079954885	-0.08024894	0.00898718	-0.07625079	0.0017377834	0.2558904	-0.13309856	0.00882039	-0.16621418	0.08659115	0.05814207	-0.009266483	-0.0691179	0.029215472	-0.15671408	0.104534015	0.083000205	-0.1188179	0.11039792	-0.17639321	-0.04026194	-0.18202433	-0.30107567	0.0007771743	-0.33394954	-0.13663954	-0.065271154	-0.1888166	0.041095257	-0.18125889	-0.03332117	-0.019487787	-0.15578507	-0.021339135	-0.026613213	0.22627279	0.16536202	0.057071544	0.20115454	-0.026011392	-0.24025294	0.10182189	-0.21441177	0.05317329	0.106227666	-0.05060857	-0.07771623	-0.27751303	-0.17739712	-0.16138357	-0.0045049246	0.17100835	-0.093360536	-0.055828765	-0.2704857	0.051678855	-0.13290687	0.1226344	0.11651122	-0.022859637	
-0.28236684	0.058296517	-0.30299112	0.040616438	0.09369577	-0.012278457	0.10832497	-0.016242258	-0.122250736	0.1791678	0.030946776	0.13571687	-0.13142996	0.21645647	0.22790515	-0.05759545	-0.059958916	-0.43255207	0.3533776	0.12836078	-0.041050773	0.056474924	0.18754518	0.18037648	-0.1378056	-0.05817237	-0.17686515	-0.00075132336	-0.1418505	0.2017559	-0.48969322	-0.4306477	0.11786239	0.0003741763	-0.16681239	0.15147962	0.1849058	0.025909403	0.14340277	0.08807567	-0.09793875	-0.19271232	0.2101517	-0.19016722	0.041355792	-0.20149626	0.1579733	0.06933727	0.18371283	0.14181313	0.039682392	0.103055984	0.14724089	-0.060520425	-0.32990617	-0.11847898	-0.06831469	-0.07804403	0.01706213	0.1853349	0.102465376	-0.19917023	0.25171754	-0.04454362	
0.21722397	-0.40757442	-0.056463525	0.0031200426	0.24647456	0.13346311	-0.07777286	-0.31095907	0.17666729	0.2033647	0.21017015	-0.11395526	0.034427736	0.0050985673	0.16937459	-0.15485293	-0.011620972	-0.08037579	-0.18353328	0.1397348	0.034982704	-0.008324378	0.109565996	0.12912363	-0.03645728	0.2171732	-0.0031531744	0.11452228	-0.0033052024	-0.060360588	0.043311696	-0.052372005	0.035795704	-0.102676116	-0.11527335	-0.046922363	-0.023384836	0.026604827	0.14862405	-0.23238145	0.043104455	0.07905913	0.054682635	-0.3227913	0.05638523	-0.26601905	-0.18307465	0.25878313	-0.117931634	-0.20040055	-0.2522364	-0.28338963	0.025143482	0.041995287	0.2074225	0.2275996	0.09404771	-0.23232535	-0.12580986	-0.11680577	-0.19175664	-0.06412642	-0.1209545	-0.252806	
0.043683346	0.13533318	0.22741716	0.32122904	-0.034839474	-0.10724912	0.10188392	-0.14272961	-0.02052118	-0.19495037	-0.0026124178	-0.0687495	0.05677783	0.034721367	-0.11171675	-0.25196356	0.04482792	-0.22614473	0.09220997	0.29257962	-0.053701416	-0.05091893	0.12960684	0.0006413805	0.14566988	-0.05036429	0.20694663	0.29596147	-0.18646927	0.017268406	0.04169043	-0.31939217	0.13463141	-0.15789533	-0.060649816	0.011444719	0.34480366	-0.12817888	0.15957095	0.115579896	0.01281163	-0.0066625625	0.21689034	-0.040629845	-0.09249629	-0.071508996	0.054058176	-0.2579148	-0.024038088	0.11675069	0.21215428	-0.10770862	-0.13073015	0.026502179	-0.093260035	0.02720564	0.049520146	-0.1620102	-0.13407886	0.015827008	-0.12334257	0.042394385	-0.19282004	0.008180891	
0.108305566	-0.2841735	-0.047547415	0.1677217	0.24883169	0.026748555	0.0023379233	-0.14904132	-0.16356346	0.16886438	0.29779923	-0.026402695	-0.27195972	-0.37884247	0.0317303	0.16926053	-0.09872878	-0.008715819	0.07838515	-0.0320296	0.023446249	0.16829875	0.18940963	0.031119298	-0.1189311	0.17942996	-0.111084685	0.039650403	0.15035969	-0.19643982	0.1427844	0.253624	0.16280906	-0.012510935	0.09644309	-0.12624547	-0.3497667	-0.10328005	-0.1913293	-0.14205499	-0.06541327	0.2924421	-0.05157934	0.0475046	-0.07785611	0.20097621	0.095564745	0.1385749	0.03451463	0.34022492	0.062863596	0.13473411	-0.13330331	-0.13299495	0.20662323	0.017331742	-0.018946195	-0.016362384	-0.26571414	0.14575763	-0.16506647	0.16333	-0.07694805	0.065781064	
-0.16149619	-0.12242776	0.031349428	-0.17032102	-0.19812189	0.12772281	-0.1990157	-0.1741083	0.19070965	-0.105866686	0.15605547	0.052427273	0.15951057	-0.00454929	-0.03272195	0.22052328	7.201068e-05	-0.36799005	0.10515623	-0.1615851	0.23047386	-0.119864546	0.119810835	-0.2944548	0.22306775	0.2557791	-0.008731024	0.3101584	0.24484342	-0.24083617	0.24046782	-0.17113985	-0.01971921	0.25724593	0.122878894	0.024907196	-0.10859715	-0.030098042	-0.00079727714	-0.16959482	0.018696517	0.12059494	0.1736617	0.08520675	0.20900635	-0.10685323	-0.16327175	0.1355765	-0.33977577	0.0054596774	-0.058127727	0.005440519	-0.16039163	-0.27791172	-0.11556167	-0.2867193	-0.025612779	-0.18899573	-0.26162368	0.039288647	-0.15809081	-0.06167608	-0.09119606	0.20140013	
0.02261648	-0.012188148	0.010251972	0.1157736	-0.28783202	-0.5015223	0.15342249	0.21316665	-0.14007284	-0.008010487	-0.19539961	-0.30109903	0.061512943	-0.010955016	0.10898406	-0.04245126	0.07321762	0.09477107	-0.21659446	-0.18335612	0.14128014	-0.195345	0.10089017	0.33170015	-0.17168713	-0.036446158	0.03975448	0.008366446	0.10079275	-0.1699662	-0.32866004	0.009665049	0.100549065	-0.43632188	0.04856668	-0.046090834	0.15390097	0.04820748	0.11487853	-0.2805616	0.0464763	-0.024452755	-0.07541953	-0.09939092	-0.037967797	-0.19533157	-0.05419187	0.2533128	0.14522533	-0.0045396313	0.01539026	0.29192945	0.2719869	0.16010213	-0.036090974	0.07852545	-0.18874505	0.08142896	0.27911526	0.14472993	-0.03305069	0.22204372	-0.21551448	0.12003735	
0.22273523	0.06248872	0.24446905	0.31366053	-0.012533501	0.10511821	0.008674722	-0.23597057	-0.17649521	0.08884632	0.20337336	0.12673193	-0.13497736	0.010796638	0.2332152	-0.13922247	0.16812406	0.34518003	-0.2320565	0.015965264	0.23246272	-0.060960747	-0.12485835	-0.11022028	0.37146932	-0.17127211	0.13508302	0.2386962	-0.31746995	-0.014878416	-0.31311476	-0.011448455	0.14304776	0.14137147	0.24134412	-0.4720319	-0.05959068	0.17249715	-0.04763559	0.07862905	0.18521035	-0.13768005	0.08524016	-0.0029723297	0.09309791	-0.21611679	-0.091932684	0.008913854	0.0567121	-0.06524264	0.27480045	-0.26890853	-0.046747766	0.26744276	0.041345697	0.1449003	-0.10294838	0.24705751	-0.06187643	0.20168945	-0.14847341	0.17171142	-0.01907945	0.08691409	
0.14826448	-0.46921816	0.013338706	-0.05712664	0.079903595	-0.17699994	0.16930184	0.051231127	0.15687945	0.12877072	0.07569072	4.9464717e-05	0.04179611	-0.07079647	-0.079970464	0.022766277	-0.14546938	0.033309728	-0.105483934	0.15120341	-0.03178726	-0.04018167	-0.18388215	0.22020648	0.100538455	0.034439355	0.32137564	-0.05785451	0.14459142	0.306064	0.110345736	0.21790145	0.01420328	0.09872178	-0.045617778	-0.54462826	-0.3538602	0.07173917	0.09382732	0.06151882	0.06081273	0.23525055	0.3120278	-0.17375948	-0.028903315	0.15357818	-0.46150258	-0.09387338	-0.043720648	-0.13261412	0.2567196	-0.042054355	0.2078614	-0.07313022	-0.20908867	0.10628389	-0.24228123	-0.13470948	-0.11000509	0.027742289	-0.13409363	0.123600304	-0.04342625	0.15380734	
0.19152942	-0.14558193	-0.059525006	-0.040386066	0.14773136	0.10854269	0.06457487	0.16858815	0.06791696	0.28107458	-0.1496825	-0.062190145	-0.00044051558	-0.04705557	-0.06820136	-0.30364078	0.082534336	-0.08855488	0.16362743	-0.035285763	0.24570346	-0.13495912	0.28178206	0.27423114	0.27884278	-0.063190475	0.3279244	0.0701457	-0.04832658	-0.087003954	-0.16988339	-0.36775112	0.12665127	0.10592162	0.16804326	-0.023868676	-0.04494026	-0.07963791	-0.1948524	0.0028420517	0.19198284	-0.009813128	0.064133726	-0.16513367	-0.11723591	0.07135525	0.14513911	0.1793322	-0.008921508	0.0040174974	0.107816964	0.18706495	-0.12930466	0.10419143	-0.08165696	-0.0026118993	0.10880925	-0.09265269	0.16429706	-0.19441177	-0.10698682	0.064715795	-0.045396365	0.23918882	
0.18664268	0.02588738	-0.030391349	-0.038571596	0.43454915	-0.048947744	0.18963121	-0.17875478	0.09964477	0.016796252	-0.17646047	-0.16317698	0.10821914	-0.2590258	0.027677294	0.110382974	0.061567046	-0.1544616	0.21672668	-0.11905779	0.014874879	0.02911957	-0.027126916	-0.08992218	-0.1808834	-0.0048026023	-0.20140767	-0.008019677	-0.11541607	0.19751798	0.1994629	-0.039572027	0.07374851	-0.30854106	-0.081389405	-0.05370366	0.059361372	-0.1336941	-0.13683902	0.09894698	-0.10138935	0.11891513	0.21595147	0.011682604	-0.16065694	0.086110756	0.0040836325	0.045922138	0.07027202	-0.11870403	0.25413042	-0.01690406	0.40634286	0.4445376	-0.19870766	0.07780958	-0.35175192	-0.14056922	0.067196056	0.22094159	-0.27523345	0.045065764	-0.30197623	0.30995706	
-0.124569304	0.09775673	-0.10159239	0.08517625	0.11421005	0.050792426	-0.15180501	-0.05270459	-0.014826516	0.24956994	0.21467075	0.015743835	-0.34340596	0.23235574	0.28010893	0.15132575	0.16072889	0.2073317	-0.04878725	0.12509845	-0.054063097	0.3508239	0.06964301	-0.13975076	-0.15942316	0.16380185	0.012413733	-0.16275296	0.1981307	-0.04865002	0.18345468	-0.043291025	-0.14655991	-0.011833091	0.14006819	0.117547765	0.052232314	-0.19678223	0.024486605	-0.1370225	-0.23071834	0.10370038	-0.030014455	-0.079890564	-0.020694472	0.065178245	-0.2746374	-0.007445912	-0.21309553	-0.091421224	0.06115878	0.079353444	0.06830612	-0.14004321	0.15786374	-0.27084595	-0.22268169	-0.10579188	0.20857587	0.06279164	-0.058229744	0.021849075	0.27865055	-0.164378	
0.015147538	0.07804878	-0.1678608	0.09463488	-0.10594019	0.070429124	-0.23825805	-0.12593223	-0.14863811	-0.19591343	0.17295639	-0.0076416233	0.2088485	0.04069	8.552144e-05	-0.009644216	0.027304605	-0.15133038	-0.12588625	-0.053787604	0.28180745	-0.0037290624	-0.074072346	0.105324045	0.14075299	0.075718805	-0.062499523	0.15337534	0.0869263	0.07243104	0.36571988	-0.1699636	-0.024775963	-0.230538	0.13776954	-0.19777852	0.021164004	-0.058269367	0.099126495	0.09203389	0.14701597	0.08700952	-0.29070076	0.03414394	0.035757966	0.09712302	-0.23854822	-0.103458	-0.2896596	0.150382	-0.10828204	-0.17994614	0.121276036	-0.08560138	-7.1878254e-05	-0.17343071	-0.13984028	-0.08623303	0.24162078	0.24771239	-0.036175374	0.09668139	0.087459	0.16695471	
-0.15569109	-0.254002	-0.17308475	-0.20854479	-0.052136295	0.13137795	0.3732229	-0.19340129	-0.020077216	0.012220918	0.13676344	-0.43138674	-0.12431555	-0.073191956	0.12568909	0.3127944	-0.15980497	-0.2394635	0.053341795	-0.060634926	-0.1864883	-0.2752916	0.04147369	-0.17191035	-0.008484511	0.066441186	-0.33411664	0.16544886	0.11930564	0.12171092	0.21797808	-0.037939023	-0.057855174	0.05406375	0.16848947	0.13888085	-0.025480654	-0.20256625	-0.007899537	-0.23918313	-0.17923944	0.03527362	0.0067908266	0.45784906	-0.00310454	0.028520856	0.052403376	0.10845006	0.07946743	0.15006725	0.10439927	-0.11679449	0.0072203637	-0.06990177	-0.18033603	-0.08689986	-0.10984069	0.13344814	0.041829035	0.07903305	0.2177083	-0.17946924	0.39987212	-0.08674251	
0.1229539	-0.5489648	-0.3162341	-0.12077526	0.00049743964	-0.1854421	-0.53636825	0.68376297	0.22682036	0.26626888	-0.3125953	0.17367138	-0.13418159	-0.21832353	0.3531705	0.034423385	-0.2101055	0.16060525	-0.21703206	-0.116476886	0.29583842	-0.16167226	0.059905294	-0.2378907	-0.3602049	-0.10556437	-0.06756395	0.3672235	-0.025491651	-0.1528392	0.055127434	-0.13118458	-0.03203302	-0.30953363	-0.2477166	-0.03660397	0.3710847	-0.041780088	-0.041448183	-0.3077463	-0.13966624	-0.3487721	-0.0056994897	-0.07551142	-0.3404909	-0.4346801	0.24933049	0.21453851	-0.09009622	-0.20132732	-0.26803052	0.63141763	0.15600772	-0.27114818	-0.0104693575	0.08716861	-0.035554994	-0.0986077	0.56055427	-0.16380647	0.37316006	0.04579886	0.33649042	0.5259202	
0.017257221	0.25239602	0.02838032	-0.072994664	0.20809574	-0.20676842	-0.10141316	-0.11891039	-0.16336544	0.09529645	-0.22095722	-0.15105516	-0.1859252	-0.027837094	-0.5779584	0.20079921	0.16710888	0.06815551	-0.035668846	0.07626846	-0.23638044	-0.0651263	0.05407206	0.18568452	0.10804958	0.03322246	-0.2945859	0.03423537	0.10734753	0.32269788	0.09067049	-0.16621673	-0.13171504	-0.11995301	0.13035484	0.060025375	-0.054015107	-0.066368595	-0.25838882	-0.24891242	0.33915088	0.057108648	-0.017591199	0.018635675	0.2876208	0.37639526	-0.12953183	-0.4260404	0.018317865	0.02673355	-0.18601684	-0.332003	0.29273525	0.044727575	-0.29922312	-0.20761342	0.16084926	-0.10405189	0.27823284	0.40529487	-0.015679687	0.099154204	0.2157413	0.013245966	
-0.016478287	0.24856387	0.06369807	0.12996729	0.23093511	0.060986128	0.14202787	0.16205627	-0.13103272	0.078846	0.054720104	-0.07354271	-0.2531258	0.14752685	-0.012653494	-0.085817836	0.016096376	-0.077103496	0.12524554	0.14150122	0.033574387	-0.016983328	0.08640319	-0.021880157	-0.10207828	0.09636641	-0.034126278	-0.07633677	-0.108387254	-0.39940354	-0.23163322	-0.28946793	0.16035983	0.045674384	0.045375504	0.074270956	-0.13382626	0.27143756	-0.18356563	-0.0059202365	-0.1778275	0.008969931	-0.034659833	-0.09576218	0.04490065	-0.03084806	-0.115551464	-0.29938293	0.010054064	-0.119870976	-0.0027715177	-0.19310965	-0.057045363	-0.003780338	0.030211927	0.22561419	0.0061098696	0.14787571	-0.16705729	-0.13779351	-0.018762397	-0.23574825	0.16013938	0.29581326	
0.15934458	0.2402821	0.017243115	0.025625102	-0.26662016	-0.1200735	0.20064074	0.05588553	0.07851395	-0.06314581	-0.002100259	-0.0008747876	0.17729405	0.12029862	0.21125242	-0.07294372	0.10689965	-0.01433762	-0.058617197	0.15759216	-0.16344528	0.08320084	0.16119923	-0.21244067	0.20043705	-0.030043475	0.12296711	-0.23415682	0.0018020952	-0.042094953	0.22214492	0.1803244	0.06177551	-0.27830473	0.117881544	0.050518043	0.058401242	-0.35092756	0.14234181	0.050075706	-0.051192652	-0.20989196	-0.102783695	-0.048384134	0.16857268	0.33781308	-0.104694515	0.12775883	0.2412883	0.06342956	-0.061720345	-0.04072127	-0.3062381	0.16046768	0.047997095	0.167159	0.17028184	-0.098686524	-0.1769051	-0.0011283231	0.15784135	-0.049715336	0.38417575	-0.02288449	
-0.027352622	0.08976623	-0.11727791	0.010778041	-0.043015383	0.30615428	-0.16861823	-0.17563465	0.18487158	-0.16205294	-0.0030497531	-0.26506874	0.19768636	-0.4806805	0.086235814	-0.07786345	0.02958083	0.1997497	0.1605713	-0.018683631	0.04642722	-0.103144854	-0.049282223	-0.0011013856	0.05886817	-0.15503012	0.15559208	-0.13813311	0.16585773	-0.08614497	0.15237188	-0.28416193	-0.15249252	-0.00017081638	0.2851428	-0.06423515	-0.15716639	-0.098361425	0.062370908	-0.050536316	0.09342025	-0.1590615	0.11627873	-0.08390127	-0.14744148	0.14049047	0.16055703	-0.112515576	0.22311372	-0.059811164	-0.21558027	0.20019107	0.073065124	0.026298773	0.017509872	0.29779917	0.19863516	0.035832882	-0.36384463	0.015308924	-0.20197213	-0.016472388	0.07630655	0.16400392	
0.008006441	0.23638082	0.25672528	0.066166125	0.044214346	-0.03933242	-0.1490816	0.16802575	-0.06915296	0.05245875	0.033839934	0.16530365	0.16132104	0.119385995	-0.059635736	-0.0009274587	-0.04365703	-0.11499048	0.15115735	0.15116106	0.015636556	-0.022013778	0.15874444	-0.04045766	0.08478691	-0.12357141	0.3197175	-0.1670427	0.0015674251	0.17116958	0.15950894	-0.00016326872	0.09897443	0.19456087	-0.039373912	-0.016707093	-0.6072268	0.12268832	-0.08642037	-0.24030292	0.063113496	-0.36368012	-0.26517558	0.110497415	-0.18254389	0.14026766	-0.016931469	-0.12477147	0.08046023	0.21726243	-0.1073494	0.1221033	0.09161286	-0.09384029	0.13626519	-0.30211157	-0.17572041	0.2686887	0.12810276	-0.07358864	-0.46208957	-0.083725885	-0.22564268	0.18441026	
-0.1069539	-0.4676931	0.06978584	0.16074574	-0.22335742	-0.042640045	0.21487002	0.1486061	-0.0604358	0.14255437	-0.07142668	0.20684765	-0.37812173	0.09407347	0.0363377	-0.03160518	-0.10779433	0.14891218	-0.06131533	-0.05647607	-0.055381145	0.33546194	0.1999206	-0.31771916	-0.014426963	0.07777775	-0.07618905	-0.12934077	-0.01958432	0.036532152	-0.1380939	0.2317254	0.17022485	-0.086886905	0.021455752	-0.09819886	-0.09117428	0.08475841	0.1460745	0.10319507	0.06147224	-0.11410822	-0.23055218	0.2441686	-0.031239595	0.16677685	-0.15064737	0.1782126	-0.3137286	0.198862	0.10427691	-0.17029038	0.034765545	0.050058108	0.055854008	-0.05920227	0.11110538	0.016464202	0.022291768	-0.277001	0.22309877	-0.19227533	0.033260114	0.050144657	
0.16148214	-0.15260097	-0.093720846	0.12368701	0.01654283	-0.123011924	0.29166922	-0.05680874	-0.24250682	-0.10483419	-0.116861515	-0.21304184	0.031464927	-0.008364257	0.24197143	-0.17785624	-0.02340578	-0.018442424	0.107489504	-0.05399903	-0.11944194	0.016563224	-0.03401343	0.35841084	-0.3261019	0.1229256	-0.07145901	-0.06047854	0.039215412	0.12511185	-0.045568418	-0.08171117	0.11964065	-0.06547982	0.031521354	-0.24750282	-0.22635646	0.18952505	0.06718843	-0.14624368	-0.112191565	-0.0010549801	-0.017789206	0.17678648	0.23982713	-0.17625344	0.27963328	0.23156969	0.04868289	-0.18946372	-0.09007837	-0.13407998	0.12119155	-0.30241314	-0.05743688	-0.057706144	0.035615887	0.30041894	0.05160669	0.12120093	-0.21321674	0.03188508	-0.10687173	-0.2854976	
0.10938134	-0.35661042	-0.1637811	0.13304496	-0.3313585	-0.014238793	-0.31295907	0.1498529	-0.060970422	-0.24662186	-0.0048999176	-0.06877941	0.33534124	-0.14827949	0.08805226	-0.236453	0.20227468	0.20576891	0.15917787	0.18441327	0.069596425	-0.07214473	0.024502093	0.12503408	0.13452391	0.15700513	-0.1666615	-0.0912242	0.26217383	-0.200288	-0.0009905631	-0.10778877	0.06543718	-0.049485628	0.15083942	0.26093268	-0.02007943	-0.21056269	0.02531045	-0.11248127	-0.13787414	0.10735965	-0.04496658	0.021977756	-0.3505808	-0.22690944	-0.055687692	-0.012847977	0.01964128	0.051963046	0.017577043	-0.09647091	-0.033833038	-0.039200183	-0.25083703	-0.059268046	0.22581248	0.2726821	-0.043044277	-0.18116558	-0.032255832	0.049380988	0.1389161	0.0013248996	
0.11361442	-0.013033711	0.2402481	0.15765686	0.21777251	0.13439472	0.029133506	0.43944186	0.08748876	0.13190515	-0.3317657	0.21010247	-0.17317015	0.0020611882	-0.08474595	0.038703963	-0.10446342	0.11136721	-0.2031499	1.4774714e-05	0.012360228	-0.00372958	-0.17197189	0.044242218	0.33690155	0.0038374013	-0.262294	-0.27677658	-0.2921819	-0.13110839	-0.070259005	-0.023223436	0.052711092	0.22043452	-0.06334767	-0.04342544	0.013418153	0.36183375	-0.16342822	-0.1459819	-0.3253289	-0.41250122	-0.13167837	-0.116039075	0.27316582	-0.18750818	-0.10700831	0.031031229	-0.2827128	0.058197465	0.030452723	0.28263104	-0.07719864	-0.0064558084	0.13450986	0.28432438	0.03520648	-0.027403552	0.16683526	0.46844608	-0.13022648	0.25830835	-0.08246529	-0.077551566	
-0.102872424	-0.101765856	0.09178676	0.06542865	-0.2674261	-0.039145466	-0.13406405	0.019787382	0.17758164	-0.17742383	0.06535218	-0.22125125	-0.068690926	0.0021946796	0.14986642	0.06494988	-0.1861976	-0.24806218	0.049296368	-0.044425167	0.013120827	-0.36205763	0.040838912	0.14027868	-0.24856561	0.01945246	0.15576902	-0.0024227877	0.12602004	0.036741253	-0.29892412	0.011832457	0.2918864	0.060849205	0.13174981	0.11531167	-0.15050182	-0.018915012	-0.20595074	-0.11660214	-0.30022123	-0.039568733	-0.20813231	0.01115194	0.036949534	-0.25557312	0.063731626	-0.18153577	-0.011157276	0.07309468	0.13238782	0.15712994	0.1307255	0.15452291	0.2567347	-0.20235091	-0.16317387	-0.44730303	-0.09549116	0.200523	-0.1613855	0.042189382	0.16803588	0.09036494	
0.07276342	-0.6263474	0.0687745	-0.1141953	-0.14581837	0.052364737	-0.069646664	0.13022865	-0.014228955	0.21000765	0.11243649	0.19456317	-0.05794792	0.17967597	0.059019	-0.05856391	0.159158	-0.11560065	0.12798087	-0.17254578	-0.022738397	-0.041233305	0.19589229	-0.33286786	0.16696076	-0.09544782	0.11648095	-0.0754557	0.14442	0.088716455	-0.27443123	-0.12616797	0.08545685	0.20110443	-0.101693824	0.109278165	-0.13977471	0.0790024	-0.05128943	-0.30793738	-0.19713075	0.08035586	-0.0006876174	-0.055132784	-0.106399395	-0.21564752	-0.19088845	0.17969595	0.095753275	-0.010938226	0.12877472	-0.054595295	-0.19350635	0.2555425	-0.05435478	-0.13480562	-0.060381193	-0.25606245	-0.1878824	0.009782618	0.01495332	0.12375626	0.06759501	0.1309009	
-0.08104473	0.197384	0.063487776	0.012644097	-0.07265053	-0.06139334	-0.1870075	0.03984174	0.13091522	0.13464342	0.21700561	0.083083674	-0.20986785	0.1485386	-0.15447392	-0.06834724	-0.061921258	-0.10583111	0.014880301	-0.057467185	-0.43354416	0.055394482	0.09045924	0.038382217	0.24265617	-0.25476438	-0.044106215	-0.09589131	-0.19829684	-0.15150735	0.028598053	-0.024334786	-0.05851524	0.4785587	0.098699376	0.09280422	0.00036846887	0.08301518	-0.05962055	0.24169701	-0.1518403	-0.22800906	-0.21400924	-0.15160006	-0.02313221	-0.14822209	-0.06491402	0.3370684	-0.27946723	-0.004144791	0.029222555	-0.093919486	-0.21037354	0.15232688	-0.008741019	-0.058821745	0.22946095	0.30076697	-0.013203908	-0.1465064	-0.10246606	-0.20720488	-0.012366586	-0.13663588	
-0.009274374	-0.04381251	0.10430269	0.2371589	-0.08173576	0.09858101	-0.08972492	-0.2585915	-0.09363621	0.24315438	0.26548466	-0.21212578	0.1946337	0.06322728	0.24282958	0.0850214	-0.053037878	-0.036921307	-0.2836618	-0.0065418435	-0.098202445	-0.019824136	0.051403083	-0.19506006	0.108576685	-0.107077815	-0.15716621	0.11741234	0.20380054	-0.08976329	-0.051585775	0.31129205	0.0021182299	-0.07412156	0.09291276	-0.31647965	0.038324382	0.2783612	0.24035554	0.17672478	-0.09094807	0.3168761	-0.15570852	-0.3576058	-0.059317935	0.03747068	0.0038399647	0.09789692	-0.12274092	0.063867204	-0.28219324	-0.270034	-0.0949285	0.17763701	-0.38747293	0.21758012	-0.12154076	-0.20388821	0.020042676	-0.033427145	0.19425385	0.078998	0.13031827	-0.04176276	
0.06094007	0.105498746	0.19419631	-0.17591776	0.3067753	-0.07751702	-0.15712571	0.06697837	0.06281882	0.053765643	0.045070346	0.113121875	-0.0322533	0.28189465	-0.31741363	0.2849987	0.20791222	0.09380121	-0.15997338	-0.008183965	-0.06240831	0.114838615	-0.005383692	-0.114092365	-0.028217033	-0.1699505	0.055712976	0.18402316	0.24290492	-0.13667707	0.23146558	-0.07779608	-0.07973089	0.18492296	0.13372971	-1.1950889	-0.08669302	0.42128775	0.2591451	0.10286223	0.026926331	-0.2163422	0.17715985	-0.08813964	0.15405644	-0.11261248	-0.13219213	-0.07067215	-0.10955926	0.010770849	0.23090518	0.04979765	0.14304611	0.022825249	0.09088631	0.013636183	-0.023581577	0.1969041	0.12618141	-0.15864645	-0.31081724	0.18366522	0.015985567	0.05549409	
-0.026952969	0.07645301	-0.012552729	0.121196836	0.13217112	-0.01510903	0.20913845	0.071224876	0.16682759	0.05825884	-0.01251036	-0.16444644	0.0911453	-0.095291875	-0.086724505	0.106749594	-0.10250479	0.057588033	-0.21593715	0.06447678	0.3698487	0.030512199	-0.03263222	-0.05436549	-0.10575798	-0.20416664	0.062195793	0.07148741	0.1010594	-0.13338089	0.2814505	-0.28224123	0.005563568	0.100946486	0.31853327	-0.18115254	0.06671294	0.27215323	-0.11375744	0.05355716	-0.0168536	-0.22572795	-0.015203956	-0.36365822	0.28196326	0.2137566	0.28683966	0.11628031	-0.68505377	0.13074425	0.014764078	0.21504077	0.060990077	0.06304915	0.09713104	0.12483417	0.25613195	0.15859754	0.07907272	0.20317866	0.09468942	0.03483748	-0.057135504	0.15031406	
0.16089205	0.037497327	-0.108705826	0.0059967507	-0.0950872	-0.083351724	-0.21944098	-0.30625868	0.0907135	0.2264041	0.17678577	0.2432618	0.32024828	-0.040985852	0.16626093	0.3117232	0.080739364	0.19969727	0.1511903	-0.023326753	-0.02316392	-0.03213674	-0.051630586	0.2304329	0.14179863	-0.11680195	0.45697924	-0.22391102	0.053496957	0.2729779	-0.3153707	0.069277965	-0.050015487	0.052118372	0.02288227	0.21927501	0.04418085	0.025598628	0.030713554	-0.01049313	0.6038196	0.31146446	0.23286727	-0.28232965	0.11395632	0.21422185	0.010333419	-0.341865	0.03250108	0.00191473	-0.30067945	0.058776498	0.02888839	0.473111	0.5091266	-0.03117653	-0.282031	-0.20383385	0.3970801	0.012621435	0.29827836	0.11469906	0.18417503	0.31992516	
