88
64
2
5
2
2
-0.057275202	0.038399726	-0.014569823	0.10833661	-0.032105114	0.0046582385	-0.019595876	0.05011871	0.02482762	0.012713917	0.06401285	0.044684473	-0.016958108	-0.0055957437	-0.020427803	0.11266841	-0.008576077	0.06460539	-0.050633945	0.04415049	-0.044774484	0.03448153	0.012322507	0.101196356	0.08291195	0.08191545	-0.04101108	-0.013039592	0.019981995	-0.043131005	0.024906328	-0.07133963	0.06276416	0.10907921	0.0016663462	0.07030234	-0.17134012	0.07339524	-0.0069551677	0.011813355	0.055860087	0.10324577	-0.007933694	0.07062536	-0.1287424	0.009937908	-0.0068114796	-0.049806613	-0.045935173	0.058042668	-0.031131214	-0.057405666	0.07485376	0.012962395	0.045535035	-0.013839575	0.038073413	0.048172772	0.0783454	-0.058757216	0.015632214	-0.019489758	-0.021500828	-0.047434147	
-0.033995092	-0.014679188	0.24452354	-0.1923536	-0.18048768	-0.22285263	-0.009523532	-0.15589142	0.11231997	-0.07671158	-0.07851113	0.04665395	-0.02660839	0.1965209	-0.067198075	0.047203813	-1.071939	0.109460026	0.13430475	-0.11687352	0.14231977	-0.09971409	0.08313487	0.084810704	-0.08985638	0.2131274	-0.09815222	0.034775995	0.059709657	0.04736036	0.045262538	0.23864308	-0.029942984	-0.16197686	0.05042571	0.117592745	0.21894208	-0.062070854	0.19806017	-0.0013518492	-0.06453364	0.01967238	-0.16605511	0.035821967	-0.096797384	-0.027445747	0.12298899	0.1137075	-0.06630693	0.20718107	0.1003461	-0.21803309	0.03946324	-0.11206577	0.0126439305	-0.117503025	-0.062866025	-0.063232064	-0.07883756	-0.18728815	-0.11122471	0.07050545	0.0135140065	0.044688895	
0.07887762	0.04403668	0.12175711	-0.029776864	0.055784766	-0.16697685	-0.021872226	-0.06394367	0.02306265	0.00021195237	-0.016340747	0.19468337	-0.013946048	0.13665967	-0.032842837	0.20057088	-0.22310638	0.018446937	0.00233479	-0.015533574	-0.052299693	-0.10499868	0.002326151	0.18679659	0.25440904	0.052655317	0.0783194	0.019880222	0.06085912	0.09769591	-0.059816707	-0.012909494	-0.001817594	0.16670942	0.013081558	0.04918145	0.053172402	0.016360296	0.06493693	0.00899293	0.07455059	-0.064450406	0.0207329	0.021344801	0.041461717	0.0021510504	0.03450255	-0.008525044	-0.026322119	0.14262095	0.103087254	0.10313709	-0.019920003	-0.032503363	-0.009252482	-0.011608281	-0.06101842	0.008519893	0.0021067243	0.024094231	0.0080746785	0.024138607	0.14525959	0.20543098	
-0.006423887	-0.090942174	-0.086572096	-0.036227494	0.049160622	0.050968256	0.004984751	-0.0042942506	-0.02568457	0.034005404	-0.030050809	0.025152931	-0.044636086	-0.12336585	-0.008734318	-0.020144505	-0.008161095	0.10194902	0.04937504	-0.034824263	0.01505454	0.10906765	0.080176845	-0.00050278025	-0.073996946	-0.013600588	-0.060337715	-0.108420245	-0.027910309	0.0053142575	-0.04019773	-0.031071179	0.004143239	0.01965633	0.0023250529	0.051731333	-0.14557886	-0.07236776	-0.072469614	-0.0042615314	0.27512875	-0.010651225	0.04513733	0.067395076	0.03180545	-0.021300768	-0.16419612	0.0037699817	-0.011466157	0.032517657	0.0752164	0.032675385	-0.016800554	-0.056765195	-0.059669465	0.06670004	-0.10891435	0.13429514	-0.106867	0.019020172	0.017856726	0.012505817	0.09552925	0.094110355	
-0.025231414	0.054037146	-0.26810795	-0.086882554	0.1292443	0.08213238	0.027572114	-0.012032202	-0.018413467	0.025457162	-0.036699742	0.19110359	-0.019802693	-0.027110355	0.051245198	-0.026822602	-0.009741262	-0.16901737	-0.07240582	-0.036706727	0.05001491	0.12162571	0.16814782	0.08553019	0.00072717207	-0.16767941	0.038956147	-0.030859282	0.050520096	-0.038745355	-0.21219507	0.06914082	-0.18638977	-0.15371841	-0.0931681	-0.052211985	0.098741114	0.0021457572	-0.054862488	-0.049297214	0.21166982	-0.17702626	0.07565712	-0.09769502	-0.057215706	-0.0041169836	-0.06957687	-0.046402283	0.009287049	-0.0969158	0.12603925	0.026004603	-0.034014393	-0.15742625	0.02793065	0.14932893	0.031407762	0.24803288	-0.014310171	0.07972513	0.005301252	-0.08041113	0.019509092	0.10412171	
-0.043021012	-0.03325066	-0.061569452	-0.1494156	-0.010561954	0.06003345	-0.010114418	-0.030630758	0.15355897	0.024193937	-0.04038222	0.063994795	-0.07632488	-0.052912008	-0.09651256	0.018481217	0.023937127	-0.029655434	0.03158334	0.013712098	-0.026469577	-0.025082156	0.03625917	0.015900088	0.08740614	-0.03115114	-0.023425508	-0.07092821	-0.02343432	0.03844291	-0.09175322	0.15878354	0.13670233	0.19861211	-0.008375262	0.062450726	-0.0069665913	-0.0044259	0.06450539	-0.01585345	-0.0080529265	0.024205973	0.026895365	0.0065881414	-0.054433454	-0.013356593	-0.10103815	0.026196172	0.0109784035	0.06317177	-0.06414294	-0.038926672	0.0137387775	-0.015051773	0.060945187	0.0002743295	-0.04866241	0.03664898	-0.03309419	-0.036844064	0.06295584	-0.0027877863	0.1730467	0.090576075	
0.13118906	0.09937719	0.016142359	-0.07999827	-0.05014926	-0.11260351	0.00027768157	-0.022862634	-0.058208667	-0.05205333	0.036744937	0.16404895	0.15604389	-0.04742297	0.042436447	0.06647578	0.011318099	0.0001184663	0.08908287	0.08043081	-0.00075485086	0.12721306	-0.0044844826	-0.08020708	-0.0497551	-0.05395188	0.09160813	0.16891442	-0.03340913	0.017552974	0.03145868	-0.17374973	0.049465783	0.008320273	0.01806649	-0.07630227	0.18970925	-0.061760493	0.09968045	-0.0031226608	-0.06323472	0.037527774	0.05824953	-0.015547064	0.025740689	0.0036553778	0.1116051	0.023191445	-0.013244418	0.19597392	0.05500571	0.19683592	-0.06905442	0.0035270413	-0.026396694	-0.074874796	-0.017269839	-0.11522246	0.15505153	-0.06599138	0.10714467	0.053051822	0.0639617	0.0121761095	
-0.040566634	0.1851997	0.01746427	0.036672767	0.20623352	0.0049536615	-0.041092034	0.0011471326	-0.010698764	0.029010773	0.034721512	0.08215769	-0.14006847	0.22338133	0.092275485	0.07520376	-0.06786159	0.13882484	-0.13009763	-0.08583107	-0.026949931	0.0020099916	0.044399545	0.0935168	0.030529955	-0.09325641	-0.05238232	0.0016248235	0.07482339	0.06618975	-0.01621013	-0.03891781	0.054761764	0.032659758	-0.05693279	0.015624993	-0.092883185	0.13253333	0.0038957777	-0.018937351	0.20701401	0.017482242	0.015330698	0.04309067	-0.17515008	-0.02119267	-0.015707517	-0.09022172	-0.05025534	0.043472048	0.098496355	0.08882541	0.0750689	-0.019954683	-0.03317499	0.045443837	-0.06949193	0.36636868	-0.002032299	-0.10822755	0.093520194	-0.046359137	0.09553542	0.090194725	
0.054965436	-0.14902028	-0.07821778	-0.03333551	-0.06468699	0.13594672	0.02872815	0.0032190788	-0.024537122	0.032679435	0.0067161	-0.018296376	0.0090210885	0.01158396	-0.011056638	-0.06442663	0.03205771	-0.07427283	0.0144641455	0.01733758	-0.00014522813	-0.1123682	0.05301997	-0.17450003	0.06288862	0.06469062	-0.032780875	-0.032635525	0.057592537	0.0047699474	-0.05970615	-0.20501298	-0.14910057	-0.054106172	-0.010390349	0.033145357	0.09144253	-0.00059827964	-0.041182272	0.0076093986	-0.120997965	0.05496186	0.01041647	0.0027868724	0.005421661	0.012413545	0.045422383	0.03345522	0.09200834	-0.027570652	-0.023047047	0.049770895	-0.09704651	-0.06342172	0.024841055	0.029179437	-0.056722384	0.08259881	-0.14350735	-0.051357895	0.030161522	0.009008247	-0.107272245	-0.08224474	
-0.09916169	-0.16621882	0.09244024	0.099270545	0.14828812	0.13933651	0.004067243	-0.040234234	0.09588751	0.011961114	0.019287221	0.15405768	-0.005359465	0.10965417	-0.03980814	-0.044877235	0.1225062	0.014767034	0.004895439	0.013429158	0.056186885	0.103164434	-0.04437737	0.060643904	0.08879312	-0.04306563	0.007956706	-0.020395886	-0.014687239	0.02156486	0.08328207	-0.09925687	-0.00028060016	0.113624275	0.021033313	-0.023820667	0.08021229	0.08920196	0.090435416	-0.029893586	0.15850705	0.10314511	-0.049666803	0.009317407	-0.12708029	0.01968119	-0.0751679	-0.027017467	0.047758613	0.12316656	0.014716023	0.10020599	0.010714136	0.0055903518	-0.05525662	0.048931234	-0.10073081	-0.016058583	-0.06815486	-0.094021566	-5.146062e-05	-0.03093583	0.09955663	-0.052944224	
0.04358215	-0.009934995	0.2443066	0.23105071	0.203778	-0.1036513	-0.0047594104	-0.007058271	-0.04112028	-0.04403245	-0.03802576	-0.023748314	-0.024135612	0.07864839	0.11577594	-0.22367537	-0.047406998	-0.0071676113	0.08354014	0.07008257	-0.00096297584	0.10256075	-0.0037438658	-0.050309733	0.0624555	0.01502581	-0.0015411206	0.07283893	-0.024468366	0.15095358	-0.0715644	0.029443992	0.04118043	-0.118936084	-0.02400929	-0.019805273	-0.19672786	0.04731291	0.021773707	-0.019246656	-0.08244255	0.06698977	0.018334106	0.0554108	0.20183484	0.018425327	0.017516859	0.035334226	0.025780722	-0.048152246	-0.048485797	-0.024756916	-0.025149561	0.011627946	0.09270892	-0.09383266	-0.14539522	0.06723128	-0.13687508	-0.11848327	0.047472786	0.061593108	-0.104522295	-0.099269584	
-0.07169578	0.10576007	0.20852657	-0.07479897	0.13448764	0.101888604	-0.015899552	0.063469246	-0.035557516	0.0008632782	0.16148649	0.4349464	0.02743441	-0.020641519	-0.015546092	0.012567882	-0.2173435	0.07400656	0.09722022	-0.0018505425	0.023208978	-0.057367377	-0.09109675	0.21339138	0.038563635	0.14767197	-0.00692976	0.19698137	-0.026462408	-0.0054539368	-0.081507206	-0.057410352	-0.1564413	0.24000652	0.08022693	-0.119627066	0.088305674	0.048810747	0.077892825	-0.015868867	0.20565669	0.43217367	-0.013016623	-0.04149849	0.14846045	-0.027199864	0.067389	-0.006764383	-0.014396728	0.24416566	0.019739738	0.42850295	0.07901106	0.1402238	-0.063708715	0.07225377	0.24958375	0.044185154	0.104298346	0.10833039	0.1649985	-0.0021697956	-0.020882063	0.015524813	
-0.03125901	-0.004391398	0.22966309	0.023623075	-0.06840592	0.06383384	0.02337919	0.012620224	0.023794636	0.012975336	-0.042492844	0.017792018	-0.07336751	0.07279473	0.012443615	-0.02026426	0.046791267	0.17263657	-0.037998598	-0.076138966	-0.01355802	0.010660289	0.094906025	0.087155715	0.123067416	-0.019221747	-0.05957796	0.003957035	-0.042857464	0.009615129	0.15273418	0.0101715475	-0.019149661	-0.15367755	0.09539087	-0.017811865	-0.04498427	0.013130355	0.017998772	-0.06141682	0.17715281	0.10438485	-0.08090197	-0.019717876	0.051356047	-0.0006932889	0.011294223	-0.036624987	-0.035413273	-0.06982985	0.09506901	-0.11337678	-0.03160036	-0.1250094	-0.18939556	-0.12002441	0.005422916	0.24740236	-0.02813715	-0.14698727	0.01066659	-0.07666516	0.044905853	0.012884903	
0.036142968	-0.13852507	0.17392267	-0.20242652	0.057092633	-0.10344734	-0.060190585	0.05812661	-0.09051156	-0.05257927	-0.025407668	0.09030019	0.11323729	-0.032203905	-0.085645415	0.12626508	0.07417653	0.22957943	-0.0047734575	0.03098427	-0.0015815095	-0.12534411	-0.009720797	0.093846776	0.19831198	0.008170533	0.09363344	-0.0006622508	0.012426689	-0.045719113	0.01665148	-0.04615287	0.097983144	0.0038930064	-0.053057577	0.057331514	0.010753611	0.032488417	0.042504553	-0.006231967	-0.053118095	-0.105077036	-0.049739234	0.08450975	0.023929043	0.01446112	0.12765445	0.036491133	-0.0009815394	0.061637808	-0.039905712	0.026447479	0.05084202	-0.0023565062	-0.027369494	-0.044208147	-0.088621914	0.012530356	0.07742583	-0.28601828	0.035561245	0.0142087145	0.14187206	0.059287235	
-0.099308796	0.18313989	-0.0114731025	-0.093694806	0.049324498	-0.06459377	0.035645492	0.04126176	0.12834595	-0.017492417	-0.05532684	0.12717822	0.011162489	-0.13841388	-0.05456816	0.03311231	-0.020312184	-0.018676983	-0.011416102	0.059534293	-0.0055888654	-0.0123956995	-0.040219665	0.055785332	0.0098889535	-0.06188203	0.03860463	0.103982225	0.053055763	-0.110586435	-0.081062295	-0.096923135	0.011749202	0.00096807536	-0.039413445	-0.003685124	-0.0069602616	0.02971212	0.021064343	-0.02106549	-0.19955374	-0.078205176	0.0049536135	-0.03981886	0.06962209	0.034026857	0.033855375	0.026356474	-0.0059442753	0.14615025	0.00089634	0.1190165	-0.03345565	0.042763624	-0.33006558	-0.031494584	0.13663967	0.023595354	0.13432479	0.060730338	0.03400477	-0.008306273	0.08009009	-0.041555736	
-0.019073104	0.1507914	0.04125948	-0.06456871	0.28133556	-0.19783229	-0.062462218	-0.23955867	-0.35324448	-0.052753445	0.0064347433	0.03334649	-0.17566913	0.0069251126	-0.24562028	0.29085502	-0.30940178	-0.073966905	-0.16662537	0.07549104	-0.15410125	-0.17879875	-0.08988835	0.12302582	0.11453302	0.44729754	0.05108074	-0.017339587	0.015561807	0.03353127	-0.39478728	0.53584284	-0.16405569	0.2838782	0.08941948	0.07532033	0.2560678	-0.02970012	0.0052554104	0.059487488	-0.21461698	0.01409704	0.054500412	0.286319	0.002929956	-0.04483477	0.035786696	0.16258031	-0.0417801	-0.023231085	-0.037927493	0.10367566	0.2084873	0.15539324	0.103369884	0.17136465	0.22201023	0.07764721	-0.003992763	0.058383163	-0.24172968	-0.03692649	-0.097050905	-0.035727058	
-0.037706617	0.18103579	0.14882109	-0.2797583	0.11075649	-0.27317727	0.05398059	0.03673441	-0.045084063	0.001358352	-0.04135136	0.14301401	-0.15197624	-0.37515607	-0.006377936	-0.027444122	0.29778567	-0.035460122	-0.18672463	0.01623747	-0.0052165147	0.020306172	0.15745215	0.2229987	-0.1264083	-0.1453675	0.054320272	-0.04351734	-0.03462302	-0.055257924	-0.14585376	-0.021747874	0.045951784	0.015223824	0.10960952	-7.698887e-05	0.1843594	0.046010207	-0.047801934	-0.07088381	-0.14876905	0.16400254	0.019396938	-0.06529766	0.27299455	0.04919045	0.05396335	-0.03705513	0.0013234597	-0.08490202	-0.06169924	-0.17053077	-0.014893062	-0.10717825	0.02841334	-0.02279409	-0.014818955	0.01254608	0.006364559	0.30693635	-0.08929544	0.052742086	0.15898982	-0.109027	
-0.0039175865	-0.27158514	0.0073994347	-0.0591906	-0.03682999	-0.038213883	-0.0003966457	-0.010587408	0.06824921	-0.026142089	-0.11511889	0.1174933	-0.036386095	0.07951683	0.057394665	-0.07773089	0.023456478	-0.048934378	-0.0043343175	0.007229684	-0.02491589	0.10204775	0.07859184	-0.055457745	0.0054292195	0.028716417	0.06751958	-0.07850788	-0.123531245	0.25660694	-0.028853297	0.06151198	0.12265799	-0.07263993	-0.019387297	0.06318955	0.08408618	-0.09751749	0.16831717	0.0085479105	-0.006199598	0.051561236	-0.0053887796	0.024408307	-0.1312016	-0.009411476	0.22180584	0.014067605	0.057251096	0.07382637	-0.027082546	-0.08265606	-0.013842512	-0.08530606	0.045290075	-0.0056805075	0.14024541	0.050079476	0.0092247985	-0.044947132	-0.033459127	-0.0029242432	0.04397048	0.04567569	
0.057042982	-0.06813853	-0.066740766	0.12873241	-0.1287531	0.049992785	-0.054189883	0.028318936	0.3045797	-0.010196224	0.076443136	0.091857344	0.2141708	0.10873155	-0.012125947	0.17032468	-0.07092001	-0.09588378	-0.04144418	-0.010615803	-0.021785466	0.021640277	0.008589718	0.016829522	0.004797142	0.031356853	-0.043482505	0.042398807	0.026590548	-0.15571448	-0.0056935176	-0.037140813	0.03663614	0.04909349	0.0061838836	0.008008915	0.05038592	0.059062336	0.054106608	0.0020357694	0.021569915	0.038919054	-0.008683562	0.030104226	-0.2764307	-0.008088677	0.06404163	-0.03243327	-0.0160055	0.023449587	-0.05907601	0.014180258	-0.081467986	-0.011985848	-0.118129745	0.037373733	-0.0011882377	0.0016135452	0.1422365	-0.16545379	-0.012765605	-0.005916834	0.01610993	0.045531064	
0.0044057756	-0.1406688	0.038939673	-0.027944345	-0.13652755	-0.06916382	-0.019207839	0.01487614	-0.024904149	-0.013795855	0.09735355	-0.041043926	-0.053389996	-0.06463644	0.04365983	0.16628423	-0.098453596	0.010893055	0.048346825	-0.041081633	-0.057533577	0.07016406	0.094656214	-0.09293959	-0.16918693	0.052567333	-0.014008061	0.0088414075	-0.016731767	0.2554905	0.07441774	-0.121490814	-0.014585485	-0.31700572	-0.0073560625	-0.07505184	0.060035057	-0.0146721555	0.13555163	0.028044052	-0.022323892	0.06861823	-0.012503247	0.036107317	-0.005256401	-0.035799813	-0.080871515	0.004023839	-0.002898937	-0.097153805	0.011761212	-0.09423946	0.07467926	-0.09767002	0.099466585	-0.08680956	0.22051688	-0.020623155	-0.030273285	-0.15681474	-0.10822715	-0.044734444	-0.14646791	0.050599195	
0.027542178	-0.100295156	0.011400858	-0.055679567	0.15575147	0.027659778	0.00283583	-0.030567074	-0.07698697	-0.008806294	-0.026993694	-0.011505098	-0.0075075524	0.1827353	-0.00671115	-0.026323851	0.029084705	-0.031935446	-0.09562369	-0.037266444	-0.015911316	0.0075414632	0.010873265	0.084272414	0.11338553	-0.02737933	-0.0070357295	-0.08222324	0.044629373	0.10039912	-0.014602039	0.061998587	-0.10464594	-0.037057795	-0.008696147	0.017307403	-0.07517736	0.054249547	-0.016480722	-0.018866014	-0.02930877	0.022358416	-0.022026984	-0.0010718948	-0.03254592	0.00691393	-0.12752406	-0.059520837	0.062765874	-0.038689688	-0.0015727731	-0.06534698	0.018837651	-0.030244475	-0.023033518	-0.0037654878	-0.14760898	0.040371317	-0.058438115	-0.022856023	-0.00029967478	-0.07240934	0.033493843	0.08299485	
0.11545585	0.10071911	-0.14231898	-0.07489801	-0.31196156	0.091443695	-0.025345206	0.035882358	-0.1547512	0.02065236	0.0017933645	-0.17449364	-0.10802229	-0.14840154	-0.012747552	-0.023738893	-0.02367894	-0.04385886	-0.048207834	-0.037811734	0.020743813	-0.19168286	-0.10415616	0.060626637	-0.14491864	0.035858802	0.015300711	-0.13696545	0.06530215	-0.20426871	0.040079262	-0.038943846	0.12078464	-0.030351073	0.009229814	-0.008050715	-0.18291673	-0.11269195	-0.07132697	0.001346101	-0.15705393	-0.119021446	-0.059912883	-0.070540294	-0.49981707	-0.016343478	-0.059045263	0.03885599	-0.09169113	-0.14114286	0.012973356	-0.08686259	-0.1375161	0.08555107	0.038437724	-0.06319812	-0.14036612	-0.10995149	-0.018073982	-0.12435595	0.039982624	0.042130668	0.009824267	-0.12221357	
0.086902775	0.20016961	0.007164866	0.05852303	0.03015144	0.03625464	0.028181052	0.09048663	0.008475801	0.022390012	0.018984096	0.29844007	0.00064372196	0.2864443	-0.051976025	-0.124392994	-0.013881108	-0.04543814	-0.038750943	0.027851589	-0.02914922	-0.0470985	-0.024148725	0.20456402	-0.11241821	-0.04855556	-0.09609313	0.11425821	0.08409341	0.05522402	-0.008760459	-0.07017715	0.029698884	-0.0075273174	0.03923183	-0.12342132	-0.07101966	-0.008159236	-0.0074843746	0.008280181	0.4325032	0.22343996	0.05008142	-0.055843387	-0.09100504	0.042433184	0.119964205	-0.029663531	-0.030585954	0.2513031	0.08547863	0.19051614	-0.010857112	-0.006479911	0.018320372	0.028653525	0.03869519	0.016649397	0.02723372	-0.17915072	0.12625799	-0.042732198	0.07378505	-0.011692641	
0.01966265	0.27715036	-0.0913518	-0.3101163	-0.32520983	0.11472004	-0.044871997	-0.04273778	0.2234815	-0.023624744	-0.17269358	-0.24242792	-0.41601273	0.16390406	-0.043932747	0.07987684	-0.087217815	0.05747424	-0.1177154	-0.10028402	-0.089935966	-0.0991381	-0.18889411	0.20270109	-0.03549111	0.040740028	-0.02535762	-0.39979964	0.14362428	0.0787357	0.07341643	-0.13181736	0.16634443	0.040844664	-0.07624771	0.041032054	-0.09234864	-0.04953395	0.063795336	0.031069783	0.013447145	-0.105488814	-0.08202284	-0.13212836	-0.1484503	-0.08147576	0.011856021	-0.18914108	0.024882074	-0.1724242	0.0053104097	-0.23774786	0.13875394	0.17184994	-0.024047283	-0.010067118	-0.026735215	0.06054232	-0.014550259	0.27518985	-0.07514337	-0.09912348	-0.17355514	-0.05569636	
-0.010785874	0.088755	0.11189025	-0.04377527	0.034450836	-0.09051711	0.009787674	0.03201608	-0.115067005	0.010171936	-0.03796662	0.02619033	0.007637394	0.033431403	0.0022966447	0.072256185	-0.050206117	-0.08703998	-0.014721711	0.051657405	-0.028414069	0.045013353	0.08083909	-0.034446083	0.03191761	0.029086046	0.0019364277	0.03942553	-0.039090678	-0.21512224	0.0492862	-0.10731964	-0.005919643	0.09659202	-0.019372841	0.010525983	-0.040449858	-0.05904013	-0.079152666	0.008758333	0.09189317	-0.030995749	0.12492523	0.079064235	0.11452861	2.3989658e-05	0.0220329	0.02920377	-0.037051864	0.013802413	0.09695724	-0.098914295	-0.04881902	-0.06592211	0.047308326	0.053672753	0.054176103	0.011279431	0.025900021	-0.13193823	-0.058715973	0.048481673	-0.05690757	0.050521977	
0.03165101	-0.18348658	-0.1616934	-0.011063966	-0.016613776	0.11191455	-0.0051649404	0.03306061	-0.09894331	-0.038526427	0.09666439	-0.024110034	-0.09083539	-0.16206694	0.0073381793	-0.12658821	-0.32136613	0.077367224	-0.10148944	-0.02809038	-0.027376655	0.05412645	-0.018152578	-0.0476715	-0.013419016	0.061659764	-0.026207607	0.033559613	0.03440939	0.13488314	0.07797138	0.1873407	-0.07284284	-0.14681257	0.053029984	-0.096470185	-0.1554859	0.04599023	-0.13829102	-0.018174538	0.008750773	0.053198423	-0.0116869295	0.013121898	0.12859787	0.00443105	-0.21314111	-0.06016056	0.053729843	-0.13993035	0.042802747	0.091842785	0.045190364	0.021357661	-0.064177565	0.039665826	0.039182276	0.07980352	-0.03232898	0.2047148	-0.024921846	0.022049278	-0.20514913	-0.081881516	
0.0066609033	0.18183032	-0.047214203	-0.05951113	0.04620974	-0.08360809	0.0069024474	0.014293086	-0.17921042	-0.03167102	0.004521219	0.19589408	0.09817549	-0.17273943	0.06381993	0.040179305	0.029500581	0.08443317	0.040248178	0.081948034	0.04604881	0.010059823	-0.01823348	0.012948321	0.0617291	0.07797671	0.057005435	0.03749412	0.03901308	-0.019706089	0.026036551	0.124445416	-0.06838381	0.09798701	-0.031590085	-0.0583212	0.012029972	0.007591267	0.037676383	-0.013227572	-0.012359578	-0.012467005	0.07529978	0.009708044	0.028318426	0.0058927434	-0.026474088	0.027967842	-2.1341391e-05	0.11654796	0.0068996497	0.20402776	-0.021813473	0.014060543	-0.027876655	-0.0125674065	0.10058885	0.02587389	0.07519736	0.11103476	0.14757857	0.0025794778	0.06761409	0.010269121	
-0.124730416	0.26866522	0.16479565	0.07299755	0.09382875	-0.047762755	0.0068514203	0.010243727	-0.256682	-0.009754021	-0.03893932	0.14498457	-0.057824295	0.10970744	0.050539657	0.07208065	-0.008487903	0.03302152	-0.026360767	0.101289295	-0.026550848	-0.0013187695	-0.10233716	0.19701983	0.061803658	0.095888376	-0.025285095	0.012342209	0.055998158	0.06416345	-0.06867672	0.0323706	-0.059367638	0.1849247	0.0113713965	0.001687576	-0.06254789	0.030228931	0.028983874	0.016066046	0.040839065	0.05947924	0.07754996	0.08670415	-0.11738751	0.014991634	-0.21390243	0.039027963	-0.08181626	0.06988025	-0.03539551	0.017086826	0.028448392	0.055408023	-0.053110793	-0.0032535149	0.11322244	-0.022517491	0.05867101	0.08010048	0.049516235	-0.061746206	0.077657335	0.021082694	
-0.014286896	0.022006314	-0.041290235	-0.039254062	-0.018051581	-0.07211776	-0.013351915	-0.030292338	0.022199674	0.0041160365	-0.009359469	0.065752	0.013631196	0.07093956	0.039297696	0.03958303	0.06524369	0.06514864	0.010098292	0.007379954	-0.0051406207	0.07463015	0.01782168	0.024980186	0.043115497	0.12186534	0.0016813717	-0.005708861	0.052819483	0.09496506	-0.01154564	0.09864567	-0.0104250545	0.0889789	-0.009471929	0.042882252	0.009481467	-0.0034726337	0.011917943	0.016054016	-0.023789484	0.082550086	0.053956624	0.050766785	-0.084813796	-0.020423036	-0.1154538	0.0072711697	-0.03048764	0.105266444	-0.022175811	0.052924525	0.04325268	-0.014975191	0.08761447	0.004462068	-0.11755999	-0.08143369	0.010955212	0.042302813	0.08726	-0.06239781	0.044337567	0.112250976	
0.06334345	0.1534978	0.085996285	0.083486706	-0.07158922	-0.04515958	-0.010492669	-0.06888136	0.003992632	0.0005027522	0.0010301395	0.20923325	0.12202088	0.12834567	0.050022665	0.02423252	0.109615766	0.07401345	-0.08835307	0.06976888	0.005628946	-0.031604208	0.023361327	0.21216664	-0.013599804	0.16904227	0.023459386	-0.012922377	-0.061447658	0.078992024	0.04523321	0.055239562	0.008075284	0.29244912	0.0058287354	0.080068365	0.021524338	0.111817375	0.077839576	0.016192451	0.00074529555	0.19501801	0.0749378	0.021478755	-0.05180667	-0.03808998	0.0490392	-0.02266061	0.0034452649	0.2750315	0.046556555	0.0077688894	0.04351102	0.009026028	-0.113335826	0.04829114	-0.14646676	-0.13910256	0.037901286	0.1205642	-0.070515454	0.0027762717	0.046258967	0.0063585755	
-0.03688285	-0.15721233	0.035225924	0.036694378	-0.085078746	0.06755299	-0.033988297	0.06761706	0.051984176	0.0024551314	0.057188664	0.09072802	-0.010806269	-0.0069552525	0.0655602	0.03638743	0.05316763	-0.008818587	0.007513653	0.08102825	-0.03578182	0.019523924	-0.020186443	0.08517468	-0.025518434	0.027803568	-0.02598565	0.10919184	-0.08585975	0.011989362	-0.01522926	-0.031408288	0.047672734	0.0634346	0.007993688	-0.006036347	-0.04185462	0.10724458	0.05412003	0.035203956	0.0705347	0.05236263	0.026710756	-0.14546375	-0.022834545	0.004294008	-0.009184274	0.057496246	-0.058772635	0.035492077	-0.032199882	-0.061405677	-0.075112514	0.06196529	0.060621656	0.036158986	0.0758643	0.115124814	-0.0328739	-0.015619857	0.0054122885	0.014733452	0.06675175	-0.032213703	
-0.06652765	-0.08427489	0.043099836	0.030611474	0.04171018	0.037147257	0.0070817284	0.06887022	0.29771784	0.0077921166	-0.08706902	0.13896976	-0.007429543	-0.16047786	0.10534975	0.11888394	0.0512395	-0.039493844	0.046006877	0.057996802	0.0014524818	-0.12589037	0.09158738	0.059177004	0.17919153	0.058785986	0.0051517147	0.021039924	-0.026635313	0.1726307	0.10332665	0.22304699	0.017407505	-0.012613006	-0.04376579	-0.012894354	0.02461554	0.0641563	-0.02365255	0.014724102	0.059369866	-0.01020292	0.035132878	-0.007938091	-0.07145457	-0.009704933	0.18527418	-0.06655465	0.03299113	0.31033564	0.03916495	0.052759863	-0.08112751	-0.07240897	-0.07111952	0.063994125	0.097522624	-0.16516975	0.02612832	0.06700037	-0.077454746	0.027555382	0.14242327	0.055823654	
0.060120907	0.07196789	0.0042331438	0.005002589	-0.13466737	-0.041560784	0.009379587	-0.06206331	-0.07363949	-0.025462117	0.006267363	-0.012401277	-0.018919012	-0.04526254	0.07111268	-0.03497053	0.010504032	0.014962183	0.106094904	-0.023340112	0.03525916	0.04885953	0.0047219857	-0.059588388	0.044672266	0.1602042	0.032529883	0.027222533	-0.032679487	0.0056937346	0.11083637	-0.070650406	0.056147754	0.060638566	0.063297965	-0.0072380467	0.032040562	-0.09149254	0.015949516	-0.01527748	-0.15915886	0.06267929	-0.017355353	-0.034432653	0.10107106	-0.01340101	0.14894558	-0.10100963	0.05613733	0.028299943	0.02433619	0.013797946	0.050101783	-0.020807605	0.13080096	-0.076456614	0.2696345	-0.0004997401	0.009538162	-0.04757402	0.039029732	0.12083107	-0.019929959	0.01406245	
0.04921441	0.25789353	0.13541538	-0.16215679	-0.048735622	-0.012479734	0.1073859	-0.028878096	-0.046698343	-0.053181197	-0.1973291	0.00039300983	-0.02958953	-0.3144891	0.21105193	0.003167364	-0.2754751	-0.015015012	-0.034019496	0.07695239	-0.006114205	0.017645545	0.0070334007	0.03200967	-0.021326378	0.11237572	0.008985559	-0.038395464	0.113932066	-0.042192604	-0.008677182	0.33683127	0.1481837	0.013840602	0.007578294	-0.20872194	-0.0052232677	-0.0749335	0.018616792	-0.07475557	-0.15161426	0.06918074	0.07731578	0.022469897	0.27852705	0.049295533	-0.22958054	-0.065478645	-0.008680688	-0.2542513	-0.009996656	-0.08937208	-0.05153601	-0.009209283	-0.213847	-0.07602083	0.17704475	0.12011028	0.034693297	0.19036023	0.063620366	-0.048932236	0.012159959	-0.05892175	
0.113248646	0.16545784	0.010121622	-0.029183015	-0.0828021	0.012767783	-0.0014295421	-0.0372394	0.074198596	-0.0017737466	-0.03550989	0.0077760667	0.05512517	-0.1603853	-0.003748922	-0.050284337	-0.0164646	0.0026267718	0.004327964	-0.039985884	-0.0037787736	0.122962974	-0.031668097	0.11824329	-0.030224932	0.16436036	0.024680842	-0.006751151	0.053654745	0.10629408	-0.088322476	0.13493712	0.030457675	0.0042297733	-0.037443258	0.081291065	-0.18539438	-0.017466972	0.026356189	0.007866272	-0.023702106	-0.090653695	0.026279017	-0.11141681	-0.015943749	-0.02772907	0.000107534666	0.021905879	-0.037134103	-0.013994881	0.016736085	-0.0029718822	0.0068601575	0.03968643	-0.035667077	0.002719082	0.13532026	-0.037411913	0.03547662	0.0631582	0.022599801	0.035848677	0.1239912	0.0818869	
-0.10035434	-0.01432476	0.11233245	0.02160151	0.046085823	-0.017850874	0.0023941388	0.02490758	0.034639236	-0.0067102537	-0.032110143	-0.01437654	0.12396671	-0.03708473	0.0033099293	0.05907054	0.0020797865	0.023731653	-0.14281805	0.050409198	0.014934202	0.12756392	-0.018780485	-0.042287435	-0.021052822	0.059679244	0.032446958	-0.026260981	0.0442091	-0.1633778	0.0042812233	0.07799549	-0.09305674	-0.061057772	-0.010898647	-0.017435098	0.07094825	0.019152217	-0.023679124	-0.00249923	-0.05693086	0.08208111	0.0027868263	0.026556075	-0.040632404	-0.002577649	0.07987091	0.12247181	0.0041230205	-0.07829438	0.014751262	0.0010145379	0.026847526	0.016416127	-0.11021313	0.02543079	-0.06389984	-0.05874932	0.0034951179	0.10153254	-0.06401925	-0.16443843	-0.11017559	-0.024027586	
0.16679467	-0.09104031	-0.0498713	0.15942052	-0.0030518011	-0.032049324	-0.006507315	-0.015060694	0.06729279	0.014536909	0.028053729	-0.09111422	0.12134487	0.12108679	0.07810809	-0.031094324	-0.0005426987	-0.020454044	-0.016849944	-0.00836596	-0.019172864	-0.036595877	0.0502705	-0.08186755	-0.020476757	-0.0017492081	-0.04275709	-0.05639032	-0.0015910647	-0.0007812467	0.046703223	0.0845264	-0.089533925	-0.05073191	-0.022776036	-0.03718328	0.051426917	0.052129183	0.0078756735	0.0016188168	0.07032181	-0.013720065	0.009879309	-0.053105466	-0.13178465	-0.027440205	0.050756898	0.022416774	0.07959518	0.012468224	0.03933719	-0.060263865	-0.0007346705	-0.0457695	0.06192109	0.032166205	0.08293595	0.013094016	-0.07797532	-0.08332971	-0.0771436	0.031637046	-0.11091535	0.01533376	
-0.02180181	0.3287462	-0.10025569	-0.12463365	-0.032643978	0.055502266	0.051723693	0.10541641	0.05447962	-0.010769671	0.03689129	0.28492272	-0.054963242	0.06373618	0.074579224	0.05113046	-0.0317254	-0.21441574	-0.017247904	0.062451452	0.03353077	-0.09681497	-0.0033614703	0.19683817	0.19341205	-0.04165192	0.101083204	0.08846923	0.031524077	-0.15391622	-0.13904814	-0.21175086	0.047979146	0.21571681	-0.04991886	-0.02513541	0.12344208	-0.018833913	-0.013185194	-0.014678472	0.09092387	0.07086305	0.03899151	0.045492176	-0.042013887	-0.005539242	-0.068891294	0.015610625	0.036740057	0.207148	-0.0040212427	0.22933532	0.06887571	-0.014632143	-0.010457266	0.042995274	0.012369273	0.07323203	0.07921063	-0.036510162	0.04866625	0.01849315	0.09418168	0.028120566	
-0.002302711	0.09152216	0.14175794	0.0048776558	-0.010164934	0.04880304	-0.011860967	-0.020893365	-0.1235121	-0.017324714	0.037892386	0.032824777	0.081700586	0.11335996	0.018036464	0.037262913	0.019211031	0.104165114	-0.021839324	-0.013940742	-0.04966413	-0.045576178	-0.014245319	0.044166874	-0.070311174	-0.0005716835	0.0325278	0.07300012	-0.029798308	0.049205963	-0.09624002	-0.08625706	0.04383509	0.0455389	0.017178552	0.059410382	-0.04169662	-0.053241346	0.046009596	0.015677169	0.029488595	0.11227022	0.003430862	0.07969039	-0.08654725	-0.013336004	0.07229111	0.029083053	-0.02839087	0.060583986	0.07906368	-0.012523015	-0.015678536	0.037822776	-0.08970503	-0.07682981	-0.062548816	-0.13442318	0.029950602	0.032068133	-0.017616978	0.0730638	-0.0619812	0.010542579	
0.25843352	-0.15740383	0.12429934	0.0672822	0.19904664	0.017697237	-0.042611748	0.059019227	-0.043862745	0.023697913	0.09969622	0.12769958	0.12836438	0.080225065	-0.12176762	0.045701064	0.13046545	0.027509239	-0.09816446	-0.08433531	-0.02730638	-0.0011846221	0.24909085	0.055210628	0.112958714	0.06239302	-0.037482016	0.03147869	-0.08457869	0.13857386	0.10066301	-0.13813668	-0.024858113	-0.05285791	-0.0766018	-0.07109197	0.025106126	0.011779725	-0.03855947	-0.008694506	0.16769488	0.010670276	-0.030106196	0.038610872	0.33192956	-0.043040473	0.30675858	-0.033879057	-0.13114326	0.031166937	-0.07998165	0.035081826	0.15375362	-0.22662508	0.12279994	0.07479343	0.23724715	-0.15235162	-0.068903275	-0.24358858	-0.016476987	0.07492116	0.038062885	0.13305946	
0.0351169	0.07032188	0.034424007	-0.0014812375	-0.13907151	-0.05985305	0.015491924	-0.029587407	-0.042967893	0.009044754	0.018972388	0.059177544	-0.021353133	0.033921275	0.030153096	0.029956259	0.014663721	0.07354213	0.047623836	0.035076723	-0.03314239	0.047786433	-0.031769164	0.12629108	0.035416353	-0.0135460915	-0.008959029	0.031007877	0.005272498	-0.045811728	0.16012207	0.14520578	0.0026049227	0.07820908	0.011587166	0.014330253	-0.04005016	0.07625947	-0.00018851974	-0.008160727	-0.04166525	0.0031640271	0.031991042	-0.14382531	0.013912693	-0.012530269	0.045917086	0.006832986	-0.025823213	0.05194516	0.028137254	0.045704328	0.0015067068	0.04998043	0.0483518	0.054455932	-0.11317666	0.024612997	-0.027953882	-0.11079465	-0.025964737	0.01585519	0.034856673	-0.01905437	
0.009813626	-0.12499569	-0.031803362	-0.0069169574	-0.3911195	-0.087740526	0.04504956	0.0035476736	-0.0400152	0.016690006	-0.20222977	-0.16924003	-0.20250091	0.28360665	-0.13997202	-0.09299966	0.22525387	0.25433832	-0.018892039	-0.010747819	-0.057483334	0.078818806	0.06401522	-0.19110319	-0.08646311	0.061617963	-0.05025208	0.013577714	-0.16076022	-0.18356125	-0.0044216947	-0.007820704	0.062601484	-0.13695124	0.066115886	0.11514902	-0.02347953	0.06652551	0.0492881	0.01736812	-0.2836804	0.19079849	-0.04857989	0.029693838	0.31092876	0.0023742542	-0.082548216	-0.008418394	-0.00921613	0.10863707	-0.19714642	-0.07000951	-0.00052782847	-0.01623316	0.19868787	-0.04246167	0.23761947	-0.31268388	-0.18874979	0.23922507	0.016331477	0.068416335	0.035995904	0.08586003	
-0.07432603	0.273056	-0.15443861	0.08336282	0.043486174	0.016690934	0.018798461	0.075210325	-0.092676535	0.048109863	-0.0074476115	0.23860836	-0.04480824	-0.23812807	0.04142039	0.10936612	0.070604496	-0.043312892	-0.09723263	-0.051460866	-0.0025246295	-0.13043228	0.024026979	0.34748456	-0.2877445	-0.10365159	0.005181011	-0.08636214	0.17749728	-0.058026817	-0.047208887	-0.04647333	-0.06962525	-0.021912994	-0.026283976	0.056033596	-0.11188068	-0.17463405	0.0057264995	0.025023632	0.39489764	-0.012853047	0.05947262	-0.018555334	-0.18446112	0.0080748815	-0.16093113	0.1446222	-0.086889885	0.10484305	0.050971273	0.013142502	0.09975034	-0.021040866	-0.011499912	0.046623956	0.049716465	0.011502311	-0.050606128	0.066320375	0.008181519	0.033986326	0.25600547	0.184007	
0.47745338	0.7366376	0.20366566	0.08743204	-0.12532572	0.14242284	-0.05639574	-0.09070581	-0.27106768	-0.1745191	0.10033965	0.4909389	0.10245851	-0.29814696	0.28938892	0.18776691	0.19066247	0.103172004	0.7496947	0.10211938	-0.0072429194	0.18981989	0.015435412	0.23480454	-0.5284701	0.5979591	-0.2652604	-0.16969639	0.46332455	-0.25459233	-0.667129	0.19396238	-0.021565035	-0.12259331	0.09150722	-0.15755856	0.6091015	0.048827413	-0.29085708	-0.106221825	-1.6244961	0.48355195	0.14802855	0.26128232	0.05150485	0.19508035	1.0313311	-0.050834555	0.13472468	0.66395813	-0.821158	0.68938	0.37393415	0.03490558	-0.49476314	0.42266157	-0.7102613	-0.15747102	0.6382374	0.50737405	-0.16503187	-0.23299819	-0.13711414	-0.44410336	
-0.041733418	-0.2246335	-0.3635631	0.029576924	0.012080789	0.07383979	0.041068844	0.033485014	-0.07700264	0.0021815083	-0.09967175	-0.09938715	0.04019182	-0.17931832	-0.17208596	-0.028947648	-0.07700329	-0.14716816	0.20055094	-0.03196742	0.05944062	-0.10488137	0.05324681	-0.15755816	0.039313152	0.0013678449	-0.03155291	-0.11306503	-0.0138356965	-0.096405	-0.06988012	-0.1299291	-0.13167512	-0.18019788	0.005719421	-0.10960241	0.24366444	-0.1385076	-0.16788788	-0.0638055	0.08073909	-0.10125118	0.00042711396	0.03437182	-0.5994113	0.039714765	-0.03537793	-0.11333264	0.24271755	-0.15914862	0.0017987009	0.048998438	-0.0066810725	-0.074937396	-0.05799205	0.06712741	0.05031	-0.10600859	-0.045622382	-0.058674544	-0.0720914	-0.0518026	-0.1740017	-0.0011644567	
-0.09246392	-0.031612676	-0.111162655	0.024075707	0.054770343	0.21984965	0.017630253	-0.015669236	-0.04355559	0.009016509	-0.028080808	0.23506458	0.08825925	0.12227666	0.0002534822	0.06308472	0.021988465	-0.04721856	8.106575e-05	0.07043321	-0.008333863	-0.113840625	0.05740438	-0.0287227	-0.051846914	0.15776716	0.052723207	0.095025636	0.052644823	-0.0021115632	-0.056488667	-0.16493769	-0.0825997	0.027618911	0.032014176	0.041985963	0.105573386	0.0038682548	0.06581584	-0.0036276616	0.09738456	0.22647499	0.07876836	-0.036068946	0.01035424	0.033839844	-0.0030951318	-0.005644649	0.10677408	0.16714838	0.09536779	0.090911485	-0.12645036	-0.09280335	-0.06449507	-0.07633769	0.023371337	-0.026654461	-0.04639506	0.054538954	0.00075612724	0.07951425	0.018303217	-0.015188563	
-0.02179191	-0.13595235	0.1083007	0.15401989	-0.08796573	0.055503156	-0.017799748	-0.016830219	0.085621946	0.019452954	-0.1364435	-0.103822865	-0.10617506	-0.13014491	-0.19984902	0.10991643	-0.17921057	0.11253016	0.09963784	-0.12566018	-0.07920734	0.11009007	0.12907952	-0.1256351	-0.3900469	0.23848027	-0.043914955	-0.020524012	0.057781827	-0.15347393	-0.0800453	0.11493272	0.03675023	-0.24491653	-0.02964493	0.085007206	-0.08063589	-0.0075844326	-0.057184137	0.021441579	0.062441234	-0.07523401	0.03256207	-0.3593736	-0.23368613	-0.0024863852	0.05598452	-0.105897576	0.010063551	0.047163293	0.07521323	-0.043247826	0.026111286	-0.15588985	0.036896937	-0.14007081	0.042650912	-0.32227266	0.13719246	0.12790027	-0.035585765	0.12240339	0.123578414	0.15927854	
-0.075717226	-0.008780532	0.14971107	-0.05534171	-0.040310357	-0.018004002	0.04732928	0.012240018	-0.05576995	-0.0071251546	0.071155466	-0.08006939	0.0044553354	-0.06339681	0.045774058	-0.13638833	0.09838963	-0.011685205	0.09342619	-0.0596842	0.03885751	-0.021438437	-0.011839645	-0.04971432	-0.14988422	-0.082897805	-0.04105838	0.08580975	0.04239023	0.0023435012	0.013804641	0.022935262	-0.008484646	-0.10176872	-0.027017327	-0.01980581	-0.14146894	-0.050510183	-0.037541967	-0.021740973	-0.19522159	0.023407001	-0.07530115	0.112651095	0.118905775	0.00964939	-0.06543615	0.030297868	-0.0035468703	-0.029073643	-0.08675867	-0.014800508	0.017573863	0.0041207373	-0.13756175	-0.095295005	0.11633761	0.09539737	-0.11494311	0.1036364	0.02409709	0.040109843	-0.03585527	-0.023843138	
-0.1115492	-0.1372281	-0.095774114	-0.010429182	-0.05218164	0.08193989	0.010054301	-0.04380286	-0.0305355	0.010280563	-0.035144497	0.12100635	-0.028044073	0.026703108	-0.08345817	0.096843086	0.06483711	0.1771321	0.02456828	0.0055886027	-0.004007159	0.06533608	-0.02214105	0.0018346306	0.14546879	-0.024082152	-0.0111894915	-0.057915807	0.00024039907	-0.020420784	0.091145575	0.10209252	-0.03159071	0.23413584	0.052849203	-0.008134058	-0.061052434	0.18068266	0.08143099	0.038418412	0.05156779	0.018832818	-0.043219443	0.01648297	0.020239629	-0.0005310681	-0.006906113	0.060584206	0.016638065	0.21422634	0.044245638	0.20777139	-0.053270474	0.043330155	0.044959173	0.038266793	-0.17022806	-0.10822334	-0.054764792	-0.0059639085	0.025873525	-0.07863907	0.17199622	-0.015475816	
0.16383398	0.11508401	0.09782543	0.11944015	0.038239755	-0.13581282	-0.0049368115	0.02208846	-0.036795646	0.044745494	0.14322507	-0.067654185	0.06028019	-0.22024488	0.06366148	0.18357177	0.18368495	0.10688637	-0.18073805	0.0027743522	-0.074542336	-0.10082111	0.065948986	-0.016510362	-0.14328654	0.017005958	-0.025045572	0.12441229	0.05025053	-0.017145889	-0.10392277	0.1656162	0.018125053	0.0386488	0.026179044	-0.025638388	-0.06330269	-0.086796135	-0.17960455	-0.0019905563	-0.10742539	-0.061452243	0.079501845	0.09064278	0.1277901	-0.014717471	-0.10881392	-0.022068836	-0.012996606	-0.034173347	-0.007450721	-0.14487568	-0.029541269	-0.034566622	0.011415691	0.07752094	-0.112764135	-0.19728549	0.17839596	-0.14057109	-0.118967645	0.018360777	-0.035723057	0.028774476	
0.024190653	0.043942384	0.02669678	0.13058037	0.2040583	-0.06893874	-0.007893136	0.002606203	0.08266456	-0.023286533	0.005316859	-0.052998383	0.034477245	-0.10738548	-0.013501259	0.00036958652	-0.07421213	-0.09258845	0.009301853	-0.0111566605	0.020176075	-0.044299558	-0.083735555	-0.037881617	0.106861696	-0.049001288	0.008771102	0.047572266	-0.014627911	0.0063267485	0.07256826	-0.12943186	-0.034802742	-0.044241864	-0.0056403102	-0.046038464	0.050022557	-0.066560894	0.044487923	-0.015166895	-0.03184628	-0.12185956	-0.020842932	-0.07168084	-0.038801774	0.0137712695	-0.004122022	-0.04379786	-0.03683383	-0.078780286	-0.020982934	0.044237763	0.015856128	0.06260234	-0.013555481	-0.028188245	-0.075829186	-0.077267714	0.1393279	-0.099327676	0.03742381	-0.04259997	-0.0054324996	-0.0029884975	
-0.0939828	0.0018374501	0.06640969	0.14362887	0.1383741	0.059736606	-0.020021008	-0.0044447533	-0.042534992	0.047882147	0.048258107	0.24849968	-0.039321147	-0.0017848461	-0.056342784	0.041006662	-0.11836562	0.11079729	-0.020977253	-0.022602068	-0.023135968	0.04418175	-0.011584165	0.15538494	-0.020872086	-0.012596173	-0.004194317	-0.060969844	0.09057224	-0.08089606	-0.13595332	-0.053449582	-0.0054401476	0.19429575	0.08779375	0.011927835	0.04575846	0.03780377	0.062311117	0.012026397	0.058192708	0.13038085	-0.037132602	0.025483126	-0.2633818	-0.014733913	0.060327776	0.011503591	0.01613273	0.0045824903	-0.05649794	0.22787225	0.053993423	0.033072274	0.11986271	0.012905877	0.045464065	0.04409395	-0.027847763	-0.08450348	0.074006155	0.03750993	0.027689775	-0.044665843	
-0.021407029	-0.021998247	-0.031053314	-0.030324776	-0.0010190668	0.01633692	0.0005660042	0.03752528	0.04710683	-0.0172863	-0.06250853	0.07471499	-0.21703786	0.10963378	-0.03681308	-0.0108975135	-0.13081418	0.049138844	0.081524335	-0.023640428	0.04911142	-0.01585094	0.0043340665	0.010619876	-0.015787901	-0.08129025	-0.014367926	0.12035722	-0.06884087	0.057980224	0.10789487	-0.09852028	0.064020365	0.015366037	0.02062008	-0.03507937	0.020783138	-0.07486731	-0.067980275	-0.0068084816	0.08917816	-0.053908776	0.018865895	-0.02674958	0.19087712	-0.0033244712	0.040327635	0.01793341	0.0043988246	0.22382915	0.06978873	0.116157375	0.01028321	-0.0088615585	0.057309262	0.0983981	0.17178214	-0.053036697	-0.041919675	0.017129468	0.011462686	0.07794846	0.122175515	0.10220317	
-0.10099347	0.13360359	-0.07213125	-0.033008713	-0.030213503	-0.06259508	-0.03644127	-0.0195967	0.2529509	-3.0051073e-05	0.0114354985	0.19876005	-0.01489374	0.13004291	-0.02299891	-0.010000599	0.02272815	-0.010871977	0.047634266	0.050991893	0.027918562	-0.023641057	-0.15369378	0.16605793	0.10188126	-0.08586349	-0.012803562	0.048116397	0.078456886	-0.0929431	0.07525127	-0.26431972	-0.036541775	0.17314154	0.00965489	-0.06636145	0.037203632	0.068076074	0.02322684	-0.0038615104	0.19449739	0.11632332	0.024105035	0.036928277	-0.25465274	0.0059841727	-0.1603734	-0.019117484	0.0056266356	0.05323426	0.067321554	0.12396005	-0.018343274	0.12065733	0.013703124	0.112208165	-0.02073604	0.050562456	0.00041479422	0.16133307	0.05841001	-0.054744087	-0.0666084	0.01920631	
0.04384663	0.10696366	-0.08947832	0.14990732	-0.007054395	-0.0439414	0.013719688	-0.0088000195	-0.007899587	-0.020413775	-0.06106828	0.15320551	0.10856553	-0.057529226	-0.07784272	0.012430805	0.09445916	-0.0027733722	0.022499513	0.09759404	0.07144008	-0.112827785	0.010319904	0.017084658	0.17479748	-0.046799157	0.043109767	0.04673099	0.0075643156	-0.06873924	0.032418154	0.010110808	-0.066875815	0.09447324	0.036249343	-0.039338198	0.031347807	0.08525365	0.087326534	-0.013657525	-0.1078829	0.1651731	-0.00087210245	-0.06730623	0.19365369	0.016852489	0.20109539	0.036109574	0.0014144054	0.1995208	-0.079513565	0.051401485	0.02624016	-0.017600624	0.062281583	-0.016250135	0.0844516	-0.06677222	-0.07042627	0.2189269	0.009739271	0.0028333252	0.054910503	-0.08926777	
0.023201402	0.1872469	-0.019658605	0.052366424	0.0997365	-0.02477913	-0.035197888	-0.0020910213	-0.08438671	-0.02321036	0.010767006	-0.051391736	-0.11619648	0.12450003	-0.17541051	-0.13170989	0.051327188	0.021031952	-0.012928466	-0.009813243	-0.022742145	-0.108904056	-0.09086934	0.14883517	0.09782203	0.33467245	-0.06611519	-0.0061759674	-0.076971784	0.13005419	0.053499535	0.12923121	-0.0012470394	0.13738075	-0.014858556	-0.02173085	-0.021961244	-0.105233125	0.04738884	0.026699737	0.10079229	-0.11246763	-0.00079737825	0.0024776813	-0.08352691	0.02237838	-0.008007918	0.09182411	-0.07240216	-0.07798738	-0.03693781	-0.11537131	0.073573865	0.072474755	0.053308334	-0.022998597	-0.072611585	-0.07365056	-0.078002244	-0.029311866	0.033579998	-0.009054107	-0.012118099	0.09217971	
0.06806401	0.2625204	-0.033676565	0.06314855	0.07401363	-0.09097878	-0.016331397	-0.028956646	-0.16910596	0.018655729	0.05526139	0.06308153	-0.024341762	-0.110849746	-0.11435808	0.14901653	-0.050711803	0.13415109	0.060310118	-0.042180806	-0.04958348	0.03148103	0.07402078	-0.02130701	-0.013795024	-0.13171604	-0.03600874	-0.033641912	0.10337435	0.012338832	-0.026170472	-0.24113667	-0.08354635	0.12603037	0.033926528	-0.033767555	-0.0020978216	-0.0044926032	-0.035143744	-0.006244417	0.047139242	0.03896078	0.030050766	0.04347663	-0.01120473	-0.009891941	-0.07571837	-0.047503218	-0.03938835	0.098810956	-0.007980149	0.15831254	0.075894654	-0.073235564	0.019099325	0.0062596537	-0.10813404	-0.061522633	0.10700131	-0.1313256	0.10353863	0.017987251	-0.04806161	0.029821467	
-0.053961206	0.062198166	0.005329748	-0.010117596	0.0021277256	0.03506554	0.01635434	0.017054994	0.055364743	0.0018463946	0.022879237	0.01166421	-0.01971079	0.013539964	-0.081593156	-0.01085249	-0.09260923	-0.07263726	-0.015050238	-0.042707104	0.038373396	-0.07605217	-0.0043829763	0.00062544097	0.045823324	0.06919857	-0.015065196	0.03904096	0.004129667	0.057165157	0.05081787	-0.16225977	-0.018356996	0.00077957823	-0.0072555626	-0.08974982	0.12216757	-0.010314774	-0.06130883	0.0032341338	0.036731854	-0.011252802	-0.0036907136	-0.008964166	0.005398468	0.01966682	0.055549055	0.034771204	0.016117318	0.07267772	-0.004508849	0.14709063	-0.029422227	0.0025250602	0.029296326	0.038737558	-0.017654954	0.019100254	0.030255755	0.055437453	0.051233035	-0.027262047	-0.00845403	0.033621557	
0.07893535	0.37058634	-0.11645577	-0.19006857	-0.09510161	-0.1087968	-0.0141722625	0.026758447	-0.010651526	0.036745634	-0.015666325	-0.08656791	-0.14064462	-0.050801635	-0.10107598	0.14007838	-0.02106741	0.04587786	-0.13102238	-0.12282849	-0.043025777	0.020113872	0.09484127	0.10394073	0.10880263	0.14434615	-0.078293584	-0.13525248	-0.06801597	0.17646433	0.31469104	-0.29332015	0.06338236	0.15742478	0.16271406	0.029654048	-0.18121535	-0.049901035	-0.079410076	0.04887099	-0.02200337	0.079364546	0.066568844	-0.38016585	-0.06537298	-0.06638592	-0.21502429	0.08301548	-0.03330284	-0.029600224	0.078285165	-0.029602785	0.018372	-0.08498137	0.063056946	0.055271696	-0.24117258	-0.06427646	0.10607917	-0.27503166	0.026450176	-0.09880405	0.022403516	0.105825596	
-0.035456654	0.10893443	0.12650573	0.09644454	-0.027425172	0.04563759	0.013763882	0.08879247	-0.27153555	0.01064092	-0.010101883	0.114533596	-0.09912086	-0.33351007	-0.04552847	0.04720661	0.29831567	-0.007867011	0.07134998	0.08902786	0.0057028616	-0.08691551	0.011294435	0.082498886	0.024032937	-0.08219157	-0.014799923	-0.010042203	0.12998031	0.20216453	-0.22290662	-0.010513901	0.02007243	-0.07019908	-0.14870888	-0.21383339	-0.1261145	-0.005547852	0.0075256326	0.0022661418	-0.2104752	-0.21381076	-0.031646263	0.040637054	0.13876621	0.013792962	-0.011873256	-0.051448256	0.03877618	-0.12924477	-0.14853221	-0.0039910236	0.2392565	-0.013979342	-0.071386084	-0.10087582	-0.0600056	0.034220148	0.06255061	-0.16046615	0.056171667	-0.039991707	-0.04916565	-0.04465549	
-0.0011981443	-0.087672316	0.06481049	-0.022000153	-0.04405254	-0.031175202	-0.026944304	0.025138099	0.05514042	0.025979565	0.033539493	-0.0565768	0.033122007	0.14756413	-0.021416603	0.1667756	0.022031069	0.12682289	-0.0065812175	-0.063764185	-0.012718623	-0.036916833	0.17584512	-0.0784183	-0.19122307	0.026909908	-0.03430441	-0.06296096	-0.08422668	0.022109171	0.057861164	-0.18744053	0.068028755	-0.16277233	-0.042483736	0.066921085	0.037143104	-0.013692307	0.023064692	0.039358176	0.090067565	0.030347914	0.027872222	0.05874267	-0.04230797	-0.015081934	0.02388398	-0.058310367	0.012835825	0.06968484	0.025233906	-0.19424716	-0.044950247	-0.20107736	-0.18282582	-0.042190563	0.15722662	-0.058761165	0.09461176	-0.06639459	-0.04084363	0.009622296	0.13373667	0.19004579	
-0.31021082	-0.028056022	0.077424526	0.041386835	-0.00372197	-0.046317123	-0.028727029	-0.094026566	-0.11507086	0.0071414164	0.045525305	0.035475932	0.04621992	0.089208454	0.04660905	0.06117312	-0.018637734	-0.10184468	0.12748903	0.011547773	-0.044961352	0.1212705	0.064631574	-0.05441864	0.2251116	0.18615466	-0.0475918	-0.009683477	0.030916935	0.035965804	0.07158485	0.024877993	0.0089260675	0.19821288	-0.05447646	-0.0999158	0.051555343	-0.03493106	0.0056747403	-0.02219677	-0.02762956	0.02293021	0.07021076	-0.12506856	0.17775983	0.015751837	0.12359625	0.043405537	-0.06140325	-0.03790292	-0.058666773	-0.01644528	0.04313016	-0.033004183	0.09411006	0.027068833	-0.061316997	-0.20557256	0.06657474	-0.026360555	0.1333968	0.09183538	-0.014256344	-0.009495818	
-0.01562405	-0.13809547	-0.0356183	-0.028068151	0.038864065	-0.01329855	-0.018605577	-0.009438965	0.12300347	0.0048353164	0.093800955	-0.013346142	-0.016475229	-0.12465421	-0.03934879	0.08255831	0.01384029	0.05209255	-0.03251641	-0.06906026	0.026295414	0.18519531	0.11271751	-0.017946962	-0.1685031	-0.14377822	-0.05137388	-0.073982105	-0.012230984	0.0036883757	0.019729348	-0.045932002	-0.14968997	0.024381798	0.014545374	-0.057938587	-0.008923236	-0.03332738	0.026881723	-0.021007404	0.043462142	0.05405931	-0.019537536	0.044682715	-0.04437441	-0.0044755037	0.0007650624	-0.06866912	0.010770609	0.029685082	-0.014275884	-0.15298694	-0.037988372	-0.08569603	-0.018198404	-0.06935709	-0.017121596	0.049846534	0.07350343	-0.06440204	-0.013222711	0.006475534	0.050262865	0.06610628	
0.14911674	0.12569231	0.16377708	-0.11768615	-0.22170715	0.025143737	0.057077527	-0.013719137	0.01868725	0.03807675	0.011179836	0.020943727	-0.1298118	-0.03868402	-0.19683881	-0.09126924	0.1439178	0.07705038	-0.0050781043	-0.0028451032	-0.021011371	-0.42117637	0.019496541	0.0018468379	0.03746404	-0.23776126	-0.015206805	0.075107075	0.00025831038	-0.013083249	0.0010664717	-0.12572598	-0.0661688	-0.06350277	-0.04924992	0.12917921	0.076487094	-0.082679234	-0.05650677	-0.02979477	0.09991439	-0.00010957209	-0.021200195	-0.05918357	0.23873271	0.014622969	-0.019962158	-0.040006097	0.063580975	0.05263409	-0.06639887	0.09016832	0.07082507	-0.044941686	-0.14009376	0.04653241	0.071335696	0.12417066	-0.041692603	0.04218743	0.0034413415	-0.037583873	0.020544285	0.044115897	
-0.01720622	-0.045845993	0.0026444907	0.009191262	0.008214195	-0.025082817	0.003551863	-0.00048810162	-0.031256337	0.0011713614	0.01967886	-0.01670005	0.0007743952	-0.030910477	0.015055669	-0.00207455	0.016410569	-3.4457407e-06	0.002423744	-0.003952246	0.015446996	0.030757166	0.005297817	-0.0060035884	0.0023184083	-0.022056468	-0.021492027	-0.009663165	-0.0015322149	0.0043640505	-0.17206037	0.00046377472	-0.081700824	0.012429705	-0.00013639602	0.004122821	-0.016336625	-0.0179857	0.0013510906	-0.0029851266	0.024504691	0.0033618985	-0.021734206	0.09575742	0.052325357	0.008879755	-0.024843585	0.022986347	-0.0028641692	-0.010156077	-0.018019369	-0.051947437	-0.004938336	-0.0033393162	0.080855854	-0.0036022174	-0.118208155	0.0043190294	-0.029408608	-0.045519184	0.008408091	-0.0022301297	0.0014920624	0.0021302246	
0.038369935	0.034744076	0.012069225	-0.022067158	-0.005849305	0.11272855	-0.0018000175	-0.0064232214	0.039962642	-0.0032035098	-0.057894915	0.033992026	-0.18240453	0.02664206	-0.015155766	-0.022817615	-0.005722802	-0.0092352675	0.008535062	0.013706141	-0.021379977	-0.15489464	0.005386223	0.009200437	-0.015985863	0.019698223	0.053758893	-0.0077248844	-0.01583647	0.10004328	-0.12783092	0.00029537908	0.21059942	-0.039169464	-0.0053622783	0.022249056	0.016520223	-0.011952136	0.039176736	0.0070418976	0.07964226	-0.051896334	0.007950738	-0.091173984	0.03660145	-0.006580197	0.029450402	0.037926182	0.005310047	-0.035417363	0.01785452	0.038905445	0.017469872	-0.0020153858	0.12790175	-1.2863278e-05	0.14086807	-0.022214558	-0.017008582	0.09018329	-0.0145234335	-0.016634615	-0.01601797	-0.012194065	
-0.16711673	0.1632599	0.014636627	-0.072888754	-0.005618389	-0.1573744	0.005013492	0.0009081639	-0.0050790906	-0.0058011524	0.016387032	-0.063705325	-0.29918447	0.09542329	0.11261074	-0.01156731	-0.01743102	-0.015523042	0.009727491	-0.0004008246	0.011038055	-0.1096997	-0.065309905	0.12331245	0.06750186	-0.035442602	-0.046342745	0.007019344	0.0070897145	0.22662266	0.26597255	0.030584497	-0.0016818596	0.004178269	0.017455852	-0.0011047286	-0.05966723	-0.0654688	-0.022357441	-0.0014250098	0.003196704	0.060952194	-0.021196933	0.034464292	0.031994138	0.013370636	-0.07934324	0.10667653	0.0070186537	0.034145694	-0.014398547	-0.13169065	0.07080321	0.06039547	-0.041692417	-0.008316848	-0.076063626	-0.14131744	-0.053034645	0.04485393	-0.08636618	-0.011149376	-0.13628422	-0.009767798	
-0.009830299	0.015454379	0.013657902	-0.01656644	-0.027397571	0.1002742	0.00066396774	-0.0056694415	-0.0036488373	-0.004875418	-0.038198084	-0.0004251055	0.08624686	0.014668061	0.0060308743	0.016429318	0.009835041	0.019166812	0.0077237645	-0.011116176	0.0035633985	-0.19307998	0.021583447	0.065157354	-0.0047983895	0.081049934	0.017434748	-0.007981108	0.0101397475	0.09800346	0.010331314	0.0531038	-0.075697675	0.037224885	-0.0016913636	0.0006612074	0.04929084	-0.03109298	-0.014622916	0.0008671829	-0.10569174	-0.06794776	0.01854738	-0.069624245	-0.027371015	-0.018351316	0.007018219	0.1419686	-0.007964443	0.08406648	0.011928172	-0.069063134	-0.06705824	-0.017617427	-0.04814376	0.0062021757	0.021864783	-0.10323454	0.013920632	-0.03709754	-0.018509438	0.0099438345	0.12805554	0.014581226	
0.016204195	-0.06321904	0.026914727	0.012007739	0.038943347	-0.009527319	-0.004455188	-0.005553521	-0.037080675	0.007854868	0.028527895	0.07195144	0.200603	0.027242634	-0.3958453	-0.027921347	-0.00469462	-0.012759974	-0.056201424	0.013343026	-0.012311649	-0.05845851	0.009493863	0.04627828	-0.013974648	0.12495096	0.0014793136	0.017871886	0.0037075186	0.02826113	-0.020611718	-0.023911055	-0.0399279	0.0028309098	-0.00084178086	-0.009243965	-0.007880638	-0.0017998313	0.010788468	0.0069320826	-0.08409052	-0.01342998	-0.0081520425	0.0599545	0.0077906116	0.00925665	0.01097185	0.079542965	-0.00014815154	0.029981485	0.009815701	-0.017244726	-0.09701134	-0.0057487325	0.018578248	-0.0029653593	0.07068957	0.010406882	0.022405623	0.007328266	-0.0027494964	0.002579828	0.010436811	-0.013696562	
0.03468349	0.06972825	-0.053191483	-0.051086586	-0.021058396	0.047761686	0.004875297	-0.0009251413	-0.11225345	-0.0012046599	-0.032088295	-0.011852468	-0.07771855	-0.02838467	-0.022221602	0.018668037	0.066527545	0.0071743587	0.03469676	0.019790042	-0.0100146495	0.019356383	-0.00125657	-0.053926148	-0.034119047	-0.058822762	0.022589263	-0.017184308	0.0012750984	0.048506096	0.20278268	0.049691327	-0.26985514	0.01867281	0.0044910144	-0.0026770693	0.010976857	0.027082628	-0.0055125393	0.00842884	0.036909927	0.006265144	0.06334404	-0.1805172	0.11269783	-0.004270826	-0.0038725298	-0.017320296	0.011848374	0.004719618	0.03358661	0.0839644	-0.023982938	0.015366291	0.23384468	0.03153737	0.09611833	0.00026706737	-0.022497835	0.056861974	0.017959317	0.006326967	0.011167586	0.022398625	
-0.042708665	-0.032933846	-0.0830951	0.12514578	0.068130046	-0.18161441	-0.004014775	-0.0040348857	0.20724545	-0.007977596	-0.02453644	0.0039782217	0.33275163	-0.08319593	0.048689716	-0.029057134	0.11105646	0.05407577	-0.11903164	-0.014269013	0.027137496	0.16333471	0.027488457	-0.095644206	0.23064725	0.017380366	-0.067026585	0.011048361	0.028414873	0.17561589	0.014383025	0.22203262	0.25046209	0.0036464133	0.0130232945	0.0484899	-0.042061437	0.06196297	-0.026963646	-0.011471219	-0.02681883	0.08567668	-0.050275337	-0.5663206	0.009071628	-3.0087624e-05	0.19653222	-0.05270498	-0.020574545	0.12727313	-0.0032953143	0.0058105	0.016475094	-0.03798046	-0.045274623	-0.01673	-0.22145966	-0.12213714	-1.6617392e-05	-0.19488442	0.09049658	-0.0043619797	-0.029247517	-0.038359247	
-0.32583028	-0.1855832	0.3476545	0.62226653	0.07715412	-0.39036557	-0.02011932	0.0141655	-0.12637591	0.015147795	0.12305809	0.020895714	0.3329293	-0.10456875	0.24419531	0.08638838	-0.048093915	-0.007109554	0.10790429	-0.021607434	-0.04246734	-0.07636454	-0.002955637	0.006955115	-0.18820883	-0.019673498	0.0008410759	-0.016756658	0.015361736	0.01753145	-0.17469855	0.11176109	-0.11916848	0.15955831	-0.0038287872	-0.020225901	0.020296758	0.01078052	0.008091388	-0.0015077555	0.2391988	0.1284166	0.0451666	0.27676323	0.017378958	-0.009597758	0.19211453	-0.081795655	0.017170137	-0.2246254	-0.017057745	0.0005863129	-0.034004707	-0.0077482862	-0.09074182	0.008265692	0.4389245	-0.3347838	0.056400772	0.22624084	-0.031350415	-0.008513118	0.112429425	0.031635802	
-0.17635001	-0.09459913	-0.39248815	0.044188585	-0.23439765	0.21494444	-0.00061518356	0.046783224	-0.03532489	-0.007663864	0.011178081	-0.03545072	-0.043046992	0.06765988	0.1395643	-0.051387984	0.025397334	-0.0511312	0.08416712	0.012334544	0.0119216	0.16498533	-0.09598629	-0.092898674	-0.13419046	-0.011917037	0.05194491	-0.0069405856	-0.016005587	-0.018944873	-0.018979138	-0.08464422	-0.03423258	0.005710843	-0.045248155	-0.02906369	0.013603016	-0.00360178	-0.010372688	-0.0070396196	0.13015151	-0.2885443	-0.041616514	0.037154038	-0.4095176	0.010011736	0.065113366	-0.12177264	-0.0022282293	-0.015513496	-0.012515469	0.24945365	0.085763596	0.095234156	0.033397984	-0.0014646018	0.08600154	0.08270011	-0.0047596483	0.18163139	0.04146349	-0.0039149006	-0.06128013	-0.008585328	
-0.018309766	0.050907098	-0.050405633	-0.0294556	-0.201847	0.017414885	-0.0048841746	-0.05075716	0.053023268	-0.0037692082	-0.03309866	-0.08774886	-0.22914442	0.10554269	-0.2207732	-0.0626979	-0.00046834993	0.003992662	-0.010402069	-0.00839816	0.0028237598	0.24576049	-0.033807058	-0.030680286	0.12382683	-0.04044986	-0.033338334	-0.027914882	0.016874593	-0.0266575	0.019937783	-0.07885201	0.119935594	0.14374419	0.02050734	0.011592491	0.0071667377	0.023412513	0.0011483702	-0.0071723	0.040652025	0.15274845	0.010196311	-0.032873303	-0.009035905	-0.008363265	-0.013261345	-0.08676001	-0.006861496	-0.09382818	-0.026236946	-0.05616887	0.07183804	0.029280702	-0.0031278336	0.014868332	-0.13636409	-0.002889312	-0.02347573	0.0009867838	0.03215577	-0.007393136	-0.06349762	0.005274194	
-0.002223946	-0.029159399	-0.049670566	0.044864595	-0.031738933	-0.004526659	-0.0010454817	0.0015543009	0.17429644	0.0047661522	0.0947728	0.04413736	0.073595725	0.01202968	0.03188374	0.0043067937	-0.48660538	0.061987814	-0.009849679	0.0068251723	-0.0059830244	0.01948591	0.0010442812	0.05379877	0.09192388	0.09188162	-0.022859514	0.01482436	-0.0048656715	0.021652067	-0.016336396	0.067368224	0.18788111	0.042768825	0.0050949035	-0.7523655	0.071365274	0.016740626	-0.020897524	-0.0008278578	-0.08762791	0.022204204	-0.022253776	0.091323495	0.026964797	0.00020108199	-0.06749574	-0.013893764	0.00899952	0.023074156	-0.039515123	-0.012844521	0.013284868	-0.0046022874	-0.048636198	0.027946103	0.0798065	0.022018248	-0.0032359634	0.027219858	-0.014935329	-0.006634613	-0.058197625	-0.043222103	
0.0012604435	-0.23414369	-0.054410413	-0.00150781	-0.0016897384	-0.03466187	-0.015137816	-0.08221208	0.24016565	-0.046948418	-0.2579541	-0.12684712	0.022217005	0.07632671	0.027220173	0.02039472	-0.07399567	0.018635225	0.054997027	-0.3794069	-0.39181337	0.0942995	-0.008499645	0.2402641	0.016000468	-0.05722018	0.23815022	-0.20214604	0.026430512	0.017318398	-0.2676155	0.044521566	-0.12823014	-0.04057208	0.008498981	-0.005602089	0.07296181	0.11437348	0.17472029	-0.03580423	0.05179931	0.079335935	0.30518216	0.13108473	0.027797377	0.23396951	-0.029191311	0.07362367	-0.069112025	0.034886762	-0.23751584	0.13028516	-0.05048662	0.0016223312	0.15961772	0.060507406	-0.20016636	0.0041138367	0.06620839	-0.078543834	-0.07535082	0.30848485	0.010996195	-0.17930447	
0.04391844	0.04889129	-0.021932257	0.02851423	0.028637301	0.16194619	0.035370294	0.088844344	-0.09944662	0.034418114	0.48357737	-0.0021936023	-0.22106962	0.09241899	-0.023323065	-0.18641816	0.0491683	-0.015447615	-0.12603529	0.56954277	0.82034194	-0.20493746	-0.00438169	0.15287809	-0.015199617	-0.07642267	-0.76593685	0.030255819	-0.10118581	0.07187658	-0.3677787	0.0092658335	0.37723842	-0.057848044	-0.056309123	0.025314048	-0.18384461	0.10609527	0.22100638	-0.013809881	-0.09944165	0.07735281	-0.07865502	-0.092213206	-0.026011936	-0.2246182	0.00085860526	0.07995112	0.06284773	-0.19694854	0.28059193	0.267366	0.000265581	-0.0036610814	0.30728224	-0.19531159	0.15404837	-0.014230113	0.46390516	0.08613817	-0.42589027	-0.08508254	-0.03693037	0.54540867	
-0.14857322	0.18121408	-0.021342475	-0.018726692	-0.026209293	-0.23966318	0.07043758	-0.16011389	-0.031716384	-0.02888966	-0.2975697	0.046568807	-0.29010752	-0.2481246	0.102913804	-0.0016057008	0.067068994	0.016479744	0.26005158	-0.19415973	-0.295056	-0.1896614	-0.052023184	-0.15528092	-0.009895324	0.17168465	0.84911555	-0.07002783	-0.032994103	0.22715457	0.64109534	-0.18615274	-0.024263283	0.012835518	0.09689435	-0.013205751	0.002394568	0.6910926	-0.49878547	-0.5036732	0.26665336	-0.07550884	-0.074296355	0.062169	0.07488299	-0.3292437	0.030315787	0.39819485	0.34329024	0.21584763	-0.39703453	-0.41371194	-0.57524705	0.059583694	-0.074368805	0.14498466	-0.09156929	0.011285086	0.009240527	0.021139968	0.47140634	-0.3262747	-0.49233446	0.36199805	
-0.0037781713	0.058154333	-0.028401764	-0.0036064824	-0.043692037	0.10937742	0.12939036	0.061159942	-0.19837299	0.07460607	0.2804727	0.29329127	0.08933731	-0.1471929	0.013172778	0.040083855	-0.015013512	-0.004841677	0.06215788	-0.10618838	-0.29825276	-0.23753035	-0.033876088	-0.15768798	0.017761443	-0.15427716	-0.4312213	-0.1018439	0.11156719	0.1190347	-0.04396705	-0.052473463	-0.13205603	0.027032474	-0.19982147	-0.0065007815	0.40676197	0.11094941	-0.05347267	-0.47346893	-0.15123995	0.001071781	-0.19163431	-0.10730808	-0.04075773	0.7568808	0.05737976	0.45613992	0.17277825	0.031938054	0.1320631	0.08574686	0.3230943	0.043894485	-0.10461186	-0.06006662	-0.00084839907	0.06508257	-0.05595438	-0.10713289	0.078891665	-0.025058297	0.30130333	-0.058301482	
0.030664612	-0.036854975	-0.07231314	0.014140365	0.0163771	-0.009381003	0.028764123	0.14756098	0.20366794	-0.016216762	-0.12633766	-0.013450946	0.19812253	0.07313968	-0.36617535	-0.032824613	-0.01565979	-0.014872974	-0.40871963	0.09321092	0.14463341	0.00759186	-0.011618325	0.08121463	-0.028353225	-0.2858277	0.028964918	0.013885939	-0.092108406	0.038797446	-0.061694443	0.052981637	-0.06191461	-0.06389677	0.12717201	-0.016119037	0.26979232	-0.029581392	-0.012085882	-0.400065	-0.052583806	0.00096537743	0.12807822	0.061236247	0.023106603	-0.4289348	-0.03100071	0.2310563	-0.039149106	-0.04496111	0.21023247	-0.09907342	0.48244044	0.00063634955	0.04678882	0.02043006	0.12480081	-0.026838219	-0.052598357	-0.017794892	0.07987503	0.083286405	0.11708319	-0.23695526	
0.003376747	0.16973555	0.12021238	0.042838566	0.018753393	0.07221098	-0.03462656	0.11673268	0.2653301	0.17288037	-0.044937957	0.025088646	-0.09853218	0.13231342	-0.023516428	-0.30022484	-0.30530697	-0.00818146	0.11958096	0.74063295	-0.112794496	-0.0025457107	0.0037203296	-0.2881553	-0.100882776	0.19248827	0.032863412	0.081477664	0.15620176	-0.025874233	0.42717493	-0.028887704	-0.53498113	-0.0079830345	0.06337619	0.017256442	-0.02608449	-0.30197737	-0.3588133	0.045370646	-0.0005315199	0.13876979	-0.9759671	-0.20830253	0.05709022	-0.2480207	-0.077879354	-0.14494108	0.058756422	-0.15654103	0.3859228	-0.08542581	0.07023619	0.012668478	0.5144987	-0.10790128	-0.008516074	-0.02579339	0.6188295	0.20296058	0.38437405	-0.1430726	0.32082435	0.28515092	
0.0091902455	0.20993143	0.14918658	-0.119867615	-0.0763082	-0.25577626	0.07713633	0.08166673	-0.42439246	-0.19922626	0.503425	0.5609262	0.41634935	-0.086754784	0.026113676	0.16745344	0.0014550555	0.034374833	-0.62008476	-0.93250006	-0.14848791	0.177841	-0.5682427	-0.88935244	0.21629734	-0.020730145	0.21666884	0.2158924	0.01533927	0.2783054	0.06324094	-0.37408164	0.5250615	0.10117403	0.2741999	0.0468243	-0.12343465	-0.39235342	-0.48938066	0.00038544353	0.17871845	-0.44750947	0.98314446	-0.5444103	0.19744128	0.27082333	0.17404418	-0.13030234	0.9673924	0.19133177	-0.5842849	-0.40562132	0.27876487	0.63250786	-0.1481119	-0.18855245	-0.017789787	0.04288057	-0.3151115	-0.34806395	-0.67890894	-0.6399472	0.3379418	-1.0949355	
-0.38471207	-0.2209401	-0.4371974	0.07234907	0.22120534	-0.2967584	-0.95378387	-0.4229806	0.08377897	0.030420205	-0.57682127	-0.7575431	0.28129533	0.25362024	0.24596974	0.30126256	-0.09302781	-0.050970163	0.41897592	0.28577578	0.45849577	-0.082524695	0.719963	0.76990366	-0.04060675	-0.042354487	-0.058994185	0.9488711	0.26281175	-0.1529369	-0.3897926	0.13834354	-0.24690387	0.12613142	-0.7951013	-0.018694937	-0.32100797	-0.8135489	0.73224986	0.51572055	-0.21940573	0.5154412	-0.31435677	0.2077559	-0.109190874	0.2515514	-0.10679489	-0.27263507	0.45879754	-0.41421425	0.7080311	0.60605216	0.04487181	-0.7613836	-0.29783568	0.5106247	0.052700233	0.015042509	-0.13168098	0.63510424	0.6256488	-0.6679596	0.5179398	-0.56711787	
-0.1612626	-0.1703942	0.48079658	-0.036858644	-0.116055	0.2856415	-0.7517474	-0.35654277	0.17785782	0.028559314	0.03393208	-0.18152119	-0.02677923	-0.0055234344	0.140947	-0.06424568	0.00920093	0.0078616375	0.5478418	0.100662425	-0.40095222	0.25678548	0.4743002	0.04421083	-0.09814735	0.029236987	-0.32623	0.4214692	0.49029908	-0.12754038	-0.040008936	0.08448337	-0.04471442	-0.04093301	0.9578375	0.009750252	-0.38454655	0.039478023	0.50365776	0.47707197	0.19870512	-0.4289821	0.2850677	0.054197382	-0.30295777	-0.64870524	-0.03298082	-0.51388323	-0.4400441	0.18481569	-0.41719002	-0.076187566	-0.07498452	-0.47586226	0.081637636	-0.28717783	0.31670383	-0.07300977	-0.010160865	0.23610415	-0.049033105	0.28099978	-0.28308222	0.1366795	
-0.013381671	0.08534238	-0.031364094	0.0037591062	-0.090805806	-0.0021146005	-0.06345628	0.79953396	-0.17453136	-0.036814123	0.017430533	0.057521544	-0.23866479	-0.1170843	-0.19819902	-0.53956544	-0.008492271	0.012828516	-0.17210487	-0.121428244	0.22513798	0.3214779	0.14102916	-0.1213601	0.123554476	0.14687592	0.2704532	-0.14477661	0.48769847	-0.0567909	0.068110436	0.107270665	0.21490353	0.12672248	-0.45789728	0.019706314	0.15134586	-0.0024049403	-0.013461226	0.37990072	0.02069106	0.18716015	-0.11857508	-0.031952884	-0.04076083	0.3839629	-0.018311672	-0.24945237	-0.07428798	-0.025580524	-0.062162768	0.041542787	-0.46300265	-0.15119976	-0.047277965	0.061390735	-0.24944536	0.030864516	0.00885819	0.03346488	-0.3876955	-0.006468036	-0.11334072	0.22307625	
0.012867032	-0.12654412	0.027652966	-0.012914148	-0.07345125	-0.018639635	0.090254866	0.0118005145	-0.38547808	1.4545038	-0.53944904	0.050468583	0.07815578	-0.1372785	0.011016098	0.24451011	0.59710443	-0.010498974	0.10743169	-0.34151754	0.25916436	0.037644308	-0.35054547	0.10926904	0.09516214	-0.22787121	-0.11188305	0.3142596	-0.30935913	0.07803977	-0.09455312	-0.011253454	0.37559825	0.093091704	-0.1338713	-0.73801583	0.20382367	0.12130814	-0.26366547	-0.0066799135	-0.07434108	-0.055569798	0.5374917	0.10484138	0.020666521	0.049447414	0.053228177	0.023599612	0.011665022	0.0706057	-0.090735406	0.02121798	-0.09987763	0.3501199	-0.14847519	-1.2547088	0.24824926	0.013450306	-0.37081972	-0.0597441	-0.0038240806	-0.4130074	-0.39280146	-0.17546886	
0.012620187	0.23011549	0.03147676	-0.8149997	0.7113914	0.22546162	0.005873722	0.02499954	0.11337987	0.0013144846	0.024713125	-0.108015396	-0.0079892725	-0.34755415	0.017655151	0.074935675	0.099259615	-1.056967	-0.01125639	0.028228864	0.00015961341	0.00052559096	-0.22698677	0.09376834	0.45680362	-0.07494149	0.015817026	0.033214796	0.024534518	-0.41756216	-0.025811657	-0.34362572	-0.023239871	-0.53473777	-0.0010641476	0.037979074	0.0608498	-0.045136023	0.015996238	-0.0031979464	-0.12453179	0.058633517	-0.021568682	0.043049406	0.002299124	-0.00074312935	-0.81479686	-0.0070341234	0.010570138	0.3247685	-0.034262724	0.011141073	-0.014443282	0.24338572	-0.0392325	0.077139296	-0.37533495	0.61970884	0.00422121	0.16976048	-0.01954882	-0.017155433	0.023938738	-0.024215283	
-0.05908373	0.0374901	-0.001180367	0.12453151	-0.05766473	-0.028688017	0.09751217	0.081670836	-0.032982994	-0.038405273	-0.015852768	0.02653191	0.031818323	0.03444501	0.087663986	-0.19044857	0.17577875	0.0033490616	-0.11670113	0.020597441	0.09313211	0.013106565	-0.08190942	-0.08642109	0.053435832	-0.043574166	0.052894227	0.11796331	0.1198891	-0.1423248	-0.07911277	-0.12276893	-0.079968214	-0.124956444	-0.040464237	-0.09320262	0.08828449	0.009064866	-0.05527627	-0.07926735	-0.007762294	0.020204531	-0.03687309	-0.020391779	0.017951965	0.071994245	0.06823482	-0.082697086	0.08659162	0.0009563002	0.052999496	0.1899478	-0.040948883	0.005287683	-0.13840516	-0.08291329	-0.0076530566	0.03696806	0.036197018	0.106625214	0.15098515	-0.08544354	0.020412594	-0.050589487	
0.094765835	-0.16226101	0.06657434	-0.02027748	-0.14637217	0.18595402	-0.04226906	-0.1325749	0.17705932	0.008133175	0.19906089	0.14680752	0.18565166	-0.02103205	-0.08975976	0.0886614	-0.051800393	0.100666665	0.04273213	-0.013069593	-0.009126884	-0.18612377	0.081813715	-0.8517421	0.022412937	-0.028431848	0.12444802	0.025625287	0.008805576	-0.022092592	-0.13200381	0.02029942	-0.020060387	0.013846739	-0.010411301	-0.017733812	0.0011986209	0.010689635	-0.44619796	-0.0630357	-0.080441095	-0.09381761	-0.018945523	0.1138638	0.05371417	-0.041285906	0.2990226	0.06443673	-0.1973376	-0.0759085	-0.022410547	0.16929394	-0.15749885	-0.11764555	0.017714577	-0.018250242	-0.26597378	0.09112829	0.051740058	0.06402892	-0.06946473	0.057588097	-0.04867875	-0.17530571	
0.2542261	-0.14347364	0.17820829	0.03701799	-0.0779557	0.12449661	-0.051338565	-0.15543589	0.04484131	0.2053332	-0.11793051	-0.3661932	-0.0713171	0.22116767	-0.23773728	-0.17456895	-0.07438271	-0.07837812	-0.13783707	0.15061635	0.014442627	-0.0753161	-0.1212961	-0.017879711	0.13042803	0.12329708	0.042845882	0.013541099	-0.06681445	-0.008961752	0.052470755	-0.022269689	0.07693922	-0.121814676	-0.15752263	0.10970837	-0.15010661	0.062061165	-0.069337815	0.0431502	0.010969916	0.07405702	-0.13181028	-0.017279472	-0.089167	0.066967934	-0.31401125	0.008830578	0.008086981	0.08624477	0.012424072	-0.27848572	0.10515314	-0.31741995	-0.07915416	0.0005249374	0.15103	-0.0052018063	-0.071632616	0.060345396	0.023885332	0.058734246	0.028039115	0.04667116	
-0.117743224	0.09386087	0.0060589844	0.2022184	0.3196437	-0.005805339	-0.10823969	-0.058885053	0.087903954	-0.03180804	0.11178592	-0.04949643	-0.32793656	-0.23703422	0.01689912	0.08928472	0.025274344	0.06486624	0.06806799	0.06145608	0.022584451	-0.013710272	-0.29798436	0.25914273	0.073058456	0.016149784	-0.28527784	-0.08649675	0.050188266	-0.1515674	-0.17931513	-0.048945706	-0.13218285	0.06711763	-0.24201092	0.11443747	-0.07286646	-0.036803454	-0.014431475	0.052830484	-0.0038306369	0.07716555	0.05277101	-0.049792763	-0.006698066	-0.024934074	-0.03127854	0.037465066	-0.007087425	0.0016975352	-0.0317783	-0.11040734	0.26427868	0.20251033	0.06113902	0.0522396	-0.24349685	-0.2910438	-0.066604465	-0.026454689	-0.14505285	-0.12126605	-0.05952164	0.13109256	
0.52054983	-0.7496907	0.052326385	-0.20337193	0.019949285	-0.23463652	0.29380488	0.20815703	-0.09252822	0.03063987	-0.059837434	-0.28521606	-0.06508473	-0.052986987	-0.46443394	-0.115080886	0.0027668052	0.18032327	-0.0549314	-1.3014702	0.010086506	0.053712413	0.19936724	0.15361038	0.007880417	-0.09054993	-0.07574981	0.061482348	-0.03910365	-0.44591022	0.05706283	0.04864721	-0.025852665	-0.22179946	-0.03955679	0.22836135	0.0092649795	0.014291322	0.10429018	-0.08395381	0.038683243	-0.09984407	-0.027632419	-0.04225245	-0.034050647	0.23700567	0.24795896	0.0071532396	-0.09683922	-0.12984194	0.17380086	-0.10459861	-0.272929	-1.0009387	0.0037400972	0.040318858	0.124652095	-0.028043663	-0.036733296	0.061691113	-0.6789856	0.19280562	0.027244553	-0.045040723	
-0.18928242	-0.018133607	0.087619595	0.015601289	-0.031518172	0.033628035	0.04830715	0.17340547	0.01162558	-0.08231413	-0.008534161	0.15558107	0.005389519	-0.2020184	0.060011633	0.051595178	-0.0479044	0.3629551	0.06527136	-0.018513672	0.12192762	-0.14460994	0.0434106	0.40387893	-0.049787767	0.028178517	0.21004178	0.09622012	0.1602614	0.013047147	-0.28503925	-0.012929408	-0.030553471	0.11513358	0.039094426	0.18255681	0.043987982	-0.02725761	0.16563754	0.09684044	-0.053362455	0.058635876	0.07087312	0.12269428	0.015442883	0.0070590563	-0.10934981	-0.0005815483	-0.36637264	0.25342968	0.07750354	0.21793826	0.08453452	0.17919962	0.2147214	0.041309357	-0.79849976	0.110192835	0.1965	0.07719953	0.39928237	0.045295864	0.022349518	0.14498344	
0.056718186	0.089049615	0.0011329901	0.028798766	-0.42969614	-0.19489524	-0.04216911	0.07375991	0.21917295	0.00014085873	-0.1125416	0.03939543	0.23789544	-0.041916855	-0.0037405037	0.071513996	-0.043170188	-0.11091166	0.053708635	0.25649384	0.04074823	-0.029209336	0.019834816	-0.25675845	0.039102554	0.07451115	-0.08000434	-0.05931767	-0.0037029774	0.40793046	0.11427952	0.13326544	0.0012772932	0.21698967	0.0098952325	-0.018148048	-0.01515087	0.025062304	-0.13866787	-0.009003783	-0.022086332	0.10926316	0.0013521203	0.082677476	0.0008457301	-0.12709466	-0.013278706	-0.050996177	-0.29515657	-0.11299141	0.0040446613	-0.2064204	-0.015517833	-0.22537233	-0.20808895	0.04338368	0.015446438	0.09944934	-0.30944178	-0.03814032	0.18212257	-0.100541554	0.023919314	-0.14813384	
-0.077520266	0.07952517	-0.026607933	-0.33000344	0.13231435	0.01817298	-0.19432864	0.025354981	0.06706431	-0.14526531	0.2092807	0.1872615	0.033663068	-0.030513966	-0.01358193	0.12033961	-0.038656488	0.17767869	0.38598013	0.004201888	0.037406355	0.14775574	0.12895054	0.14799125	0.14439394	0.18130554	0.07941546	-0.021919528	0.09679507	-0.009622245	0.2181751	0.1639312	0.22618209	0.2622442	0.005765092	0.25157145	0.09675386	-1.4611973	-0.044627424	0.40895703	-0.054743916	0.20750567	-0.12136658	0.16480742	-0.05498471	0.030923855	-0.0532936	-0.12340815	-0.0069414945	0.06397199	0.2456871	0.21377349	-0.047587074	0.08924722	0.024973392	0.06022943	-0.046011258	-0.11196026	-0.059370134	0.23936482	-0.0487877	-0.041485533	0.021566894	0.059498657	
-0.032356422	0.073669046	-0.01824956	-0.10398799	0.19599928	-0.022398185	0.064385824	-0.10068034	0.13567957	-0.052252013	0.09153878	0.042640414	-0.14233561	0.18377183	0.13432492	0.110018864	-0.01808658	0.10712173	0.26963547	0.09372942	0.07749051	0.15655823	-0.09440594	0.17415525	0.114044555	0.02025086	0.10474677	-0.15267347	0.05042197	0.059530202	-0.8385983	0.18352547	-0.4769324	0.2703665	0.14049499	-0.021113116	0.025151491	-0.08672999	0.014592601	0.02856289	0.006656588	0.24547437	0.07584297	0.016013283	-0.025835343	0.1723796	0.17667799	0.21491478	0.23113848	-0.08004979	0.0006356975	0.03396622	0.08460526	0.0724641	-0.04793239	0.15662587	-0.0021448268	-0.06239121	-0.110095605	-0.06905187	-0.015595012	-0.003389788	-0.0012358642	0.1554896	
0.0917454	0.006673863	0.03996502	0.09637307	0.09872057	0.032126117	0.08293297	-0.060373902	0.18060926	-0.0042285793	-0.2675236	0.30058202	-0.20438737	0.007208242	-0.20741954	-0.08630984	0.053380802	-0.056467984	-0.029618822	0.26145437	-0.11218528	0.08963203	0.15771194	0.21681923	-0.05280119	0.21495627	-0.074345365	-0.11064515	0.017575862	0.11097865	0.15536506	-0.08423167	0.12930432	0.06511505	0.11613368	-0.09130986	0.076610506	0.0018312851	0.11374749	-0.08066704	0.2032805	0.16793483	0.0567217	-0.081324466	0.06318642	0.08241759	0.04679965	0.11641549	0.2833987	-0.03080449	-0.05065378	0.12025276	0.21228826	-0.0041753273	-0.17660636	0.11326399	0.20168884	-0.21781042	-0.04564555	0.21889064	-0.16473292	-0.05097107	-0.02305946	0.08797266	
0.021278739	-0.13440341	-0.04481415	0.047263354	0.01066005	0.020960111	-0.07377812	0.1842566	0.16287692	0.0016774178	-0.46036553	0.13552591	-0.02101055	-0.047626503	0.29085505	0.15931311	0.38138336	0.07174257	0.5513472	0.070463866	0.077169314	0.2431859	-0.027233755	0.09364576	0.08604697	0.007359938	-0.10618816	0.03998405	0.061397918	-0.044624556	-0.028321585	0.105663374	-0.04612968	-0.020137114	0.12455685	0.08849062	0.14671545	0.090613574	-0.02855727	0.095863834	0.027590273	-0.039608654	0.051186282	-0.010453533	0.07656274	-0.07047957	-0.02057033	0.04167639	0.24051714	0.025507297	-0.12555994	0.0417502	0.15892914	0.079812825	-0.04829675	-0.068964876	0.12974799	0.17461649	-0.053264868	-0.02438694	0.039845236	-0.027012393	0.14839718	0.06227666	
-0.033255875	0.13822328	0.12525979	0.09988843	0.18464276	0.09836785	0.07062344	-0.3500487	0.1688392	0.038006213	-0.30807874	0.075285256	-0.06760893	-0.21330525	0.2930887	-0.014684526	-0.105641566	-0.02939158	-0.019351264	0.06541277	-0.0054661953	0.07555393	0.0122990925	0.12905516	0.25644702	-0.10128487	0.043408137	-0.23671186	0.15195872	-0.089414515	-0.044824783	0.010425549	0.05679851	0.24956053	-0.095368296	0.029303748	-0.019891743	-0.09816581	0.24834499	0.09679402	-0.19114073	0.08519323	0.003509272	0.13261636	0.043442883	0.045985494	0.073542014	0.10010354	0.2332819	0.019529887	-0.08852682	0.08392626	0.18089381	0.08698909	0.048702713	-0.18840168	0.07385046	-0.02906257	-0.11890385	-0.15906796	0.0071531385	-0.47945043	0.13776213	0.21958274	
0.06825196	0.14292987	0.24360746	0.057525076	-0.06161433	-0.0714355	-0.29834247	-0.077854015	-0.05525614	-0.2711125	0.05841207	-0.09539446	-0.0650857	-0.033351965	0.04897768	-0.2164285	-0.24247873	0.046179727	0.10859635	-0.12066645	0.24099931	0.13918824	0.07079822	-0.21190621	0.33498093	0.14325953	-0.2657841	0.036100846	0.038035136	0.23781694	0.06494876	-0.103238285	-0.09150336	0.018560251	-0.18129589	-0.06939393	-0.30207425	-0.0391511	-0.08387753	0.123019256	0.11273684	-0.22568354	-0.06649024	-0.112011224	-0.1244474	-0.04712669	-0.13650861	-0.18132003	0.003946135	-0.13215134	-0.11065745	0.024255835	0.028472291	-0.12651606	0.057385996	-0.16769227	-0.20291017	0.0038249944	0.015602813	0.053222496	-0.28783196	0.057895504	-0.05754994	-0.19749415	
0.2280299	-0.07429259	0.009516589	0.07455456	-0.21754071	0.0217723	0.09275325	-0.0010023833	-0.019482935	-0.24294382	0.019401595	-0.1080791	0.33268878	-0.07372465	-0.07802324	0.15153082	-0.0030555846	-0.06570355	0.04352886	-0.31638104	-0.022772295	-0.03316813	0.07297347	-0.723172	0.07204192	0.07555698	0.05473093	-0.0043857195	0.03403475	0.14609863	0.12477332	0.05704283	0.008445919	-0.110466756	0.2647335	0.053942736	0.01756632	0.029100982	-0.21698599	-0.03899779	0.0014787061	0.048438232	0.03482492	0.14893658	0.06460008	-0.028208958	0.12402255	-0.008017143	-0.2937393	0.038898252	-0.037878975	-0.17665821	-0.052415267	-0.29928005	0.15181477	-0.004229419	-0.09616438	0.019712016	0.118746124	0.06565606	0.12898009	0.040601265	0.00179131	-0.35719684	
0.0068733664	-0.14380723	0.06259768	-0.078618586	0.109375976	-0.083602525	0.0128513295	0.04025324	-0.0694012	-0.31132853	0.17305918	0.24100852	-0.16687383	-0.45726144	0.08182748	-0.049226236	-0.026728591	0.36151674	0.05140956	0.10925227	-0.01077985	0.1326551	0.11212913	0.12360029	0.06540867	-0.01679748	0.007965197	-0.07205995	0.06849669	-0.011171346	-0.19800562	-0.21683255	0.024078732	-0.0026324613	-0.15312478	-0.092333294	0.035992675	-0.029270545	0.043943353	0.085560024	-0.08885658	-0.033028815	0.23869789	0.14576235	0.08294872	-0.015706986	-0.122454904	0.12955323	-0.052694578	-0.10252147	0.055243094	0.17316547	-0.088964984	0.07261432	0.0643295	-0.11174062	0.0061490447	0.31279543	-0.18898816	0.07400781	-0.11833945	0.022595208	-0.0065945936	0.12426611	
0.0077239266	0.090166114	-0.01488363	-0.006902986	-0.15946515	0.32335088	-0.009381809	0.009131816	-0.104233705	-0.34799126	0.021451946	0.025310881	0.08559835	-0.21565194	0.039414633	0.0020806792	0.024990927	-0.024447458	0.022261644	-0.00555256	0.014512396	-0.003475375	0.11738212	-1.1882856	-0.013916758	0.12298977	0.02555631	0.026182268	-0.014778647	0.10037089	-0.04953748	-0.006371942	0.01739143	0.115790635	0.098552264	-0.14376806	-0.02271287	0.03451086	-0.0358719	-0.034764607	0.031964213	0.02524753	0.015952948	0.04816876	0.0006626143	-0.0102948425	-0.0842088	0.010881464	-0.33249325	0.030447131	-0.033906702	-0.027493715	-0.06314866	-0.06204534	-0.22968772	0.14028068	-0.2827905	0.05931979	-0.089725934	-0.0008284502	-0.0015997723	-0.004517832	0.005291497	-0.209464	
0.06576424	-0.17643844	-0.12627067	-0.12823747	0.0006334246	0.1856657	-0.021761663	0.15832353	0.13904768	0.1743318	0.21873178	-0.055621743	0.06366023	-0.13218173	0.17796339	0.19739987	-0.045152746	0.0060906378	0.17071463	-0.09696704	-0.034175016	-0.12252761	-0.024692511	0.2135689	0.05787498	0.25702134	-0.07696064	0.017757503	0.010349712	0.024118254	0.12358668	-0.035524134	0.116385646	-0.18948779	0.16184632	0.070327856	0.12037267	-0.12401556	-0.039563503	0.21747002	-0.0012962085	0.042100366	0.28270608	-0.003302859	0.10950248	-0.09080424	-0.007031983	-0.25302598	-0.051670216	0.09254962	0.009638423	-0.00044037437	0.007187168	0.090398446	0.06416774	-0.10070952	0.054324545	0.04370115	0.16165213	-0.087894976	-0.019559748	-0.08613078	0.09194977	-0.11751667	
-0.029993327	0.06967265	0.090441614	-0.06795321	0.03874192	0.009274531	0.20759782	-0.15355988	-0.11035172	0.009993805	0.046866227	0.11437201	-0.44249582	-0.042423286	-0.101638965	-0.11695189	-0.08885181	0.30559775	0.17354457	0.008812662	0.09883617	0.22232413	0.05737263	0.066821806	-0.15906	0.1259459	-0.08291267	0.005192899	-0.025306543	0.20640746	0.01960927	0.097337864	-0.0854391	-0.04438563	-0.2017252	0.09298664	0.015426212	-0.061017737	0.16548812	0.015468659	0.01326178	0.051433217	-0.009298266	-0.07449307	0.06330251	0.022739805	0.15377368	0.030107856	0.058516398	-0.023921037	0.046189114	-0.0071289595	-0.029281894	0.0536029	-0.06666848	-0.03327538	-0.007232996	-0.23861866	-0.14729871	-0.09381457	-0.17819057	0.025198534	0.0067165196	0.11334346	
-0.45340544	0.094967395	0.00023332023	0.05792895	0.05013459	-0.0732304	-0.48289153	0.25005776	0.08345635	-0.19042437	-0.6853376	-0.13484545	-0.40402883	0.02333842	0.0025066296	0.12173522	0.016487971	0.0051251347	0.010400619	0.07658524	0.141773	-0.06985092	0.16063362	0.112914786	0.034746677	0.07854848	-0.58057797	-0.015254972	0.123583116	0.074742444	0.05959623	-0.044275228	0.037376862	0.19802223	0.18217933	-0.27962863	0.026736489	-0.037070792	-0.857734	-0.047244016	0.15373798	0.111351855	0.09806506	0.14178896	0.011458348	0.1581	-0.46493518	0.067619994	0.01542242	0.28344706	-0.08016906	0.031190291	0.10442413	0.3560606	-0.21274683	0.13288794	0.08707278	0.051504947	-0.015030945	0.018588303	-2.3169987	-0.1292856	0.05468543	-0.036370996	
0.057275634	0.07574739	0.009843786	0.05386486	0.031339746	0.020613624	0.077811606	0.0071289805	0.06415381	-0.26707435	0.2502608	-0.10844468	0.15392925	-0.43080708	0.35510218	0.21642056	0.03573997	0.08530859	0.07404564	0.121331565	-0.12518235	-0.11197606	0.14161175	0.14529063	0.19183369	-0.08937506	0.22819084	0.17629915	0.13521408	0.28787625	-0.12206419	0.063958116	-0.235	0.26182926	-0.22480679	0.026300753	-0.13665448	-0.02077392	0.098394334	0.17811197	-0.13371173	0.12476069	0.14082435	0.25816238	0.110591486	0.036234178	0.017907642	-0.057616435	0.143487	0.006203613	0.06528638	-0.013582313	0.13117975	0.2725368	-0.012414672	0.348103	0.10185358	0.32188693	-0.17081061	0.14070553	0.029774038	0.07891167	-0.03559524	-0.03477513	
0.15598552	-0.271497	0.44296795	-0.11906527	-0.08614672	0.18828368	0.072119735	0.057663813	0.004962338	-0.028613823	0.01931169	0.16333844	0.22284116	-0.11487503	-0.10825017	0.09332502	0.25046194	-0.106271274	-0.27334973	0.14187622	-0.31395468	0.05040563	-0.076317504	-0.048977766	-0.121606	-0.13464288	-0.029337121	-0.30423954	0.1911733	0.40767425	0.10459551	-0.29060793	-0.020641519	-0.14425199	-0.3056052	-0.11144995	-0.32590124	0.11678908	0.26204515	-0.045957375	-0.13468444	0.11162268	-0.13173795	0.12274354	0.09053763	-0.2329992	-0.05089952	0.034507584	0.21349598	-0.003984354	0.2666921	-0.15715918	0.11429663	0.18997376	0.013784707	-0.20254113	-0.055792667	0.2028812	-0.12192061	0.42623782	-0.04331184	-0.2805118	0.9691267	0.16785619	
0.040367853	0.25733435	-0.15838706	0.11456257	0.29799077	0.10080768	0.11418287	-0.13186279	0.08247614	-0.2446674	0.29890913	-0.0016863716	0.22510651	-0.17550267	0.28018638	-0.039878577	-0.2057636	-0.14702201	0.21998198	0.13148166	-0.20804365	0.07847268	-0.08867291	0.23941298	0.2808202	-0.028461125	-0.039655223	-0.0059126476	-0.03711599	0.0053566177	-0.06457461	0.08595751	0.16481122	0.2397048	-0.30620202	-0.09543825	0.30607435	-0.08695906	0.18976365	0.120536275	-0.07659437	0.015510957	0.16875516	0.06766134	0.21253382	0.22055745	0.10555667	0.17343886	0.14128964	0.06271279	-0.060706697	0.38008115	0.11790897	0.25562936	0.071884565	0.09344191	0.08613592	0.113405354	-0.084749594	-0.06998067	-0.022051614	-0.4259532	0.5684368	0.19049619	
0.024084134	0.056625605	0.080912896	0.05749741	-0.13304274	0.2294851	-0.06522208	0.034744643	0.005025268	-0.12520632	-0.035726953	-0.44683754	0.19612657	0.17431092	0.0078004794	0.087204546	0.021669434	-0.07134022	-0.04964017	0.04007838	0.017382795	-0.048063707	-0.13163383	-0.38654977	0.12470967	0.102630086	-0.15836641	0.0450802	0.079940535	0.1774933	0.13976927	0.012281073	-0.07891061	-0.05980822	0.0729853	0.0334557	0.0032265375	0.12327406	-0.074910246	-0.009560809	-0.04147272	0.073272824	0.0007789574	0.014967994	0.068841815	0.009836794	-0.26726052	-0.017589217	-0.41556615	0.15068777	-0.008398887	-0.22787337	-0.009241686	0.038793515	-0.08522172	0.017911129	0.12621123	0.046537165	0.4074332	0.059607062	0.007848923	-0.0041372506	-0.02586816	-0.28761342	
0.043743443	-0.09985585	-0.060591836	0.039604116	0.12668085	0.11230191	-0.23777238	0.21023084	-0.047134772	-0.09079323	0.12310527	0.19943595	-0.07249905	-0.15114662	0.07347422	0.0023609381	0.21724068	0.21187395	-0.16285716	-0.11072747	-0.14671421	0.15548524	0.17483296	0.02524887	-0.22676815	0.05641681	-0.11327676	0.03538315	-0.06296958	-0.062034164	-0.10606203	0.16632436	-0.062418308	-0.104009025	-0.117511176	0.031460654	0.08401179	0.11087407	-0.028723234	-0.17206183	-0.025081098	0.35607973	0.029152812	0.02685044	0.10547809	-0.39360702	-0.20814408	-0.08508731	0.16088653	0.16167128	0.23291336	-0.04279066	-0.15777141	0.08845625	0.021157352	-0.14599586	-0.057425804	-0.085523434	-0.014013123	-0.081542484	-0.20400421	-0.040050156	0.06866208	0.07220091	
0.07235951	-0.08631213	-0.3205284	-0.03949246	0.011428838	-0.10770232	-0.079757616	0.18519777	-0.1049971	0.24796098	-0.018078681	-0.08811687	0.015849166	-0.03067716	0.10539226	0.14038485	0.22095366	0.09993255	-0.030515308	-0.0340768	-0.19029032	-0.06928738	-0.28314862	-0.17931822	-0.3043212	0.058843784	-0.11358605	0.15315409	0.22339182	-0.1789772	0.093444854	0.07973081	0.11961766	-0.044764176	0.13540058	0.096076034	0.39976525	0.13954446	-0.0126385065	-0.16597141	-0.12653983	0.09634292	0.048670907	-0.09228738	0.047037676	-0.19730194	-0.22690281	-0.045923963	-0.02544811	-0.086538196	0.2187713	-0.18710503	-0.08477382	-0.1761795	0.18594849	-0.034693845	-0.10210396	-0.034615103	-0.23780857	-0.21429485	0.01332358	-0.009315848	0.06294766	0.0134592075	
-0.20453338	-0.10982007	-0.009755436	0.0204221	-0.14389038	-0.062387023	0.0017040233	-0.058919292	0.054930583	0.08449434	-0.22325404	-0.014974805	0.050415106	0.26526934	0.031155748	-0.107097544	-0.11591455	0.1531838	0.07816237	0.18658452	0.08497587	-0.17827514	0.29226452	-0.2624391	0.054480024	-0.09821941	0.014058922	0.013187635	0.015361171	-0.021176776	-0.014739227	0.1467238	-0.06660636	0.0343935	0.012272811	-0.052233517	0.066574745	-0.059675407	0.182344	-0.09106865	-0.018642511	-0.0054382575	0.08811813	-0.043864213	-0.006602382	-0.10367994	-0.02642604	-0.014296825	-0.29862863	0.048776474	0.0133383265	0.07588018	0.018312888	0.11028025	-0.043664742	0.1458449	-0.34061307	0.04156994	0.15375248	-0.035144605	0.0045259204	0.0023601318	0.09167732	-0.08430526	
-0.08608183	0.2065997	0.027425103	-0.10067485	0.17040262	0.09281338	-0.027625911	-0.04477372	-0.0666136	-0.013022621	-0.005300438	0.1817269	-0.33163813	-0.032055162	0.13554804	-0.19419853	-0.06140104	0.17164943	-0.01235233	-0.0040382748	0.04531471	-0.04115028	0.17417024	-0.09634302	-0.12217274	0.097946174	0.014425483	0.05296412	0.06662266	-0.10046899	-0.28394166	0.031148385	0.0064677475	0.17371747	-0.13884583	0.20750193	-0.113407284	0.017226553	0.09568155	0.058327544	0.09138936	0.04799787	0.009345639	0.026917512	0.0430108	0.08356773	0.092170216	0.02236125	-0.03211251	0.119668454	-0.042096082	0.045497376	-0.07822934	0.091939494	-0.15217891	0.0030182076	-0.034046117	-0.07082906	0.119230725	-0.033191644	-0.19364953	-0.07059004	-0.027145041	0.0865467	
0.02842006	0.089112945	0.11947419	0.17337307	0.40711114	0.091551095	0.26726288	-0.20942344	0.20624836	-0.16796029	-0.06587549	0.016887736	-0.02418315	-0.033627506	0.019873343	-0.037105713	0.21046498	-0.071370974	-0.18202242	0.14405596	-0.189072	-0.027219765	-0.3262515	0.29001638	-0.08163582	-0.12703039	-0.025237825	0.7182278	0.11032881	-0.24432667	-0.06342006	-0.21147597	-0.06746564	0.16605902	-0.21537086	0.11707684	0.06014235	0.0147328945	0.37446174	0.09246369	0.71684045	-0.043261573	0.067122966	-0.05026523	0.18131359	0.0062307594	-0.040655702	0.5123	0.2372489	0.030258097	-0.101155564	-0.06473393	0.035368208	0.2544837	0.03544347	0.2620731	0.1254216	-0.05857445	-0.107515305	0.1444551	0.09059389	-0.3466564	-0.46115512	0.2798946	
-0.0025804753	-0.20640011	0.1571922	0.15439525	-0.024509331	0.01612354	0.193475	0.13033122	0.04942108	0.2669603	-0.03836011	0.15275903	0.1219438	-0.039368447	0.03809865	0.20485939	-0.14404692	0.06759436	-0.08013154	0.026196672	0.23187129	-0.0039665285	0.00092500297	0.13084991	0.13831103	0.04597516	-0.26116332	0.13571982	-0.040831536	0.009487855	0.07627032	0.17263742	0.07308149	-0.14268792	0.119542636	0.27656347	0.048403267	0.32214323	-0.03855888	0.04340312	-0.0015397132	0.32505122	0.19318262	-0.1287041	0.16225189	0.08910202	0.00027337062	-0.29177362	0.14704368	-0.099602394	-0.121354766	0.16118053	0.016348746	-0.08124267	0.08271078	-0.07997474	-0.06722771	-0.102621526	0.06922998	0.03146545	0.09121163	0.22912614	0.061414413	0.08611285	
0.0008988982	0.1747175	0.0928049	0.119644925	-0.11194544	-0.017510103	0.19778734	-0.14349233	-0.014509823	-0.04003951	0.124881886	0.10662454	-0.12780724	0.0954159	0.040881723	-0.03904376	0.12845373	0.07642642	0.059612192	0.096502446	-0.113203816	0.08395455	0.007904142	-0.036671225	0.099981345	-0.27161008	0.18812649	0.10851425	0.012631338	-0.0033202218	-0.25952148	0.21281472	-0.62997806	0.03498916	0.023815358	0.11021595	-0.16574955	0.18324007	0.022377	-0.020237375	0.058172066	0.19688183	-0.10647725	0.09824892	0.028207146	0.0010776459	-0.06934152	0.06975637	0.0025058424	-0.014142771	-0.1397617	0.03963165	0.0934985	-0.041376576	-0.0018319335	0.05849717	0.035069738	0.17347217	-0.0581456	0.06895859	0.08878635	0.11162016	-0.06161958	-0.13098781	
0.003106959	-0.1488923	0.008722792	-0.10198136	0.11324134	-0.15314166	0.12070213	-0.07560321	-0.31013212	0.090644166	0.124714844	0.1248866	0.12574208	-0.00586243	-0.03524746	0.05961993	0.010827021	0.16454093	-0.029308582	-0.04028539	-0.03600551	0.072103485	0.07907364	-0.48522267	0.054387312	0.008576743	0.0072108884	-0.058033634	-0.10331226	-0.004764318	-0.034197316	-0.067123406	-0.040063083	-0.027016032	0.23326424	0.13388196	0.021351269	-0.02244149	-0.004051571	-0.003784457	0.03096554	0.0102590285	0.054512873	-0.055930473	-0.014963513	0.11946063	-0.07206689	-0.005294066	-0.08691987	0.15244968	0.05303508	-0.13692552	0.0047532115	-0.2510923	-0.16203777	-0.00079467386	0.214832	0.05470569	0.15151115	0.06422255	-0.03141722	-0.02578911	0.02226578	-0.6925068	
0.006046508	0.058822162	0.06411802	0.05717697	-0.403925	-0.013878716	-0.22320393	0.29764238	0.11789117	-0.13875449	-0.031149255	0.093098424	0.3968869	-0.0051652626	-0.12102502	0.105665505	0.0080932025	-0.06121678	0.05286901	-0.038477145	0.0770121	-0.059077024	0.011855645	-0.065297455	0.054211687	0.11518492	0.13403557	0.031239402	-0.04821829	0.31098935	0.1837338	0.08751491	0.04478002	-0.028845338	0.08708749	-0.0838341	-0.072178535	0.0019184141	-0.27662507	-0.03751355	0.08733685	0.053452414	0.06528024	0.12500745	0.0560428	-0.11792189	0.06457151	-0.07742604	-0.39344314	0.05099276	0.046961848	-0.07554283	-0.25245824	-0.121877976	0.19497418	0.04777159	0.11278067	0.26782218	0.2504719	0.05213261	0.18491912	-0.003514007	0.01649423	-0.31165037	
-0.04382657	-0.12603976	0.045390777	-0.085751064	0.23932149	-0.104602166	-0.0889104	-0.07669778	0.10563538	0.22488225	0.019231196	-0.29932734	-0.3649532	0.0015313227	-0.14729914	-0.04640481	-0.015952991	-0.22714263	0.035611235	0.04920084	0.15005063	-0.054147515	-0.3227928	0.010169294	-0.02213452	0.16058746	0.10773504	0.06788646	-0.08347011	0.10515378	0.11751817	0.11789959	0.0036791698	-0.15543929	-0.05494469	0.022921044	-0.010491486	-0.011004449	0.051439654	0.0060662027	-0.028872566	0.16100205	-0.0773066	-0.10155114	-0.031916335	0.15145117	-0.034940083	0.069829926	0.06603383	-0.008899441	-0.13911015	-0.32909426	0.31206658	0.05195222	0.023658141	-0.053907618	-0.0026198644	0.0014562997	0.09986644	-0.098216176	-0.30342507	-0.0726993	0.014166078	-0.04484631	
0.14581881	0.09309364	-0.050178245	-0.07769914	-0.3464021	-0.030739905	-0.18230987	0.44431254	0.2386102	-0.34909943	-0.092041515	-0.118607916	0.4524894	-0.029162912	0.0045994655	0.18584877	-0.07791294	-0.13207628	0.044963825	0.010630322	0.07069076	-0.044678118	0.3199744	-0.23344126	0.13137683	0.050494805	0.01616445	-0.07638966	-0.04970895	0.31959623	0.14177163	0.13306627	-0.02655728	0.018076582	-0.089279965	-0.0061522108	-0.0053379787	-0.012366992	-0.14609897	-0.072905004	-0.0063533243	0.075691834	0.013254781	0.13508059	0.0390229	-0.051675998	0.035925876	-0.05376788	-0.36178875	0.05737758	-0.008072939	-0.19491605	-0.13675085	0.041188844	0.24874048	0.27196658	0.113609515	0.13627134	-0.36994335	-0.085064754	0.25825772	0.021117413	0.047211554	-0.41246375	
-0.024043482	-0.040501	0.029553464	0.10652979	0.24801214	-0.19040665	-0.18166886	-0.013040828	-0.18181705	-0.10194989	0.20493454	-0.03987509	-0.1954824	0.07397693	-0.009503753	0.112323806	-0.050392583	-0.10208744	0.09198199	-0.21308464	0.17488125	0.1834058	-0.07940772	-0.21185905	-0.09565009	0.07877178	0.07814371	0.07063784	0.0481856	-0.30446726	-0.051135246	0.25495616	-0.049603753	0.07349092	0.051833816	-0.12406738	-0.045379493	-0.04586735	0.09497088	0.0048464965	-0.024928506	0.09354582	0.0057936227	0.101348914	-0.06581873	-0.04267001	0.032402143	0.035626072	0.30056947	0.037714068	-0.12020432	0.20618404	-0.08964216	-0.03836112	-0.060920153	0.3663395	0.24647464	0.035894226	0.023627631	-0.027861875	-0.09608295	0.10276747	-0.05136197	-0.17717081	
0.0125360675	0.14986834	0.17241547	0.066501655	0.31769714	0.15567169	0.23791014	-0.28937593	0.23807566	0.20309684	0.29733673	0.31891483	0.14962254	-0.22453949	0.06363585	0.07929959	-0.033116132	0.13724399	0.07399894	0.15274562	-0.083513446	0.16806011	0.07199965	0.1276254	0.20383818	-0.17504497	0.044610742	-0.5025594	0.16281512	0.2122687	-0.28034198	0.10856275	-0.22228916	0.0153650865	0.15405124	0.25013086	-0.08469121	0.02047001	0.31987467	0.38342884	0.24359237	0.084411934	0.037991922	0.37796766	1.0110978	-0.46155125	0.11143194	0.23333585	0.21661487	0.00560617	-0.114733845	0.00018132906	0.2596073	0.18009065	-0.111916296	-0.4504774	0.2578377	0.16373116	-0.13964182	0.15971006	0.07464752	-0.069545776	0.0015500279	0.19095945	
-0.030824684	0.016288506	-0.05067375	0.11049401	-0.13347882	-0.03541684	-0.15031037	-0.2652805	-0.02228372	-0.093524285	-0.38901645	0.040490754	0.30181652	0.10928055	0.10272644	0.21014021	0.032505013	-0.2633469	-0.03958882	0.054836735	0.056108903	-0.082492135	0.117397115	-0.822289	0.13006285	0.11924908	0.08373161	0.002980719	0.03581826	-0.001668787	0.077249154	0.03365786	0.037841838	0.049815588	0.288239	-0.14786935	-0.03555668	0.026804794	-1.1218872	-0.053271625	0.018192746	0.07725994	0.035883784	0.20390588	-0.019444672	-0.03411636	-0.070402965	-0.054541487	-0.38731712	-0.0037295166	-0.062361646	0.04885148	-0.024195282	0.045269687	0.015604652	0.08669201	0.10782264	0.20284465	0.13399473	0.17620747	0.14125988	-0.0685067	0.005415423	-0.24615993	
-0.12865722	0.06350573	0.0069218166	0.07118947	0.0075569414	0.0070148874	-0.05728794	0.20468049	0.09472238	-0.23819481	0.0425575	-0.069015026	0.08234533	-0.4888432	0.039203588	0.26103795	-0.045325037	0.069481604	0.04723657	-0.07798893	0.028376728	0.0046595875	0.2859263	0.048271406	0.046771456	-0.009805455	0.09689466	0.10639223	-0.05144848	-0.21504979	-0.34174433	0.016870497	-0.11868611	0.29096863	-0.034705184	-0.044956204	0.02829538	-0.15303789	0.15152724	0.07103982	-0.017221246	0.056495406	-0.16529237	-0.075166896	-0.042892396	-0.041903157	-0.07795207	-0.24532363	0.02261501	-0.08281563	0.10181935	0.13850568	-0.07608966	0.15770763	0.14628439	0.03338368	0.0070986645	0.07984667	0.06949234	0.12525225	0.1527381	-0.056715067	-0.071532905	0.04679255	
0.14795868	-0.20670469	-0.26615307	-0.016934725	0.26624015	-0.02861016	0.12535143	0.003006858	-0.06576834	0.07335179	0.110814065	0.10709009	-0.031223213	-0.1858056	-0.064356595	0.076115996	-0.044845268	0.18111855	-0.06460842	0.021313572	-0.06098826	-0.026903711	0.042567156	0.07890046	0.012266954	-0.043711342	0.084191926	-0.10424552	-0.40066424	-0.12817419	-0.22574973	0.18688904	-0.104628205	0.2917612	0.20430347	-0.11161643	-0.034357116	-0.20558915	0.1367807	0.19629714	0.25940022	-0.08262308	-0.5833754	0.0050182035	0.106403485	0.15251516	0.15960863	-0.13862716	0.13057919	-0.015545744	0.19930245	-0.015260099	0.059083365	0.0769995	-0.10508	0.075065255	0.0004276499	-0.14530353	-0.40951967	-0.059689667	0.007161273	0.14188066	-0.0919791	0.23158261	
-0.06254477	0.16628021	-0.22511779	-0.0046460205	-0.10789135	-0.041495286	-0.047268983	-0.12496461	0.104308024	-0.021564707	-0.23359774	-0.11703463	0.010920275	0.02860795	-0.08659959	-0.00040747048	0.21326937	0.060841143	0.025766108	0.0145221	-0.15419462	0.14829963	-0.06578637	0.115036026	0.04398789	-0.111819565	0.20778042	-0.22510396	-0.039197758	0.14874744	0.13293691	0.19609511	-0.042918794	-0.095136955	0.14688945	-0.029937934	0.14455317	0.100645475	0.035182055	0.04131148	-0.25293338	0.17447504	0.042707875	0.2871612	0.004239461	0.029229136	-0.007223566	0.05615786	-0.050474413	-0.0023245332	0.03588989	-0.10271446	0.035696086	0.101541884	-0.072387785	-0.1180824	0.063422315	-0.06398959	-0.07929121	-0.110953175	-0.04587343	-0.12689231	0.08062631	0.01781217	
0.17973933	-0.53379244	0.28793004	-0.12155919	0.101121	0.16301921	0.17000324	-0.13801883	-0.00017196375	0.31017625	0.36464065	0.2686096	0.028929682	0.23424348	-0.6838635	0.18527867	-0.03996735	0.0041324203	0.052509613	-0.0016439841	-0.010295909	0.015682025	-0.039605636	0.23082562	-0.004181975	-0.0067418935	0.11665932	-0.08691204	-0.15656917	-0.18917225	-0.35720664	0.41884917	0.04878091	-0.100680396	-0.029511137	-0.026824148	-0.05358576	-0.6557885	-0.016308263	0.16827889	0.031020865	0.037221044	0.31302312	0.009763941	-0.14113823	0.10730455	0.108529024	0.21407594	0.17087348	-0.08550012	0.2425106	0.0113176005	-0.005515109	0.0733471	-0.012657479	0.03063255	0.017092068	-0.0653399	0.16167818	-0.10439573	0.07898868	0.3915607	0.029612307	0.10733735	
-0.010022103	-0.08157478	0.08492458	-0.03447919	-0.1015843	0.34261012	0.17696223	0.05627687	-0.25793716	-0.10362057	0.01183453	0.021229992	0.10606156	0.10196005	-0.10623009	-0.042706627	-0.019040672	-0.01420951	-0.08592357	-0.43130568	-0.0029699358	-0.04585326	0.19743323	-0.07343299	-0.08203522	0.018076552	0.06944411	0.051831044	-0.13744241	-0.09609423	-0.00679298	0.103686035	0.08299219	0.018537097	-0.04750085	-0.34437484	-0.100812696	-0.03246009	0.1179394	-0.051105533	0.14339879	-0.099249795	-0.054202087	0.082149535	0.19126402	-0.22720712	0.2906792	-0.06177003	0.12957448	-0.14217326	-0.1359261	0.24418437	-0.1864723	-0.42798448	-0.059060857	-0.10350823	-0.14290407	0.13512778	0.048401292	0.08475218	-0.054664712	0.007891175	-0.09961694	0.049547896	
-0.037950184	-0.06029588	-0.08931318	0.04478399	-0.04558191	0.23320124	0.02628366	-0.12577102	0.07979848	-0.01796364	0.039613716	-0.15012151	0.014427376	-0.020858452	0.1132613	-0.12110481	0.106080264	0.14637563	-0.07545368	-0.1786427	-0.15645476	0.041916218	-0.06534403	-0.2127964	-0.15955926	0.14298686	0.09797501	0.12460538	0.08171808	-0.34355485	0.006730022	-0.19283013	0.1302397	0.0891151	-0.65125644	-0.19396126	0.06643818	0.016974922	-0.20299701	-0.025764301	-0.06902763	0.100569844	-0.02286327	-0.22054267	-0.24534048	-0.101604246	-0.06330709	0.13595831	-0.05994508	0.16435057	0.094973594	-0.008826394	0.2112463	-0.10163204	0.4661475	0.5366473	-0.25006154	-0.11701714	0.17287135	0.103220135	-0.0016463705	-0.036196247	-0.010806563	-0.008400768	
