11
64
2
5
2
2
0.26130658	0.012962776	-0.00068876805	0.033862013	-0.19601046	0.00012927162	-0.013341459	0.071237795	-0.07710939	0.3910119	-0.28858215	-0.112505704	0.011389278	0.08696231	-0.02875671	-0.003262654	0.11326256	0.09959683	-0.0019803264	-0.0019409334	-0.31046048	0.007311073	-0.15859145	-0.0023624508	-0.0014859538	0.0053066215	-0.023141036	-0.06760289	-0.15278009	0.0797928	0.023582373	0.106686644	-0.26861608	-0.03131919	0.051678274	0.12167751	-0.07921886	0.1413918	-0.14823698	0.028684435	0.055738147	-0.09327558	0.03448711	-0.010274693	-0.016358536	0.2976217	0.05987879	-0.09193337	-0.02370431	0.0051326053	0.014166507	0.085150436	0.029175628	0.059610516	-0.014202182	0.012103207	-0.022059383	0.06505248	-0.0002279219	-0.15576264	0.008577214	0.36289033	-0.1617996	-0.306942	
0.25810736	-0.004524429	0.09470004	-0.070118025	-0.20771208	0.035305537	0.022559155	0.013119096	-0.076067425	-0.24212535	0.078340895	0.09029985	-0.04477599	-0.05428178	0.049892277	0.015138979	-0.25662073	0.011659903	0.05507835	-0.005869358	0.0320914	0.011447243	0.33563384	-0.009754294	0.0030788737	-0.02168229	0.051105917	0.01952306	0.22184654	-0.10146643	-0.115257695	-0.08628476	0.21230161	-0.36478046	0.08041249	-0.04373008	-0.1519362	0.34772786	0.25418442	0.026813122	-0.059551608	0.47625846	-0.3405447	0.019381046	0.04673103	-0.17969355	-0.281468	0.25016567	-0.15890752	-0.014945261	0.0018551832	-0.15379407	0.04005254	0.10761551	0.025062218	-0.078648746	0.100629464	-7.347121e-05	-0.104428194	0.35780728	-0.05615582	-0.24979	-0.34869647	-0.24675941	
0.1336392	0.035877265	-0.26863214	-0.00056958693	0.27876288	0.45784605	0.1627383	0.12525846	0.06612431	-0.15354684	-0.03185382	-0.15602519	0.14646198	0.17305265	0.10173567	-0.21801081	-0.1300839	-0.00092205405	-0.06364028	0.009324634	0.02752721	0.11095504	-0.10450109	-0.17097734	-0.032012366	-0.15673874	0.22456582	0.098730415	-0.2863416	0.08957	0.2527991	0.16095868	-0.054911137	-0.039833345	-0.15535417	0.22199574	0.13771716	0.015071375	0.14688675	-0.07538963	-0.04167976	-0.45748788	0.25769722	-0.34092775	0.08622961	-0.06788024	0.44044214	-0.1501727	0.45897585	0.015055886	-0.0027964846	0.012284146	-0.04057299	0.026011925	-0.0038488137	-0.09006587	-0.24090585	-0.119219705	0.33568698	-0.28478688	0.1389053	-0.056712642	0.058580037	0.007839535	
0.022396917	0.16786297	0.10747063	-0.34605178	0.0075057913	0.10620751	-0.4816305	0.06685009	-0.084482014	0.069607094	0.13527478	-0.12868866	0.13470641	0.025023911	-0.03427886	0.4532779	-0.00985525	-0.049179334	-0.030577427	0.2640461	0.020697355	-0.24025682	-0.039822847	0.13045296	-0.23257992	0.10434765	-0.26079956	-0.034794997	0.031071652	-0.36011174	-0.13848832	0.13132018	0.18640788	0.022779012	-0.10144218	0.07817349	-0.10377539	-0.06849789	-0.08178317	-0.01180148	-0.061819475	0.09068103	-0.024851488	-0.012474816	-0.16013457	0.032584958	0.12928772	-0.24399137	-0.30721658	0.0021839312	-0.32957682	0.052221254	-0.005564672	0.037288617	0.00088088517	0.18709436	0.4292475	0.036872637	-0.2587312	0.081482455	0.37380758	0.042641107	0.026993603	0.004560078	
-0.006352491	0.3527032	0.037735928	-0.032183457	0.022414764	-0.014929043	0.29655308	0.052974332	0.04843832	-0.031384498	-0.027499268	-0.0060570817	0.040751286	-0.029568164	0.098416984	-0.2436177	-0.0032817877	0.0016515729	0.042419046	-0.4136502	-0.093991764	0.15815164	-0.029133528	-0.124672905	0.40391734	-0.15069501	0.022389755	-0.018466273	0.0001285558	-0.0071641984	-0.021104923	0.00920006	0.05198805	0.0073829168	-0.035665754	-0.02545593	0.03426823	-0.01593626	0.17244814	-0.30716994	0.004980858	-0.033938695	0.01379449	0.2920318	-0.07785012	-0.0049169194	-0.013071242	0.017934008	0.0114184	0.01085199	-0.29007146	0.020361299	-0.0003875948	-0.022945886	-0.0006505262	0.10525854	0.028910832	0.0128625445	0.03302076	0.0009518073	-0.022672292	-0.013539367	0.02203041	-0.0007102256	
0.0122319795	-0.0037595918	0.04302286	-0.05163861	-0.02767494	-0.0045829155	0.011341509	0.09144681	0.16288528	-0.38273257	-0.16218674	0.18110576	-0.016751036	-0.3929248	-0.1395509	0.016461242	-0.34916756	-0.25089824	0.025942767	-0.0076758126	0.11462944	0.07686223	-0.07959574	0.15971005	-0.0019040387	0.0070116273	-0.0433235	0.2688792	0.41250154	-0.103465654	0.058999706	-0.16070881	0.38126263	0.34131628	0.09043143	-0.26227966	0.37307635	0.24221417	0.039283246	-0.050490167	-0.0871678	-0.084842615	0.3217728	0.010678368	-0.038921174	-0.13221103	0.044871833	0.12954019	0.019765165	-0.007216667	-0.014951031	0.050010923	-0.14011905	-0.26477292	-0.009108051	0.043135785	0.024666857	0.3804936	-0.02700588	-0.11592202	-0.022189321	0.11706196	-0.1580264	0.44512773	
-0.24143896	-0.04479203	0.3991396	0.14473237	0.16218415	-0.026192809	0.042650256	0.10233433	-0.1277733	0.3826245	-0.1179139	-0.06981024	0.1897584	0.18983041	-0.05773254	-0.03132891	-0.10699757	-0.35408983	-0.09593646	0.030968407	0.24598902	-0.19322746	-0.364611	-0.16364793	0.0009868653	0.018106693	-0.3979517	0.317832	-0.31480902	0.23998491	-0.038554803	0.05106841	-0.33971232	0.3560012	0.03857856	-0.08358383	-0.40137538	-0.28720692	-0.26412922	0.024714835	0.28039	-0.20894955	-0.40175432	0.00958313	-0.031136606	-0.1903625	0.059496768	-0.43185484	0.16489485	-0.018176278	0.006151661	0.27509022	-0.33422884	0.44811723	0.0017550398	0.051722195	-0.3605386	-0.45545965	-0.08585395	0.34601474	-0.014427854	-0.47104847	0.32776773	0.5296649	
-0.2587651	-0.32201436	0.057340134	0.16833864	0.07652238	-0.45824292	-0.05765824	-0.051187716	0.040529624	-0.093275145	0.059589442	0.5697128	-0.3574321	-0.043517835	-0.3025782	0.21892531	0.2990888	0.07472106	-0.33605385	-0.1775022	0.20377243	-0.046511475	0.18627019	0.2994642	0.038427062	0.28893682	0.45531458	-0.57041234	0.03493911	0.17273967	-0.20773634	-0.5651703	-0.02632608	-0.045497652	0.3300586	-0.076202564	0.35997334	-0.026599169	0.12744248	-0.021563295	-0.0024349585	0.3276909	0.06037991	0.45583826	-0.4378311	0.065615855	-0.17062643	0.2619848	-0.444992	0.023673007	-0.0059267883	-0.100956455	0.45393223	-0.16320622	0.013726115	0.5139689	0.11453959	-0.033593845	0.42255965	-0.40240297	0.06421639	0.2534118	-0.114157274	0.021406889	
-0.16072983	-0.36083952	-0.20741758	0.41929433	-0.02371382	-0.11474454	-0.084789105	-0.09004332	-0.11379685	0.061073966	-0.021938758	0.19559988	0.05083457	0.11635954	0.07485228	-0.44530484	0.07238222	-0.055736225	0.55295295	0.3434933	-0.061601702	0.12056747	-0.011190795	0.08682975	0.22750567	-0.1743997	0.0035037037	-0.027774574	-0.10026038	-0.0578309	0.46599618	-0.20121737	-0.009943359	0.030405384	0.07119983	0.013532311	-0.1597262	0.04931836	-0.23015039	0.39635026	-0.30290395	-0.06742637	-0.0048609506	-0.3401232	0.10291249	-0.032216474	-0.11418522	0.10539291	0.30953002	-0.26107916	0.3299222	-0.019363217	0.047391128	0.010573264	-0.008033508	-0.11490503	-0.028936513	0.10161117	-0.4881848	0.20311984	-0.11653046	0.026681567	-0.04299178	-0.004057834	
0.0022650408	0.04767997	-0.025133215	-0.06972365	0.05215412	0.024101237	0.10756487	-0.04709859	-0.046039242	0.01064777	0.0402249	0.10799236	0.19047795	0.0094803125	-0.16241105	0.23373334	0.008601541	0.015180761	-0.07915083	0.058925766	0.02581913	0.07686967	-0.018204406	0.013506608	-0.40536946	-0.118638866	-0.009308365	0.007872433	0.0081282845	0.013298556	-0.2710419	-0.10669268	-0.0660876	-0.019023782	-0.022799337	0.027122326	0.029155502	0.027032271	-0.10081806	-0.08526689	0.012971082	0.028119765	-0.009382883	-0.08023699	0.13422433	0.007924743	-0.059993785	-0.03571219	-0.0211374	0.41545197	0.2954754	0.039518017	0.011214077	-0.025508171	-0.0038846496	-0.16860701	0.036911324	0.014393053	0.15926275	-0.040938422	-0.38232598	-0.006875693	-0.0133875	0.0023487818	
0.005348033	-0.0025647648	-0.16749695	0.05786071	-0.05819099	0.0064202803	0.008551186	-0.13939437	-0.40588495	-0.018574724	0.302748	-0.24134265	0.021807568	0.38868082	-0.0129247755	-0.014973805	0.04965089	0.22723044	0.010313045	-0.014029084	0.21001603	-0.160317	-0.34248424	-0.06605667	0.007533493	0.052786436	0.22168411	-0.07892063	-0.3903695	-0.12359875	-0.10601635	0.23378493	-0.0049681687	-0.24768594	0.08764356	-0.15376575	-0.14537778	-0.31346712	0.13337557	0.010367527	0.121975444	0.14354551	0.12487124	0.0017033316	-0.03102897	-0.26209623	-0.005951328	-0.034109157	0.00839596	0.011863995	-0.0026372373	0.47089773	0.016992742	0.18695736	-0.8867889	0.04991777	-0.047070805	0.12884474	0.017288666	0.021056835	0.0072528766	-0.040907044	0.17048112	-0.13981284	
0.048634373	0.087722994	0.35196507	-0.3258561	-0.45398757	-0.10530562	0.02586293	-0.22061338	-0.2534639	-0.6280897	-0.3734424	0.026937705	0.11884209	0.01827577	-0.018435225	0.13061047	0.05276584	0.029282456	0.1626785	0.16825615	-0.23819359	-0.1683665	-0.23203677	-0.0318813	0.124349006	0.023503534	0.07461706	-0.12964708	-0.049459115	0.12623183	0.07723989	0.02233459	0.021964304	0.103150085	-0.4917676	0.11155253	-0.010207645	0.06634254	-0.050848283	-0.01214671	-0.0099066375	-0.23411329	-0.025996743	-0.086917765	0.06751695	-0.15949766	0.0052329567	-0.37221742	0.04799732	0.024119338	-0.036187433	-0.07292725	0.2357829	0.041304033	-0.07986766	-0.068458505	0.082158156	-0.17177145	0.038070828	0.24404947	-0.039313357	0.0034276377	0.050142646	-0.027808908	
0.05213536	0.016910415	-0.56854296	-0.28134924	-0.25566652	0.10292476	-0.10342607	0.10848589	-0.040447604	0.13861965	-0.17785533	-0.31554297	-0.13585857	0.02300135	0.12735362	-0.03591559	0.33943802	0.35646805	-0.006769411	-0.0812858	0.01595791	-0.21556036	-0.061217576	0.07404277	0.2131376	-0.055919122	0.31388837	0.017034832	0.046972573	0.034381554	0.073205106	-0.17424767	0.14061795	-0.07561625	0.24139962	0.02254618	-0.057977434	-0.12287358	0.061122313	-0.14996983	0.011199218	0.04732404	-0.15647134	-0.10999295	-0.01877689	0.39955786	0.08943678	0.079901956	0.106153004	0.0141453855	0.078410484	0.151886	-0.044175446	0.12801898	0.026248228	-0.19489536	-0.05298463	0.00011663199	0.13518614	-0.027732808	-0.4662924	0.20027114	-0.24106152	0.39369002	
-0.104997985	0.31488812	-0.13879286	0.05246972	-0.10989558	-0.11942043	-0.06748058	0.17068696	-0.07118499	-0.108758286	0.023914598	0.37795097	-0.08152788	-0.31903607	-0.12501551	0.0798397	0.15394783	0.03239289	-0.24390331	-0.15390128	-0.05727067	0.002777509	0.066673346	0.259653	-0.19142574	0.021058813	-0.14691556	0.35841775	-0.28137422	-0.0051955776	0.09910477	0.13897157	0.13493584	0.07542644	0.24643457	-0.06362678	0.20491385	0.094291516	-0.062262062	-0.08772325	0.018103937	0.14976785	-0.019824343	0.011686667	0.22859806	0.3267737	0.074398465	0.18727274	-0.054880224	0.17063929	-0.002639859	0.18289076	-0.26178393	-0.082117386	0.04496989	0.11352968	0.25591674	-0.08636834	-0.014301718	-0.009081006	0.13541673	-0.06519301	-0.021563113	0.056098938	
-0.24853382	0.12928972	-0.057565857	0.24466053	-0.08291766	0.116948135	0.48240557	-0.069868326	-0.09514924	-0.06584005	-0.056367747	-0.12396597	0.04923724	-0.021100858	-0.14733009	0.099004544	-0.06128368	-0.38686857	-0.30113387	0.06976911	0.0655997	-0.23552226	-0.15023105	0.040417995	0.038724914	0.040403187	0.09588414	0.1746732	-0.036150157	-0.103002176	0.061180826	-0.046572182	0.005040993	0.09197894	0.06709871	0.36329708	0.21866201	-0.049680524	0.2149285	0.1979359	0.07908026	-0.20576467	-0.20048524	-0.010061696	-0.038679242	-0.12001594	0.1624495	0.011531826	-0.0010863512	-0.22206496	0.08592153	0.06635883	-0.33868194	0.0051191305	-0.20660026	0.26962999	0.049231816	-0.05959095	0.082782194	0.47920328	0.09662764	-0.18864578	0.27158186	0.29152662	
0.062059592	0.04137399	-0.10963769	0.066711366	0.22775652	-0.2850521	0.015946727	-0.058177967	0.1394665	-0.0057311505	0.0005981267	0.06766531	0.015160305	-0.12108747	-0.18785508	0.353341	-0.04763928	-0.041141707	-0.03396487	-0.060650516	-0.16712998	0.106198385	0.17628723	0.10004612	0.08605196	0.22541367	0.303606	-0.06461266	-0.0073397155	0.21894595	-0.105592646	-0.0882085	-0.025934529	-0.37843516	-0.13065672	0.12139507	0.3689675	-0.16676106	-0.08699104	0.18255691	0.039687723	0.1964882	-0.11747044	-0.12671766	0.14035437	0.1286503	0.19688606	-0.013638513	0.18283994	-0.049921807	0.115577005	-0.2799317	0.046369895	-0.011936495	-0.2167643	0.05281039	-0.1825013	0.22221923	-0.008244345	-0.1225721	0.09956706	-0.06802691	-0.061492797	-0.16095744	
0.14042178	0.018944072	-0.27353343	-0.16462189	-0.12998778	0.09253401	-0.46273398	0.12782513	0.023164904	-0.07712934	-0.064936645	0.48195294	-0.024228271	0.1296313	-0.06026676	-0.010373437	0.08021023	0.32820284	-0.03498189	0.025535533	0.3193733	0.17501321	0.25672606	-0.083118945	-0.14969237	-0.9271215	0.18823281	0.04377889	0.16970117	0.012396596	-0.050909016	0.17318411	-0.23509242	-0.00501696	0.083955154	-0.42336023	0.48355797	0.18119752	-0.041862674	0.25785276	-0.08908143	-0.24674758	-0.0067328895	0.35931543	0.03489278	-0.13456337	0.107826486	0.0017105306	-0.8156145	0.30802095	-0.13591526	0.0915056	-0.35935792	-0.045160826	0.055175073	-0.15487431	-0.0821162	-0.18062261	-0.18397804	0.48291773	0.22567606	-0.20957905	-0.27937043	0.12750657	
-0.20577691	0.111514956	-0.24331559	-0.23228076	0.27084348	-0.36503413	-0.08310781	0.16535744	-0.012452623	-0.087891065	0.1933171	-0.266338	-0.14011957	-0.045382004	0.36772555	0.011170401	0.1519777	-0.12809998	0.27758318	-0.107143655	-0.21648717	0.1315532	0.04161418	0.0815357	0.35736576	-0.01127023	-0.009547997	-0.093976304	-0.045658417	0.0801615	-0.13150612	0.07808434	0.046232972	-0.049618844	-0.30468082	-0.22010262	-0.26078793	0.14494196	0.026904155	0.13016474	0.08118836	0.15815164	-0.4778557	0.029970095	0.2209385	-0.10923597	-0.09985377	-0.1019974	-0.021489583	-0.17003466	-0.11289484	0.013420408	-0.050448168	0.01386218	-0.029891899	-0.0034003465	-0.1628576	0.079215355	0.21391743	-0.11063989	-0.43121848	0.055169884	0.065858506	-0.154101	
-0.038204208	0.09678172	-0.1132367	0.24384873	-0.037003003	-0.005955868	-0.2730357	-0.11191684	0.2670551	-0.04442409	-0.17305776	-0.28446347	0.2074706	-0.11151298	0.12441689	-0.15543756	0.11422147	-0.052633975	0.14286749	-0.116250865	0.056232873	0.07540954	-0.14270197	0.013017532	-0.2523283	-0.11892441	-0.05094481	-0.23264274	0.12725951	0.09558487	0.27082562	-0.25536892	0.13502757	0.17935638	-0.048318457	-0.030120559	0.04005524	-0.1374986	-0.010432508	0.06302071	0.032557327	0.020512978	0.12684894	0.054112695	0.14308758	0.1372184	-0.106748976	0.20964934	-0.09891854	-0.128701	-0.013955364	-0.114957556	-0.053318378	-0.36411166	0.114059545	-0.096717075	0.0406922	0.059091575	-0.016796598	-0.17324066	-0.040279206	0.089904286	0.14860374	0.03964248	
-0.10979801	0.060970765	-0.16626808	-0.036453355	-0.047801804	0.035709154	-0.07952354	-0.12564251	0.04494919	0.030742316	-0.06442641	-0.039034422	-0.13531181	-0.10199467	-0.14554507	-0.08068943	0.044468287	0.021329587	-0.10181188	-0.19054766	0.16330265	-0.11156962	-0.31080186	0.17273939	0.056497883	-0.048244674	-0.17866407	0.21715128	0.12123936	-0.22777683	0.41456586	0.058235254	0.053427894	-0.4131514	-0.109804474	-0.013742245	0.15729071	-0.089597434	0.16058227	-0.004675945	0.05853981	-0.18635112	0.046094596	-0.00056053017	-0.07003203	-0.17240666	0.22907464	-0.030355215	0.07248643	0.021686932	0.082696095	-0.013731399	-0.15853626	-0.12803628	0.057000034	0.09909635	-0.010787674	-0.08573772	0.06315545	0.0010151565	-0.24779634	-0.06018137	0.0049949265	-0.20925406	
0.07370842	0.095744595	-0.3044966	0.11483696	0.18720257	0.11331683	0.11778641	0.2838192	0.09152885	0.058521964	-0.06345455	0.18376802	0.01783491	-0.104866736	0.041566283	0.026839705	0.029752366	-0.015515371	0.25748122	-0.23861869	0.25928193	-0.28906628	-0.43816546	-0.06290282	-0.023054877	-0.021130996	-0.0024467893	-0.24302594	0.14442967	-0.09833478	0.16965769	0.30298266	0.04383746	0.041400958	0.16350739	-0.060574904	-0.25474733	-0.20074542	0.17538178	0.2813188	0.1026796	0.19732116	0.23488966	-0.54964644	-0.12854284	-0.010038303	0.02386676	0.094763294	0.10937492	-0.06532568	0.08742651	0.09531967	0.23566219	0.26635304	-0.2403805	0.13906282	0.0005381614	0.032734703	0.096676484	0.04485185	-0.013300908	-0.22030349	0.12153321	-0.14890248	
-0.08825399	-0.11305496	-0.10398802	0.30411783	-0.12549874	0.076914646	0.11476246	0.2245848	0.14738142	0.13251863	-0.3013623	-0.15372142	0.11251448	0.08120312	-0.15071219	0.014458802	0.069659814	0.08705187	0.105599	-0.034435377	0.01295379	-0.07283333	-0.117863916	0.11582176	-0.13936761	-0.16834249	-0.17218287	0.09406162	-0.07533802	-0.012766294	-0.07585048	0.2641283	0.07810535	0.5553942	-0.00032256896	-0.19384322	-0.053830404	0.047997486	-0.055649057	-0.12596701	0.004935544	0.1399252	-0.027095703	-0.007352423	-0.4324562	0.06877408	0.09530477	0.3769238	0.12084699	0.054561045	0.37964407	0.07280704	0.20736878	0.30420023	-0.58554435	0.11583988	-0.26446658	0.14326486	0.10702218	-0.035358086	-0.08423442	0.022205958	0.009624415	0.0961892	
-0.013902303	-0.2992974	0.205961	-0.118535504	0.14335899	0.0045460016	0.027773796	0.37974226	0.021624098	-0.3147731	-0.105999954	-0.03347169	-0.26218528	0.19945264	0.082539216	0.3139455	0.1160489	-0.062209	-0.14436144	-0.09322461	-0.13940576	-0.15569417	-0.14202891	-0.32184398	-0.22230037	0.10198757	0.14987509	0.17916852	0.0777259	0.10044949	0.07705108	-0.17471151	-0.08992207	-0.30991966	0.044154264	0.07875412	0.052118164	0.041379213	-0.017331526	0.0068804086	0.37097842	0.113129936	-0.056827363	0.1788516	-0.038790286	0.16105956	-0.014780027	-0.08421073	0.21636878	0.24021754	0.20942877	0.10957681	0.035697423	-0.23153326	-0.059717346	-0.07530385	0.07975413	-0.31895757	0.18619949	-0.0946774	0.057695597	0.090342306	0.33091605	-0.17238298	
0.20453867	-0.103573844	0.31802318	0.28039008	-0.113695666	0.11497362	0.16640997	0.089424334	0.31803858	0.06687394	0.23760013	-0.044691052	0.047584113	-0.059224803	-0.011256744	-0.06554253	0.023810454	0.33063346	0.051673077	-0.018837418	0.049836118	-0.2986517	-0.019863013	0.1695561	0.011707066	0.14967595	0.25265566	0.051808566	-0.11195025	-0.12142146	0.28449157	-0.062156573	-0.1030584	-0.1932004	0.15823334	0.028527834	0.12847379	-0.17190966	0.17531131	0.049933784	-0.12242159	0.07768797	0.2092305	-0.18052547	0.01794516	0.036776997	0.062043067	0.115615025	0.35690984	-0.1460036	0.108731024	0.011344098	-0.0075989715	-0.15784903	0.13055125	-0.1114003	0.05422083	0.018819021	0.3206606	0.09119279	-0.12450725	-0.185206	0.100310855	-0.014032189	
0.11796678	0.25975057	0.06777544	0.07008552	-0.001341976	0.041081727	-0.15264016	0.16340637	-0.03177058	0.26841715	0.1592032	-0.13781433	0.08506348	0.052535716	-0.011958871	-0.055130415	-0.2612294	-0.09890436	0.18555392	0.00072621176	0.05624434	0.019109435	0.3917432	0.018954273	0.06838914	-0.14936353	0.19521558	0.0095758205	-0.03166629	0.037758004	-0.29748207	0.013582206	-0.20257594	0.03619075	0.09718441	0.06461485	-0.26240224	-0.17779048	0.19856496	0.00029603075	0.019432278	0.09902146	0.054718994	-0.21192949	-0.08370513	-0.06757194	-0.34992903	0.35533062	0.1476734	-0.11529776	0.013597691	-0.08190854	-0.0801457	-0.016074944	-0.3374203	-0.10037827	-0.6382585	0.013477622	0.027174098	-0.07803559	0.021689165	-0.07922593	0.3269639	0.065611675	
0.021378132	0.069944434	0.21429026	-0.15889408	0.27524802	0.021206876	0.0823255	-0.084243216	0.25960755	0.0042384397	0.112791166	-0.2371254	0.20049201	0.19253129	-0.17383675	-0.10277848	0.16505325	0.05669236	-0.2752527	0.059082612	-0.24548562	0.12174057	0.08750845	-0.010812647	0.119349495	-0.039036866	0.11196311	0.084028505	-0.2867712	0.12685569	0.40807846	0.14685434	0.057716664	-0.21096884	-0.027365357	-0.13698725	0.032364886	-0.11021993	0.13575892	0.16257392	0.025991768	-0.043578792	0.1573113	-0.022453604	0.25937203	-0.18230143	-0.054837808	-0.06389513	0.097353466	-0.09668283	0.09974	0.017902672	-0.04020138	-0.17851251	0.22318964	-0.044600636	-0.10663047	0.018872187	-0.046608105	-0.06746877	0.03574697	-0.011607765	0.48394358	0.14206572	
-0.062833935	0.31396955	-0.41114593	0.62197196	-0.07904983	0.10641869	-0.10031437	0.055271056	0.06606536	0.3278448	0.5625171	0.14889163	0.12966478	0.33518526	0.41990426	-0.0557015	0.20995983	-0.17425399	0.25258163	-0.16770072	-0.16670658	0.03455683	0.05970348	-0.043338392	0.09944325	-0.45765355	0.10426945	-0.27597865	0.6292456	-0.037312884	0.25209895	0.2041061	-0.26424757	-0.26868322	0.0503402	-0.7473938	0.28218532	0.0037009919	-0.06987312	0.1601557	-0.024587968	0.06252962	-0.07577272	0.18973814	-0.27585125	0.047890633	0.17959948	0.15067102	0.065229565	0.14264163	-0.16590703	0.14999473	-0.14094874	0.10241427	0.084506266	-0.013576424	-0.120924205	0.02719224	0.032113947	0.015277816	0.048991885	-0.29635894	0.07736445	0.1449102	
-0.11698613	0.013192407	0.25161895	-0.14272293	0.24590825	-0.08662142	-0.17934911	0.102918796	-0.3099934	-0.14835654	-0.0018101116	0.12160513	0.16929497	0.03762233	-0.05164017	0.06583612	0.038349025	-0.13465577	0.14270625	-0.24448234	-0.18006782	0.076629184	0.04643143	-0.3138661	0.105248615	-0.21940392	-0.2223416	-0.1147899	-0.13879478	0.15216574	0.027977241	-0.025026279	-0.089900486	-0.16929574	-0.5257501	0.004295617	-0.061717693	-0.16790168	0.11500598	0.2692482	0.106236786	-0.373927	-0.066334195	0.035724904	0.05887248	-0.2132036	-0.14919879	-0.1390937	-0.018164672	0.16764115	-0.14322668	-0.22159564	0.25737938	0.11118645	0.2473811	-0.005105786	0.03294398	0.17283721	0.11383755	0.022066582	0.225281	0.010086355	-0.13373433	0.047983468	
0.19217667	-0.049759526	0.040889226	0.049432233	-0.0720338	0.35628742	-0.045825507	0.22082996	-0.18491347	0.28415447	0.20303918	0.012676707	0.060447276	-0.0026284633	-0.03264946	-0.071021445	-0.047402646	0.062236845	-0.16024601	0.2222723	-0.21718566	-0.19769976	0.121586755	-0.07569204	0.21737967	-0.09583449	0.34051886	0.036426697	0.02286448	-0.021269316	-0.16995378	0.07103038	-0.123249985	-0.0088183675	0.25478035	0.18311487	-0.05409818	0.028679574	-0.059998594	0.22629906	-0.1536788	-0.12387691	-0.05857346	0.16962226	-0.31036147	0.25302294	0.010759719	-0.14607072	-0.028084427	0.041476164	-0.18963586	0.019105399	0.05261617	-0.31259814	-0.18804936	0.105134055	-0.21659094	-0.12671922	0.034413062	-0.093803704	-0.037092928	-0.039932266	-0.20585266	-0.08925618	
0.03447227	-0.009462327	-0.06893639	-0.21968156	-0.042714264	0.2433645	0.08441052	0.011624342	0.0055632447	-0.07979948	0.05540966	-0.280509	0.07238578	0.28301403	-0.09988849	0.07325946	-0.19864784	0.30331013	-0.22202818	0.32761684	-0.19250919	0.0907419	0.19864254	-0.094796896	-0.12877885	0.20176469	-0.26295087	0.2688669	-0.015296577	-0.08704203	-0.16898793	-0.0074850856	0.06470356	-0.36558962	-0.07540799	-0.061212383	-0.122610375	0.2571851	0.11731109	0.12628986	0.31711808	-0.20874223	0.2587104	0.17820068	-0.03490676	-0.06776213	-0.12752882	-0.3288431	-0.06809038	0.37834308	-0.011184674	-0.2647979	-0.006829071	0.10600124	0.2939757	-0.108615346	0.1470124	-0.15019625	-0.020125208	0.042531267	0.07767643	-0.29153594	0.054014668	0.06580141	
0.056818806	0.1089823	-0.013433329	0.03284404	-0.19397344	0.0060602645	0.024626264	-0.13762718	0.03429023	0.12902744	0.06093592	-0.14892308	0.01320668	-0.062030446	-0.06201885	0.13799837	0.14572039	0.08645116	-0.11419254	-0.18029691	0.33768433	-0.101111844	-0.10115413	0.25328535	-0.048612747	0.17414862	0.2059793	0.18396349	0.03609432	0.07194556	0.22819015	-0.14347816	0.109317854	-0.0842058	0.27590105	-0.3022924	0.10439974	-0.04244966	-0.047418054	-0.1436659	0.29354763	0.090231165	0.38051108	-0.016080463	0.0076393257	0.13469543	0.06237005	0.12897605	0.03692246	-0.29597774	0.07247418	-0.050364424	-0.10455944	0.034397747	0.11211897	0.42666453	0.111342795	-0.051515833	0.014668208	0.38308316	-0.18764901	0.09848403	0.04165767	-0.008581276	
-0.11183193	0.23053226	0.26394188	-0.11936317	-0.0812606	0.06204501	0.023798482	-0.044515003	-0.20921266	-0.49406666	0.12885445	0.14626308	-0.101372	-0.07038499	-0.15565033	-0.17140064	0.09589549	-0.071886085	-0.08581996	0.1914444	-0.19049183	0.2825771	0.15936206	0.038778096	0.1371097	0.054703142	-0.06618983	-0.07491298	-0.16872114	0.08547429	-0.13968062	0.13722558	-0.067011565	-0.037050363	0.12009421	-0.17149113	-0.12161801	0.11206465	-0.20935164	0.01780868	-0.011516693	0.14010125	-0.14609379	0.17202051	0.09176689	0.056461226	-0.14472634	0.06846739	0.16837083	0.010445876	0.29318568	-0.024690792	-0.023448244	0.15215579	0.21682559	-0.21363308	-0.010229424	-0.052421156	0.26006275	-0.09270435	0.010416054	0.065885335	-0.021661311	-0.110116675	
0.01761492	0.10120102	-0.45698744	-0.14696798	-0.021041889	-0.25375837	-0.08248297	-0.07380349	-0.08144054	0.2770741	0.23679905	0.17090654	0.2576046	-0.045433477	-0.15583777	0.14242719	-0.30164534	0.054332346	0.08846027	0.027565952	-0.096949786	0.117062636	-0.1171139	0.10940499	-0.17886187	0.14245184	0.10854268	0.15188251	-0.14845823	0.095415965	0.2222243	-0.019179298	-0.012260753	-0.14888577	0.10441498	-0.0380517	-0.16543183	0.053806953	0.079886936	-0.018017191	0.10604366	-0.13473621	-0.21598966	0.12846814	-0.002074806	-0.0692751	0.12764677	0.1387634	-0.18910605	0.33621728	0.016974334	-0.07160363	0.10036006	0.012333209	0.15080762	-0.03546435	0.08832568	0.12728404	0.03896841	-0.1084673	-0.099750735	-0.29511616	0.18271096	-0.029811725	
-0.13596377	0.12181674	0.044441238	0.040127277	-0.2880781	-0.17163464	0.010402794	-0.24947514	-0.1781182	0.11773869	-0.19928308	-0.08867316	-0.06683596	-0.12915526	-0.08224692	0.11263198	-0.0339553	0.10471498	0.2018544	-0.0013729291	0.06035127	0.0047821933	-0.3542253	0.003821642	0.05381165	0.05698567	0.1371693	-0.12298163	-0.16304074	0.0017766749	0.42351833	0.2696219	-0.25729138	-0.019713802	0.0066300286	0.024086151	-0.12365075	-0.12238994	-0.3793363	-0.061179295	-0.16919732	0.10726644	-0.07468206	-0.11418361	0.20626967	0.16012697	0.23730597	0.15437412	0.1718353	0.03575807	-0.07343488	0.07447623	0.22873378	-0.10936711	-0.13440573	0.0874679	0.06639272	0.1583251	0.04303392	0.0062212	0.10176642	0.17090538	-0.061425507	-0.2336692	
0.108639024	0.049523015	0.19459227	-0.1591436	-0.14883102	-0.15700951	-0.028925965	0.012929622	0.18819284	0.052847046	-0.11832007	-0.23848374	-0.068445824	0.19191538	0.09729352	-0.018664658	-0.062933706	-0.08191708	0.15787315	-0.21911071	-0.15546818	-0.008225214	0.0049120714	-0.021198405	0.31911194	0.0446842	0.04301866	0.11764338	0.008287309	0.21019536	0.06492999	0.123959474	0.029939272	-0.019004384	-0.24475275	-0.16062081	-0.13724086	0.016780548	-0.20873359	0.03834668	0.00911729	-0.003906763	-0.12684232	-0.09947123	-0.30354506	-0.111668766	-0.028614871	-0.16428389	0.03361718	-0.084782645	0.1527168	0.001159543	0.04566152	-0.10460767	0.026201617	-0.0069000684	-0.12078792	-0.28482074	-0.14802329	0.11140704	-0.18514568	0.17328994	0.1072783	-0.09152654	
0.21196909	-0.09191023	-0.40324876	0.35143432	-0.20182294	0.07196998	0.15478207	0.059333105	-0.0785017	0.14826141	0.011292884	0.07104335	0.30793342	0.17898569	-0.11132402	0.023187017	0.5173517	0.09604867	0.25498027	0.3305684	0.08501327	-0.24618714	0.058328528	-0.0066552474	0.06882888	-0.42719033	-0.03719629	-0.10976093	0.13740188	-0.1069006	0.2574724	0.24500898	-0.11487236	0.038948245	0.1181655	0.06600681	0.15605071	0.029567352	0.33983302	0.1674653	0.15717332	-0.0406901	-0.21024114	-0.021027848	-0.06069639	0.22878148	-0.050195303	0.058684446	-0.20656894	0.06377629	0.11247982	0.22440378	-0.0032042495	0.17108718	-0.13712856	-0.077393614	0.086277865	-0.06298321	-0.08596923	0.08480524	0.3392295	-0.12560177	-0.20735939	0.15685678	
-0.47830942	-0.13373274	0.08610054	0.04877347	-0.21498425	0.09764163	-0.26141268	0.10322712	0.06917934	-0.05898581	-0.09182068	-0.06831092	0.21203981	0.21354884	0.056463033	-0.050470226	-0.07065323	0.043399666	-0.49918535	-0.28761455	0.06853688	-0.0024794317	-0.046048827	-0.16138217	0.0526244	0.12704106	-0.16987315	0.09016096	0.05725118	0.1848445	-0.22877584	0.008795668	0.25419077	-0.04449647	-0.113707505	0.03815949	0.031644434	0.16893719	-0.1792299	0.044215098	0.19263206	0.0788333	-0.08425549	0.12872094	0.08622485	0.007276994	0.108034745	-0.06692287	0.17839636	-0.050144754	0.07557414	0.042474337	-0.1141624	0.00837953	-0.08062185	-0.19140825	-0.18264326	0.12218694	-0.25765842	0.062061522	0.15861541	0.2228656	0.011841434	0.010168494	
0.1843071	-0.06369304	-0.08997376	-0.14237954	-0.1482902	0.11746647	0.0067960806	-0.045081746	0.29649955	0.23106582	0.42776287	-0.16282028	0.03832692	-0.25414532	-0.07803304	-0.22816557	0.22718227	0.1994587	-0.14382364	-0.49393892	0.28953877	-0.20340942	0.048113625	0.17229898	-0.224761	0.10316408	0.15596503	0.063010946	0.25624973	-0.062432073	0.11133054	-0.026485901	0.057323877	-0.045605715	0.29975092	0.024369165	0.23581211	-0.21247032	0.025528653	-0.024829183	0.22061326	0.09780405	-0.013912507	0.04423131	0.14660238	0.08226192	-0.17234738	0.25337362	-0.0725914	-0.20861071	-0.35974935	0.10005413	-0.06099232	-0.111838534	0.071838096	0.21645623	0.15057439	0.30798635	0.046764966	0.17128092	-0.3303581	0.29435867	0.033342645	0.38858178	
0.09748005	0.23048021	-0.053097855	0.1096165	-0.3384097	0.22206073	0.119262956	0.1118067	0.19880238	-0.22390799	0.20245372	0.08602141	0.059173543	-0.026323972	0.1387014	0.2276676	-0.040069565	0.0041892193	-0.062353957	0.25080037	0.2764592	0.21434037	0.14330596	0.21351504	0.1787851	0.35243624	-0.13749419	-0.007609798	-0.023024945	0.06335947	-0.33211505	-0.08978526	0.4208325	0.3001734	0.0778044	0.2196011	0.316214	0.13727242	0.13392958	0.02464385	-0.110452116	0.1111398	-0.020124067	0.19864927	0.1941387	-0.030779576	-0.38414732	-0.13482659	0.21197435	0.14416333	0.14488927	-0.09229016	-0.07289311	0.26419893	0.101351134	-0.0045493883	0.27282652	-0.19707498	0.0911854	-0.15283883	-0.17080285	0.07698809	0.015631747	0.05897312	
0.0799389	0.088407405	-0.06425086	-0.010232401	0.34368232	-0.047360197	0.14501613	0.027589817	0.19052306	-0.15512365	-0.038463775	0.31716326	-0.1130779	-0.15206486	-0.00204029	0.13096446	0.13370022	0.26327077	0.10745605	0.18026055	-0.15306386	0.25354597	-0.25154433	-0.062479552	0.21731758	-0.1364458	-0.022372898	0.0874791	0.20684724	-0.08309431	0.16223305	-0.16908097	-0.0072018197	0.17846695	-0.1647456	0.21845344	0.091334924	0.23675863	-0.43128455	-0.2965536	-0.053192284	0.11206215	0.059539724	0.21676406	-0.003779085	-0.0648083	0.07762695	-0.29817015	0.009599423	0.077714324	0.18749444	0.1481346	-0.25257275	-0.018164009	-0.027194016	0.04953798	0.110924736	0.048376996	-0.15677616	0.0333649	0.25889176	-0.18773553	-0.09064096	-0.0018310265	
0.28300488	-0.080892995	0.1438862	-0.035720985	-0.002529666	0.017601676	-0.089207426	0.12810597	0.0053729406	0.020071631	-0.055767447	0.10656417	0.17787889	-0.1576094	0.13158737	-0.14686914	0.19240856	0.17994869	-0.101769984	-0.09822255	-0.03690041	0.15682521	0.15137774	-0.24775916	-0.04324701	0.03601146	-0.07659518	0.022378843	-0.09793393	-0.05331699	0.11517886	-0.2056253	0.13281906	-0.11450592	0.08482829	0.18092823	-0.04289523	-0.0618041	0.22852153	-0.038260814	-0.20874178	0.21734011	-0.3084646	-0.26429242	-0.23557702	0.50279015	-0.08234695	0.34504935	0.16945948	-0.0013427803	0.010257558	-0.061910335	0.009101311	0.0915684	-0.00762299	0.13318017	0.018031629	0.10421863	-0.104718044	0.114420936	-0.45439783	0.4037211	-0.014564699	0.00069572433	
0.18209055	0.08374322	0.18397045	0.06558125	-0.1449829	-0.23163874	0.042626616	-0.10087583	-0.16039301	0.08893311	0.08254146	-0.46812773	-0.03558584	0.24588111	0.063597426	0.22597985	0.37126112	0.061105657	0.0003570222	-0.39778703	-0.19045761	-0.15702097	-0.07690078	0.20952748	-0.07960856	0.105026685	0.20133366	0.2018831	0.0472747	0.0824821	0.19054869	0.42289427	0.18624966	0.014328589	0.20713349	0.046521176	-0.16419362	-0.18546532	0.2062818	-0.21003987	-0.12671289	-0.038212366	0.2204657	0.12618472	0.028118862	0.028948106	0.0042077014	0.14739755	-0.13273743	-0.2131483	-0.05112258	0.029122444	0.069292024	0.0205997	-0.0032595366	0.05311565	-0.014189505	0.02682829	0.35294667	0.03655889	-0.43324816	0.07421374	0.14616662	0.03281719	
0.08107646	0.1429253	-0.28312042	0.010710636	-0.19026458	0.19141985	0.15079804	-0.20211191	-0.0451384	0.33333635	0.13623193	-0.064588584	0.38160017	-0.11871775	0.025709828	-0.27693012	-0.16755818	0.047431197	-0.043050423	0.08642999	0.28702673	-0.04541982	0.08839833	0.25366023	0.29452997	-0.12263857	0.14341065	0.068373725	0.16545424	-0.20681913	-0.027423253	0.046072323	0.28849712	0.14804855	0.13773225	0.016158553	0.03785058	-0.049759813	0.09381819	-0.13575947	-0.13598709	0.17235214	0.08550743	-0.12073423	-0.0679554	0.046533514	0.13471006	-0.025616232	-0.038093492	-0.065647654	-0.10154764	-0.12782298	0.03146282	0.38192976	0.20864743	0.45024875	-0.22543292	0.30056816	-0.21037787	0.017505625	-0.042532824	-0.24345379	-0.27000734	0.16188869	
0.1959942	-0.23814602	0.07302738	0.090349294	-0.1657878	0.13536641	-0.013542063	-0.10267543	-0.11760866	-0.07575233	0.15810609	0.19257666	0.038632303	0.32566866	0.09441158	0.10400053	-0.0014254504	0.0766657	-0.12549108	0.15411115	-0.291035	0.029329622	0.09978612	0.23368326	-0.14694406	0.23387593	-0.070008844	-0.24349593	0.13248315	0.1433877	-0.10062387	-0.012689819	-0.08497172	0.020504987	-0.106007636	0.09849851	-0.0774973	-0.06588834	-0.2738809	0.0041331784	0.039340034	0.102319725	-0.036787238	0.5734542	-0.09156086	0.16073802	0.01111561	-0.11337058	-0.3015207	-0.1612072	-0.26193666	0.0021163286	0.1590299	0.053686403	-0.11682144	0.025552124	0.12515838	-0.008899507	0.007148004	-0.14191775	0.19348061	-0.12979718	-0.10781087	-0.0058849193	
-0.11483118	0.043639056	-0.33305088	0.025164172	0.2763878	0.026365919	0.06662737	0.14445779	0.05048263	0.1575053	0.019639183	-0.029376904	-0.08624978	0.071639605	0.06298522	-0.013045547	-0.028925674	0.123042904	0.17108767	-0.32215515	0.20126985	-0.22766562	-0.34563693	-0.12189236	-0.04372143	-0.26145107	-0.029028632	0.04498741	0.26285586	0.11749674	0.047944803	0.22798142	0.009047312	0.16745465	0.3990747	-0.14415896	-0.451909	-0.34195307	0.048591617	-0.019694038	0.009184622	0.11873937	0.20169389	-0.4170363	0.14011122	0.12054543	0.21735623	0.038600866	-0.23119082	0.09383099	-0.00087810465	0.048593517	-0.08055465	0.115919106	-0.28856882	0.02635682	0.10302322	0.16086821	-0.004772025	-0.041532684	-0.059254345	0.007208408	-0.04643436	-0.06989406	
0.38580075	-0.028624415	-0.026370088	-0.032602094	-0.2522595	0.16762654	-0.23244967	-0.11902746	0.21398287	0.21302956	-0.21349959	0.0016790929	-0.0594246	0.022608282	-0.21487403	0.08976467	0.23516226	0.016417064	-0.18832953	0.07578263	0.05646243	0.13448997	0.071617104	-0.36333945	0.18419182	0.03704921	-0.22241917	0.06937115	0.14491066	-0.21233384	-0.12086162	0.046005584	0.006388972	0.08366609	-0.05597296	0.009624685	-0.14863911	-0.097065486	-0.15509948	-0.08803768	0.20632619	-0.007562368	-0.1228067	0.16714934	0.2440689	0.03565453	0.19795495	0.16966091	0.076425225	-0.039837334	0.09436955	-0.058927935	0.13176495	-0.07500063	-0.28482383	0.0013078863	0.05655436	-0.09502269	0.05781826	0.026709959	-0.22356099	-0.049822375	-0.13175714	0.055721287	
0.22530614	-0.06498104	-0.40322623	0.28683114	0.16779491	-0.055685315	0.078795984	-0.17387794	-0.16615228	-0.017935582	0.011020997	0.18208683	0.033920825	-0.11267082	0.054803472	0.261723	0.23343726	0.1818603	0.024309564	-0.0063449424	-0.11068574	0.16852202	-0.040820666	0.036491327	-0.09298837	-0.06160725	0.27933127	0.01399383	0.030527912	-0.052635096	0.07597138	-0.08965117	0.041972183	-0.28484458	-0.07575117	-0.054965436	-0.17243983	-0.034145895	0.07065909	-0.20484844	-0.005914196	0.12851451	-0.035510466	-0.12064488	-0.20001556	-0.24707158	0.23381104	0.31625968	-0.06136533	-0.321544	0.29925242	0.034832958	0.10831679	-0.085528806	-0.20768291	-0.20627928	0.41962627	0.2077716	-0.06534041	-0.09082141	-0.053075068	0.05783167	-0.045178905	-0.03428942	
-0.2304644	0.0078275995	-0.01669371	0.05200226	-0.21304421	0.2518661	-0.07413555	0.021385934	0.01926554	0.06089978	-0.16438453	-0.3412828	0.017496819	0.044420198	0.087479144	0.04964621	-0.17301513	0.053492907	-0.13741368	-0.40244597	0.28549865	-0.40609342	-0.23331757	0.048790008	-0.017176528	0.32176724	-0.087176725	0.0114441505	0.2629723	-0.08037669	0.01300504	0.12019592	0.029935824	0.29990435	0.3636443	0.033984087	0.2519225	-0.09698389	0.061285578	-0.2665106	0.0223623	-0.2714535	-0.09392439	-0.028093766	-0.35756966	-0.18058638	0.2563501	-0.079771176	0.43939433	-0.07046181	0.078003146	-0.18158972	0.040734224	0.018154955	-0.17308289	0.16346349	0.057939257	-0.16649307	-0.1693716	0.15694617	-0.13961563	0.1306588	-0.04092136	-0.1083818	
-0.0729496	-0.26933408	0.026794912	0.06451171	0.045715407	0.01740108	-0.050596025	0.12842911	0.33943728	0.13154343	-0.032597464	0.051471613	0.13756312	-0.1021646	-0.14957237	-0.16373248	-0.06498573	0.2926336	0.16164377	0.18464728	-0.12523979	-0.03971896	0.12827535	0.002618078	-0.03374725	-0.116218455	0.15638748	-0.19835278	0.25685337	0.06007046	-0.0144962985	-0.06619208	-0.091949105	0.16642468	0.01641409	0.3018944	-0.16892332	0.18679243	-0.043127622	0.1526884	0.060444664	0.19162579	-0.1101931	0.12939121	0.09884245	0.23801185	0.051701225	0.10943359	-0.2053509	-0.20782758	0.03933967	0.17753515	0.016387692	-0.15391734	-0.09277808	-0.11303373	0.0063217035	0.012695467	-0.0478965	0.021660177	-0.0061414945	-0.04848701	0.041599263	-0.2075377	
0.00012333709	-0.017282281	0.19998358	0.17804287	-0.042128034	-0.028236425	0.050477173	-0.15355988	0.01833767	-0.057223063	-0.3238266	0.13651597	0.021610552	-0.2751918	-0.1530469	-0.021316756	0.19929814	-0.013422042	0.27950454	-0.09548176	0.10148281	-0.053393856	-0.18233599	0.2001092	-0.25051934	0.15564175	0.06974084	-0.11791236	0.075078025	-0.24525833	-0.11534723	0.10058331	0.08222835	-0.010518666	0.14067492	0.30306152	-0.17583354	0.15501323	-0.21403246	-0.21394376	-0.053794276	0.12360746	0.20302056	0.16585235	0.30793956	-0.09809042	0.04514111	0.124651864	-0.1939189	-0.10003201	-0.11047762	0.07846263	-0.02951341	-0.009321955	0.047524292	0.34778288	0.020898575	-0.09213019	-0.029636038	0.16911745	0.08502596	0.119934924	0.20002516	0.0048003355	
0.10501096	-0.11995129	0.26244405	-0.18626143	-0.019692274	-0.25909844	0.0425207	0.2693843	0.08804816	0.039112046	0.18449192	-0.18123563	0.07108251	0.24710514	0.015802143	-0.05753308	0.23939316	-0.038688246	-0.19320583	-0.12628448	-0.083560735	-0.21758866	-0.0055906856	0.13803957	0.040211312	0.023021134	-0.22982125	0.03677342	-0.16965264	0.45839372	-0.019586498	0.087154776	-0.024752468	-0.003904221	0.20467293	-0.043055817	0.16468583	-0.07271698	0.022543237	0.2165253	-0.28831047	0.12166628	0.09948961	-0.108673245	0.079235	0.09065018	-0.030597644	0.048151165	0.13952242	-0.09097558	-0.0712797	0.09607614	0.030278593	-0.12799193	-0.15758564	-0.24354482	-0.0559393	0.12709302	-0.1456509	0.06406054	-0.22020242	0.21001565	-0.0030787296	0.12282435	
-0.15548499	0.118040964	0.20279151	0.13257965	0.07351697	-0.09547861	-0.08077337	-0.026075479	0.13743904	-0.21490993	0.14650735	-0.050746195	0.098935395	-0.16193382	0.005289824	0.18373148	-0.02875804	0.022804553	-0.29509377	-0.07817561	-0.18957275	0.01690596	0.14846422	-0.12346945	0.18556568	0.059109956	0.009259352	0.020716509	-0.17881387	-0.11153878	-0.0389976	0.005417968	0.36883032	-0.10395932	0.03729587	0.027482625	-0.24618506	0.39135855	0.12926249	0.09186672	0.09875646	-0.022545233	-0.26465753	-0.12794454	-0.12335028	-0.018825045	0.08757532	-0.15605764	-0.056599226	-0.06878671	-0.33660772	-0.007253915	0.07781453	-0.21411958	0.08104599	0.08396052	0.24687001	-0.16680178	-0.17977436	-0.11953923	-0.123665854	0.047733407	0.041835282	0.046184506	
-0.036010083	-0.078217305	-0.09891299	0.25787264	0.053665914	-0.38274914	0.14878623	0.13294116	-0.24614699	0.49983886	0.22541551	0.2039946	0.17994657	0.022130745	0.2602308	0.017903564	0.07455346	0.008384661	0.14773396	-0.50751686	-0.0124263605	-0.33655384	-0.14422667	0.2503102	-0.07645419	-0.07323746	-0.057814457	-0.26679862	0.24612108	-0.10157093	-0.034060635	0.14754874	-0.13072172	0.14015046	0.2075151	-0.024379853	-0.08374841	-0.1631429	-0.4522829	0.26598182	0.1978202	0.44535583	-0.09778382	0.39538276	-0.22781552	-0.04202932	0.24432752	0.17026745	-0.09556377	0.056691084	-0.19275743	-0.0052916813	0.039630912	-0.05868039	-0.05876266	0.2849821	-0.12273083	0.15511215	-0.11001324	-0.06724909	0.174928	0.01545441	0.24184722	0.11587788	
0.1184938	0.12562755	-0.12406288	-0.036612354	-0.07747903	-0.30790445	0.20495892	0.12370624	-0.101548836	0.0869254	-0.15343712	0.25979385	0.0844723	-0.23825079	-0.2541566	-0.19881122	0.07692852	0.088990435	0.07868318	-0.25150406	0.4362482	-0.18042675	-0.18464114	0.24902672	-0.11202847	0.27479163	0.09915746	-0.0064704306	0.16896304	-0.04308379	0.14759877	0.07344688	-0.07693986	0.15878688	0.29931974	-0.078793995	-0.071256444	-0.15448439	0.05468776	-0.17758502	0.041144185	-0.009480214	0.031617127	-0.2811178	0.0044981847	0.15170504	-0.038673364	-0.032220267	0.0974808	-0.08753921	-0.6746947	-0.07091473	-0.14304164	0.32462892	-0.38204408	0.17493019	0.020842312	0.19483595	-0.21795228	0.09404632	-0.33252758	0.3012679	0.19851397	0.08976712	
0.06550428	-0.15050314	-0.0063471077	0.18730307	0.06296514	-0.057497878	0.06755909	-0.038244486	0.17305966	0.0991056	0.016780516	0.40296414	-0.054473445	-0.49140504	-0.098300554	-0.07157173	0.14545216	0.17734689	-0.063390024	-0.09845162	0.08031137	-0.15647057	0.008634807	-0.33433345	0.097043715	-0.18507445	-0.2556502	0.2117935	0.13025631	-0.3830356	-0.040330313	0.02838769	-0.1876277	-0.016635936	0.14081845	0.030111413	0.36431882	-0.21129781	-0.3023166	0.21563734	-0.14330587	0.07699652	0.009712965	0.02448875	-0.14146249	0.30760336	0.023143083	-0.0061040227	0.11999198	-0.0029749845	0.12311919	0.1921573	-0.07914812	-0.091366775	-0.10600111	-0.12628928	0.18759707	0.19692478	-0.072963335	0.041371718	0.19346	-0.013064954	0.10184279	0.44665858	
0.29162636	-0.13269545	-0.11714231	0.048648484	0.07799289	0.1220424	0.21132714	-0.021012517	0.015835132	0.016805444	-0.0640428	-0.1215579	0.0044035143	-0.21088095	0.116707824	-0.2990827	0.00024356802	0.14478059	-0.23645647	0.22031467	-0.118895724	0.12320712	0.009976461	-0.005854222	-0.059504133	-0.08843249	-0.15315002	-0.027401553	0.15342133	0.115923695	0.17394935	-0.31519973	-0.010237043	-0.121860534	0.1374086	0.13764367	0.07623135	-0.08487586	0.10382823	-0.12559366	0.11262448	0.1665416	0.06310079	0.036468573	-0.007404298	-0.39299276	-0.114139676	0.20107313	-0.22045974	0.14656448	0.01916773	-0.06158732	0.35705662	0.106880695	0.036965523	0.31617737	0.04647372	0.34450233	-0.20468073	0.20809554	-0.34647527	0.13438937	-0.23029608	-0.19306315	
-0.1656254	-0.16328837	0.021033369	0.049014993	0.18316005	-0.072128534	-0.11395846	0.071895	-0.32347038	0.035391703	0.019085653	0.2621454	0.21340786	0.0532746	-0.0063933847	0.14091682	0.020386599	0.2061583	0.22861436	0.11006253	-0.15917307	0.18144754	-0.03685372	0.014040265	0.12667395	-0.04882183	-0.21798356	0.03307965	-0.0041905697	0.07173227	-0.1236558	0.03909971	-0.19407311	0.1463412	-0.19478664	0.0009382103	0.056327216	0.29332784	0.11226505	0.20262878	-0.18258293	-0.16972494	-0.00032713992	0.3651264	-0.23777892	0.13635437	0.41424596	0.12978126	0.10320756	0.24398617	-0.046673752	0.2322135	-0.054588165	-0.042824235	0.20325074	-0.20580193	-0.17911431	-0.019450504	0.23194042	-0.13511294	0.014667083	-0.08569019	0.015805705	-0.023954624	
-0.0646408	-0.07739021	0.41361535	0.094670504	0.46812356	-0.19087166	0.11346874	-0.0297767	0.25508544	0.08477177	0.0036820895	-0.05240751	-0.16963892	-0.26328063	-0.009684915	-0.120375656	-0.046312235	-0.009097363	0.3959076	-0.11446696	0.13903873	0.47036102	-0.08088896	0.08640687	-0.106478095	0.09360764	-0.24334042	0.025158802	-0.06822508	0.10099601	-0.13438925	0.098114744	-0.049452815	-0.0065331645	-0.0375974	0.12300398	0.084979296	-0.114164725	0.1566682	-0.10281112	0.007399394	-0.00660851	0.21630333	-0.32585138	-0.3732229	-0.14111316	-0.08457211	-0.004726116	0.059403565	0.21508157	0.16610056	-0.0019149057	-0.061445527	0.04948222	0.18292256	0.23648001	0.12923506	-0.0959168	0.135666	-0.38411722	0.1958986	0.19294326	-0.028611466	0.052938875	
0.08646168	0.22765204	0.115872756	0.042270254	0.2878536	-0.17579906	0.026833242	0.39416227	-0.011707238	0.10812021	0.15151107	0.11385378	-0.11015407	0.016863273	-0.1190745	-0.030135674	-0.14831251	0.13233545	-0.12205221	0.2876589	-0.1854629	-0.15876627	-0.03838436	0.17004254	0.001012907	0.08074459	-0.025418347	-0.08269953	0.10519385	-0.2815048	0.02780298	0.2686808	0.044232257	0.096018404	0.024982914	0.31614864	0.29405528	0.011970254	-0.38926497	0.059852537	-0.1520171	0.5169	-0.113337904	0.2058196	-0.17186561	-0.0984429	-0.04710144	-0.071359694	-0.15452069	0.15174253	-0.05925166	-0.054828774	-0.052459717	-0.23506375	-0.22994405	-0.3607061	0.084792025	-0.027447086	0.17810509	0.21669671	0.04951028	-0.02812684	-0.06808256	0.16036743	
-0.26345202	-0.17433362	-0.41410816	0.1781912	-0.15730828	-0.53400016	0.384764	0.22572255	0.09350468	0.22225079	-0.11793119	0.25945956	0.38651946	-0.20518787	-0.17750764	0.19214304	0.026705282	-0.1565975	0.20678417	0.09692067	0.0074232314	-0.23030837	-0.029786265	0.37500262	0.052749947	-0.16555421	-0.08245201	-0.51657003	0.42945355	0.04219336	-0.08689605	0.318706	-0.054908864	0.06806303	-0.11069293	-0.09599268	-0.31143242	-0.08145058	0.40887702	0.27750725	0.2558572	0.096601464	0.055434547	0.024624158	-0.27111828	0.09253002	0.072368786	0.0007241785	0.02665139	-0.10594445	-0.32746768	-0.056572508	0.101965114	-0.018243864	0.041484345	-0.19082679	-0.06293151	-0.09553192	0.3528535	-0.11786545	0.038576063	-0.3905261	0.10295129	-0.18344375	
0.1290407	-0.018822616	0.15688927	0.40554607	0.024020966	0.07603347	0.18203467	-0.25688532	-0.1414626	-0.037812218	0.1075567	-0.007583221	-0.020721296	-0.25638768	0.19935063	0.037279956	0.014748182	0.17079692	-0.21655159	0.14478627	0.13942698	0.044351168	0.004954491	0.17415513	0.0062360866	0.29730695	-0.24604386	0.20511492	-0.08898996	0.079706855	-0.06795403	0.2159147	0.34102234	0.16009867	-0.10811951	0.028517362	0.10214379	0.103217304	-0.12294223	-0.13202912	0.46554905	-0.04191628	0.0451735	-0.014192988	-0.17600547	0.09672101	-0.038548503	-0.20558313	-0.041783746	0.025462257	-0.060778856	0.017181633	0.32886758	-0.0024616467	0.10582303	0.24888591	0.08286624	-0.21920736	-0.07278539	0.23862512	-0.25922403	0.120361455	0.072689734	0.016864544	
0.32700804	0.17034332	-0.23705457	0.2812927	-0.058598816	0.22213244	-0.21446732	0.11944049	-0.061742444	0.02316961	-0.1305656	0.202154	-0.060445115	-0.21465643	-0.10556194	-0.022803955	0.108891435	0.34059584	0.45023844	0.32312164	0.22677334	-0.035020627	0.09550135	-0.41539901	-0.019804748	-0.5757741	-0.046307195	-0.03909049	0.041870598	-0.23711494	0.0116648795	-0.098316684	-0.029519677	0.038853135	-0.22937539	-0.06306996	0.27566028	0.14034614	0.06648616	-0.03458365	0.036983036	-0.03946263	0.05165963	-0.026286397	0.06940043	-0.02946365	0.120387174	-0.03643463	-0.22765014	0.36996257	0.02766836	0.16099979	-0.08510677	-0.007827853	0.093307294	-0.05379136	-0.022946438	0.14721863	-0.17991848	0.26015338	0.26834622	0.11941533	-0.36320493	0.11985426	
0.15865776	-0.12957276	-0.13077106	0.0482322	0.34000012	-0.10258783	-0.08696769	0.15395597	0.15666623	-0.21753801	-0.036239944	-0.06730003	-0.15675426	0.024780583	0.09705489	-0.19539304	0.113339536	-0.14434719	0.11612954	-0.13966407	-0.21651663	-0.024460845	0.03503737	-0.1615469	-0.042139553	0.015362807	-0.24616423	-0.05964919	-0.27771956	-0.037162468	-0.37902513	-0.021144109	0.10554623	0.10297238	-0.08692393	0.18070032	0.13518602	-0.05618104	0.0860902	0.09802483	-0.03373438	0.16673464	0.04524076	0.010805204	-0.101441324	-0.21582545	0.16999398	-0.465365	-0.04067109	-0.13385993	0.09497696	0.1417146	-0.023298588	0.009085636	0.310466	0.18017484	-0.57483375	-0.24370795	0.18007846	-0.007118233	0.08459445	-0.09103744	0.3122009	0.23063248	
-0.10143882	-0.037110988	0.09151192	-0.19224134	0.2553842	0.24234141	-0.23196632	-0.12501538	0.02198215	-0.07909057	0.033325043	-0.20086165	0.07204374	-0.0699178	0.016395835	0.09768256	-0.03758072	0.12651485	-0.05930742	0.21739051	-0.07568513	-0.16352862	-0.10643162	-0.032242004	-0.12743102	-0.15797234	0.14497253	0.00403131	0.020120574	0.029413905	-0.2938007	0.08659856	-0.26529527	-0.17625059	0.10918762	-0.23616518	-0.17222801	0.23429792	-0.17572647	-0.189819	0.23626018	-0.28672406	0.0943039	0.12163436	-0.09156238	-0.101828486	-0.007271692	0.16769171	0.02004166	0.060738873	-0.2800142	0.19899139	0.046806984	-0.1108072	-0.32976666	0.071135074	-0.010345132	0.18626928	-0.28954148	0.31745976	-0.002506839	0.10240484	0.22466834	0.12664267	
-0.032710522	0.29603514	-0.37078315	0.10775136	-0.24842189	-0.092084005	0.034105834	0.04179628	0.04135647	-0.21012664	-0.21519296	-0.09019556	-0.092696615	0.15881053	-0.046251282	0.1016027	-0.09799069	0.08001482	-0.08464485	-0.06736018	0.23691702	0.2858956	0.0016237773	-0.070387796	-0.18551476	0.0846178	0.0062050987	-0.20448503	-0.106949605	-0.08549187	-0.23545502	0.22399922	-0.0075725736	0.25085643	0.24261108	0.022133362	-0.29772705	-0.21162938	-0.039906994	-0.2581903	-0.04655814	-0.22586757	-0.13213195	-0.2957498	0.09652185	0.23380353	0.10268981	0.31425235	0.03965243	0.23864165	-0.1742337	-0.026950575	0.032475945	0.015448225	0.037801754	-0.0006810909	-0.0618758	-0.07850395	0.03003358	0.020131597	-0.062462334	-0.1144977	-0.08597589	0.10111627	
-0.71070373	-0.012010193	0.25055173	0.039517146	-0.20523396	0.15562077	0.15159449	0.091837466	-0.014137134	0.0011111872	0.16747332	-0.081302	-0.09022286	0.071356125	0.20342256	0.108152345	-0.2743935	-0.09612879	-0.23796225	0.15241711	0.11835058	0.14310639	0.288828	0.17765933	0.11131103	0.2688842	0.101979055	0.08948426	0.202947	0.07852454	-0.34523106	0.290905	0.27996808	-0.16738586	0.19113904	-0.14786042	0.09032357	0.051453274	0.1444623	0.024317574	0.04425418	0.072507076	-0.032719985	0.011115433	-0.1427239	0.12538871	-0.6161975	-0.058934137	0.024163445	-0.07656329	0.14757627	0.050381824	0.26211298	0.14686476	0.07920732	0.065152556	0.23582448	-0.33481348	-0.142399	0.049718335	0.06436339	-0.044020772	0.011358258	0.49737796	
0.09039204	0.21620767	0.017614745	0.0009139171	0.027279738	0.25649723	-0.31021821	-0.2106117	-0.07708935	-0.030719312	0.31764826	0.04547697	0.21813302	0.053673282	-0.16636474	-0.010529646	-0.1882332	-0.069517136	0.11115477	-0.115384296	0.06382479	0.34724328	-0.018416561	-0.23989135	-0.020389423	0.005298503	0.08366911	0.084770024	-0.054866176	0.26130876	0.032894026	0.017814444	0.16744146	-0.15625581	-0.0648663	0.020432016	0.063300215	0.086839944	0.039499138	0.18462262	0.24574485	-0.17687505	-0.23641111	-0.073349364	-0.18429255	0.34329715	-0.107173674	-0.30860224	0.30897942	0.108614884	-0.14687327	-0.036883075	-0.31526357	-0.027251396	0.31101573	-0.034969375	0.04785558	-0.3155552	-0.04016451	-0.25022325	0.18570125	0.14495169	0.041693944	0.120952904	
-0.02462825	0.046434075	-0.3838176	-0.25545096	0.13190846	-0.19253452	-0.067443	-0.1478047	-0.12986079	0.20517033	-0.02646749	-0.2560366	-0.09527326	0.17092413	-0.039670866	0.20205517	-0.19116765	-0.066362366	0.11880734	-0.24791394	-0.0050187707	0.09850338	-0.11023048	0.034164075	0.016179966	0.10570343	0.01075797	-0.047229704	0.01606856	0.101990506	0.1081122	0.001830119	0.09574179	-0.1842341	-0.1272389	-0.3370573	-0.23989709	0.074305095	-0.18107426	-0.029758364	0.1967122	0.15722646	0.12824956	-0.06942652	0.25993544	-0.22037548	0.125813	-0.05669942	-0.105261765	0.06958118	-0.2202673	0.027477145	-0.13270175	-0.037829716	-0.24516694	0.15106249	0.018321292	0.23224084	-0.1754897	-0.27354982	-0.3414462	0.18009503	0.054567542	0.065724015	
-0.3011132	-0.03387167	-0.08732775	0.16842872	0.22355303	-0.33561537	-0.01327583	0.16520314	-0.12623726	-0.11141889	0.07957079	-0.020490518	-0.13198501	0.11550153	0.009186332	0.15232804	-0.02205838	0.12744035	-0.009437055	-0.13081844	-0.12708077	-0.023073008	0.13615493	0.077811606	0.1761494	-0.12892796	-0.1128216	0.25886843	0.05409985	-0.09305017	-0.41459554	0.026729103	0.06504815	0.108791664	0.018543562	-0.30677298	-0.16155432	0.04074506	-0.24010003	0.044573463	0.05446158	0.058705572	0.1596825	0.038637977	0.047059454	0.06070107	-0.43199837	-0.1671314	-0.050624244	-0.19768125	-0.37673324	0.2448407	0.020705309	0.25798377	0.10625769	-0.17080566	-0.16932325	0.3217102	0.30499095	-0.13523653	-0.0011846746	0.15252285	0.053075604	0.0675126	
-0.44771257	0.14935762	-0.0015013	-0.054502998	-0.20687883	-0.3667452	-0.062125765	-0.018143002	-0.19236167	-0.0043183533	0.008184337	-0.28342214	0.15599073	-0.037734326	0.38393646	0.1241201	0.23882028	-0.21353742	0.0041162204	-0.16990249	-0.21870156	0.17457294	0.16933988	0.19673291	0.39019576	-0.044365004	0.13547698	0.10186672	0.060504444	0.03094043	0.13835329	0.21938053	-0.123754434	-0.036496595	-0.34669772	-0.32229993	-0.1965968	0.099505484	0.11719087	0.112339	0.14079365	-0.08967094	-1.0740281	0.049012665	-0.0026075298	0.053396557	0.09990498	0.15506218	0.21080466	-0.36370063	-0.24176322	-0.09546186	0.14384833	0.2788321	0.03174026	-0.12235366	0.014162965	0.057169404	0.16416317	0.040781755	-0.84970796	0.20442109	0.19944042	-0.1803873	
-0.24355946	0.22094779	-0.31972387	0.012186941	0.34161106	-0.9879154	0.16940808	-0.10719277	-0.14032847	-0.27384254	0.14796534	-0.021041045	-0.14302792	0.3502395	0.46353257	-0.087484874	0.10545272	0.06214886	0.21612698	-0.38724357	-0.24159686	-0.03906041	0.075946555	0.014410875	0.2737274	-0.0007336281	0.09166451	-0.15021144	-0.041388348	0.0012982476	0.11075422	0.18519771	0.060442172	-0.23933212	-0.66670907	-0.30655697	-0.20912816	0.030931465	0.12190575	0.2365029	0.103854835	0.23477422	0.23562759	0.09424031	0.34428254	0.07412317	-0.027590409	-0.24958187	0.1772978	-0.27961054	0.35496253	0.16340572	0.35033152	0.11103729	0.019824687	-0.098210365	-0.27797717	0.42729416	0.41905084	-0.047350883	0.020518139	0.1680379	0.31004778	0.1394893	
-0.23528856	-0.14921394	-0.23117301	-0.23590064	-0.21256009	0.099019945	-0.17794377	0.06897458	-0.19161746	-0.14948288	-0.10448769	-0.08002827	0.35076752	0.14256558	0.08564754	0.08889374	0.012894981	-0.021834685	0.0489759	0.1985813	-0.13503815	0.1557761	0.118738525	-0.14250964	0.124306545	-0.13887365	0.106876746	-0.095921874	0.029108686	0.12595733	0.042704992	0.08077456	-0.003964851	0.059586074	-0.5179585	-0.024590814	-0.11940848	0.14156201	-0.022886688	-0.036605094	0.24547555	-0.11861477	-0.0407205	0.015353877	0.08419481	-0.15685393	0.10371641	-0.06482663	-0.14273699	-0.028451953	0.117856555	-0.052326653	0.31271973	0.14189717	-0.09540416	-0.17346662	0.07330001	-0.04567757	0.14536288	-0.11455208	0.25703028	0.0130832605	-0.05867913	-0.101812184	
-0.25193983	-0.02364553	-0.041826967	0.077002116	0.107466616	-0.11113197	0.15391517	-0.12274205	-0.17222351	-0.25256163	0.16366643	0.03870416	-0.06652187	0.06170137	0.17915602	-0.040571578	0.03678018	0.09932974	-0.121842295	-0.13876785	-0.55288166	0.14080459	0.37011203	0.11493995	-0.07628968	0.10455363	0.08323414	-0.13618909	-0.20838892	0.093591385	0.03606322	0.12890273	-0.055325203	0.04047422	-0.37853432	0.10226862	0.21205167	0.37407532	0.10525058	0.2728987	-0.032832656	-0.06342776	-0.16888864	0.17902134	0.067438096	-0.022009512	-0.030780964	-0.069669865	0.05840373	-0.10806515	-0.112348534	-0.03683072	0.17767794	-0.06871933	-0.1547842	0.17890589	-0.12051493	0.10972774	0.055929746	0.012432396	0.16696689	0.15364097	0.12322405	-0.113682956	
0.13636284	-0.17584042	-0.12553	-0.06843065	0.035047125	0.069220245	-0.06582102	0.03551928	0.1438698	-0.38733715	-0.116130255	-0.02992565	0.17801167	0.03660112	0.30846256	0.08477903	-0.052788094	-0.123398066	-0.03698829	0.05378411	0.20637734	0.14746387	0.16946958	-0.24047172	0.02560005	-0.05551432	-0.29413894	-0.13183053	-0.06054568	-0.053192243	-0.07871047	-0.07894506	0.17901567	-0.331362	-0.14001781	0.07804338	-0.079344876	-0.038492277	0.093691364	-0.24211463	-0.025627663	-0.3332853	0.11531541	0.025854718	-0.08585242	-0.11802238	0.037217967	-0.17778157	-0.099657916	0.22454855	-0.67209154	0.15170819	0.082799286	0.043589015	0.14840318	-0.033733882	-0.29939348	0.051920872	0.015424567	0.07197241	0.121520124	-0.043924265	-0.021836	0.044392716	
0.11551533	0.05830842	-0.04527463	-0.19283105	-0.0377971	0.25306284	-0.17581311	0.05510535	-0.023494724	-0.46535167	-0.1275968	0.13194557	0.119987346	-0.045902696	0.012450257	-0.06291482	0.07952067	0.060847018	0.16268015	0.09536148	0.15985358	-0.15901418	0.57260865	-0.52664953	-0.034179553	-0.5389838	0.042919345	-0.5873062	0.11088059	0.15248977	0.27170977	0.013945376	-0.15423554	0.10946676	-0.49030483	0.15822212	0.031662427	-0.010643571	0.06076996	0.10463923	-0.063904084	-0.3437022	-0.06779312	0.091150515	0.20177302	-0.04555733	0.2079954	0.114555694	-0.39630282	-0.08103666	0.0113357175	-0.1489663	0.25153717	0.034607615	-0.45190883	0.004460367	-0.016135588	0.21013583	-0.16862519	0.26372552	0.060586575	-0.04414743	-0.011817104	0.08830263	
0.12206205	0.024831649	0.03641035	-0.038379222	0.15898609	-0.26011065	0.063045844	-0.1844566	0.13534224	-0.32833725	-0.271636	-0.22979257	-0.07527835	0.035899647	0.35339668	0.087576434	-0.4431328	0.122617505	-0.12793005	0.12570156	0.01873483	-0.18784161	0.34383443	0.23640437	-0.016292552	-0.21120937	-0.038623508	0.08626672	-0.07024472	0.04057239	-0.054698523	0.20761697	0.1587402	0.13211504	-0.0140104825	-0.14519835	0.0646215	0.06630657	0.06257442	-0.17879803	0.044712275	-0.13340227	-0.096549965	0.08617679	-0.13157569	-0.08136467	-0.17183504	-0.051778655	0.10814005	-0.27043045	-0.08676753	-0.024106018	-0.1593336	0.16044042	0.0066956957	-0.19550905	0.35215038	-0.11640635	-0.083161384	-0.11548451	-0.2392013	-0.13466462	0.21411315	-0.13164338	
0.03174497	-0.13581459	0.19402054	-0.15956171	-0.13543771	0.011307294	0.17986187	-0.1344758	0.15780784	-0.38674363	0.18001045	-0.035643253	-0.15115881	-0.116508126	-0.04943159	0.029554855	0.14637285	0.17006078	0.11969006	0.29671678	0.06736235	-0.18850549	-0.18016198	0.15254661	0.04228168	0.27375573	-0.050736565	-0.04975432	-0.07773088	0.13818422	0.0012245422	0.009529379	-0.14406647	0.011126453	0.04252097	-0.10609811	0.119889095	0.04978215	-0.1992818	0.21070777	0.17488562	0.034606222	-0.13260135	-0.022122378	0.21793069	-0.21032165	-0.03284869	0.040746044	-0.058755446	0.019892845	0.0098285945	0.03923255	0.12902853	0.07384304	0.05012214	-0.04523889	-0.17544869	0.009228062	-0.05205791	-0.08810437	0.25597307	0.113320194	-0.19983435	0.027079733	
-0.03095776	0.09030579	-0.23246048	-0.019208433	0.12628469	0.036325075	0.2606108	-0.024688879	0.25597298	0.18119678	0.13764077	0.38764024	0.18378614	-0.0076853093	-0.39051464	-0.44594565	-0.33156317	0.06250132	0.053937405	-0.37757653	-0.21597199	0.1755908	-0.27796525	0.11010891	0.00041106195	0.10846047	0.29744586	-0.3297909	0.047060892	0.018107004	-0.15817526	0.15652642	-0.072728634	-0.3986536	0.24208277	0.7148548	-0.12387594	-0.03382046	0.4092926	0.15152349	-0.23576795	-0.15310805	-0.012172443	0.06769133	-0.35064062	-0.16693053	0.10459551	-0.02868095	0.39443475	-0.2736561	0.2501363	0.039522164	-0.20721556	0.16622679	-0.000354898	0.12719353	-0.6146682	0.05370493	0.09736793	0.28455126	-0.10434009	0.04305249	0.17230923	0.12985916	
-0.060839545	0.1863059	-0.044321578	0.17358476	0.032353897	0.30725905	-0.12895417	0.08851559	-0.05061836	-0.2499955	-0.025819309	-0.023122683	-0.14242062	0.033713065	0.042338576	-0.111306705	-0.2885357	0.007895692	-0.109809846	-0.3263922	-0.061253313	0.048815656	-0.0238674	-0.2145257	0.3703167	0.05985948	-0.18210769	-0.026876403	0.03273667	0.119455114	0.10792965	0.22574434	0.16109842	-0.053967502	0.22990884	0.1296128	0.24522409	0.07238636	-0.11482784	-0.18397845	-0.033300176	0.289242	0.009493829	0.010133645	-0.25856808	-0.10549288	-0.3462855	-0.09804281	0.14151338	0.41080043	-0.10296051	-0.074401245	-0.09017264	0.49515283	0.17139606	0.10420788	0.039809227	-0.13771145	-0.08991445	0.1511645	-0.06593312	-0.27430484	0.028963687	0.19875835	
-0.118303895	-0.15909648	0.33051628	0.0153756635	0.3350148	0.46224785	0.11773248	-0.12719893	0.15810308	-0.10109184	-0.03963661	-0.20469399	0.13107392	0.030681323	-0.31004703	0.2471802	-0.1042327	0.0039479625	0.16890022	-0.11858261	0.17555586	0.24705409	0.08900559	-0.14241105	0.16203247	-0.14019449	0.09496839	0.18524359	0.35312384	0.1542279	0.016570942	0.1370053	0.004288765	0.072404504	-0.18748687	-0.27708143	0.13547973	-0.39501163	-0.49466252	-0.16829355	-0.12896052	-0.18092617	-0.009068152	-0.017210172	0.11319933	-0.08752365	0.07976311	-0.05429025	-0.18911518	0.101428814	0.1922223	0.13738091	0.008917329	0.0038705468	-0.032954402	-0.34762007	0.04173095	0.036778614	-0.18658562	-0.47344542	-0.07975637	-0.21252644	-0.5035885	-0.022373151	
-0.2655215	-0.18611693	-0.0939338	-0.07567304	-0.10505094	0.011406013	0.12047777	0.34968567	-0.14191699	-0.08194659	0.29888508	-0.06945852	-0.044512693	-0.16293484	0.15258162	-0.3147512	-0.1226017	-0.18529414	0.00019219321	-0.071186624	-0.05383897	0.09850185	0.3872091	-0.28803614	0.036160287	-0.05130576	-0.2195798	0.021688942	-0.038020298	-0.13063246	0.24587937	0.17578945	0.3344065	-0.21534313	0.23793913	0.09407415	0.018301662	0.3283865	0.112169005	0.026898906	0.044169888	0.017522594	-0.06070841	-0.2874502	-0.0064898604	0.12577671	-0.025791412	-0.02727874	0.35074416	0.06920633	-0.09133855	-0.21362548	-0.07566591	-0.26445958	0.12387838	-0.106534034	-0.08509077	0.1012734	-0.14654787	-0.029769225	-0.38699687	0.25509572	0.11466649	0.19673853	
0.06946845	0.10797732	-0.05829496	0.11891289	-0.004202251	-0.0073701255	0.042214967	0.15807538	0.11722577	0.15647532	0.0062242243	-0.041904397	-0.18198366	0.13533364	0.09219839	-0.046303738	0.038799413	0.064666025	0.20124833	-0.06281641	-0.05535219	-0.033508245	0.18050282	0.13274829	-0.07614681	0.047434177	0.096751064	-0.11418404	0.25418907	-0.0893001	0.13526051	-0.17551678	-0.3466852	0.23161913	0.29870367	0.2737959	0.013582065	-0.1309536	0.15950792	-0.046564024	0.36596346	-0.011592456	0.10019102	-0.28759632	0.03717562	0.24243093	-0.024114525	-0.17599118	-0.1574254	0.28611735	0.19389316	0.08619169	0.055722408	-0.038526528	0.057247963	0.110330574	0.05690617	0.076116316	0.112874076	0.27026507	0.18156622	0.13463032	-0.32021683	0.3574152	
0.117958024	-0.11017881	-0.10510883	0.09403559	-0.08786542	0.12111675	0.000459445	0.092836216	0.16500157	-0.119790554	-0.1451544	-0.26679736	-0.23602143	0.27165577	-0.18067908	-0.13995588	-0.026499784	0.10633721	0.016556175	-0.11408388	-0.020502334	-0.026687726	0.13416481	-0.16236544	0.05326826	0.059843097	0.11287639	0.12970735	-0.031149311	0.011335747	-0.13942403	-0.092511974	0.056219894	-0.023813475	0.09526248	0.08080287	-0.30626497	0.08358425	-0.19308852	0.15500745	-0.046290718	-0.113629185	-0.04069369	0.16972351	0.1935675	0.058165092	0.028804747	0.07711535	0.03614046	-0.13221295	-0.2039225	-0.23953612	0.20475695	-0.3898482	0.052617826	0.13232434	-0.11596795	-0.026943583	-0.023616973	0.0069473176	-0.30805492	-0.10822776	0.17723344	-0.0033242956	
-0.1599541	0.35003877	0.04822831	-0.24226858	0.27183104	0.07803581	-0.18935235	0.24391404	0.014778594	-0.03752783	0.13485934	-0.00069804996	-0.07736027	-0.12483859	-0.087461494	-0.040986713	-0.5384615	-0.08036848	0.08913485	0.16206789	-0.15728275	-0.10554418	0.19087611	-0.15887544	-0.17813203	0.050565228	-0.072783306	-0.046954896	-0.20875655	0.100968435	-0.06653103	-0.102405585	-0.15748051	-0.054002058	-0.17509465	0.17566194	-0.08841084	-0.18063636	-0.12028071	-0.087344475	-0.042208493	-0.005543286	0.116786756	-0.061998952	0.16279942	-0.009561919	0.08045975	0.3809106	0.029072825	-0.08051764	-0.081853986	-0.005994994	-0.13031013	0.17741896	-0.070957705	-0.24866106	-0.09936662	0.18095185	-0.1948747	0.08126377	0.04015766	0.14725965	-0.14833088	0.33980376	
0.0957033	-0.10401845	0.14273416	-0.12696859	-0.31021246	-0.35114643	-0.04591683	0.14322504	-0.23296212	0.26147285	-0.11452884	0.35200188	0.13173585	-0.52744484	-0.53663474	0.010692145	-0.13797139	-0.03829303	-0.011433587	-0.0065551414	0.0022408052	-0.27816385	0.3048283	0.09652782	-0.22784464	-0.014883091	-0.20916377	-0.24912259	0.047314633	-0.20167626	0.13053286	0.063616596	0.13001992	-0.0017232064	0.059803825	0.104148574	-0.10585263	-0.08281752	-0.006737909	0.09025602	0.07734753	0.21631981	-0.03396762	0.11882545	-0.18691799	0.0032825947	0.21576805	-0.030571995	-0.11518317	-0.01511052	-0.12801693	-0.38861424	0.012583395	-0.14245896	-0.21511817	0.10582565	0.074028544	-0.041900307	0.12554686	0.15008889	-0.055543836	-0.3296597	0.34113905	-0.14575799	
0.15699543	-0.059587177	-0.16264004	0.14443934	-0.002780863	-0.10236561	-0.03737263	-0.10644048	-0.091649316	0.14804706	0.06614123	-0.39000574	-0.16509138	0.121812545	0.04499494	-0.13799587	0.3962577	0.14218433	-0.2779297	0.2561581	-0.07811461	-0.12185653	0.11577154	0.20718265	0.23672678	0.0989896	-0.0016258637	0.030457908	-0.17968838	0.03777021	-0.12096004	-0.18378581	-0.15206769	0.084927745	0.09042866	0.12830932	-0.060783535	0.065899976	0.24545386	-0.17785306	0.15051705	0.054396078	-0.20098184	0.25122023	-0.028942354	-0.33487755	-0.14075027	-0.029720023	0.03240651	0.25696644	0.09623771	-0.13907237	-0.059364453	0.07959348	0.23752327	0.15444903	0.21644203	-0.14399849	0.060353946	0.2562386	0.2990261	-0.17985107	-0.25114498	0.14794165	
0.2905187	0.042789835	0.22041316	-0.06801517	0.22433746	0.17609791	-0.05966329	0.4373595	0.00258604	0.45400986	0.14711194	0.20091313	-0.098704964	-0.20338602	-0.32645348	0.13175336	-0.10126609	0.00070615526	0.021971134	-0.38477483	0.07307874	-0.087188214	-0.07257969	-0.05456071	-0.032960933	-0.07676705	-0.17019871	0.12708215	-0.16090383	-0.05743511	-0.09818026	0.10007586	0.114086255	-0.37420917	0.024386566	0.17093994	-0.085932955	0.1926608	0.12831102	-0.25207412	-0.039911542	0.022855686	-0.21375304	-0.059018668	0.19075087	-0.02914415	0.07032307	-0.0046601677	-0.0122611625	-0.0003711561	-0.19667865	-0.168342	0.11341687	-0.05982894	-0.376687	0.23668428	-0.18004447	0.14200118	0.14690754	0.023919517	-0.016115632	-0.24126115	0.13850209	-0.045146946	
-0.07714498	0.047924925	0.1133513	0.067883015	-0.05330411	-0.105617024	0.2788312	-0.11072019	-0.008240338	-0.13513643	0.14542337	0.045936115	-0.005430788	0.05082147	0.046206523	0.09827232	0.11654257	-0.11358187	0.053491894	0.09216887	-0.19860435	-0.12601526	0.016615512	-0.048527617	-0.07557921	-0.03005206	-0.16953708	0.03077169	-0.111716166	0.26602492	0.24638247	0.3286657	0.28674027	0.055911805	0.10801438	0.012193093	0.2531306	-0.14943953	0.08226194	-0.19886208	-0.006175678	-0.0119302105	0.029010646	0.023484435	-0.13661103	0.013354093	0.054610644	-0.12783574	-0.09489437	-0.014452348	0.24785101	0.1236248	-0.04745631	0.15293767	0.102831416	-0.025498083	-0.12632206	0.14134492	0.16247003	-0.13259865	0.18947133	0.28033182	0.071594864	-0.26480642	
-0.15047446	0.17131108	0.05185221	0.017651673	-0.07589183	0.008442607	-0.010378193	0.21738103	-0.07324006	-0.03567859	-0.18605559	-0.18063864	0.044876635	0.16568245	-0.15044196	0.15158293	-0.45898682	-0.11036798	0.14538132	0.11529105	0.048787534	0.11502973	-0.2363654	0.28322402	-0.47903946	0.0370974	0.117962964	-0.13366304	-0.05653445	0.037276957	-0.027273452	0.12414945	-0.1835758	0.022796916	-0.08221618	0.29215112	-0.26358148	0.004924734	-0.085412554	0.010937599	0.1136908	0.02189733	0.19055352	0.040273182	-0.31812054	-0.1790983	-0.15451485	0.105344966	-0.076558866	0.19977972	0.21524236	-0.26634952	-0.05284745	-0.059339043	-0.13041915	-0.33643067	-0.2041727	0.14904194	0.065176606	0.10517342	0.035034098	-0.07203786	-0.7421145	0.2324934	
-0.18358578	0.055296756	-0.16813567	-0.09925028	0.16783501	0.0298291	0.04772991	-0.20310289	0.048688225	-0.09930653	-0.3943116	0.17640454	-0.115775004	-0.06258906	-0.13915622	0.05360734	-0.050574668	0.16942751	0.2094728	0.055888604	0.042459216	-0.13071716	-0.045621354	0.19090964	-0.0053504715	-0.060555454	-0.057494927	0.18446353	0.21364252	-0.18365145	0.21542197	0.30241793	0.12769133	-0.0086731985	-0.12127904	0.11761745	0.0028468783	0.101595536	0.20290287	-0.023307271	-0.11746724	0.13445799	0.2018412	-0.061483048	-0.20273009	0.0017410988	0.081578776	0.2276648	-0.1948233	0.07702211	-0.18833229	-0.015248707	0.067570075	0.21546671	0.079669446	-0.19165425	-0.022426	-0.10765711	-0.2593759	0.19664082	0.12013905	-0.13871017	-0.13787052	-0.0330703	
0.059830863	-0.079826966	0.026810551	-0.011342555	0.08764104	0.03541386	0.04104071	-0.1827865	-0.2055097	0.018322183	0.13282926	0.15301009	0.17464288	0.022281524	0.039257135	-0.049439494	-0.22654048	-0.17567413	-0.052652158	-0.14497967	-0.11026441	0.24425107	0.07519208	0.07435299	0.1086926	0.17559884	0.24708398	-0.14558205	0.015024196	-0.2464473	0.061493587	-0.21057643	0.038939297	0.17480005	0.099699974	0.15281059	-0.04244091	-0.066037975	-0.051145542	-0.0075017996	0.04950827	0.2081813	-0.09417189	-0.1031366	0.29697078	0.06251553	0.031858474	-0.26180267	0.2504867	0.21690363	-0.027695345	-0.101932935	0.1726142	0.30487925	0.23511875	-0.09411809	0.122180365	0.18676674	-0.14372239	-0.005895676	-0.07521138	-0.21460915	-0.10135209	0.027489562	
-0.16753817	0.0038624795	0.062413514	-0.055192977	-0.073026024	0.15031056	0.06334676	-0.44291207	0.07834656	-0.01894365	0.24676448	0.09980865	-0.0006329689	-0.051795695	0.2796636	0.1979488	-0.024916904	0.072976284	-0.097620495	0.13845512	0.26942703	-0.063602135	0.20855601	0.09668793	0.06334038	-0.17309968	0.063307025	-0.08093546	0.14857715	0.27680162	-0.08445998	0.064895175	-0.02988941	0.20119454	-0.017407939	-0.17635721	0.029975267	0.04427874	-0.18870488	-0.061828442	0.009949054	0.21642166	-0.09251155	0.13210021	-0.22588159	0.05075262	-0.08368995	-0.0036827703	-0.08475474	-0.38876075	-0.23340751	0.029542848	-0.18984567	-0.012871448	-0.24471667	0.14479712	-0.20647366	-0.20427848	-0.15673506	0.15302454	-0.2263743	0.004931151	-0.36193344	0.15493625	
0.15280662	0.12758893	0.38064444	-0.14570579	0.2585754	-0.034427945	-0.063698485	-0.15918083	-0.23614827	0.17524059	0.04859806	-0.12130324	-0.18967037	-0.19027402	-0.10691306	0.059432585	-0.20641367	0.035869397	-0.115683034	0.058952004	-0.0989945	-0.104517795	-0.2069279	-0.2590456	-0.30654848	0.053554308	0.14573061	-0.109185115	-0.021736156	0.02546987	0.034013096	-0.24286868	-0.14375739	-0.22251508	0.04234663	-0.16434844	-0.4190019	0.11994432	-0.09061884	0.18417025	0.08144915	0.036288183	0.05105784	-0.028003579	-0.0040517002	-0.03420242	-0.10131301	0.1052162	0.18787263	-0.025318768	-0.13003458	0.048747145	0.042010877	-0.050338935	0.025947364	0.050705485	0.13800359	0.13014379	0.3048337	-0.0357216	-0.18351363	-0.19102223	0.1692798	-0.1045912	
-0.25215608	0.117639564	0.2655483	-0.34108996	-0.28788787	-0.22142096	-0.17299338	0.099278554	0.0141301155	-0.18154909	0.15639217	-0.05736548	-0.087061174	-0.06067662	-0.10688883	0.16507703	-0.39346522	0.10230981	0.10469966	-0.24329223	0.05939198	0.06786728	-0.028852182	0.06866993	0.08784564	0.10792795	-0.17500407	-0.31028324	-0.08617761	-0.14620857	0.065390244	0.06567402	0.08960594	-0.004797175	-0.113317475	0.111355215	-0.0069299247	0.18084511	0.29015586	0.021188013	-0.06827791	-0.026394293	0.20723885	-0.33917397	0.0056942943	-0.15145963	-0.048220497	-0.097541	0.21150018	0.064289905	-0.30839384	-0.104850195	-0.036358334	0.07240362	-0.028923074	-0.009654746	-0.14790323	-0.026277155	0.013764547	0.028034255	-0.12002229	0.1134772	0.046685316	-0.5965719	
0.2665002	-0.09924908	0.082969636	0.36111367	0.3443708	-0.05576244	-0.15356474	0.61248565	0.06126976	0.27930278	0.42401052	0.1623293	0.10719128	0.25271216	-0.015604111	-0.069088146	-0.07526489	-0.079530545	0.030335799	0.06036605	0.1467385	0.10331438	-0.18100761	-0.27126938	-0.42341396	0.00027906222	0.075315006	-0.23820947	0.055218846	0.004233129	0.19899443	-0.3989	-0.007198045	-0.21434075	0.32463998	-0.19838387	0.060951494	0.130859	-0.48315284	-0.030918332	0.11665402	0.07510263	-0.123924814	0.27630743	0.20974654	0.08162267	-0.019243063	-0.051770963	0.067384176	0.117440075	0.220577	-0.2141785	0.08419178	0.0494749	-0.06941732	-0.2747649	-0.08814199	-0.17993216	0.14654794	-0.2233643	-0.1281973	-0.0485452	0.31243604	0.58119226	
0.22235398	0.004747692	0.044397265	0.09591393	-0.10935803	0.20113301	-0.0075250873	-0.065718345	0.22148028	-0.010469863	-0.06419522	0.086377785	-0.022586828	0.18744998	-0.09911595	0.0492081	-0.13565294	-0.0010339543	-0.023928365	0.2825988	-0.19412641	0.033654027	0.18954135	0.18798493	0.16982286	-0.0020746468	-0.17489405	-0.04685577	-0.010996193	-0.014127397	0.22439432	0.05503778	-0.16837405	-0.16090012	0.3186477	0.0124865435	0.2091926	0.33954236	0.026867414	-0.22328594	0.063256875	-0.046451002	-0.029242909	0.1326027	-0.1695983	-0.49683908	-0.09146887	0.10982187	-0.027208734	-0.023151245	0.49819243	0.10394922	-0.09496314	-0.3543376	0.100302264	-0.009557382	-0.09436236	-0.04193363	0.016424824	-0.26517305	0.12575553	0.10145727	-0.13294168	0.6478805	
-0.07854754	0.29177496	-0.21878764	0.0641282	0.18821667	-0.37393257	0.027708208	0.030502426	-0.034818288	0.067188635	-0.2832415	-0.08848201	0.16501491	-0.03538919	0.03815911	0.029682392	0.09407416	-0.1122992	-0.04715497	-0.08034597	-0.075379424	-0.026795002	0.0921905	-0.05172699	-0.14672469	0.046614204	0.061937485	-0.037127323	0.19514924	-0.20292164	0.14418754	0.09690613	0.042211186	-0.082221396	-0.10539288	0.06940863	0.050983183	0.066216536	0.23185878	-0.108388975	0.08457164	-0.09116137	-0.089698665	-0.24633914	0.13504826	0.19574784	0.47120714	-0.053369965	-0.07910086	0.04307604	-0.19874997	0.32775468	0.22959298	-0.24343358	-0.024184905	-0.0809891	-0.2133662	0.14407693	-0.176086	0.20266043	0.14640023	0.19639729	-0.16902569	-0.24392983	
-0.10900072	0.11382914	-0.045263223	0.00075910793	-0.13524319	-0.3216894	-0.058329597	0.23979473	0.008434122	-0.09941793	0.24051908	-0.15767287	-0.20870517	-0.012653323	0.2162556	-0.17150955	0.19273962	0.3708239	0.08938032	-0.101988904	-0.11657601	-0.020561473	0.1890465	-0.12035491	-0.18791616	-0.007167153	0.06793157	-0.0029870048	0.3132686	0.2736953	0.31606007	-0.3361642	0.0034440474	0.0966996	-0.02943655	0.2747671	0.03736303	-0.14816993	0.12638119	-0.26042855	0.14202735	-0.051748395	0.008784547	-0.09577643	0.15782799	-0.15723534	0.008774801	-0.13684645	0.10013917	0.0046061324	0.25994956	0.026642334	0.29526442	-0.10544203	-0.05677361	-0.3255377	-0.10018482	-0.003608253	0.010826877	-0.12865509	0.080643274	-0.021792796	-0.3441945	-0.4349833	
-0.1316862	-0.12271239	-0.28257185	-0.029008063	0.21222669	-0.20171477	0.10789476	0.029314347	0.02744372	0.06496301	-0.020932587	-0.083575405	0.08940389	-0.41274402	0.18498416	-0.10000385	0.23299375	0.0065760436	-0.08994415	-0.015555311	0.16128689	0.07961573	0.1630079	-0.022818988	0.10037395	-0.1358441	-0.11535057	0.105180465	0.002462367	0.019372294	-0.16365653	-0.09223311	0.12882636	-0.27062398	-0.07502495	-0.014366595	-0.22859605	0.023497943	0.29142633	0.14979093	0.18011688	0.075358756	0.06663129	-0.36906365	-0.056529745	0.2992079	0.08232977	0.12398894	-0.032528788	0.014624088	-0.16524178	0.037332423	-0.057301536	-0.2713143	-0.18129979	0.013656925	0.18441065	-0.10964775	0.2868214	-0.027052706	-0.05004253	0.052114632	-0.22746763	-0.122150175	
-0.09842257	-0.2314488	0.1073739	0.274831	0.22760525	-0.17118299	0.2857385	-0.057324406	-0.13319616	0.06803677	-0.21803513	0.08900966	0.027882395	0.072146185	-0.14957783	-0.07854784	-0.169532	0.04300288	-0.23847446	-0.2696751	-0.020673715	-0.05376897	-0.0394002	-0.2929961	-0.0024229637	-0.2621894	0.03907801	0.21984637	0.022895535	0.0690653	-0.09203403	-0.01143778	0.080602944	-0.14822696	0.056179095	-0.027559811	0.03934794	-0.13700569	0.27978238	0.024711965	0.17587142	-0.031495582	0.17580819	0.08089014	-0.4198259	0.20971565	0.034833364	-0.35440198	-0.032870673	-0.12019756	-0.12577517	-0.1676912	-0.19185247	0.11299548	-0.107148185	0.1061688	-0.17919667	0.12600218	0.2854483	0.07151718	-0.044569008	-0.48592353	-0.13587528	-0.17571954	
0.32310644	-0.07953025	0.03410371	-0.10066673	-0.056357052	-0.05134266	-0.15202856	0.32543495	-0.20196982	-0.33348623	0.20472108	0.019357197	0.15450907	0.06998834	0.19780043	0.08471243	0.19459954	0.13128895	-0.12646525	0.20773555	0.11199095	-0.3501265	-0.0036702934	0.096556135	-0.04511259	-0.15802315	0.39348292	-0.07234887	-0.16668467	0.08047623	-0.26550144	0.028729768	-0.48828962	-0.09905561	-0.10853031	-0.03952339	-0.049494937	-0.12629329	-0.23083086	0.17820017	-0.03827936	0.0811491	0.22035886	0.061821397	-0.06693921	-0.066577815	0.002484487	-0.05208862	-0.17268722	-0.113247104	0.008509049	-0.046557043	-0.13505909	-0.00181988	-0.2402496	0.21785071	0.07296523	-0.12098986	0.05871506	0.1369284	-0.20420758	0.03866652	0.41620672	-0.09517464	
0.054543655	0.13658677	0.14136077	0.025083246	-0.23259272	0.15042077	-0.09323713	0.059135012	0.20775466	-0.0065356106	-0.06425478	0.058007445	0.08199998	-0.3492729	-0.123019464	-0.28764787	-0.39505482	-0.14113703	0.042385742	0.25834206	0.004440305	0.015126457	0.00037661978	0.25495347	0.047439966	0.1402984	0.15751791	0.26583606	-0.0087804375	-0.059407312	0.004374033	-0.035676345	-0.010549404	-0.012395555	0.11145544	-0.45007703	0.027077323	-0.1497086	0.09897344	-0.12185602	-0.051402364	-0.011023929	-0.0048787454	0.24490513	0.05216236	-0.14851704	0.012929824	-0.3040147	0.06402018	-0.13199903	-0.24906307	0.023001125	-0.02135407	-0.27275512	-0.19207747	0.08149436	0.020338032	-0.13625729	0.25005493	-0.27361488	-0.110160254	0.02393755	0.11709954	-0.10731863	
0.09374847	-0.34825495	-0.12736504	0.060071945	-0.059008565	0.28766048	-0.11712821	0.15412416	-0.09189187	0.3491012	-0.033276983	0.1280156	0.025451446	0.018538963	0.06412929	0.041035373	0.47324157	-0.030183831	-0.008336484	-0.26063335	-0.16886602	0.05532932	-0.34628767	-0.26769242	-0.15605791	-0.16293085	0.031238014	0.07348969	0.051708143	0.037096575	0.2002442	-0.07900433	0.020375926	-0.09384401	0.06874529	0.15990853	-0.22260894	-0.039633676	0.028362535	0.0023278645	0.00042147425	0.12020154	-0.00961044	0.26729158	-0.09735834	0.22381234	0.39882806	-0.064667895	0.14022787	0.1418661	0.019438708	-0.1724545	-0.17512986	0.007915957	0.25098664	0.1718671	-0.018116482	-0.04959246	0.06510151	-0.065634936	0.11049947	-0.22742128	-0.08895636	-0.21166651	
0.2893905	0.041280113	0.1171246	0.058183655	-0.047616087	-0.089847594	0.1435707	0.085653	0.13090803	-0.028802155	-0.22011039	0.08176098	-0.15519331	0.028698888	0.1448039	-0.05948599	0.21129897	0.12489454	0.16355379	-0.23248471	0.100183785	0.5155504	0.0065890136	0.21525477	-0.25691095	-0.050419826	0.07252546	-0.11455712	-0.2601005	0.12196247	0.09178284	-0.16470902	-0.031392526	-0.09086374	-0.2837507	-0.18201536	0.25197643	-0.07914192	-0.1447479	0.3294772	0.004680529	0.40661573	-0.17573243	0.13665509	0.017443782	-0.07216198	0.35476777	0.33209953	-0.03208835	-0.28397766	-0.13633968	0.02103359	0.0021417572	-0.031490497	0.07214864	0.18135908	0.1304136	-0.072843306	0.026885692	0.11707862	0.11300493	-0.062371194	-0.07420309	-0.02770249	
0.11650552	-0.012759453	-0.008658753	-0.062705144	-0.21790655	0.21307062	0.022235472	-0.046255242	0.1483956	-0.12176843	-0.07998647	-0.070467465	-0.13910146	-0.10633183	-0.018708704	-0.007672527	-0.11531593	-0.094141826	0.06921729	-0.4041791	0.049502388	-0.11087435	0.041232124	0.004961995	0.33605114	-0.044569492	0.23587559	0.18431039	0.045261767	0.013597573	0.07584229	-0.17893161	0.14069556	-0.15157093	-0.08093915	-0.29904208	-0.394494	0.009518005	-0.13396952	0.15409152	0.1744958	0.017121935	0.1441495	0.23342493	-0.10208044	-0.033675104	0.1986424	-0.258889	-0.050947823	0.124490954	0.14984207	0.07232704	-0.1443424	-0.008729816	-0.06784408	-0.18204492	-0.24200909	0.25017753	-0.1781419	-0.077920765	-0.30363524	0.01389993	0.03555955	0.120055534	
-0.49255714	0.21255119	0.2033293	-0.21084152	-0.15675934	0.11135695	-0.17983682	-0.07727736	-0.044496153	-0.08947912	-0.13887505	0.110407464	-0.20053771	0.024831388	-0.4267622	0.31705126	0.13623972	-0.2551297	0.20055138	0.16547261	0.2236691	-0.34680617	-0.03421786	0.18430068	-0.10128218	-0.30281535	-0.18015528	0.08817115	-0.09584717	-0.1885555	0.20780927	-0.38034046	-0.15280712	-0.1323668	-0.007443434	-0.10279098	-0.121571325	-0.08228639	-0.0024054684	0.3248476	-0.0068932413	0.33636385	-0.16677494	0.12810452	-0.28579712	0.07924228	-0.05168413	-0.03293266	0.1362968	-0.069601454	0.22583517	-0.015854796	-0.0011324657	-0.018209722	-0.14731617	0.09654144	0.26334596	0.20048574	-0.04759045	-0.15034263	-0.05702174	-0.17308635	-0.018052429	-0.07079463	
0.16666356	-0.18565106	0.18727335	-0.035482373	0.25871518	0.19281393	-0.14274585	-0.16069174	-0.02401004	0.09282802	-0.10811507	-0.018204011	-0.2261901	0.2793822	-0.13152167	-0.18657835	0.31033042	0.31852445	-0.050698426	-0.042367645	0.2340625	0.055015117	-0.14181581	-0.038633637	-0.098457135	0.072593614	0.0054115583	-0.01252413	-0.062249847	-0.32785627	0.0044335932	0.03913751	-0.07220041	0.044261	-0.11040636	0.011244872	0.4235232	-0.08097718	-0.1920091	0.054248713	0.09035069	-0.036189277	-0.14758782	0.09776846	0.10616813	-0.11699548	0.16027695	0.040847406	-0.10212256	-0.08916995	-0.17858046	0.036704637	0.27938572	0.16866854	0.17524865	-0.07700878	0.21180953	0.24756514	0.24942438	-0.3574777	0.12954271	0.16009668	-0.020980084	0.15856405	
0.10805484	0.31550893	-0.17878464	-0.26893562	-0.120416604	-0.060474783	0.26131302	-0.22494538	-0.095645614	-0.087892145	0.04766376	0.018354654	-0.06408309	-0.054890815	0.17375527	0.012859345	-0.094245814	0.0856237	0.074034385	0.006369068	-0.105663165	0.33447063	0.1835506	0.06841919	0.07206966	0.08924389	-0.23860583	-0.005943988	0.35267836	0.0121186385	-0.027893595	-0.09739126	-0.23904005	0.08417371	0.01353741	0.13874306	0.012293142	0.11574554	-0.14763753	0.0804086	-0.09571595	-0.18598521	0.26651812	0.11852515	-0.11380708	0.023393653	-0.21037969	0.16139959	-0.048960153	-0.24337271	0.0115878	0.12101897	0.05625362	-0.19623809	-0.18792774	0.022126006	-0.04627212	0.28851745	-0.38548014	0.14372692	0.093065254	-0.025220357	0.009023336	0.083412506	
0.10213321	-0.11967334	0.17476396	-0.23810732	-0.055785943	-0.24542283	-0.02026582	-0.022667302	-0.030556636	-0.07719128	-0.26800403	-0.24619381	0.011782673	0.08032374	0.25062224	-0.15995456	-0.04700657	0.09212263	-0.05786422	0.06501906	-0.0061069666	0.13332106	-0.15724286	0.13611253	-0.28087628	0.08526391	0.21027252	0.24354888	0.33264375	-0.07248585	0.10477558	0.033757433	0.03065514	-0.14931452	0.083715744	0.22459707	0.25907168	-0.05734093	0.054141738	0.077226795	0.08528856	-0.21559933	0.0026536337	0.1330973	0.171049	0.051444266	0.21963225	-0.103850044	0.045106795	0.36139333	0.051240843	0.030740332	-0.022089712	0.10253265	-0.10317894	-0.2746207	-0.25012937	0.045995247	-0.009500108	0.23778589	0.38184053	0.15786561	-0.2909741	-0.7742209	
-0.044356532	-0.114431396	-0.13043013	-0.124414004	0.22094826	-0.2425765	0.11983207	0.1456819	-0.23684275	-0.29571038	-0.16075133	-0.058773533	2.0903515e-05	0.08854376	0.16522014	-0.40377814	0.1590868	0.030546073	-0.11237565	-0.28990445	0.2801185	-0.290302	0.34036598	0.10360105	0.68096834	-0.0008076741	-0.38794696	0.09261441	-0.5086315	0.14110054	-0.16380422	-0.055000894	0.09850928	0.018220572	-0.13794658	-0.06616199	-0.25980946	0.1984043	0.17076507	0.26203275	-0.17474833	-0.16858232	0.081579275	-0.4192273	-0.23296289	-0.0708874	0.4169009	-0.19758376	-0.039575536	0.2555334	-0.3605885	0.1795576	-0.16003843	0.23975949	-0.14470835	0.8333373	0.1360808	-0.08396912	0.16382295	0.42572653	-0.44579068	0.0074559003	0.47235194	0.085159525	
0.09707827	-0.09342677	0.107072674	-0.19654159	-0.1398473	0.012022382	0.026199719	-0.2999074	0.24594162	-0.08240325	-0.042855296	0.2177398	0.061120648	0.33973297	0.2816688	0.014790431	0.2577146	-0.06264315	-0.012641399	0.037181664	0.014844135	0.038894713	0.16926359	-0.060003318	0.09564912	-0.02926778	-0.048482366	-0.10559534	-0.13482109	-0.07401554	-0.22759494	0.09815561	0.20713274	-0.17118208	0.10292366	-0.15741734	-0.0028756044	-0.04386821	-0.067452975	0.22750328	-0.2364609	0.032983184	0.08498799	-0.110435046	-0.010080752	0.16435805	0.11097014	0.11630533	0.079866074	-0.16151339	0.25144735	0.2332493	-0.069027655	-0.2590029	-0.12676911	0.23220126	0.08883927	-0.033309232	-0.106254056	0.32424003	0.0018578348	0.37376368	0.15436286	0.047137108	
-0.19259372	-0.04481819	-0.1288083	-0.20130903	0.15508889	-0.09501829	0.09856715	0.3741526	-0.21647897	0.4337148	0.40170062	-0.18525596	-0.06364758	-0.10699765	-0.069874965	0.03648171	0.14924473	-0.08125554	0.092322916	0.22393292	-0.06337882	0.1721067	-0.10832321	0.109790795	-0.57910335	-0.3488381	0.15437189	0.3499395	-0.059696395	-0.010643894	0.080486	-0.1919323	0.030997297	6.1132494e-05	0.0074990494	0.44892278	-0.057918206	0.07945296	-0.14364628	0.28217703	0.16200346	0.21510464	0.06823594	0.27150142	-0.14453553	-0.14508393	0.09002249	-0.10791657	0.10203139	-0.02668932	0.19989376	-0.2373489	0.20606026	0.10941017	-0.29021946	0.009970534	-0.121334076	0.022859374	-0.027707815	-0.041245446	-0.07784417	-0.07419569	0.04170695	-0.18213724	
-0.02679397	-0.06926905	0.09722927	-0.15825547	0.01634198	0.25235933	0.20740016	0.051321626	-0.19681698	0.23321362	-0.074475706	-0.1814567	-0.11415716	0.2146999	0.025555143	-0.07120408	-0.05211045	-0.00998115	-0.036043506	-0.09206952	0.10059202	0.085788034	-0.3375939	-0.07369105	0.09313926	0.029931486	0.28450665	-0.112655	0.12088674	-0.06704089	-0.04694211	-0.0048629306	-0.015341854	0.13945161	-0.2353617	-0.31995258	0.37038693	-0.12303852	-0.19395085	-0.1597292	-0.07381563	0.13575096	0.14285906	0.016350653	-0.049496718	0.15019579	-0.06254542	0.07587584	0.13049002	0.059140835	-0.005492754	-0.32722828	0.23698369	0.27554956	-0.39630744	-0.18435201	-0.1086272	0.06811947	0.081743725	-0.0034287374	0.18618563	-0.048532788	-0.25583592	0.176547	
-0.012829992	0.115063295	-0.11481894	0.0725463	-0.061946083	-0.18470828	0.028026458	-0.12905404	-0.010512043	-0.37702692	0.030358313	-0.1937173	-0.09055181	0.2312361	-0.29926354	0.039847948	0.07201746	0.19728881	0.032610983	-0.19237019	0.35315332	-0.15566795	-0.39251208	0.14305626	0.21538806	0.053442933	-0.049958378	0.121063955	0.009733971	-0.09862251	0.06507793	0.27681056	-0.27202657	0.107200846	-0.3378177	0.112719074	-0.15046066	0.103276625	0.0131212305	0.11283818	0.14992048	0.30651057	0.043117113	0.15438664	-0.08725029	0.53093314	0.0864464	0.06165164	-0.053806957	0.12414842	0.027614582	-0.0023645908	0.05045663	0.34755823	0.17161039	-0.36463478	-0.18153837	-0.12737156	0.00053308083	0.10063256	0.29962	-0.12942687	-0.23278645	0.050410476	
-0.083216794	0.19720735	0.14782344	0.37852412	0.09200916	0.025094561	0.12971848	-0.008147322	0.14271551	-0.040430836	0.22569682	-0.074535266	0.030916365	-0.028897604	-0.13820077	0.116753176	0.016490798	-0.005059219	-0.089985475	0.10835402	-0.27928972	0.15362605	-0.08734276	0.09567131	-0.1401398	0.03577706	-0.045674615	-0.16376357	-0.24594381	-0.12187502	0.15361182	0.032266587	0.11017296	0.025495222	0.31050184	0.24486375	0.00784774	0.23123306	0.13819145	-0.25728375	0.12341422	0.088277526	0.17279756	-0.20429043	0.18168351	-0.10308137	-0.16332819	0.26122183	0.056620903	-0.15145254	0.019526633	0.09571514	-0.0044474374	-0.1756039	0.07649949	-0.22292869	0.022965586	0.021212311	-0.3212902	0.03762972	-0.050069302	0.32918596	-0.08291331	-0.029601455	
-0.2739982	0.15439992	0.08660053	-0.26053396	0.17961662	0.011733214	0.09764136	-0.012264919	0.20035496	0.14691445	-0.20919015	0.06795251	-0.048364785	0.10254595	-0.04621944	0.21298277	-0.36990845	0.061846193	0.07690162	-0.06751666	-0.19627741	0.004745034	0.08641169	0.07489418	-0.18424743	0.43935636	0.26923922	0.08400057	0.03422535	-0.038406834	-0.13180064	0.10825699	0.23546033	0.23044974	-0.10651823	0.23063391	0.035240978	-0.08005631	0.3315222	-0.03148205	0.131015	0.004868052	-0.049515978	-0.053210594	0.052594744	0.09472081	-0.089198805	0.01628806	0.2734546	0.09042149	0.2351647	0.25838748	0.15247843	0.2678919	0.03676568	0.11797345	-0.14567016	-0.0451442	0.04787941	0.08454972	0.1498322	0.10824374	-0.0020324297	0.010107814	
-0.14268316	0.018946571	-0.029027188	0.04346141	0.062843084	-0.0820809	0.1786342	0.007845991	0.23913209	-0.24173814	0.19128281	-0.39703873	0.0914118	0.3090149	-0.40085497	0.07705324	0.0054076305	-0.023457391	0.040580947	0.1676647	0.040239334	-0.010746672	0.015981955	0.2640467	0.20066863	-0.13471329	0.016024781	-0.23675269	-0.12213073	-0.06844316	-0.16563651	0.056844484	-0.11876779	0.22524218	-0.3113758	-0.16423488	-0.065305725	-0.13529563	0.15558192	-0.08025251	0.078285255	-0.06798317	0.24326228	0.08176855	0.17091553	-0.17791954	0.02460708	0.09877153	-0.055888522	-0.059090946	-0.063818134	0.16443565	-0.08451872	-0.32224762	-0.3005749	-0.11302046	-0.29876196	0.183496	0.05690894	-0.006641151	0.18308336	-0.15093319	0.02435139	0.10793078	
-0.016541151	0.098933384	-0.15128699	-0.08451195	0.23214257	0.068835355	0.12162056	-0.34256557	0.19850433	-0.09607977	-0.13679846	0.122593306	-0.01603519	-0.1702013	0.35599518	-0.03118023	-0.10382663	0.18988258	0.05368733	0.07283263	-0.051311478	-0.24102917	0.2625263	0.09075921	0.26047394	-0.12501779	-0.1350409	0.086604215	0.15287577	0.061371326	-0.12535442	0.06965629	-0.40880793	0.036444098	-0.009539249	-0.20166278	0.06776074	0.07359664	0.21788813	0.07801623	-0.0902284	-0.06665107	0.049105253	0.027880069	-0.57698506	0.26555112	-0.12957089	-0.11372322	-0.15875068	-0.06257752	-0.24620691	-0.07651078	-0.128817	-0.41708413	0.052664727	0.3475851	0.39707282	-0.057414304	-0.04268528	0.121267274	0.11009631	0.16202848	0.30044246	0.024466213	
0.053918503	0.07088178	0.14799142	-0.0016730495	-0.123969965	-0.09640956	-0.04042429	-0.08634331	0.042208754	-0.087639235	0.1364167	-0.11992621	0.047614917	-0.072439045	-0.4640539	0.013511638	0.21818605	0.04030605	-0.03499416	-0.27763644	0.28924105	0.19622235	-0.22602065	0.006029337	-0.16154411	0.148151	-0.0013174964	0.074770875	-0.22069143	0.3022524	0.051518027	-0.1662243	0.1626635	0.21659727	0.24225518	0.24073906	0.21322511	0.35426685	-0.08520195	0.322848	-0.010230932	0.21572676	-0.14535813	0.034607485	0.10651478	-0.21714543	0.019486148	0.17595947	-0.07340928	-0.11914512	0.30349225	-0.08989515	0.24729176	0.37188005	0.33993605	-0.092021085	-0.021211963	-0.052287832	0.31089357	-0.21102048	0.15514542	0.2339621	-0.06484467	0.29564545	
-0.22276343	0.2219315	0.054969467	0.033773866	-0.112473525	-0.33127457	0.02746422	0.055956297	-0.01375865	0.07327279	-0.1570585	-0.12202702	0.165392	0.100636534	-0.2646874	-0.11231338	-0.12998031	-0.04155721	-0.011574652	-0.04245643	-0.06825801	0.11466759	-0.16720064	0.1288592	-0.32765654	-0.04575905	-0.041246846	0.0066182674	0.14601511	-0.13006347	-0.008812999	-0.20931573	-0.18537772	-0.20531933	-0.18231404	0.06619067	0.12948038	0.14433973	0.008948946	0.17473651	0.10371779	-0.016156193	0.013977314	-0.17222187	-0.043722298	-0.06493207	0.30149552	-0.1009157	-0.07014485	-0.009117861	-0.18473043	-0.08030002	-0.13495141	-0.23912966	0.025055243	-0.17090647	-0.29469666	0.03934436	-0.24836463	0.24204932	0.21850179	-0.014825847	-0.28907803	-0.51257867	
0.14383599	-0.0009686858	-0.02686736	-0.36971927	-0.028379738	-0.11911798	-0.13061705	-0.1286992	0.16862251	-0.43853125	-0.14605388	-0.112130955	0.019629782	-0.055130344	0.10722237	-0.03406377	0.012355464	0.015297264	0.08943622	-0.076249026	-0.19960122	-0.15563923	0.030494591	0.13079691	0.054729838	0.45323756	0.09593482	0.13079523	0.26307604	-0.38628954	0.27323338	-0.15543939	0.013949477	0.18965247	0.06411549	-0.23292242	0.06593288	0.23889849	0.0057627372	-0.07592459	-0.21938139	0.25929412	0.21960002	0.11407657	-0.036139604	0.066992536	-0.25266683	-0.006675951	0.10637283	-0.29206786	-0.24203177	-0.00101964	0.05023703	-0.29307768	0.047161892	0.122492045	0.017274586	-0.046857405	-0.17817393	-0.14877804	-0.055022087	0.0009155419	-0.102562286	0.1619478	
-0.26985222	0.26061007	0.07726565	-0.019949853	0.14859787	0.1204857	0.016727751	0.06818393	0.12315971	-0.16455668	0.30403614	-0.05367527	-0.19965643	-0.40023297	-0.0490774	0.33932284	-0.0832369	0.0067224745	-0.14934897	-0.43881693	-0.015944995	-0.15713066	-0.043092348	-0.1403263	0.18840566	-0.19343387	-0.26119825	0.16832496	0.02434939	0.14417803	0.008720686	0.110336006	0.12547229	-0.19334666	-0.115866356	-0.16098528	-0.02666078	0.028279338	-0.20236926	-0.02786257	-0.105421364	-0.01172045	-0.1860162	-0.15669948	0.086018845	-0.4055136	-0.16594051	-0.049858034	-0.033791907	0.13685605	-0.07894411	-0.14812346	-0.042450994	-0.0012220771	-0.043148164	0.14692825	0.078892455	-0.030116973	-0.109655246	-0.101501554	0.061180223	-0.3361525	-0.08013712	0.11840175	
-0.08515122	-0.09070151	-0.02643279	0.23840979	0.106335774	0.30837893	0.11309016	-0.05155738	0.018585036	0.029747602	-0.0064305183	0.23038992	0.045800045	0.082032494	-0.5092429	0.30199736	-0.16111198	0.0777921	0.14804979	0.11726287	0.056686126	-0.040800896	0.29443306	0.23861146	0.39862424	-0.074137405	-0.073569395	0.104993634	0.21447386	-0.3492139	-0.07929212	-0.16804546	-0.17520766	0.011271169	-0.2582953	-0.20643426	-0.097319424	-0.0295688	-0.31186274	-0.20677266	0.016472192	-0.117023535	0.077976964	0.017018521	0.0023217378	-0.10779293	0.17815745	-0.033700254	0.28563225	-0.26858816	0.13028656	0.19791442	0.09535583	0.036962654	-0.42591384	-0.16097538	-0.22310326	-0.076981276	-0.007993747	0.052202627	-0.02920878	-0.2906811	0.1344277	0.094599925	
0.1243076	-0.05533376	-0.05257544	-0.005301426	-0.15354402	-0.054045126	-0.015692946	0.03337816	-0.036599625	-0.25775188	-0.28416103	0.11022091	-0.083132714	0.064579144	0.042560246	-0.13164559	-0.1749662	0.02892194	0.06928283	0.017981486	0.4173253	-0.12204037	-0.009309609	0.10021427	0.09571211	0.21918306	0.06271485	0.15269604	0.030044654	-0.10109435	0.20140898	0.2997321	-0.15800366	0.30328673	0.23809037	-0.029989507	-0.13356252	0.25432384	0.17644385	0.025683794	0.04104344	-0.27230078	0.11502103	-0.09954365	-0.12008371	0.07629929	-0.25182366	-0.19334412	0.09113225	-0.2848332	-0.133531	-0.1440872	-0.044695754	-0.1028846	0.3594029	0.011678327	-0.056868657	-0.037088905	-0.20221585	0.026085297	0.14128192	0.05201266	0.17014539	0.2810259	
-0.11840682	0.049692307	-0.18922912	-0.16835727	0.2745284	-0.06907778	-0.011493957	-0.06552651	0.0010884732	0.1376988	-0.027238462	0.20477955	-0.080489755	-0.05097104	-0.5171283	0.012045575	-0.14877905	-0.02362922	-0.014675036	0.16164252	-0.0034794423	0.13607468	-0.04761712	0.07861254	0.52357167	0.07546149	0.12527896	-0.2660297	0.02146847	0.25014222	-0.06870685	0.077903315	-0.053052645	-0.11321496	0.029069414	0.061049927	-0.07393212	-0.06587851	-0.03521282	0.10033364	-0.21400504	0.17423107	0.052829083	0.08209152	0.24241884	0.017846763	-0.2389736	-0.69695115	0.12486447	0.14269713	-0.081316404	0.1580763	-0.031792708	0.015545729	-0.029244008	0.2639538	0.13041174	-0.24068822	-0.113196865	-0.0659585	-0.20747194	0.05996513	-0.38856664	0.19952737	
-0.2188706	0.09267744	-0.29009134	0.1213951	-0.21716583	0.15111634	-0.037091706	-0.33709425	0.3161899	-0.12935874	-0.04142621	-0.18601245	-0.13739485	0.34449244	0.17642383	-0.019093243	-0.3651719	-0.18373165	-0.10516166	0.1564219	0.23704289	0.054246522	0.30266514	-0.03309729	0.14263539	-0.00051334	0.031090595	0.13752179	-0.048643067	-0.17859317	0.008715211	0.105728924	0.22032057	0.08453143	-0.12533234	-0.08043617	0.11080892	0.054187562	-0.007316996	-0.0617892	0.32079047	-0.15299274	0.13326676	0.0021073285	-0.029732075	-0.13371633	-0.041780822	0.055008672	0.12708595	0.32247716	-0.2158651	0.2677155	-0.020270515	0.020068925	-0.10809873	-0.06660015	0.1788508	-0.0857117	-0.23813042	0.05056448	0.37374446	0.19632964	0.17847729	-0.10676648	
-0.0714985	-0.26027408	0.12580508	0.23811385	0.010446607	0.043906413	-0.003697818	-0.24184029	0.18777862	0.14517255	-0.2861792	-0.34526068	-0.16483825	-0.2239107	-0.7311957	0.26315057	-0.054146625	0.07015251	0.10002041	0.16777632	-0.04927453	0.3377537	-0.08899598	0.07993344	0.047523554	-0.18898778	-0.027372587	0.002191231	-0.32646656	-0.033063132	-0.28641823	0.10818448	-0.058564365	0.15418884	0.020368615	0.115363255	0.012031943	0.04350141	0.18419538	-0.119938865	0.025826044	0.1071214	-0.042905882	-0.020301083	-0.3638481	0.13946357	0.028864613	0.019337552	0.101068504	-0.16555901	0.3570081	-0.07145163	-0.11220178	0.18157119	-0.039048065	-0.1562956	-0.011760168	-0.32722932	0.040219452	0.2273068	-0.028195415	0.045090295	0.23920181	-0.012009033	
-0.08399296	0.07005543	0.0445008	-0.06446895	0.05906617	0.023905063	-0.15926166	0.28835642	0.014422517	-0.05533954	-0.017634748	0.16285953	-0.19726874	-0.017068971	-0.14829934	-0.19569366	0.04990542	0.10990147	0.17685494	0.21632658	0.05091171	0.023236006	-0.18236037	-0.08031509	-0.06453028	-0.18857363	0.3061839	-0.18635212	0.20066345	0.10387083	-0.102703765	-0.0041172733	-0.33507785	0.066081285	0.056094654	0.057985395	-0.03662252	-0.09315562	-0.18545492	-0.2042253	0.10961826	-0.059515134	0.21081983	-0.0025613247	0.31848258	0.09731801	-0.38993016	-0.041486185	0.08436893	0.16809112	0.29278007	-0.14853512	-0.047059584	-0.04298298	-0.21985006	-0.24461985	-0.18779528	-0.16083257	0.062393345	0.13847934	0.2727446	0.16045819	-0.32828534	-0.19027586	
-0.046237066	-0.13453582	0.069466494	0.30584115	0.15943927	-0.039367497	0.26083252	-0.29674208	-0.051338688	0.13431205	0.115007356	-0.06414319	-0.0216705	-0.096107684	-0.014639762	-0.12156754	-0.03198335	-0.1079407	0.025582625	-0.36410192	0.17338112	0.08321825	0.26380542	0.2506391	-0.030763704	0.16853416	0.21641776	-0.13088216	0.27349058	-0.24166225	0.13100828	-0.0010974794	-0.10259144	-0.15448911	0.03826133	-0.04448106	-0.036492	-0.115482405	0.09178697	0.1296401	0.14740399	0.26476064	0.1676037	0.016197529	0.09068679	-0.1230893	0.066669	0.26240253	-0.06257929	-0.08642975	-0.18288636	0.2763221	0.0036912614	0.13407461	0.12090729	-0.022168348	0.25351635	-0.18449421	0.0042447755	-0.015239822	-0.01714015	0.16968063	-0.02787621	-0.096806034	
0.0049402206	-0.1975309	-0.041810215	0.26167265	-0.18502718	0.23894884	0.059048563	0.14625959	0.122579925	0.39261094	0.03922074	0.2555275	-0.033195775	0.06221789	0.53592056	0.026492683	-0.25721657	0.20951696	0.059731063	0.13927859	0.14695866	-0.025221653	0.012709055	-0.21020076	0.15578203	-0.14712438	0.04844421	0.110421516	0.1290693	-0.10383391	0.27128804	0.03741466	-0.25305024	0.040988237	0.219539	0.30140722	-0.02615694	0.02512866	0.13948339	-0.26605862	0.2889077	-0.047133166	0.2001504	-0.22954138	0.33373368	-0.007569007	0.051855933	0.14008443	-0.12886925	0.0902045	-0.026439987	-0.051925555	0.12675858	0.09666009	0.19514823	0.097372085	0.14521575	0.044291466	0.07947773	0.14473657	0.0012097339	-0.07407482	0.083486915	0.099010535	
0.15099095	0.016210925	0.03993232	0.13364968	-0.02263726	0.16943806	0.121139675	0.090892985	-0.040619038	-0.20156841	0.29459193	0.33413446	-0.016338583	-0.21839772	-0.39714086	-0.070951566	0.11440387	0.19845575	0.2717133	-0.108476244	-0.05524988	0.14952102	-0.02055007	-0.116625436	-0.17554717	0.020097243	-0.008824287	0.056231447	-0.13741735	0.06995107	-0.13995384	-0.022827538	-0.22382712	-0.13052875	-0.08339025	-0.32796964	0.0822246	0.20255145	0.059347156	-0.050323922	0.14198248	-0.084168784	-0.0605209	0.08257632	0.13745712	0.09699848	0.14576857	-0.3041591	0.12860757	0.23004104	0.21362919	0.21535957	0.1788807	-0.1962669	-0.19297346	0.07292276	-0.00557741	-0.010192491	0.10822824	0.13440213	0.06555057	-0.2870662	0.24673288	0.08701746	
0.27647173	0.08685263	-0.17748353	0.014148983	0.061186206	-0.050985895	0.067019105	0.32099482	0.23776646	0.09206566	0.35673028	0.090571724	-0.17726432	-0.05521042	-0.5393558	0.055371583	-0.17984739	-0.12068598	0.015782904	-0.08331918	-0.04944138	0.33532384	0.035171572	-0.1727912	-0.07075211	0.04326388	0.090208225	-0.15931103	-0.04884171	-0.31177232	-0.2538892	0.038146112	-0.28530607	0.054472353	0.22230032	0.23061974	0.0032129262	-0.14585201	-0.26352865	0.284636	0.06815115	-0.01217031	-0.0015801416	0.12894465	-0.035784636	-0.19290659	-0.28779316	0.16870306	0.2181589	-0.12759593	0.30019927	-0.06672884	-0.14009283	-0.10474516	0.13222937	0.44161886	-0.25439224	-0.09428479	-0.00057072844	-0.07728635	0.018531628	0.035890833	0.48184457	0.2612328	
0.21569856	0.08459202	0.114955135	-0.13635272	-0.1145881	0.38365453	0.21359336	-0.15639801	0.16661686	0.18285967	-0.06733974	0.053990345	-0.18860453	-0.0026238214	-0.22836034	0.41405398	0.10671382	0.03284321	0.10785875	-0.072016366	-0.055038687	-0.19308668	-0.11059771	-0.2991635	0.16229278	-0.1591211	0.2257041	-0.15362604	-0.17703469	-0.058810905	-0.03614709	-0.13185237	0.075079806	-0.1818683	-0.044477433	-0.010243639	-0.060125604	-0.3127612	-0.07661661	-0.119976014	0.22522289	0.014607933	0.25954917	0.12746274	0.19131763	-0.13139787	-0.27911657	-0.02485276	-0.06426011	-0.075901695	0.09667616	0.15248932	0.1175065	-0.48766658	0.12147295	0.18705922	0.12406342	-0.27486917	0.15780646	0.12317609	-0.10251863	0.016886203	0.05521744	0.024863634	
