88
64
2
5
2
2
0.008927078	-0.15729767	-0.12428615	-0.10166645	-0.068117894	-0.018090962	-0.011429092	0.018993031	0.2331388	0.034054074	-0.14063908	0.09559593	-0.10485815	-0.002883079	0.052193534	0.02149069	-0.02844125	-0.0020971976	0.066606075	-0.03424157	0.0657886	0.032714866	-0.05455472	0.002909294	0.08498318	0.066609755	0.04218525	0.022848142	0.057701916	0.016146151	-0.046361983	-0.11156114	-0.04882989	0.047034863	-0.07901798	0.08717152	0.008536268	0.06507589	-0.03886063	-0.013865559	-0.025661511	-0.009808525	0.09744481	0.08303643	0.1825691	0.0096986005	0.007501354	0.0051125027	0.047577374	-0.043997064	0.030440489	-0.0017620315	-0.0051056445	-0.0023161685	0.020630721	0.036208894	0.019284533	0.0405094	0.08220045	0.10854874	-0.052136965	-0.01373635	0.041516855	0.019321946	
0.013446197	0.11046933	0.054389015	-0.07404205	-0.018952815	0.02106998	0.02438612	-0.017598733	-0.050290737	0.046801373	0.05145108	0.14764705	0.10818469	0.027657343	0.05633173	-0.0599805	0.019488571	0.03545069	0.11268495	-0.024673453	-0.070024036	-0.10865332	0.07361586	-0.0058980538	-0.07073499	-0.039406374	0.03637907	-0.024733659	0.06266239	-0.032715715	0.11572051	0.0019042594	0.06092453	0.085653335	0.017240925	0.06043759	-0.015627787	-0.06870871	-0.069681145	-0.074787356	0.0134297535	0.046549506	0.1212406	0.010064716	0.0032653995	-0.03843469	0.012596955	-0.011538981	-0.08812969	0.047409866	0.1474597	-0.035655767	0.067704074	-0.005034058	0.034412082	0.046872582	0.00041003787	-0.097141646	0.04155671	0.004974473	0.06633194	0.046501532	0.12264234	-0.07104881	
-0.015760643	-0.1759828	0.10645242	-0.043591086	0.0021240949	-0.03843662	0.021290487	-0.0017312848	0.035474285	0.05213452	-0.18298095	0.06667339	-0.15604039	0.17756477	0.07229485	0.10388098	0.03836076	0.025252387	-0.20089145	-0.11715635	-0.07322632	-0.031558264	-0.026335223	0.054636046	0.06569638	0.006959634	-0.009051839	-0.06316156	-0.1721602	0.020556597	-0.022344543	-0.009853432	0.16486335	-0.08089413	0.049397238	-0.051814795	-0.030919906	-0.09046334	-0.03130621	-0.016491473	0.022265224	0.016779283	-0.08302772	-0.010504247	0.040328123	-0.021795418	0.099396475	0.11869608	-0.06956159	0.027443014	0.06112386	-0.043854054	0.12338082	0.012527404	0.0048197787	0.083631046	-0.0057465006	0.03554541	-0.14602125	-0.105669	0.1514226	0.010129418	-0.017393947	0.034632545	
0.29927638	0.38465548	-0.114509776	-0.15314999	-0.04677048	0.23574045	0.09342815	0.09649599	0.24317093	-0.59234226	-0.34515944	0.67461836	0.2533407	0.11269221	-0.2882807	-0.19064409	0.020966582	0.29355186	0.091130614	0.9179539	0.062284134	0.19214346	0.5679907	0.7171802	0.23220532	0.5942787	-1.1462215	-0.39693937	0.5713741	0.29703617	-0.74325955	-0.1934424	-0.12782006	-0.26615185	0.15644112	0.23737346	0.5265082	-0.20243965	-0.012509925	-0.29437622	-0.06512533	0.18528502	0.1669139	0.05141513	1.858715	-0.26868013	-0.3687771	0.17036445	0.33224714	0.07182611	0.659567	0.15693595	0.2802747	0.5023464	-0.1598274	0.100271516	0.1693028	-0.122467525	0.5990914	0.1984002	0.5288894	0.15594767	-0.19621982	-0.008020794	
0.01670255	-0.006332015	0.07702405	0.041431926	-0.016887201	0.02763921	-0.022265486	-0.24263337	0.004545962	0.20560978	-0.12590766	-0.0041438844	0.0056092967	0.15210466	-0.09088182	0.032990985	-0.05122125	0.02645862	-0.17301728	-0.077609584	0.15691635	0.107300416	-0.21798001	0.1122441	0.16633423	0.06687358	-0.3090442	0.09184879	-0.09513622	-0.024863424	-0.049545318	-0.01715212	-0.1563107	-0.054520097	0.030300418	-0.07909017	0.047591403	0.24004202	0.073239885	-0.012546223	-0.04688251	-0.0455689	-0.026682397	0.15530637	0.113595776	0.09467861	0.01203376	-0.04946211	0.17817765	-0.0062057977	-0.07377614	0.033747174	-0.022616694	0.0059901173	-0.02749698	-0.019977538	-0.029420331	0.0049233856	0.13572165	0.12503147	-0.077184215	-0.014292719	0.0024657785	0.030614473	
-0.04521611	0.34095088	-0.31046045	0.07047111	0.024223644	0.10770499	0.060168754	-0.39417976	-0.6570555	0.052433893	-0.039074592	0.14961345	-0.16669367	0.06364205	0.19768682	0.22408584	-0.10127574	0.12298194	-0.111357786	-0.29241887	-0.14443192	-0.15310477	-0.1366511	0.12625375	0.13606013	-0.07024465	0.12510377	0.15203783	0.02362483	-0.091504626	0.19861107	0.00808883	0.08336299	-0.15030853	-0.23560801	0.06326665	0.018062938	0.052243438	0.10788263	0.046845704	0.01183332	0.15395272	0.033075318	-0.14537428	0.22214767	-0.1235263	-0.16294317	-0.36508867	0.054160282	0.059017234	-0.3364403	-0.10854963	0.405908	-0.014190103	0.090506256	-0.12356121	-0.12559076	-0.3433228	0.76162124	0.094961494	-0.1587909	0.22205707	-0.16141804	0.050309334	
0.0031118256	0.050037965	-0.04465515	0.17949148	-0.057622496	-0.0051081986	0.039954282	-0.119737044	0.22811247	0.21923572	0.06741952	-0.044748884	-0.1580928	0.019774793	-0.107697956	0.06907358	0.049693584	-0.016133694	0.12516013	-0.05717302	-0.0657577	-0.19572684	-0.1354769	-0.09878541	0.11673144	-0.023790017	-0.02903829	0.021468678	0.11923009	-0.030409906	-0.1761708	-0.24980515	0.10631529	-0.095202215	-0.10492634	-0.15909848	0.023331994	0.28980747	-0.011743588	0.07233553	-0.09558591	-0.009454347	0.027612982	0.16858038	0.17829543	0.14337423	0.098605335	0.051139057	0.016761975	0.0037600265	-0.103884175	0.03801568	-0.0735941	-0.01924756	0.02686696	0.22283933	-0.0525608	0.12587214	0.02161176	0.024188101	0.080047525	-0.026263488	-0.057997674	-0.008625047	
-0.02783277	-0.029625755	0.087561764	-0.058816753	0.0297683	0.061066374	0.021383075	0.034227006	0.043802727	0.016862486	0.14022739	0.11184749	0.1725994	-0.030806001	-0.06805017	-0.041675054	-0.008696667	-0.013736897	0.08369905	0.022348104	0.05113758	0.12835236	-0.14539474	0.081616476	0.11091702	-0.031005574	-0.06454121	0.013268178	0.15818734	0.013919074	0.050671436	0.02184832	-0.012250436	0.02274654	0.004518114	0.24106969	-0.0022330002	0.058923066	0.025523704	0.019495158	0.016139727	-0.025595859	0.1997127	0.111946516	0.110807106	-0.030558921	-0.00062210194	0.0005009699	0.22806142	-0.019773575	0.17817883	0.004237373	0.008616804	0.020657921	-0.026328603	0.006956786	-0.039560307	-0.010127309	-0.04605561	-0.055770814	0.056712415	0.022148179	0.17551526	-0.031215882	
0.03490019	0.09940471	-0.23183468	0.06414693	-0.062132202	-0.016017923	0.05892223	0.046179652	0.080127455	-0.038943443	0.15813985	0.09306014	0.4270452	0.021015663	0.062914886	0.013710031	-0.055069823	-0.040507145	-0.09964795	0.0035609254	0.016655203	0.087300986	0.048805058	0.015342741	0.054655347	-0.02259017	0.16284162	-0.09921515	0.19121172	-0.06687172	0.0810719	0.10723116	0.09511722	-0.004384251	-0.053266685	-0.008880766	0.044041354	-0.033236783	0.008591512	0.038290154	-0.0405294	-0.0012611555	0.06300564	0.10753807	-0.09860576	0.03610146	0.06116498	0.037323993	0.073258445	0.07550993	0.26800078	0.03445557	-0.07609867	0.0071717976	0.057243317	0.04410636	-0.10346441	0.051006153	-0.015862301	0.13791107	0.03818243	-0.030159386	0.19793972	0.051614705	
0.0063243704	0.007078214	0.13662596	0.029880136	0.019598812	-0.0188007	0.03664583	-0.037792448	-0.040225483	-0.091770865	0.08828837	-0.0068822782	0.09707733	-0.049707398	-0.029515382	0.04435311	0.0010173257	0.0074828905	0.022655824	-0.053407844	0.03164181	0.03324096	0.00027923958	-0.032967355	-0.030223705	0.0023824223	-0.06479002	-0.0076668216	-0.012147502	0.058858477	0.05427928	0.08602719	-0.02165352	0.128015	0.02710394	0.060204912	-0.028549353	-0.054720234	-0.046500992	-0.06809404	0.038750503	0.01292113	0.0038341978	-0.061733108	0.17085198	-0.033866964	0.011875182	0.03310429	0.097035855	0.017479146	0.03169548	-0.030238854	0.015985187	-0.012544303	-0.015181216	0.12359011	-0.04134843	-0.018967787	-0.06100209	-0.047037657	0.01225305	0.054520138	0.041280523	0.0417856	
0.0071386867	-0.012240104	-0.16224442	-0.13368052	-0.051362153	-0.02519075	0.0930634	-0.3114193	-0.06886191	-0.34159985	0.029706143	-0.22506611	-0.10767001	-0.022856975	-0.046775315	-0.026064292	-0.10086369	-0.0053474484	0.039777327	-0.05100408	0.07566603	0.06086062	0.0055996426	-0.092891164	0.23682761	-0.1487068	-0.06555998	0.150332	0.098095015	0.04778572	0.043782353	0.30000964	-0.06943481	0.17056762	-0.17802641	-0.009111933	-0.01768047	-0.05520396	-0.0429104	-0.1515109	0.071055084	0.030174775	-0.0035556545	0.13583063	0.021158077	-0.10503625	0.12697576	0.04070644	0.032736335	0.10167718	-0.005822825	-0.13137189	-0.086547844	-0.068551354	0.10581242	-0.0033548034	0.12001875	-0.13545154	-0.37374902	-0.0036116117	0.017074903	0.071343854	-0.052248705	-0.080708735	
-0.0006107491	-0.12271467	0.18469347	0.0071385973	0.032405127	-0.050853956	-0.032367934	-0.061680414	-0.13109618	0.07144255	-0.13430718	-0.014994764	-0.034588512	-0.0135764	0.02272187	-0.08999381	0.020379223	-0.030419046	-0.064381115	0.0066027176	-0.101681836	0.0040058177	0.041550342	0.0647933	-0.05890208	-0.026766915	-0.07772435	-0.024986917	-0.09826733	0.036096524	0.010418757	0.09573038	0.02126968	0.045655113	0.029703114	0.06643359	-0.016433364	-0.01982178	0.0016843815	-0.007892517	0.028712468	0.019854954	-0.12592584	-0.11053152	0.13432331	-0.029454991	0.026596064	-0.040370163	0.12901577	-0.0063728485	-0.033565704	-0.022687534	0.061227243	-0.009477933	-0.034726493	-0.032378282	0.138212	-0.071880795	-0.14112124	-0.027884886	-0.10630635	-0.013916834	-0.09379216	-0.03964669	
-0.013559753	0.016156267	-0.0007622149	-0.035305467	0.0018155512	0.07214683	-0.08657483	0.035363648	0.13866419	-0.014853117	0.055350177	-0.048051048	0.023165314	-0.051963586	0.0026466968	0.047580037	0.0929963	0.001060576	0.14790379	-0.10513319	0.12544085	0.2338692	-0.059024885	0.0509109	-0.10135297	0.04657557	-0.01116202	-0.00096510595	0.12191173	0.051953174	-0.04207202	0.010666566	0.1080391	0.022444159	-0.015912939	0.12560579	-0.015866688	0.12788975	-0.010404253	0.05524718	0.021645786	-0.0006635449	0.23950535	-0.039010808	-0.11672996	0.015536695	0.044834238	-0.008966799	0.06639153	0.0026813005	0.21943988	0.009951781	-0.0015384522	-0.0057886625	-0.017980164	0.17971717	0.06841613	0.06939441	-0.098081164	0.008449016	0.08238139	-0.027870819	0.2150935	0.03250295	
-0.008577935	-0.14874357	0.02929847	-0.06809218	-0.034329027	-0.059371762	0.047326665	0.07171192	-0.022384655	-0.084534235	0.3367258	0.1027366	-0.08835541	-0.14991346	0.027600951	-0.18413371	-0.016545644	0.021057269	-0.0796933	-0.11211426	-0.17831388	-0.14440969	0.055315107	0.08298098	-0.084090754	-0.022930827	-0.17099428	0.1100258	0.24396531	0.010688915	-0.09198378	0.058137126	0.120924644	-0.06696567	0.27204683	-0.03929885	0.00511436	-0.12422294	-0.005545571	0.08591424	0.01657295	0.010052846	-0.23261799	-0.19458647	0.28050718	-0.1063479	-0.14077656	-0.077733755	-0.15131651	0.041875005	0.14247356	0.015447388	0.14781667	-0.011694941	0.05135665	-0.3084302	0.0024399445	0.052839607	-0.21501054	-0.10747596	0.19970645	0.042882934	-0.13568649	-0.1575589	
-0.007107314	-0.3993143	0.8066899	-0.2271518	-0.07390393	-0.20624669	0.08130599	-0.21838811	-0.2480993	-0.04874512	0.14174515	0.09766663	-0.4158899	-0.10448197	-0.19772437	-0.18556358	0.0310352	-0.09379824	-0.09238285	0.20238964	0.09898386	-0.15296635	-0.110981874	-0.03142528	-0.1463032	-0.03960232	-0.2814333	-0.008944929	-0.29608548	0.2125578	0.031023301	-0.0530999	0.17117175	-0.066527076	0.15077935	0.13240251	-0.025989637	-0.22763978	-0.1832179	-0.04074537	0.116555974	0.13417602	-0.059318334	0.024465568	0.22103797	-0.13667326	0.06280896	0.3504268	0.24362272	-0.05650517	0.23643741	-0.04780997	0.20823683	0.02233579	0.06278131	0.12961279	-0.024319535	-0.040627863	-0.17146567	-0.264019	-0.1485897	0.0959076	0.18931952	-0.027711064	
-0.013778134	-0.120599665	-0.076036304	-0.06076513	-0.021317232	-0.07732195	0.018816356	-0.107764885	-0.16257776	0.031137941	0.033675514	0.049873915	-0.16294236	-0.07373589	0.12241076	-0.19608447	0.0016947831	-0.0038133613	0.09131427	-0.032320857	-0.1683798	-0.057414863	-0.039935395	-0.08121499	0.21208076	-0.093955144	-0.1909331	0.03762685	0.12263532	0.027314981	-0.06573894	-0.10406235	-0.12726136	-0.035934277	0.036209214	0.05912426	-0.0052588806	-0.02692117	0.009097762	0.030035678	0.053233154	0.039792914	0.0046958434	0.2592077	-0.04555354	-0.039623346	-0.031875584	-0.008722911	0.09230813	-0.010745797	-0.0983508	-0.004213782	0.06571093	-0.017731205	0.0840461	-0.025809588	0.19118221	-0.14825788	-0.043605033	-0.09030687	0.015663521	0.024018098	-0.05868287	-0.21455851	
-0.00094750355	0.24581438	0.077723704	0.089720815	-0.03223305	0.0064692115	0.0041446486	0.13064839	0.03620272	-0.027039206	-0.2691971	0.18601413	-0.03659863	-0.079111114	-0.027200667	-0.0779401	0.005963857	0.013311673	0.0831176	-0.0407419	0.061699692	-0.1390991	0.04559959	0.12873232	0.15564108	0.15713629	-0.067819364	0.035057317	-0.04444148	-0.042768236	0.0688084	-0.081524044	-0.16627048	0.100249924	-0.20290332	0.041900672	-0.010155872	-0.0051942784	-0.028187623	0.04331091	-0.007733745	-0.029773906	0.10757279	-0.17668347	0.3119804	0.011667793	-0.047227398	-0.010117693	-0.043142576	-0.06121386	0.019142006	0.026983742	-0.13889678	-0.018267874	-0.046004243	-0.17941414	0.013451833	0.11233607	0.123123765	-0.003173163	-0.040999103	0.015102074	-0.021774335	-0.030755637	
0.008374396	-0.04703554	0.058410835	-0.061214563	0.020091912	-0.011889988	0.05946849	-0.06810733	-0.058624532	-0.041309524	-0.023291498	0.031062892	0.056303788	-0.009610568	-0.09031079	0.04435469	0.0023733464	-0.007699461	-0.00983802	-0.047531765	-0.056998674	-0.09768937	-0.055039078	0.052829873	-0.034333136	0.03724141	0.05274701	0.0032020959	0.017294385	0.040039174	0.04960274	-0.0108412765	0.015278545	0.051256027	0.049022008	0.11554417	0.008301035	-0.086066194	0.059613336	0.03121505	0.027038973	-0.0071689673	-0.013449913	0.05766319	-0.04296699	-0.016888753	-0.019148216	0.029872283	0.17062011	-0.046278637	0.052560054	-0.010886134	0.033258528	-0.0064859353	-0.013600473	0.021569844	0.07461148	-0.04294604	-0.016103221	-0.012406758	-0.13999115	0.032976296	-0.015458683	-0.014133782	
0.028549353	-0.013325943	-0.42064273	0.1496396	0.0012206879	0.009143858	-0.055695746	0.018337376	-0.022308927	-0.029058883	0.05406709	0.14613685	0.0876588	0.043997094	0.1301078	-0.007380909	-0.005166953	0.017739713	-0.0017816895	0.13594823	0.15144186	-0.0035416207	0.21378317	-0.020242404	-0.078452855	0.054063834	-0.07611237	-0.12633573	-0.014709747	-0.030895393	-0.07198567	-0.04683061	-0.15723887	0.009092591	-0.024894549	-0.021249747	0.044177298	-0.009456052	-0.0211243	-0.14201647	-0.023194093	-0.037812572	0.103237666	0.0017760143	-0.3631075	0.10059127	0.12279383	-0.0009358896	-0.16554849	0.051932693	0.106354445	0.046123464	0.00090320024	-0.028194694	-0.023170883	0.05579031	-0.05399749	0.066954434	-0.036098387	0.19636668	-0.016423885	0.020269988	-0.09902967	0.03374871	
0.0032652405	0.122108005	0.14134288	0.051016293	-0.022021467	-0.058969397	0.039094865	0.08334831	-0.15954949	-0.094631866	-0.07591741	0.27184263	0.029105192	-0.031351056	0.069813594	-0.01627651	0.014753599	0.028587248	-0.077183805	0.11248098	-0.033201892	-0.13782488	0.05370451	0.015075382	-0.089987904	0.0023893237	-0.012363475	0.14042343	0.06037965	-0.015991377	0.16565065	0.05623521	-0.06998637	0.20162943	-0.07552213	0.16009112	0.03131119	-0.09485615	0.061017565	-0.0055065993	0.023884984	0.026509115	-0.030624406	0.1057298	0.0008891088	-0.044607487	0.031560328	-0.13230847	0.12689754	-0.026543	0.024338933	-0.021256238	0.07405593	-0.010905172	0.020993246	-0.054625176	0.060657267	-0.036244713	-0.03152283	-0.023868963	-0.04517047	0.05045615	-0.06363684	0.026372544	
0.012714594	0.16937481	-0.26743144	-0.018829904	0.020868747	0.028229732	0.022852499	0.025937881	0.22326028	0.031667788	-0.05090538	-0.09668076	0.088932596	0.13694035	0.06015964	-0.0790835	0.0024334553	0.022560775	-0.007952398	0.13425775	-0.12629755	-4.994453e-05	-0.08435352	0.08210617	0.01593476	-0.062294662	-0.011594632	0.023714919	-0.035699006	-0.010773053	0.06561141	-0.07038714	0.019488242	-0.09324233	-0.11176456	0.015317938	0.0014069534	-0.020506995	0.010480403	0.040714793	0.023470193	0.011029972	0.0156747	-0.024201514	0.32282856	-0.018076506	-0.021636836	0.04360697	0.0020073792	-0.042021897	0.0083527155	0.0150872	0.0442906	0.01319005	-0.0037277043	0.1034671	-0.24653499	-0.091996066	0.12120846	-0.10813139	-0.0118730655	0.019110352	0.060202543	0.112077214	
0.04938521	0.1777947	0.23814972	0.21449067	-0.029836606	0.25786686	-0.1841099	0.11050295	0.032025866	0.12166666	0.12783754	0.2019443	-0.1695644	-0.20390281	0.104282275	0.027565269	0.053260706	0.032441303	-0.0812813	-0.14555112	-0.033413544	0.21550982	-0.30373967	0.015374291	0.024395484	0.04374332	-0.23011722	0.04123388	0.116086155	-0.119133964	-0.21890451	-0.21372762	-0.18140638	0.12667406	-0.23287265	0.16656484	-0.006295157	0.18400237	-0.03902622	0.03992359	-0.03328199	-0.09741877	0.18310308	-0.16157214	-0.20239745	0.12267363	0.028331343	-0.16803287	-0.036659304	-0.003543469	-0.008564659	0.0754082	-0.15521848	-0.010718259	-0.049644172	-0.36206317	0.18768723	0.11038996	-0.106594644	-0.036768638	0.14352004	-0.017967593	-0.29267332	-0.05307927	
-0.0014425543	0.03616192	0.001047756	0.004469523	-0.026248122	-0.03149498	-0.004632766	0.08179777	0.016842125	0.0172538	0.2127489	0.080882974	0.15090406	-0.101735316	-0.012391382	0.049654704	-0.007646109	-0.012319115	0.011385463	0.019007802	-0.04773636	0.11627591	-0.058068916	0.018520491	-0.08014219	-0.019098494	-0.0103338985	0.0071650324	0.16015618	0.06284815	0.047060534	0.06842461	0.041759554	0.11848319	0.00877701	0.1670893	-0.0010925476	-0.0650128	-7.01305e-05	-0.03629657	0.034556597	0.03528942	0.14097342	0.0034868577	-0.049762316	-0.06260865	0.024499381	-0.025988549	0.12534507	0.06156712	0.25102308	-0.03367245	-0.04512147	0.0031753655	0.042803477	0.03437276	-0.059900522	-0.014795316	-0.035481453	0.015101931	0.08456336	0.010671362	0.10223826	0.09764201	
0.0060232105	0.004723436	-0.19564226	0.028892132	-0.0488016	0.043261386	-0.0010083173	0.0009280567	0.048896577	0.03482569	0.14767267	0.054128814	0.16479187	0.080985636	0.03432654	0.0461114	-0.00093208853	-0.00097005325	0.17800596	-0.01562982	0.003255166	0.0767311	-0.079667516	0.038616296	-0.0015054021	-0.047748	0.17614138	-0.050482847	0.21022059	-0.0024564103	0.04913408	0.067708574	0.20496613	0.03450145	-0.0375725	0.043552555	0.0029667658	0.006594084	0.021833684	-0.001570953	-0.0020169686	0.017867628	0.1926513	0.039799858	0.20702052	-0.0074134897	-0.06915204	-0.025518594	-0.024596065	0.07210558	0.22549973	0.015622945	-0.012812043	-0.0052339076	0.05327822	0.087103	0.03653417	0.02681472	-0.009774334	0.049399074	0.08494729	0.027145717	0.18579258	-0.05279777	
-0.0133191915	-0.004536443	-0.057933576	0.009063789	-0.04900754	-0.0655788	0.09533688	-0.03308339	-0.21865217	-0.0077856593	-0.03615588	0.017599052	-0.31051776	0.017380442	0.055049237	-0.030420966	-0.047379673	0.028218474	-0.06120971	0.027213937	0.18252258	-0.050523426	0.10932004	-0.051487725	0.08838461	-0.10717862	-0.2046933	0.030204857	-0.11899736	0.08453174	-0.096777484	-0.022948975	0.053585876	-0.073261164	0.014592593	-0.067134656	-0.022281393	0.044868667	-0.045130275	-0.057467565	-0.014539108	0.020689996	0.03926619	-0.06687416	-0.036028754	-0.011397796	-0.043173395	0.053656835	-0.09027743	-0.0030914037	-0.031173188	-0.056082938	0.085950226	0.013279005	0.04998697	0.054274585	-0.059221778	0.016060013	-0.09631546	-0.021101736	0.041283596	0.03339077	-0.06992113	-0.014039364	
-0.0034892864	0.021993604	0.069491506	0.09248906	-0.0399033	0.051215567	0.013008805	-0.06018825	-0.013218293	-0.10808143	-0.07495679	0.008710603	0.23251364	-0.04948737	-0.04383616	-0.05825948	-0.011149932	0.01917306	-0.12794757	-0.036300983	0.09249359	0.28593504	0.098481946	0.13633324	0.036478154	0.018715948	0.110259525	0.094551824	0.122670285	0.016237617	0.09110752	0.15719524	0.005009766	-0.056899622	0.0135367075	0.014560545	0.018290265	-0.017621601	-0.05445118	-0.045213234	0.007836231	0.011182174	0.21481945	0.09022867	0.03317948	0.01936916	0.042469043	0.10019705	0.1412958	0.036886845	0.15447323	-0.0020345175	-0.0667185	0.0066118105	0.08192584	0.13395144	-0.11306803	0.02601751	-0.19806409	0.04279132	0.044833764	-0.0102733355	0.14289024	-0.07591589	
-0.0025005778	-0.039665155	-0.06923463	-0.009820624	0.045294117	0.056596767	-0.09860068	-0.052712306	0.160502	0.03991395	-0.14410691	0.06214866	0.032436505	-0.055211153	0.0460209	-0.02056022	0.029874023	-0.015814029	0.057236977	-0.04188219	-0.0511113	0.0850745	-0.027592586	0.14708449	0.12445914	0.038984783	0.02148739	0.042602718	-0.009830595	-0.016520264	0.019843955	-0.08217166	-0.050324883	0.030959386	-0.053165864	0.09698226	-0.013638992	0.065045506	-0.028983891	0.021536767	-0.03486336	0.0027982385	0.045907795	-0.10053842	0.1083369	0.064471215	-0.08163911	-0.023963891	0.14953102	-0.008392571	-0.053557225	0.0046337517	-0.033113576	0.003366222	-0.07019277	0.0042743273	0.012707459	-0.0036561445	0.10756994	0.011534886	0.028021902	-0.03507327	0.069839455	-0.017904708	
0.022068907	-0.29683822	0.30344713	-0.063619174	-0.09126117	0.07472445	0.21497929	-0.27352044	-0.22083172	-0.19665606	0.027112613	-0.095922485	-0.15926102	-0.025605623	-0.25881317	-0.07923425	-0.08457018	0.00910591	0.003960246	-0.14629832	0.014596491	-0.116405904	0.041235033	-0.054910984	0.26069847	-0.17679752	0.11029114	0.11419433	0.11094003	0.13118014	0.03431194	-0.24278527	0.11066277	-0.20645696	-0.09497317	0.07967004	0.04297822	-0.075232156	-0.09702221	0.031740073	0.08880424	0.026002316	0.023101408	-0.17201464	0.47522634	-0.09171274	0.049558107	-0.0012724623	0.16307947	0.07684163	-0.08885706	-0.0142501835	0.023137406	0.041190635	0.09533789	0.09020605	0.02758294	0.044696733	-0.09965291	-0.064079106	0.31163004	0.108208865	0.11297505	0.05161636	
-0.008018696	-0.0030465736	-0.20087335	0.08183726	-0.0162645	-0.07065378	-0.062071554	0.119831406	0.11766947	-0.06973551	0.05931224	-0.014579091	-0.1796762	-0.20170812	0.120033145	-0.07152181	-0.025625668	0.011055189	0.043618787	0.009607615	-0.043135867	0.038894832	-0.00701205	-0.13308585	-0.04947801	-0.0684486	0.032789487	0.015651373	-0.015202293	-0.028567674	-0.088887185	0.023004	0.091679625	0.041743226	-0.012123735	-0.113013536	-0.034861762	-0.10248291	-0.056190033	0.09828757	-0.0067569204	0.007335001	-0.2625541	0.071762875	-0.34606257	0.009129933	-0.08223955	-0.06018709	-0.25445113	-0.0063804574	-0.17030333	-0.003194267	0.03407374	-0.0066428934	0.000966223	-0.14088346	0.009450745	-0.033862144	0.0063128658	0.15214604	-0.028898407	-0.07871502	-0.12940873	0.08330858	
0.003833838	-0.04069237	0.28795013	-0.042899877	-0.04310654	-0.017931893	-0.0049090195	-0.07817133	0.07979508	0.033473562	-0.07609379	-0.07460542	-0.060466826	0.018733533	0.0905981	-0.11781419	0.02696028	0.026010519	-0.033869475	0.10511655	0.006927674	-0.08509702	0.0349922	-0.08099932	0.0016736867	0.03195741	-0.14417356	0.09093756	0.07351049	0.054341227	0.009107066	-0.15283898	-0.028728085	-0.14375326	-0.057293173	0.061187413	-0.013169035	0.04261238	0.053255726	0.027703395	0.026584094	0.029241998	0.015030144	-0.08170802	0.030972721	-0.036532816	-0.011207485	-0.06823817	0.045838226	0.0038567723	-0.029813005	-0.018434957	0.02764852	0.0028511873	0.03274404	-0.117752485	-0.032863744	-0.07331993	0.10988297	-0.016161976	0.018258683	0.018021787	-0.0029126725	-0.1953908	
-0.005902376	0.050382543	0.07275094	-0.14115399	-0.0061465637	0.010978749	0.03528345	0.0665555	-0.08361804	0.06618434	0.069622554	0.11459454	0.0733138	0.03852548	0.07265729	-0.0042094532	-0.029954048	0.013790673	0.12876171	0.028960528	0.046268653	-0.020988164	0.033667132	0.012142501	-0.16900653	-0.08635552	0.14148074	-0.04529467	0.0955792	0.0054857656	0.0817884	0.03582516	0.17565943	0.15262765	0.04189621	0.20792656	-0.00025772033	0.0833931	0.026885116	0.0072043464	0.0036604146	-0.005907631	0.23614539	0.020857647	-0.08640634	-0.01867848	-0.03163326	-0.08874071	0.04318	-0.009955362	0.24348897	-0.03389127	0.07261172	0.010017261	-0.0022563313	0.040900808	0.0446775	0.010016795	-0.1256815	-0.08818204	0.057892945	0.0011694321	0.14697136	0.011847088	
-0.0010420802	-0.0077991406	-0.05567469	0.091370694	0.01044843	0.068586424	-0.03254385	-0.056836642	0.10246399	0.12456237	0.005697987	-0.014866781	0.025629159	-0.022699364	-0.008035066	0.054917328	-0.008893984	0.0018791377	0.08597351	-0.020488873	0.14180122	0.0187797	-0.020615691	0.007510134	-0.037924018	0.034350045	-0.0048843757	0.025201276	0.10002353	-0.001052487	-0.039493952	-0.047695845	-0.034653816	0.061352123	0.03366131	0.12044615	-0.016397543	0.17499474	0.03434159	0.07461374	-0.0187189	-0.025412409	0.16953105	-0.04301686	0.04635313	0.046000905	-0.037515365	-0.10270778	0.07023381	-0.033166364	0.046948183	0.014915233	0.0054874746	0.0069313208	-0.03610004	-0.020460267	0.0074296994	0.046307657	0.11524279	0.05051092	0.002315939	-0.032402538	0.015499923	0.0048753903	
-0.07623933	-0.46415424	-0.23853688	0.09833692	-0.1170848	-0.048938446	0.07682391	0.076468594	-0.27936292	-0.10026043	0.29132482	-0.14171861	-0.33492723	-0.32858768	0.028947012	0.058726326	0.09543015	-0.009719711	-0.008620963	-0.41285503	0.24907221	0.19436419	-0.4405683	0.18243326	0.31150174	-0.18663704	-0.3686931	0.04546018	-0.081074394	0.18236467	-0.45704606	-0.19414453	0.033836283	-0.38708746	-0.084607266	-0.33347645	0.012683877	0.23682803	-0.13045847	0.054619752	-0.065025896	0.051792227	-0.11950502	0.024703907	-0.22209843	-0.026178842	-0.040509596	0.09035404	-0.10418036	-0.13133797	-0.16215436	0.071205944	-0.12967329	0.02553118	-0.02693962	0.0680335	0.20063606	0.03867131	0.52586734	0.061850596	0.13229167	-0.08885943	-0.20269388	-0.05884702	
0.015174864	-0.15713263	-0.2613702	0.08263082	-0.116755426	0.028024597	-0.02110835	-0.16171049	0.076907575	-0.025355006	-0.08771679	0.03207572	-0.16644302	0.071100555	0.16952212	-0.17071754	0.065749355	0.06575844	0.007869609	0.18577318	-0.05687556	0.110601395	0.029732103	-0.14849783	-0.14205106	-0.27684015	0.12128241	-0.01520981	0.04605944	0.043008015	0.09063874	-0.1001672	0.16074938	-0.05594477	0.085346505	0.11501046	-0.014472334	-0.058901668	0.024990626	0.13191244	0.07908327	0.010848569	0.18689193	0.1377568	-0.3250566	-0.12231821	-0.1889837	-0.0035060374	-0.10376895	0.07655082	0.13715428	0.0022194213	-0.080395736	-0.0225042	0.15867536	0.24466753	0.006468601	-0.07639477	0.088491365	-0.034976933	0.09619711	0.09319164	0.11398654	-0.0691205	
0.015007185	-0.021794546	0.13435861	0.01834108	0.016089633	0.02109111	-0.018322764	0.045157272	-0.025034308	0.0009991387	0.014987498	0.044650886	0.06393278	0.047840383	-0.10160334	0.0053787488	0.028515557	-0.022638833	-0.07102594	0.04729119	-0.10536001	-0.06382768	-0.0135867065	0.06894052	-0.020520678	0.04341911	-0.008134067	0.070956856	-0.036883216	-0.021155763	-0.008475529	-0.098631285	-0.002829086	0.034854874	0.017415836	0.0109062735	0.015972648	0.031555604	0.046824723	0.038292628	-0.01001018	0.00867149	0.024773948	-0.050628442	-0.039708845	0.024990447	-0.0074001653	-0.014231857	-0.058144763	0.00431689	0.15655614	0.010778837	-0.043629665	0.0069740107	0.0037587986	0.033647615	0.0035284953	0.019793015	-0.06847601	-0.03224967	0.051164392	-0.0021588516	-0.03674166	0.03547317	
0.015721677	-0.13920079	-0.00015667925	-0.004607585	0.025713323	-0.060267735	-0.092257276	-0.033286676	0.06619915	0.018311089	-0.112273216	0.14896859	-0.0557595	0.137433	0.16536929	0.05258306	0.032851387	-0.012139535	0.13510753	0.19143914	-0.131487	-0.090152726	0.0778033	0.031515762	-0.072797805	-0.0024018064	-0.050733484	-0.0102031445	0.08073717	-0.012063444	0.07961057	0.04206552	-0.060502347	0.026305947	0.11873486	0.116582155	0.011315682	-0.065781415	0.008871047	-0.05732198	0.014303253	-0.0041347463	0.011097855	-0.06561944	-0.15090047	-0.04905503	0.011816719	-0.0151194725	0.09270006	-0.016760608	0.0120769795	-0.018889979	-0.13396955	0.010513415	0.0039417464	-0.06412523	-0.038803305	-0.099709705	0.05982368	-0.043738164	-0.060092945	0.044071976	0.10110975	-0.065295845	
0.016379641	-0.126135	-0.06629815	-0.045441754	-0.0470676	-0.07826602	-0.041366145	-0.025281485	0.06619863	0.010574587	0.088671975	-0.06993189	-0.019939063	0.04138542	0.0032300446	-0.004047927	0.03935194	0.018524375	0.008521691	0.026956692	0.07345932	0.16137762	0.05509373	-0.17740826	-0.02150873	-0.04059481	-0.054747697	-0.024680413	0.0113786915	0.02022781	0.04520883	0.09035183	-0.12078577	0.043798693	0.017171955	-0.011984134	0.012970978	-0.056788053	-0.044557795	-0.018605113	0.024218129	-0.037000068	0.0991717	0.056404058	-0.03128509	-0.0661278	0.067482516	-0.022249518	0.002257101	0.017631648	0.009039985	-0.00069740653	0.10999014	0.002005273	0.06106768	0.06262422	0.071303226	-0.071551755	-0.05030585	-0.12214525	-0.03749156	0.026247159	0.09139291	-0.023741046	
0.019836824	-0.10000246	0.041418	-0.033278365	0.0093554	0.04275505	0.03496251	-0.0166481	0.12446448	0.108772986	0.07710728	-0.024775025	0.098815635	0.010316855	-0.03805002	-0.018869275	-0.0019501625	0.0019849495	0.09678499	-0.015314846	0.027128665	0.20902355	-0.04912871	-0.021184105	-0.031423535	0.014989556	-0.07283017	0.02796327	0.14905912	-0.0071509234	0.05700502	-0.033210464	0.0009033266	0.030374207	-0.08166167	0.23156464	0.018536536	0.11262423	-0.023366848	-0.0008308563	0.015191367	-0.0009670141	0.1582089	0.005053437	-0.09186473	-0.036499742	0.062878296	-0.056273293	0.17989169	0.013596615	0.14191255	0.007323116	0.060120672	0.0063165636	0.01195063	0.091493614	0.019587152	-0.08515681	0.01120504	-0.06429283	0.12895246	0.006496744	0.21546844	-0.05073965	
-0.026046516	0.07244493	-0.048951544	0.16430631	-0.012519575	0.021077456	0.037037995	0.0037359027	-0.18359762	0.070880525	0.083857596	-0.020456037	0.036488242	0.035485175	0.046970475	0.0009734872	0.037681248	-0.010052997	0.16036382	0.07380374	0.12898618	0.22638638	0.01293435	0.017635837	0.0001497979	0.0133607285	0.12734672	-0.0041072555	0.0764654	-0.041465934	0.021485658	0.017091265	-0.0027232033	0.011028263	0.07369147	0.07330929	-0.020456308	0.19024314	0.075889595	0.00986625	0.004488082	-0.02161448	0.31154004	-0.041981272	0.094256476	0.025041282	-0.0024357254	0.027732352	-0.058900144	-0.005278741	0.17205532	0.0049155443	-0.07403649	0.020055821	0.020470453	0.20765077	0.044768017	0.004699267	-0.05202826	-0.034991067	0.08788841	-0.0047258236	0.17493959	-0.033639614	
0.00066488114	-0.22212277	0.10784685	-0.004339449	-0.017974278	-0.007645986	0.086403094	0.06577012	0.02465088	0.04215582	-0.14435497	-0.0001465703	-0.14128675	-0.048167884	-0.049889058	-0.0982673	0.03718605	0.081235975	-0.04659782	-0.024627227	0.002165942	-0.06315436	0.0567878	-0.025409326	-0.040036988	-0.07748444	-0.029694999	0.013351334	-0.043965165	0.006246228	0.00031761575	-0.061739687	0.021175738	-0.14584956	0.041959163	-0.0073444657	0.0087885205	0.16714321	-0.060875855	0.019416349	0.011771347	0.0068416153	0.08187074	0.17758639	-0.09276994	0.0018435273	0.0064951647	-0.02626126	-0.07628683	-0.0070475223	0.008799579	-0.03386381	0.019456683	0.011051288	0.041051034	0.049288347	-0.07500269	-0.015149664	-0.088234015	-0.10004286	0.03126612	0.0867865	-0.010964751	-0.022758935	
-0.02749061	-0.13789491	-0.119801074	0.11803933	0.022512099	-0.03576906	-0.06841625	0.02882412	-0.032450404	-0.039204985	0.110587485	0.020770028	-0.071476415	0.00036696508	-0.025080299	0.13223329	0.043831892	-0.018366532	0.07680915	0.0056991316	-0.115858175	-0.08701975	0.07355694	0.030290063	-0.11816829	-0.020546552	0.10366306	0.0737447	-0.006093322	0.007081968	-0.014541262	-0.06833338	-0.012111365	-0.059486717	0.0037674797	-0.07305978	-0.028556366	-0.06992631	-0.013291196	0.0048118774	-0.018682476	0.04399339	-0.017852632	-0.0980068	-0.20203146	0.031510387	-0.025380388	-0.020384312	-0.1418059	-0.05011246	-0.085883334	-0.017393641	-0.01998202	-0.0066642286	-0.03939363	-0.11931315	-0.03932352	0.08651997	0.04202647	-0.015037748	-0.049139876	-0.004356548	-0.02684586	-0.0033516376	
0.020360885	-0.08175445	0.22648513	0.015117321	0.032973573	0.058359366	0.025184706	0.017568909	-0.008754176	0.012077833	0.0032280162	0.112193555	0.14441307	0.04479076	-0.044872664	0.086794935	0.041663844	0.01037001	0.16372256	0.08607166	-0.0015861309	-0.037613913	-0.078144066	0.20263149	0.08826197	-0.05112375	0.15151215	0.056330178	0.07150923	0.012700064	0.06482096	-0.05312847	0.17592813	0.07541195	0.017190102	0.12782475	0.013879302	0.13471735	0.06058846	-0.064320184	-0.011624774	0.028806329	0.13599062	-0.06649505	-0.011493503	-0.0031804706	-0.014744464	-0.006198569	0.065028846	-0.03853954	0.22603515	-0.03452738	-0.054640085	0.006609302	-0.047615677	0.10531831	0.011273505	-0.0012274836	0.0064706597	0.0014101265	0.048313875	0.0009885605	0.19821662	0.00028845677	
-0.030221242	0.03212879	0.048331805	0.010402601	-0.015181302	-0.0033574742	-0.004748857	0.034983814	-0.033411033	-0.02736501	0.10543889	0.033507615	-0.0763615	0.0020414465	-0.0010249951	0.026442189	-0.05544041	0.017059423	-0.07778118	-0.063919514	-0.05138562	-0.048371892	-0.19166963	0.033374578	-0.06659909	-0.15262854	-0.060309857	0.05914501	-0.100486435	0.00043256884	-0.0052319104	-0.02819438	0.12209861	-0.022349106	0.003971257	-0.07156812	0.009345716	-0.046748433	0.040581267	-0.02455549	0.0069599412	0.021228094	-0.0787261	0.018348003	0.013322384	-0.0615198	-0.023399994	-0.020155676	-0.04255636	0.032177497	-0.013272829	-0.021235162	0.06613548	-0.008908358	0.06459846	-0.022392023	-0.031467453	-0.009640332	0.11233777	-0.0054711965	-0.031169727	-0.0104991775	-0.04219704	0.09533735	
-0.0032712813	-0.01245553	0.029270032	-0.08488981	0.0026963174	0.13042031	0.02825971	0.03791321	-0.09909068	0.019913394	0.06839801	-0.060607478	0.1101253	0.041529257	0.059268232	-0.019897817	0.005647692	-0.023892105	0.13063602	0.06112024	0.110659875	-0.014449505	0.013131182	0.051403735	0.078094676	0.08727931	-0.08075006	0.033010714	0.08836406	0.043753754	-0.059743576	-0.08683317	0.057680316	0.055047844	-0.028707333	0.027341172	-0.02709516	-0.009539152	0.039855305	-0.06463645	-0.029195638	-0.0032094077	0.08607451	-0.12417237	0.039511293	0.028446998	-0.084220536	0.043448653	-0.08340105	-0.010917167	0.20365833	0.011806889	-0.009859236	0.0036880244	-0.018576583	0.083558634	0.06027923	0.013662684	0.086181186	-0.017479056	0.08691605	-0.003000562	0.033032335	0.023814784	
0.003186287	0.0054256846	0.19888584	0.0803088	-0.0018050036	0.22884567	0.14381875	-0.08086738	-0.12209942	-0.2368199	-0.098655686	0.28337204	0.00928156	0.10879796	0.0838686	0.28148758	-0.055358432	0.09216351	-0.029977374	-0.36690295	0.16042264	0.1534862	-0.03254639	0.22151579	0.0030378944	0.1687145	-0.08773227	-0.02694242	0.05474877	-0.03066117	0.033712838	0.002483698	-0.031154517	-0.18554349	0.066105954	0.060948648	0.05666124	0.13119318	0.070062645	0.24743992	0.02264475	0.044290368	0.053376287	0.035668764	-0.01798306	-0.03377432	-0.17026311	0.08918626	0.10006694	0.023238843	-0.007841968	0.020564843	-0.13518445	0.05028482	0.0015382016	0.2291482	-0.052790686	-0.061111826	-0.090462506	0.07557538	0.27465814	0.06926547	0.13936439	0.12638925	
-0.0015528195	-0.111756556	0.06543019	-0.047728773	-0.055680513	0.013462476	0.086987026	-0.08658788	0.04455681	-0.07748947	-0.14514507	-0.033782195	-0.3293818	-0.06597696	-0.12927702	0.024918882	-0.053608958	0.021222739	0.15876725	-0.07251869	-0.03488911	-0.01150231	0.008649321	0.04592239	0.114985265	-0.11970188	-0.019087888	0.008663635	0.07023481	0.0060998397	-0.0060322583	-0.021903798	0.10806479	-0.19375117	0.075498864	-0.11688558	0.03323429	0.15957758	-0.023142006	0.07236348	0.052590445	0.023151815	0.08104992	0.26988217	-0.06844957	-0.039998226	0.11281822	0.06301354	0.013806451	0.05344213	-0.092068516	0.0045495257	-0.0016753101	0.008608564	0.11412595	0.27424437	0.06441018	0.0023677652	0.12383718	-0.16208625	0.25242877	0.038546998	0.29327065	-0.035019234	
0.0030914012	-0.10700817	-0.009877145	-0.010552013	0.029269407	0.040117163	-0.048360426	0.03408467	0.07744369	-0.0047821156	-0.026045786	0.09713586	0.10275793	0.02946194	-0.055390116	0.020011982	0.00965148	-0.035316747	0.085532814	0.040390614	0.015013659	0.05698781	0.029582871	0.10441557	0.12682661	0.05621643	-0.006104352	0.047781598	0.0031717485	-0.0010659958	0.047538187	-0.016101638	-0.06320481	0.19890676	-0.004263403	0.049913257	-0.0056093507	0.04959676	-0.00077489525	-0.085515715	-0.03914734	0.007750296	0.03851974	-0.031178305	0.10831235	0.050960317	-0.088848	-0.011833449	0.08160025	-0.0068578934	0.030082256	0.020152139	0.00061225356	-0.013342878	-0.017899621	0.094329506	0.000791275	0.06701998	-0.05421649	0.074527375	-0.052428704	-0.029312504	0.10833879	0.07122552	
0.015570889	0.025123363	-0.15210035	-0.046977255	-0.014323892	-0.025679829	0.023256598	-0.12644118	-0.039491147	-0.03353309	-0.012365725	0.01415774	-0.089895636	-0.0442449	-0.0131477425	0.007402069	0.009725717	0.038982484	0.0683968	-0.012452815	0.084246956	0.12962687	0.05883084	-0.009375556	0.06626878	-0.07153294	-0.14842677	0.050861888	0.10988703	0.05791916	0.026678288	0.022734987	-0.06423953	0.05202543	-0.014864296	0.16132255	-0.007186782	0.06874239	0.008995647	0.016532185	0.038159687	0.021249361	0.16027667	0.082989596	-0.0060258764	-0.053788684	0.10993005	0.07868348	0.052912988	-0.051170908	0.03887677	-0.010469681	0.040642153	-1.0681233e-05	0.00033621918	-0.026760666	-0.057393692	-0.03003067	0.075960666	-0.1582874	0.063883536	-0.020576643	0.049033172	0.08360662	
-0.012915477	-0.13849372	0.20711108	-0.0031829607	-0.027679477	-0.05081438	0.07429791	-0.11115534	-0.06534387	0.017124888	-0.07166441	0.087827034	-0.14493158	-0.009952946	-0.08972329	-0.09609946	-0.001835835	0.025406983	-0.0552986	-0.028995898	0.00017872512	-0.04392819	-0.016527278	0.023826566	0.02420158	0.015578885	-0.105060115	0.040180802	-0.07953026	0.015516784	0.0068926536	-0.012428565	-0.099610336	0.021170719	0.04764285	-0.021679489	0.026000034	0.05789992	-0.02109792	0.015346229	0.002841037	-0.018158324	-0.07028887	0.04300785	0.063210875	-0.027590191	0.0360359	0.012924305	-0.0021832227	-0.08085819	-0.09875438	0.03275053	-0.0098849125	0.003204357	0.013361247	0.0029846167	-0.07607849	0.008026223	0.048837014	-0.021148132	-0.07581781	0.011141876	-0.11652349	-0.054671783	
-0.023799034	0.061261635	-0.030996306	-0.028898876	0.014703359	0.028756505	0.04868765	0.02116305	0.008659211	0.047775332	0.17830324	0.10154885	0.20158534	0.14184406	0.10974928	0.0075715515	0.046537474	0.03274371	0.12258586	-0.0727819	-0.025963299	0.10783639	-0.08384258	0.042744268	-0.09190046	-0.14434843	-0.036994796	-0.0076714107	0.11947867	0.019346371	0.072706886	0.01967235	0.114794105	0.1371876	0.036772303	0.24027741	-0.03827368	0.043810617	0.036887106	-0.04158813	0.039992213	-0.023846464	0.13469875	-0.0726332	0.04545098	-0.058044065	-0.010244636	-0.10105842	0.10767494	-0.02582202	0.21596715	-0.012645328	0.04001403	-0.004991813	-0.011420217	0.088670254	0.0058906907	-0.013468412	-0.05647394	-0.052456256	-0.016058045	0.04409743	0.071882635	-0.022982616	
-0.020552117	-0.1306405	0.105237134	-0.0042604264	0.03125416	-0.10175175	0.021969642	-0.013439611	0.049878314	0.010154778	0.137933	0.0008193233	0.06320975	-0.03003932	0.041357804	0.08162419	-0.09469845	-0.004069676	-0.09329422	0.038797535	-0.09299143	0.047067493	0.0060134795	-0.105017595	-0.001330584	-0.005437247	-0.036054388	-0.055022053	-0.10921532	0.013827756	-0.04524196	0.00254898	0.08145414	0.04033528	0.01929376	-0.013502576	-0.004000845	-0.07605501	-0.044267654	-0.10572503	-0.011926933	0.022187823	-0.2381793	-0.007077452	-0.10488038	-0.07571324	0.18421124	-0.0717212	0.041986417	0.053614147	-0.08202856	0.007211392	-0.011269148	0.0029931134	0.0028975774	0.09983503	0.06359707	0.06180478	-0.030117484	0.09163637	0.03829942	-0.041667532	-0.07899632	-0.048554137	
-0.014157765	0.12898389	0.03338766	0.06040664	-0.0430857	0.057203587	0.11396027	0.28336012	-0.36488768	-0.1668423	0.15560623	-0.11339699	-0.14413121	0.05713688	-0.23718314	-0.11182003	0.08698398	0.0743379	0.05429471	0.05647564	-0.021112733	0.11545901	-0.04903521	-0.18288074	-0.25218442	0.16464277	-0.45943293	0.023027623	0.1478899	0.05863804	-0.1774466	-0.20046669	0.16069627	-0.19351093	-0.4608277	-0.0075083664	0.041600227	0.19184653	-0.002117651	0.00733055	-0.029823225	-0.04728054	-0.026566075	0.07712342	0.13348031	-0.024252467	-0.154261	0.001746637	0.053043585	-0.09268341	-0.036532845	0.03984905	0.18552747	-0.011181573	0.038050607	0.30164054	0.004927896	0.08516154	0.16294628	-0.19028144	0.21889867	0.075230144	0.060799997	0.064410955	
0.01613315	-0.005761375	0.018748824	-0.012823772	-0.02111705	-0.024855481	0.022474533	-0.034314215	0.07315031	0.09390875	0.17100191	0.008391969	0.19574302	0.048889607	-0.009159992	0.010675889	0.012653443	-0.0235994	0.048695683	0.0063677477	0.045891885	0.13742295	-0.009767272	-0.120491326	0.065155774	0.06149248	0.0076132156	-0.039235443	0.080547936	-0.013581165	-0.012657766	0.01642111	-0.014360444	0.19967884	0.024104305	0.08410201	0.006584248	0.10249937	0.03632159	0.018039333	-0.03808658	-0.016523255	0.045382977	-0.059209783	0.020514375	0.040922023	-0.0076393355	-0.057563487	-0.021936689	-0.014801081	0.11942349	0.016760327	-0.0033055905	-0.01921265	-0.019015048	0.13169545	0.08702173	-0.04582371	0.006487131	0.0041920613	0.010722502	-0.024322394	0.017676271	-0.04021783	
0.005753829	0.056037847	-0.03564617	0.036424343	-0.043647002	0.050517745	-0.045898076	0.03623537	0.037524834	-0.034010734	0.1586971	0.096266836	-0.10917973	-0.052702844	0.1047308	0.04144001	0.010604936	-0.01925105	0.2251431	0.06635598	0.09519553	-0.11028669	0.0240881	0.0013717804	0.055822287	-0.07398008	0.11408354	-0.057947367	0.105923355	-0.004473249	-0.084356286	-0.044029944	0.03698357	0.05649871	-0.047195245	0.017824525	-0.006465884	0.03488462	0.012590244	0.01701034	-0.023644824	-0.047301713	0.14507464	-0.071074836	0.044888712	0.06531408	0.020139944	0.0050205714	-0.12962478	0.00810219	0.11578702	0.010005608	-0.08392378	0.015115893	0.0067592855	0.04901248	-0.021583304	0.040209603	-0.050875608	0.0851661	0.0009998188	0.030936971	-0.016624065	0.015320937	
0.022415355	-0.06555968	-0.010151981	-0.0033349344	0.0071075563	-0.025247809	0.05518909	0.047956362	0.04983112	-0.012748015	-0.106243044	0.07204899	-0.08596932	-0.09123618	-0.083898276	0.01600995	-0.08041785	0.032735817	-0.15975316	-0.031519998	-0.07642175	0.014026516	-0.005252003	0.047662072	-0.062407184	0.1245243	-0.08934034	0.14906543	-0.052001968	-0.006989476	0.027638426	0.06619258	-0.057921313	0.056035936	-0.002002793	0.020163992	0.0061069755	-0.0703155	-0.0690167	0.041862197	0.03961912	-0.001426127	-0.04321859	-0.022783032	-0.033273924	-0.012914843	0.024816206	0.01568387	0.09613915	-0.004538096	-0.04177281	-0.020347482	-0.03967694	-0.0045989277	0.029292429	0.014975382	0.029741844	-0.0128751015	0.08760425	-0.11262959	0.042556252	0.06122186	-0.098225854	0.06856575	
0.0019754604	0.1254754	0.060690895	-0.0867668	0.017778078	-0.065284275	-0.014212384	-0.03137845	-0.13907693	-0.075126424	0.09335801	-0.033403873	-0.02276971	0.014003892	-0.05636719	-0.06577628	0.041724198	-0.048230004	-0.09652057	0.06188774	-0.04022448	0.0919711	-0.09464816	-0.063939445	-0.20752722	-0.10589046	-0.24548948	-0.12248889	-0.0200446	0.020087492	-0.10285217	0.10090174	0.03700772	-0.006607319	0.010469706	0.019467453	-0.02908447	-0.022409016	0.04560045	0.10552746	0.027692396	0.004611177	-0.09216491	0.35711902	-0.3828193	-0.037941527	-0.005888597	-0.088186495	-0.027043482	0.038657986	0.037655316	-0.03267905	0.086036645	-0.011884569	0.0015264079	-0.13120484	0.0073491703	-0.0061379694	-0.12595578	0.039148018	0.016090024	-0.09929094	-0.15271099	-0.053330686	
-0.0077309525	0.07955965	0.11126839	0.027464299	0.040758226	0.07273851	-0.04744139	-0.06777728	-0.1014813	-0.005358492	-0.013422271	0.0355579	0.20049742	-0.05784979	-0.014782757	0.015349643	-0.033434518	0.013483146	-0.014063997	0.045352962	0.13321187	0.13588388	0.010240852	0.09024199	0.109404266	0.027821217	0.043029815	0.10023103	0.16170475	0.027321368	0.045350354	0.18841402	0.08340019	0.1265903	-0.11416181	0.14265136	-0.0059902384	0.036403064	0.059789684	0.025753949	0.0057767187	-0.043238528	0.12765348	-0.0043341513	-0.006072272	0.010670905	-0.027457904	0.04956579	0.17320104	0.027641246	0.21993436	0.040411808	-0.113026395	0.0013149192	0.01834636	0.075012	0.01823019	-0.03800038	0.038392946	0.07825821	0.064529724	0.033751015	0.041370247	-0.08999596	
0.00813987	0.05205021	-0.20618302	-0.03494541	0.035609037	0.117992654	0.03140718	0.00067600486	-0.090597056	-0.03100847	0.10037393	0.17129464	0.20539995	-0.060686298	0.040269215	-0.09520881	0.028347168	0.0018801449	0.10038998	0.042678773	0.11275758	0.036685694	-0.019417075	0.051994406	0.06131373	0.11597201	0.00034015017	-0.007488832	0.08793208	-0.019333085	0.0960451	-0.02662663	-0.0229942	0.28913128	-0.028662045	0.2554676	0.0012171825	-0.046229627	0.01512167	-0.069476925	-0.026566207	-0.054069042	0.1485438	-0.095522955	0.17646433	0.016303096	-0.046209536	0.00029394726	0.038429156	-0.04880035	0.2301285	0.061112966	0.0496555	-0.0056763384	-0.06308026	0.061855346	0.101655714	0.025252374	0.04903554	-0.0035997212	0.03120793	0.007823821	0.10610978	-0.050706577	
0.01933233	0.070876405	-0.20379463	-0.12301587	0.0037064531	0.05007796	-0.07188855	0.014973923	0.20781079	-0.16044526	0.24736843	0.08104096	-0.08680379	-0.21642263	0.3996818	0.086042136	0.0065823663	-0.066644825	0.009996912	-0.086051084	-0.030120317	-0.021747902	0.06845793	0.09932078	0.043865766	0.06363833	0.093701884	-0.019036565	0.15850173	0.056449458	-0.22266918	0.19177666	0.13164309	0.053514402	-0.036445178	-0.11396167	-0.026927926	-0.1349798	0.050116196	0.033189178	-0.022833532	-0.038638186	-0.21038342	-0.24860248	-0.052437034	-0.01862657	0.07630436	0.039729107	-0.18828756	-0.028848248	0.08119379	-0.019093316	-0.03714985	-0.012923645	-0.030849358	0.0065344004	0.032638818	-0.044261742	0.062770486	0.022191087	0.12950243	-0.051201403	-0.25234336	0.06254654	
-0.007325542	-0.014862906	-0.022405708	0.004331233	0.005232801	0.034536712	-0.0531085	-0.008151352	0.095316224	0.047135755	-0.07364173	0.03370548	-0.039022315	0.03723655	0.057038307	-0.014548683	0.04871803	-0.01566468	-0.014414293	-0.011698265	-0.09589799	-0.071714915	-0.073859185	-0.0032892118	0.105655044	-0.025418254	0.007259881	0.031519696	0.005030312	-0.02579687	-0.011694357	-0.109884955	-0.012860336	0.027715955	0.0043881116	0.029457329	-0.0072529376	0.037485406	0.01787545	0.112976454	-0.013334225	-0.020559639	-0.04820938	-0.037602928	-0.048924804	0.038064685	0.047862586	-0.045833662	0.073838316	-0.012142715	-0.11733991	0.002751904	0.0093314275	0.0073789223	-0.03725203	-0.023714598	0.078863986	0.03403546	0.09712418	0.010980523	-0.050684173	-0.01716222	-0.08555061	-0.06403107	
-0.01757122	0.039924648	-0.099729516	-0.010331475	-0.014220728	0.032766275	0.014026007	0.00852496	-0.11670225	0.010936523	0.0968048	0.033277676	0.26935786	-0.024580503	-0.0021730368	-0.061470836	-0.02307947	0.020434318	0.14060377	0.0033902654	-0.012211513	0.17806181	0.03392778	0.032028925	-9.4953015e-05	7.5390824e-05	0.008514622	0.06449904	0.20887758	0.028574778	0.10677858	0.02922081	0.09624305	0.11644867	-0.0048916894	0.16053006	0.0065148086	-0.023137596	-0.01424436	-0.06601805	0.011500756	0.011280899	0.12719391	-0.10061879	0.0020247498	-0.02334705	-0.023878358	0.029497638	0.10873595	0.031080067	0.17211252	-0.0022316852	0.015827201	-0.0025945485	0.022149753	0.1257101	-0.0017525188	0.026152285	0.13540292	-0.04562029	0.1148618	-0.0046554897	0.23631309	0.022782743	
0.008933152	-0.12400802	0.058711093	0.028332293	-0.0011768955	-0.0869623	-0.012168522	0.02563123	0.10600629	0.062670134	0.123768546	0.1557592	0.0695066	-0.17389624	-0.068781786	0.022474425	-0.02104903	0.006774795	-0.0031321784	0.027804807	0.060555864	-0.045379557	-0.014979161	-0.025267074	0.021510208	-0.02331018	0.050216183	0.09107168	0.07196306	0.002262283	0.14314607	-0.013433852	0.079035476	0.1266588	0.023772556	0.19473259	-0.0006212598	0.016765647	-0.03861979	0.02992445	0.026350493	0.022638371	0.17960425	0.05307453	-0.06725861	-0.048010107	0.046439752	0.014906526	0.021333007	0.01301867	0.2662157	-0.019457527	-0.03917184	-0.004458373	0.015883794	-0.035226263	0.03584192	-0.108171284	0.02997924	-0.08951981	0.07071545	0.008615322	0.12857057	0.043677133	
0.0011320102	-0.071476474	-0.04374824	-0.03824021	-0.010863192	-0.0123450775	0.0058884053	-0.033291627	-0.12638412	0.02939402	0.089708425	-0.029398175	0.10815043	0.027862972	-0.009656897	-0.22762965	-0.0045442088	-0.008707402	0.00013505235	-0.025821429	0.117647134	0.06895853	0.15217845	-0.03334504	0.08165253	0.03169369	0.11056184	4.1630767e-05	0.0763738	0.007961624	0.024605408	0.041579276	0.123706825	-0.045206215	-0.117058754	-0.056398764	0.00844712	0.062689915	0.016145708	0.039526705	-0.0011524571	-0.00017116802	0.011216512	-0.031124542	-0.066883475	-0.007504401	-0.016963178	0.004984701	-0.03850365	0.021798132	0.059864644	0.0380945	0.00038864775	0.0016975312	0.030975204	0.018893328	0.051872905	0.06064822	-0.033707026	0.032098763	0.0638698	-0.025417779	0.059464164	-0.09328064	
-0.0077583003	-0.1392653	0.09969836	0.008888337	-0.0136681115	0.030262189	-0.039843287	0.097315565	-0.08445079	0.016525859	-0.14790116	-0.061018117	0.07765371	0.0009435472	-0.08999058	-0.008938723	-0.022862423	0.01238839	0.023169653	0.11138648	0.01834933	0.047868695	0.041542947	0.029542003	-0.037572037	0.027862754	0.20229602	0.07968513	0.013009575	0.030100869	0.16521704	0.024350865	0.095795125	0.010751774	-0.0014311832	0.11984378	0.016722392	0.008778298	-0.0049036695	0.042232558	0.026962975	0.004821229	0.17159134	0.022217555	-0.07887711	-0.055274814	-0.018370649	0.030014537	0.104821615	0.045514833	0.18185928	-0.025856374	0.016940098	0.0009592637	0.046320938	0.06098234	0.023282826	-0.10329522	-0.08310482	-0.09226956	0.04635931	0.018452229	0.2597986	-0.06484547	
-0.0014077175	-0.005932803	0.004295633	0.018364977	0.0022225138	-0.0102651585	0.006930485	0.014534187	0.008280074	-0.016120963	0.029992502	0.009792907	0.006760305	0.13753507	0.002837858	0.036316108	0.0069838436	-0.0028457204	-0.005827156	-0.01807074	0.021245647	-0.04565005	-0.014813716	0.0077741453	-0.039477676	-0.010694849	0.074416995	-0.039632756	0.010140937	0.0017751968	0.0017737445	0.021913145	0.017417187	-0.0016543695	-0.26163337	0.003679645	0.002557337	0.007968029	0.009788169	-0.013110986	0.0015206609	-0.019118423	0.022677135	-0.00038707088	-0.029330255	-0.0011748165	0.010616199	0.0047055166	-0.009595569	-0.0009252615	0.05206483	-0.0037958403	0.0138439555	-0.0035465125	-0.005780991	-0.033157345	-0.18332592	0.05623517	-0.016572932	-0.011742669	-0.009659706	-0.001311879	-0.0022473957	0.040544365	
-0.00037089246	0.036124464	0.111729756	0.0037199273	-0.008765497	0.003553251	-0.012034036	-0.010142747	-0.018514639	-0.018509159	0.06363641	-0.0005149874	-0.069996946	-0.372565	-0.17225525	-0.011450335	-0.0043158485	0.0016897289	0.07671108	0.014754026	-0.023819886	-0.013197575	0.007974746	-0.016040538	0.022081604	0.077516265	-0.011153116	0.050127875	0.04991239	-0.00076255115	0.0038101268	-0.0018582422	0.011186567	-0.015975675	-0.034124088	-0.05426521	-0.0066012586	-0.014925396	-0.011202417	0.01836582	0.0019525342	-0.003498484	-0.06266665	-0.1549826	0.0124598695	0.004927628	-0.024255412	0.019016294	-0.021132289	-0.00014301087	-0.07023144	0.0052175894	-0.050938033	0.0046154303	0.016196799	-0.059580773	-0.048707366	-0.002668173	0.015714638	0.00042759263	0.04249227	0.009021257	0.03137611	-0.013355798	
0.0020966467	-0.02768443	-0.0023728225	0.4912176	-0.014902058	-0.0015574056	0.01693944	0.040632073	0.004556959	0.019938173	-0.019125981	0.018378824	0.04406631	-0.12380533	0.10279794	0.0056932727	0.010055494	-0.0036359741	-0.15770559	-0.04624043	-0.003723835	0.09724282	-0.044093136	0.002567126	-0.03632885	-0.09468825	0.02370214	-0.014733009	-0.09375654	-0.0055365656	-0.00092746184	-0.020673234	-0.111823685	0.025902346	0.052438106	0.029187243	0.008384163	-0.00095567165	-0.0063884263	0.06153453	-0.0037186535	0.02474692	0.15086219	-0.26046678	-0.011832304	-0.0064624487	-0.09635331	-0.028062504	-0.0073749116	0.018165763	0.03903195	-0.0049546766	0.09137326	-0.005083636	0.0140002305	0.11320127	0.07412391	0.057464566	0.019976681	-0.011620196	0.017853811	-0.009002335	-0.039656397	-0.00022273156	
-0.0029562013	-0.006901352	-0.062257275	0.112387165	0.012912408	-0.019873789	-0.010902734	-0.017667139	0.006434564	0.05372745	0.08666274	0.053964574	0.04006375	0.24846356	0.08150393	0.0021452545	-0.008471962	-0.0014077487	0.069221616	-0.03312705	-0.032885723	0.08384246	-0.21548066	0.0041603055	0.02412984	-0.05674513	-0.045602433	0.010885155	0.052545957	-3.0483165e-05	-0.005705792	-0.0008897908	-0.14227645	0.07867669	-0.018590655	0.07993298	-0.0047353744	-0.006573248	-0.008655081	0.0068355445	0.00022187417	-0.010795503	0.017589368	0.004528545	0.04178071	-0.0019197006	0.005829481	-0.03258616	0.04063941	-0.01154731	-0.039644808	0.00015593633	-0.17045605	0.006124815	-0.017520703	0.012567949	-0.038859766	-0.0039931075	0.0133680515	0.036522068	-0.030613402	-0.0021511405	-0.033201687	-0.0010553775	
-0.0015169876	-0.008889483	0.017548364	-0.03355665	0.002110807	0.018744385	-0.0060888114	-0.0071519683	0.012202569	-0.02815266	0.02977925	-0.0017081874	0.027255418	-0.0029826364	-0.019853715	0.0057912725	-0.0016363724	0.011825324	0.033347484	0.12261883	-0.012707399	0.039205752	-0.13293925	0.009565428	-0.00810765	0.081287675	0.0026324992	-0.010980472	0.020045357	-0.00093326933	-0.004643636	0.0133323325	-0.00344395	-0.009033292	0.010869773	-0.027584253	-0.00032820902	-0.045026906	-0.02314588	-0.15364394	0.0032574385	0.009629956	-0.05088606	-0.02004889	-0.004924918	0.004281044	-0.0024140256	0.019097844	-0.00024506636	0.0031671734	-0.011539018	-0.0022952182	-0.41801092	-0.0033989206	-0.0040559145	-0.035112243	0.042036343	0.0058606113	0.09599495	-0.013664979	0.02929173	0.0006393511	0.019705126	0.0005396849	
0.0010386062	-0.03954896	0.11884038	-0.009342512	0.015169788	0.03871547	-0.027192911	-0.018613098	-0.006944806	0.016729252	-0.06069887	-0.0042390833	-0.022100681	-0.0057510287	0.00070094725	0.06013494	-0.011110364	-0.006690439	-0.05947631	0.024528828	-0.017434685	0.060036033	0.006085934	0.0063134003	0.10321758	-0.022871481	-0.1222874	0.0993087	-0.024112679	-0.00086038635	-0.0014530909	-0.034350358	-0.04203292	0.051487505	-0.36984107	0.07488492	0.00613325	-0.004687604	-0.010831701	-0.0018737862	-0.0077774767	0.010647629	-0.030383965	-0.024425	0.14818	0.0060065757	-0.0119653195	-0.0046931575	0.049477775	-0.004134306	-0.020154499	0.005625964	-0.01097254	0.0012489723	-0.009269778	-0.050315246	0.37081897	-0.14801726	0.032654516	0.012045196	-0.012395687	0.009852711	-0.047020286	0.017346298	
0.005029037	0.07253907	-0.25006917	-0.097092666	-0.009222946	-0.042265408	0.031582937	0.012221943	-0.010242362	0.06497083	-0.12771173	-0.06752324	0.086586446	0.028303955	0.10136586	0.065359175	0.00033315524	0.007879639	0.04607819	0.03556353	-0.017283347	0.01849181	0.12260698	0.07876055	0.5217984	0.17138666	0.1744778	-0.07320096	-0.13413373	0.0027807986	-0.046183206	0.0028825859	-0.24514088	-0.028326843	0.11858528	-0.11095255	0.003662616	-0.023761112	-0.0075905453	-0.0057756105	0.0037505336	0.0039606914	0.16256265	-0.03189021	-0.011524517	0.0010512533	0.722933	-0.014820628	-0.18316597	0.0012422743	0.011516998	0.0018680647	0.008801218	0.0058686454	0.005450943	0.33872175	-0.060898032	-0.03132328	-0.0648977	-0.020633133	-0.09850789	-0.012602107	-0.17235617	0.039363183	
-0.013763209	0.00286354	-0.19632642	-0.3235743	0.032293767	0.06024815	-0.0352367	0.01217408	0.56265944	-0.18171787	-0.18789592	-0.013531477	-0.017825257	0.06415418	-0.07473609	0.031101566	0.005836846	0.017182708	0.11785851	-0.028012207	0.07911587	-0.04071738	0.088093705	0.115005836	0.053159915	-0.38182995	-0.041277416	-0.04513125	-0.008703615	-0.00824825	0.12228888	0.06473916	-0.2207994	-0.13149305	0.11588336	-0.06033212	-0.007954757	0.014455558	-0.096272856	-0.018369492	0.006174817	-0.025200186	-0.34868217	0.06755492	-0.38763824	0.003695602	0.10858562	0.35750264	0.15702413	-0.026563386	0.012731003	-0.003185548	0.021004932	-0.002940281	-0.038361132	-0.123328306	-0.020456769	-0.07390981	-0.053380355	0.038380366	-0.040165808	0.015040359	0.42693543	0.025217235	
-0.005196153	-0.07335132	0.13920175	-0.058383383	-0.013280487	0.025615988	0.018228028	0.00029383326	0.002270265	0.4299077	-0.098613635	-0.049741387	-0.045759387	0.049997225	-0.0562562	0.0042397473	0.0019765142	-0.0007030152	-0.053893037	-0.16864437	0.0546191	-0.1117708	0.2508447	-0.020098565	-0.066095166	0.3093382	0.005120236	0.057492815	0.06803471	-0.007924228	0.008109687	-0.052692	0.17064855	-0.08875474	0.079241134	0.0446633	-0.0016940644	0.36599362	-0.33993277	-0.22835658	-0.008111474	0.003296768	0.026175022	0.055911973	-0.078694	-0.0036689725	0.006815555	-0.5325221	0.09197957	0.010591408	0.12186557	0.0053803623	0.2123202	-0.0023847967	0.020795474	-0.07387247	0.018117152	0.004326641	-0.07816625	-0.033123586	0.0937399	0.0031087138	0.10229672	0.013866705	
-0.0043978454	0.04513467	0.0051586987	-0.015220406	0.0073529305	-0.0188984	-0.00999176	0.02066014	-0.02778256	0.031335898	0.013956156	-0.08003091	-0.05694487	-0.09070778	-0.009834479	0.017932696	-0.0035061778	-0.007631087	-0.040995345	0.18131797	-0.0038891134	-0.056150377	0.02596808	-0.0017361774	0.012698421	-0.110019945	0.02668842	-0.015176302	-0.100740254	0.00645968	-0.057263438	0.015734326	-0.008544403	0.028968021	-0.007380436	-0.07334898	-0.0057817646	0.07184683	0.5180995	0.3264925	0.003376494	-0.008913955	-0.08039881	0.035480298	0.02610012	0.0009252364	-0.0076903854	-0.0695012	-0.09894188	-0.008823587	0.04834583	0.0016584333	0.24469234	-2.1696493e-05	-0.0054089255	0.12445906	-0.029353764	0.00018075002	0.1692568	0.012757394	-0.08824449	0.0033211657	-0.10727547	0.013778313	
0.00542937	-0.30928826	-0.012102517	-0.01776882	-0.013017431	-0.015701529	0.0056220507	-0.13080639	-0.011379701	-0.0014200268	-0.025760354	0.057006534	0.015497784	-0.0142494235	0.016398089	-0.5494648	0.0012719296	-0.004836094	0.045870215	-0.0026174285	-0.02184447	-0.027314173	-0.0007807773	-0.004951796	-0.013600564	0.01130582	0.26987308	-0.02609075	0.085164584	-0.006523876	0.059548132	0.017351422	-0.004990612	-0.0069858413	0.13690643	0.06101462	0.0011582939	0.024946945	0.020684998	0.018688576	0.007831863	0.0064330557	0.06543271	0.027359944	-0.16422509	-0.0037022799	-0.0007057162	0.009625589	0.08286413	0.024773153	-0.019219514	-0.0013778992	0.0012525679	0.00086779275	0.0055666002	-0.054070827	-0.13616516	0.05646303	-0.01814831	-0.0092154555	0.07693851	-0.005168166	0.07914069	-0.68401766	
0.023323648	-0.013126606	-0.019309774	0.013024139	0.12219359	0.12509044	0.042050663	0.008428302	0.024650844	-0.0016565669	0.12626939	0.014283394	-0.009934507	0.24214529	-0.019744996	-0.1208181	0.065115705	0.008846553	-0.038371414	-0.035291985	0.029940525	-0.043149203	-0.031242747	0.057179503	-0.031893145	-0.033797506	0.08013472	0.14674455	-0.07102284	-0.04423621	-0.44921574	-0.4145893	-0.015051881	0.20283645	-0.26630276	-0.0869453	-0.147133	0.001530927	0.015721489	0.03769423	0.04574709	0.22848292	0.031061873	-0.0616054	0.027993148	0.24668467	0.0048829615	-0.0029526083	-0.012502163	-0.11277976	-0.09581365	0.46804836	0.029817244	-0.29175806	-0.18697271	-0.06514123	-0.4105187	-0.5020627	-0.020818926	-0.14648739	-0.10583139	0.014025149	0.20113821	0.027346544	
-0.10902288	0.010601406	0.053489454	-0.035361983	-0.27882186	0.006655807	0.032908816	0.0012189138	-0.027113989	0.0457241	0.3452914	-0.25240102	-0.20193297	-0.51513946	0.71147066	0.058845267	-0.023901945	0.06531187	0.062609866	-0.012111517	-0.090335	0.32725483	0.032705005	-0.012648997	0.030863216	0.13125445	-0.09377961	-0.38905013	-0.007952415	0.046426274	0.75440985	-0.38549632	0.12279586	-0.18924107	-0.0042567994	-0.28936577	0.48220962	-0.021508692	-0.007318923	-0.016806288	-0.018266985	-0.15397786	-0.08568858	0.17664161	-0.021290574	0.30968124	-0.009296921	0.018223725	0.15656434	0.100337245	0.19522232	-0.8427474	-0.051374476	-0.02337052	0.2859043	-0.053132646	-0.069451004	-0.12606406	-0.097202994	0.015709842	0.062381677	-0.35762504	-0.22214127	0.0110896425	
0.30850357	-0.004161486	0.017204672	0.5679656	-0.028127378	0.16491796	0.053768694	-0.001241523	0.01019992	-0.10229224	-0.07755305	-0.20880519	0.044310834	-0.16630685	-0.43534905	-0.02308919	0.16327843	0.55184793	-0.5804774	0.16078386	0.038263403	-0.32116994	-0.041439496	0.25378373	0.02808875	-0.10272391	0.038872298	0.22241157	0.19859877	-0.12867086	-0.38628238	0.39388314	-0.2066085	0.28806764	0.061392542	0.24215274	-0.54266566	0.048971098	-0.01683517	-0.22528036	0.35885867	-0.6310597	0.16976665	0.3360134	0.022450825	-0.3759525	-0.08995846	-0.040780053	-0.2487577	-0.015413481	-0.2348969	0.3266025	0.105800055	0.6164506	0.08643485	0.15871628	0.17561223	-0.16317566	0.051784646	0.2328012	-0.09954739	-0.50327116	0.26131094	-0.03357055	
-0.46523997	0.012174132	-0.04781543	0.08318505	-0.07261254	-0.084884964	-0.19406685	0.011134095	-0.055893667	-0.04318981	0.097389705	-0.2381393	0.0021609291	0.39002213	-0.35521248	0.029227577	-0.1067681	0.57246363	0.1630583	0.08432953	-0.12880161	-0.12394165	0.3472613	0.089755125	-0.022890013	-0.121595085	-0.11581197	0.03684029	-0.08991738	0.10656986	0.10245674	0.27900898	-0.16065118	-0.29005653	-0.029969476	0.33315465	0.2843655	-0.097876094	0.0049423836	-0.08524814	0.23136573	0.7138685	0.0064247786	-0.05275038	-0.024216779	-0.37247983	0.011050856	-0.024294704	0.016956698	0.07963479	0.09648778	0.22450007	-0.18208991	-0.5447038	0.086165175	0.1129721	-0.11177079	0.09434095	0.13946886	0.109661646	0.22319146	-0.08544944	-0.24203081	0.0005754741	
0.26081127	0.0016997214	0.016331121	-0.015390671	-0.05287548	0.11051291	-0.14328447	-0.009118384	0.0153872585	0.11376022	0.0948256	-0.03241366	0.011166972	-0.020151855	0.13385496	-0.007514737	0.042518288	0.33968344	0.18557414	-0.33093008	-0.009209779	-0.013221162	0.20210962	-0.050775494	0.0048235813	0.13885589	0.0761673	-0.087432176	-0.06536875	-0.0010809478	-0.039250344	-0.05983783	0.0124542145	0.15082116	0.021751467	-0.17580691	-0.056217477	-0.00659306	-0.039409276	0.4115985	-0.8129866	-0.12203212	-0.046079155	0.004210106	0.023371374	0.17620955	0.004437244	0.022383552	0.10933336	0.017413236	-0.06591578	-0.16264674	-0.44790193	0.22064011	0.07120387	-0.07248827	0.09398972	-0.020093884	0.19958134	-0.07773243	-0.069120936	-0.033221878	0.091904	-0.003999488	
-0.012362601	0.009836229	0.06393027	-0.019127058	-0.39828825	0.35822585	-0.13724536	-0.009258027	-0.014281752	0.046884578	-0.29036832	0.32576656	-0.06810598	-0.0046534967	-0.08445784	-0.09658987	-0.13422412	-0.013816147	-0.20769978	0.101793684	-0.014553122	0.12152002	0.058582146	-0.12166847	0.07032946	-0.0619007	-0.14404592	-0.6192877	0.45990184	0.08919804	0.63624823	0.2300782	0.045263886	-0.073558725	-0.3398198	-0.11956653	-0.39897734	-0.046443347	-0.0066424897	-0.04758424	-0.10180548	0.38579515	-0.020747723	0.08205625	-0.045434073	0.07795481	-0.021011952	0.0050464575	0.20601727	0.029870437	0.22530541	0.22459714	-0.009287293	0.7182102	0.49923077	0.09691098	0.84214437	0.8038979	-0.014694154	-0.14556791	-0.07487048	-0.2515639	-0.290863	0.08288127	
-0.2172127	-0.038229115	0.044163674	-0.02570525	-0.568334	0.28440934	-0.007050981	-0.048439197	0.00048182535	-0.19574094	-0.28601193	0.4138401	0.39088213	0.042548742	-0.40386978	-0.039070785	-0.07494917	-0.08610894	0.5448599	-0.14272803	0.18747428	-0.42020008	-0.09279404	-0.62844086	0.07864	0.2622079	0.43665892	0.91495764	-0.43597946	0.108617775	-0.9346476	0.8670371	-0.44026697	-0.12579432	0.11392551	0.6909005	0.8020817	0.18505926	-0.006470613	0.06517895	0.036891792	-0.033236366	0.007174502	-0.013233853	-0.03755148	0.033975046	0.6471193	-0.04656755	-0.6325589	0.07548494	-0.33236733	-0.6420791	0.011749076	-0.3722705	0.64600724	0.08052817	-0.11935633	0.4972805	0.19197728	-0.54682976	-0.23675522	-0.45724085	0.21851975	-0.02747175	
0.80258745	0.011280903	-0.088136315	-0.44744968	1.062223	0.46645197	0.90915084	0.1028591	0.018904576	0.39794314	-0.100458205	0.42972872	-0.4014914	0.0655599	0.28586388	0.0054035448	0.0865897	-0.58361995	0.56465095	-0.12327588	-0.107385516	0.39881188	-0.0997402	-0.8417383	-0.061596666	-0.50255597	-0.37448448	0.032744844	-0.11438374	-0.106094204	0.3485034	-0.4850206	0.046150014	-0.4446191	0.10280429	-0.66893107	-0.7597106	-0.24904622	-0.061623964	-0.0087111145	-0.35918707	0.079610065	-0.13927792	-0.22478075	0.1635858	-0.6740738	0.05642416	0.36821824	0.74492407	-0.09622945	0.53494686	0.57579726	0.011958027	-0.59583884	-1.2505535	0.056522235	-0.096158385	0.17249621	-0.23130296	0.4884759	-0.04823363	0.13022299	-0.2569209	0.08016134	
-0.8855072	-0.0027299086	0.06459655	-0.049795143	0.34557134	0.018623216	0.5398581	-0.043412715	0.040488716	-0.42968553	-0.17457087	0.092387356	0.16044094	0.09264435	0.27921993	-0.035772983	-0.54670745	-0.51765966	-0.18103155	0.47713643	-0.40643156	0.028015016	-0.4174602	-0.10358553	0.024222907	0.43302473	0.14690623	-0.24138884	0.011914288	0.63092506	0.008659493	-0.21725123	0.19338723	0.50168306	0.08181212	-0.25707778	0.34455287	0.5210593	-0.36111557	0.47957155	-0.23214944	-0.42854708	0.07236035	-0.03210575	-0.006740997	0.07012814	0.008452392	-0.5209721	-0.12122459	-0.08829296	-0.12578389	-0.19075085	0.26730597	0.53237736	-0.39118665	-0.4353548	0.0779249	-0.08043672	-0.34148034	0.011744936	-0.08395062	0.24907862	0.25253394	0.019882018	
0.337496	-0.0024787278	-0.024117624	-0.041220944	0.13141444	-0.22014937	-0.18296914	0.031082105	-0.012833405	0.04453964	0.0029326	0.07900523	-0.050053325	-0.16840637	-0.08732569	-0.007769835	-0.68976563	-0.34563732	-0.18153599	-0.29858598	-0.16113733	0.09858895	-0.007404497	0.15617374	-0.005015952	-0.17823963	-0.018123934	0.08741884	0.11274653	0.6125435	-0.034438025	0.055784937	0.0037670727	-0.2924906	-0.015627375	0.2114501	-0.048344396	-0.01491233	0.51408654	-0.61913764	0.81556845	0.07948874	-0.027421843	-0.03669499	-0.012605434	0.5551889	-0.019059861	-0.050028335	-0.0772316	-0.091605805	0.032529723	-0.0023763047	0.2568327	-0.22067806	-0.15640596	0.29920697	-0.06593265	0.03101698	0.29947746	0.015579005	-0.07211223	0.051981933	-0.09834973	0.004002201	
0.0040311436	-0.095095046	0.0068130624	0.014453661	-0.30771005	-0.42436585	-0.19440831	-0.07700286	0.0047378917	-0.024906721	0.056609284	-0.26105455	0.015813103	-0.025269419	0.071285695	0.52394587	0.071799286	0.006921227	0.24119586	-0.09360746	-0.13289723	-0.050367024	-0.025375538	-0.06107156	0.033428114	0.013090334	0.32976788	0.39516142	-0.4370491	-0.048253782	-0.2720298	0.07728719	-0.08328304	0.08581648	0.11531422	0.057973508	0.101906836	0.12969235	0.019657908	0.02251673	0.060375437	-0.73477346	0.06798055	-0.013588476	0.07338227	-0.12786694	0.0016727787	-0.0238367	0.09699031	-1.4871669	-0.033617113	0.015184078	0.004865953	-0.46506727	0.33412132	-0.3127001	-0.36415356	-0.3046688	0.1467258	0.6093077	0.72638845	0.17578277	0.08212088	-0.7184125	
-9.399302e-05	-0.57215905	0.6555685	-0.049694393	-0.0037079696	-0.036131687	-0.0038667903	0.85430235	-0.79538476	-0.33369657	0.18512815	0.10798725	0.35927713	0.027189301	-0.0111733	0.07016615	-0.006392224	0.0064919577	-0.05142588	-0.059283238	-0.02564726	-0.04549441	0.04030694	-0.09492217	-0.77960026	-0.0049774335	-0.23231418	0.024468714	-0.020148177	0.026766665	0.051840417	0.009484142	0.36769035	-0.02014739	0.041035127	-0.101090774	0.0021757407	-0.34771144	-0.020857194	-0.019735888	0.0013824382	-0.006717817	0.53667706	0.107912965	-0.080658436	-0.010827476	-0.031226201	0.059680343	0.073736794	0.011738678	-0.30921787	-0.0024922397	0.0416862	0.0012158526	0.003694378	0.0057784854	-0.013897899	-0.0017608538	-0.24225312	-0.026902474	-0.03523942	-0.0030881695	-0.1788495	0.063957624	
-0.009079888	0.21521607	-0.14537373	-0.12618297	-0.06289255	-0.08149109	0.09110426	-0.1235832	0.10627817	0.066619694	-0.09590641	-0.10349995	-0.06292028	-0.006678426	-0.042012684	-0.08227637	-0.025631111	0.061604	0.023184266	0.061430395	-0.17517848	0.012767916	0.031381365	-0.029608918	-0.004875877	-0.11302519	-0.063031994	0.11803366	0.16063005	0.079618305	0.13933216	0.0829843	0.0872279	-0.1321232	0.09564921	0.0987917	0.005085682	-0.079468675	-0.029385043	-0.03615871	0.12065254	0.05310078	-0.006332208	0.16957475	0.018632166	-0.1796709	0.04659708	0.023266627	0.14213133	0.04307974	0.0756327	-0.091305956	0.10176944	0.0028747881	0.16260919	0.043447036	0.0032832068	-0.16843103	-0.0802205	-0.1823443	0.02391705	0.077361	0.09070781	-0.06702068	
-0.057608087	0.26083547	0.10253709	-0.17128381	0.21453832	0.3079808	-0.29023162	0.22200508	-0.0641982	-0.61452144	0.0051410235	-0.22015998	0.07616175	0.027389979	0.09277693	-0.07532958	0.29315418	0.004090795	0.09914306	0.040168498	0.17605086	0.17321631	0.021808067	0.2303829	0.32095754	0.0569065	0.0013604605	0.16766566	0.20373195	0.12262756	0.117975004	0.11358192	0.5952497	0.2989913	0.22655733	0.27199477	-0.006756777	0.07208576	-0.019381486	-0.18836297	0.25925425	0.16687481	0.030128758	0.21045753	0.30831358	0.2273214	0.006454919	0.2267981	0.10002035	0.21257441	-0.19702093	0.021477982	-0.63273877	0.21570484	-0.13958296	-0.5055977	-0.109916575	-0.2986445	-0.15264687	0.14553879	-0.03392715	0.24511918	0.35410646	0.03840929	
-0.014467187	-0.09354448	-0.0228871	-0.31354865	0.03395345	0.12559597	-0.096103065	0.17024463	-0.021542443	0.10759805	0.052549113	-0.119588174	0.0560683	0.060482185	-0.2812734	0.03395529	0.015761347	-0.022212416	0.038544144	0.021015974	0.1215808	0.06285998	-0.0583148	-0.117681526	0.10058986	-0.06821493	0.11967352	0.15302843	0.042803947	0.02832598	-0.20295216	-0.42973557	-0.03402566	0.10596764	0.030295778	0.072031245	0.057260744	0.053216245	0.1618901	-0.12928133	-0.0031005675	-0.24861974	0.14947738	0.047045447	0.24596141	-0.00602473	0.11013304	-0.016425356	0.13843043	0.10865018	0.035502348	-0.026175989	0.029161625	0.061077	-0.08244315	0.07926124	-0.14418499	-0.047806177	-0.174106	-0.0261219	0.041116998	0.027399445	0.19433524	0.019464195	
0.006671438	-0.029723505	-0.029357169	0.07932653	0.12673062	0.040142003	0.034226675	0.08947276	0.18212877	0.07458477	0.0758467	0.11057727	0.1288209	0.2451682	-0.04846661	-0.05014224	-0.50194037	-0.3804643	-0.0033996708	-0.032647762	-0.002505418	-0.01630799	-0.6602517	0.29428968	0.24156334	0.25342458	0.072218254	-0.16493794	-0.14430152	-0.014072824	0.19934987	0.30601978	-0.09777541	0.04257456	0.040762212	-0.10764254	0.3320061	-0.70453864	-0.01962465	0.08955181	0.124522075	0.20910953	0.20949848	0.0043329643	0.2978432	-0.06726829	-0.027273107	-0.13668123	-0.10670804	-0.14727776	-0.014333841	0.053123605	0.04438448	-0.045236766	0.04376482	0.015257689	0.077215694	0.13627066	0.030445218	-0.10593502	0.17430973	-0.057691652	0.006567712	-0.02146176	
0.0072228564	-0.035899885	0.12834434	0.15424167	0.105765134	0.17058292	-0.03414381	0.07292761	0.13403688	0.05796045	0.023982067	0.041695397	0.18044835	0.07192375	0.345562	0.18215409	-0.18124364	0.047044933	-0.0066389265	-0.0073307827	0.034619305	-0.0069841575	-0.060591266	0.07871776	-0.6370709	-0.21667758	0.14896908	-0.0009218059	-0.47172996	0.02289857	0.038064826	-0.082934186	-0.1011195	0.063067175	-0.11505545	0.07416381	0.078374185	-0.40544632	-0.19078384	0.015624138	-0.09395926	0.058371156	-0.012574474	-0.12845957	0.03215219	-0.100042254	0.016127262	-0.07280986	0.094393976	0.11464508	0.23909283	-0.17179002	0.07205249	-0.016711362	-0.04202507	0.06665514	0.048406616	-0.02322306	0.06846784	0.06559867	0.041337773	-0.72821003	0.011475582	-0.0027053533	
0.027111093	-0.20583183	-0.09031113	0.0878847	0.5677038	-0.044492994	-0.05575472	-0.09366881	0.21003172	0.12815276	-0.29423717	0.0959947	-0.048566427	-0.109665744	-0.07930296	-0.14108302	-0.14443085	-0.03641662	0.081659876	-0.30849123	0.50049144	0.028960256	-0.10748262	-0.011321354	0.048025884	-0.11400313	-0.04621365	-0.058470882	0.04956653	0.08742755	0.0800985	0.16458544	-0.19307594	-0.0308809	-0.043955505	0.06409778	0.037326742	0.22828041	-0.05569718	0.18987153	0.21927305	-0.036315367	0.29772463	-0.16990079	-0.0468418	0.20114382	-0.05353901	0.07488074	-0.030559808	0.20733874	-0.092777275	0.34094816	0.27802148	0.062841594	-0.09930405	0.043361224	0.11108639	0.08181072	0.366697	-0.077630505	-0.06445621	0.026497452	-0.085964866	-0.060106482	
0.054033704	-0.2053259	0.15400442	0.20416203	0.03350257	0.062893376	-0.16313946	-0.07656037	0.0019913763	0.009265878	0.23571384	0.23515002	0.059669055	0.076067366	-0.035459813	0.37464112	-0.067611285	-0.053068615	0.029508436	0.029368985	-0.09376553	-0.14088167	0.017908286	0.07069424	0.1450526	-0.0780548	0.026212715	-0.020339223	0.020478128	0.10022887	-0.09340391	-0.051909428	-0.057362627	0.096208096	0.0031315815	0.0391946	-0.10153552	0.09299484	-0.17017648	-0.10134389	0.09518886	0.044717953	0.2370098	0.19721319	-0.09376768	0.17894326	-0.010508442	-0.07381147	-0.027908806	0.033001784	0.16150413	-0.013125758	0.21914662	0.22037922	0.12756397	0.17318916	0.044641353	-0.087895185	0.11578316	0.18251431	-0.12780255	0.13728714	-0.11182771	0.018478528	
0.10061696	0.1992151	0.30585778	0.054115772	0.1789017	0.10894496	-0.049755186	0.012393622	-0.03286793	0.18191037	-0.051779673	0.15612727	0.11530152	0.012470137	0.13230841	0.09399926	0.20018968	0.09962638	-0.0039897407	-0.018137865	0.17644341	-0.008026629	0.24241993	0.018956725	0.11380374	0.0027981673	-0.03252807	0.05475854	0.078208245	0.015793264	-0.11802185	-0.02702895	0.13865258	0.00015572786	0.16004997	0.01088628	-0.011689315	-0.0008959333	0.13771792	0.068121865	0.05118876	0.18919429	0.041685965	0.21058466	0.13196363	0.1551787	0.010492878	0.09511508	0.13300027	0.03166663	-0.1283565	0.20570616	-0.005357419	0.17223018	-0.36047435	-0.39306015	0.14640734	0.0060486603	-0.19076534	0.3606653	-0.03670436	-0.065928005	0.07607879	-0.14340614	
0.021233555	-0.0996386	0.13030437	-0.11285513	0.06065791	-0.10944019	-0.1054833	0.0078811105	-0.12135816	0.011250809	-0.0028328595	0.106586844	0.005873039	0.24910912	-0.11967963	-0.023996394	0.1069926	0.24249376	-0.02637067	-0.0009195818	0.15273543	-0.11007849	0.21586847	0.10550981	0.065945506	0.039748386	0.06550049	-1.1056833	0.04428055	0.008404238	-0.034162596	-0.33209595	-0.11417541	0.27533653	0.123944014	-0.42150772	0.007891427	0.33431917	0.05050869	0.13445683	-0.11312944	0.094662696	0.24738447	0.033257604	0.062738076	0.18909672	-0.09510774	0.062668554	0.10063352	0.1588367	0.07490187	0.1856729	-0.008933802	-0.20338532	0.07662665	0.10348693	-0.11634581	0.060935933	-0.08684015	0.015982624	-0.1288569	-0.14392953	0.23023854	0.10892817	
0.046689454	-0.12278745	0.24318734	0.24160945	-0.015447794	0.07723042	0.10776459	-0.16715859	-0.08427975	0.0072341505	-0.09444441	0.1686497	0.024460396	-0.071601205	0.2747168	0.1426749	-0.5937688	0.31979492	-0.0019285749	0.05864174	-0.061635133	0.0052426294	0.24782065	-0.028341772	0.06654878	0.1235026	-0.24053311	-0.025642265	-0.4791187	0.012525587	-0.1445894	0.1950583	-0.008498639	-0.11513953	0.099108696	0.09635128	-0.10015675	0.3731108	-0.2803103	0.080005035	-0.26019645	-0.06283005	-0.14719658	-0.10622248	-0.878293	-0.05696019	-0.10043037	-0.4583442	0.18285842	-0.2437522	0.07046607	0.06810063	0.05797737	-0.056325104	0.0468065	0.038953573	0.1874854	-0.008738666	0.05475877	-0.07950134	-0.06603529	-0.27074283	0.06552573	-0.011016846	
0.046908468	0.3196169	-0.11458564	-0.079361245	-0.0957721	-0.03195864	-0.12700458	-0.23496807	-0.007872672	-0.18676361	0.16118726	-0.022641098	-0.01015192	-0.0934333	-0.11340853	-0.03672135	0.07468662	0.1649828	-0.017291918	0.03841095	0.081518315	-0.0021385222	0.21272808	0.081249475	-0.022598997	0.10841373	-0.16221735	0.07747596	0.21763402	-0.042652808	-0.45121172	-0.22767757	0.06833925	-0.093434185	0.21172863	-0.0022152977	-0.13764364	0.26853952	0.026340082	0.032740097	-0.065431006	-0.030054111	-0.043828912	-0.038061015	-0.2801035	0.09920007	-0.013568208	0.30708572	0.07600219	-0.16635177	0.04905649	0.14704731	0.14703403	0.21010439	-0.07896068	-0.027831558	-0.003178579	-0.155022	0.212408	0.29323822	0.10706293	0.10262283	0.09661303	0.061193973	
-0.16856334	0.021254918	0.04669209	0.019571278	-0.054627758	0.28312033	-0.20352188	0.12525265	-0.0077978405	-0.12959464	-0.041318495	0.027776232	0.07470713	-0.07076362	0.32431078	-0.06482013	-0.18258382	-0.0019799573	0.05055378	0.010990096	-0.24393205	0.036998358	-0.16539294	0.12253694	0.0609018	0.062478337	0.10760437	0.059007633	-0.12585948	-0.06805886	-0.14220251	-0.1322335	0.18653016	0.06991657	-0.112190925	0.09727362	0.038903486	-0.1851859	-0.054976024	0.11101593	-0.01899953	0.13507883	-0.21263172	-0.053986527	-0.01383421	-0.0359887	-0.07290763	-0.088370584	0.0053158845	0.23095533	0.033402577	0.034288384	-0.10694974	0.12391403	-0.14868607	0.05365173	0.2524446	-0.0030704571	0.21040548	-0.17669882	-0.012636761	0.083342314	0.07100536	0.16144256	
0.31538573	0.32908586	0.18943287	-0.08022202	-0.033082586	-0.08807517	0.08253143	-0.063557915	-0.19108222	0.030641818	0.012026824	0.019351376	-0.1658254	0.0042967154	0.06953358	0.13196787	0.18656825	0.12140815	0.012637947	-0.005345964	0.12735172	0.078941725	0.1344131	-0.13392833	0.036016643	0.18769103	-0.20331328	0.085024014	0.08186516	0.08848187	-0.028943181	-0.048182946	-0.10879419	0.10907778	-0.10576534	-0.04451354	-0.10552729	0.12817445	0.11545427	-0.35244066	0.010838623	0.17912993	0.046803474	0.15495868	0.0018383145	-0.085112005	-0.085286066	-0.22284181	0.11546436	-0.19725046	-0.050929684	-0.0058273477	0.023102103	0.1371364	-0.09490775	0.18020737	-0.11959754	-0.044297494	0.121389054	0.15343697	-0.020926146	0.03760248	-0.048075084	-0.09721334	
0.081652075	0.24157415	0.079016015	0.07909265	-0.019536873	-0.01533381	-0.16824438	-0.27669588	-0.12551238	-0.02325514	0.070883654	-0.0026595085	0.077712975	0.0036276374	-0.070067994	0.224129	0.0039564124	-0.26983383	0.106646076	0.056771446	0.14471865	0.22389247	-0.039792005	-0.42522615	-0.021777837	0.19644015	-0.025359647	-0.3202829	0.2566525	0.17843723	-0.22118446	0.058784317	0.1542022	0.08181415	0.22268458	-0.20570673	-0.1913781	-0.24730572	0.18881065	-0.08839398	0.12964553	-0.019930424	-0.16259935	-0.084033445	-0.004941244	-0.02896292	-0.15876947	0.02476645	0.06912895	-0.30281633	-0.30470997	-0.060820878	0.036647856	0.17307745	-0.1112575	-0.049934436	-0.028150583	-0.12133918	0.055818845	0.15160285	0.29508245	0.08298153	-0.16270621	-0.31050748	
-0.01648249	-0.057759143	0.2213352	-0.018797433	-0.007685181	0.18738164	-0.07958087	0.23963512	0.061081402	0.08289952	0.0037259893	-0.0037342804	0.055809755	0.08758315	0.20478848	0.063949816	-0.012727183	0.0178022	-0.031175993	0.013923952	0.033027805	0.07801347	-0.22217765	0.018959101	-0.33330718	-0.23588681	0.06435318	0.014621115	-0.37551787	-0.0026511778	-0.04376939	-0.1092982	-0.038983013	0.0121923275	-0.07807817	-0.050625872	-0.083963946	-0.20621492	0.040772703	0.13133498	-0.16832836	-0.0077391155	-0.0037103775	0.06857115	0.11643651	0.09031934	0.18478125	-0.057480376	0.02887878	0.14742945	0.19337629	-0.1732632	-0.047417257	-0.117030874	-0.023452058	0.08328875	0.06547192	-0.03550284	0.14170057	0.025499456	0.01383202	-0.05092454	-0.003871339	0.028901856	
-0.05583334	0.052907243	-0.121493846	0.20326366	0.10750883	-0.2439323	0.1439949	-0.13618529	0.116928615	-0.10803522	0.01932769	0.04204067	0.24691765	0.09948945	-0.0010658468	-0.10663164	-0.13669021	0.1389754	0.23044898	-0.013618825	0.10373694	-0.20952022	0.21457405	-0.11715367	0.1819924	0.01382929	-0.13543306	0.14411142	0.21813348	-0.09690003	-0.071953855	0.23670433	0.13180292	0.08659508	0.16453268	-0.03857757	-0.19960286	0.1832114	-0.09846426	0.08174145	0.12858292	-0.03154767	0.03375344	-0.11909117	-0.042777684	-0.014654665	-0.005818399	0.07329885	-0.11103118	-0.0031108316	0.045093756	0.3560163	-0.25613973	0.14618984	0.106129244	-0.13041875	-0.0048842467	0.24762173	0.060437966	-0.022716949	-0.0072441893	-0.114595264	0.05363866	-0.06759569	
0.0009696246	0.16685532	-0.24748012	0.073121145	0.03101028	-0.2407102	0.15521076	-0.11573771	0.0069358726	-0.061411805	0.123454995	-0.044308424	0.15506321	-0.0065416484	0.12912603	-0.01384471	-0.0070442483	0.05570683	-0.0037384718	0.06504985	0.08306845	0.039365154	0.09515187	0.07277935	0.004500225	0.17000149	-0.06604973	-0.08627982	0.10489472	-0.016702328	0.06394466	-0.020513324	0.26251528	0.07287217	0.22257484	0.22975852	-0.07465792	0.11059246	0.040099572	-0.11996899	0.08407289	0.078900896	0.134518	0.011059166	0.08989542	-0.08268562	-0.0107570365	0.01332301	-0.10511793	-0.06590371	0.02393173	0.2666512	0.26307052	0.019371564	-0.088737115	-0.16107622	0.17008539	-0.0548502	0.09097281	0.012065996	-0.048014946	-0.03183938	-0.00886144	-0.053868234	
0.016304107	-0.22293924	0.019721763	-0.040844183	0.16644287	0.11062506	-0.16111104	0.077946916	0.20503314	0.037470605	-0.20378417	0.027073057	0.025495509	0.15764704	0.1141882	0.02828475	0.077210784	0.03484022	-0.016153248	0.017462093	0.20870338	-0.013795311	0.02090648	0.12277934	0.104277596	-0.029440679	0.031040685	-0.014158825	0.05642116	5.2046093e-05	0.32828653	0.10750752	-0.14051661	0.035086624	0.36864188	0.06707572	0.009264187	0.030058268	-0.08121613	0.14538136	0.1603085	0.069830984	-0.046758186	0.03522164	-0.034999683	0.1405554	0.008056981	0.16577478	0.034952916	0.073769204	-0.04795171	-0.12375363	-0.020013947	0.09612328	-0.18584423	-0.52085704	0.082207784	0.18247555	-0.057807792	0.22540343	-0.08825154	0.07798401	0.00804407	0.27799422	
-0.14598778	0.15797614	0.068106115	0.21422823	0.15989909	0.12743905	0.04882151	-0.11545137	0.19326763	-0.570571	0.17868733	0.1417693	0.091426015	0.012818975	0.24382985	0.33670983	-0.3533903	0.052366577	-0.024514914	-0.01841686	0.23416208	0.3107323	0.085013345	-0.06650987	0.2542796	0.058977414	0.032283194	0.09059661	-0.011268591	-0.032241344	0.07695902	0.15091282	0.038388792	0.14178795	-0.039291337	0.0936491	0.16152497	-0.029998	-0.8859336	0.039083894	-0.042810615	0.017299278	-0.16120915	-0.5808782	-0.0023800565	0.064685546	0.012240381	0.07038135	0.010961605	-0.048619322	-0.11875463	0.2915566	0.22725049	0.16806184	-0.091120854	-0.09786479	-0.05775552	-0.48046884	0.06641162	-0.24016641	-0.049730632	0.16269971	0.14261389	0.2142154	
0.43570453	-0.18205893	0.36242315	0.25867954	0.053259518	0.035505712	-0.15160266	0.15763618	0.017266704	-0.3265115	-0.08636211	-0.003053433	-0.0797882	0.018887768	-0.10972238	0.11656052	-0.08643204	-0.06673587	0.043886933	0.053273663	0.12747855	-0.022032263	0.29862317	-0.0023747666	0.11329011	-0.039163955	-0.29674914	-0.02813564	-0.19237258	-0.205862	0.17968665	0.22484288	0.15826537	0.08512796	-0.16143961	0.12493867	0.1663438	-0.040528078	-0.051822107	0.2648077	-0.035249557	-0.008519124	-0.045836553	-0.014443504	-0.10455835	-0.036923625	0.09779703	-0.08186914	0.032772407	0.25541076	-0.0920036	-0.039184816	0.15356222	-0.054412678	0.042186193	-0.03821574	-0.04074354	-0.015377062	-0.16357803	0.09966084	0.13101947	0.058467366	0.16785894	0.06573942	
-0.06807366	0.49119195	-0.056992732	-0.07814563	-0.025517719	-0.009756223	0.045707453	-0.06283232	0.01070693	-0.044283953	0.084271386	-0.06322812	0.15427355	-0.033255305	-0.1591717	0.04428516	-0.014360025	-0.013895243	-0.04840636	0.038530964	0.05396815	0.06921518	-0.054384924	-0.06549749	0.100391015	0.06732694	0.017233526	0.051848624	0.13089389	0.010624404	-0.24371152	-0.09701524	0.13147603	0.10579209	0.24669513	0.18560915	-0.091547064	0.14622255	0.082457356	-0.09590383	0.056634795	0.16591682	0.17648871	-0.01667405	0.047866724	0.020079264	-0.034220427	0.05217652	0.06779487	-0.09793425	0.081346944	0.25815535	0.055293303	0.13143872	-0.14839615	-0.03402659	0.045649525	-0.11433499	0.005693551	0.26235238	0.028173892	0.021530261	0.044672586	-0.09295997	
0.095024474	0.15317278	0.046525702	0.18424048	-0.022398893	0.23268107	0.022397304	0.0085403295	-0.06671296	0.023096425	0.23776194	0.029747462	-0.08307957	-0.043898374	-0.16415033	0.05634108	-0.09345696	-0.20627089	0.02133023	-0.12184771	0.065367974	-0.078937285	0.11175669	0.1909362	0.09807111	-0.05324635	-0.10248036	-0.050779846	-0.11349618	-0.009005948	-0.2841308	-0.038659588	-0.04634832	-0.05881835	0.1570566	-0.023048356	-0.06290677	0.03164371	0.17537566	-0.06559269	-0.1759952	-0.004721766	-0.11693379	-0.0975984	-0.07733363	-0.012597222	0.13087128	-0.13472046	0.15660718	-0.15267602	0.058012314	-0.031646527	0.026114041	-0.080385886	-0.094368614	0.18222487	0.008614616	0.33395886	0.059846457	0.2823681	0.062321365	-0.013052918	0.13006002	-0.10871093	
0.2567098	-0.009062577	-0.0673647	0.11978985	0.14389843	0.009393251	0.21215464	-0.06152286	0.003561751	-0.16412649	-0.03772515	0.07021702	-0.01347446	0.037959315	0.03881157	-0.2078744	-0.1642914	-0.17995054	0.059751872	-0.013164987	0.04736559	-0.014093353	-0.026430763	0.20834543	0.0944724	0.021136886	-0.15457226	0.1363551	-0.016721748	-0.21324968	0.24231057	0.026929049	-0.056165878	-0.025719523	-0.091645874	0.038290437	0.14526291	-0.19117701	0.19865409	0.17160809	0.16839391	0.1394253	0.032117743	-0.21864153	-0.059681077	0.041427992	0.14955647	0.01492523	0.048248515	-0.15893742	0.1019279	0.3091832	0.28902265	0.08851534	0.07427084	0.004716308	0.012438154	0.03314857	-0.14144118	-0.06668783	0.10968131	0.150326	0.19037935	-0.09094505	
0.03759406	0.33979836	-0.041143544	-0.037553024	-0.014828204	0.12640448	0.02951092	-0.3114315	-0.09636853	-0.31566137	-0.12833935	-0.03566049	-0.06821475	-0.075990364	0.012088466	-0.06438421	0.118090644	0.09738377	-0.0022152846	0.02091527	-0.016242068	0.029152304	0.070125066	0.08995676	0.024859212	-0.0014077856	-0.049714148	0.1357961	0.20695882	-0.018222934	-0.13345662	0.18399467	0.10242725	0.059540994	0.059057135	0.027962834	-0.08036923	0.21683751	0.085501716	0.035899714	0.15228158	0.16079654	0.043048684	0.07247929	0.016100194	-0.012301395	0.07519905	0.020589016	0.15419653	-0.28822467	-0.07334067	0.23740274	0.18905891	0.15873653	-0.18732034	-0.07297695	0.014976996	-0.08200028	0.07405499	0.08762739	0.05213039	-0.1386242	0.09589806	0.1339117	
-0.2692625	-0.055858016	0.06841498	-0.031221412	-0.020140907	0.010275457	0.17575309	0.09855201	0.06921962	-0.2649342	-0.042620353	0.046195075	-0.10456503	-0.060509037	0.09048547	-0.14339429	0.21994452	-0.068177134	-0.07502258	-0.06729473	-0.1280007	-0.010762053	-0.067718506	0.12075295	0.035555393	0.08078331	0.4642245	0.021709535	0.034899842	0.0057393196	0.054326776	-0.035986356	0.101202875	-3.7803533e-05	0.21219656	0.036271047	0.05642256	0.0367562	0.25853226	-0.036238752	0.0659433	0.06727046	-0.028309563	-0.0455588	-0.043576173	-0.12087386	0.019594043	0.018526718	0.09990068	-0.12129597	0.064634874	0.28630602	0.14741999	-0.032501142	-0.16725338	-0.07680023	0.023174986	0.08998074	-0.026283326	-0.14739104	0.0085160425	-0.08525991	0.17124379	0.07758712	
-0.061398957	-0.0091917515	-0.012921922	0.08314499	0.15706079	0.011847862	0.23377444	0.09877064	0.18211572	0.10521182	0.08402511	-0.023731802	0.13715664	0.1087476	-0.10390712	0.055767603	-0.27756083	-0.5166117	-0.018433664	-0.015530114	0.09710753	0.28848574	-0.5502974	0.05648506	0.048181187	-0.12075106	0.04389464	0.19987102	0.1338548	-0.017442737	0.36461753	0.008545797	-0.06275057	-0.077267244	0.107732594	0.2810788	-0.042749092	-0.27167308	0.12304111	-0.12666616	0.118358366	-0.11301292	0.12694049	-0.12701334	0.36210594	0.1082817	0.18705289	0.18997072	-0.2711623	0.054932497	-0.039228443	-0.024736067	0.019935187	0.021250635	-0.047173135	0.013699225	-0.06404941	0.008313388	0.07919491	-0.0015753432	0.09359338	-0.008332951	-0.17396274	0.06897356	
-0.0039672595	-0.026336357	0.08619901	-0.10773614	0.025229875	-0.03544758	-0.2793144	0.3484057	0.19494627	0.1654674	0.021807235	-0.026404124	0.13168527	0.12215064	0.18818173	0.032326385	-0.111594535	-0.002151277	0.12685892	-0.009682366	-0.05383754	0.03683079	-0.26417866	0.1629555	-0.4190503	-0.32805663	0.068017304	0.104940355	-0.1694456	0.015771216	0.009832718	0.1039851	-0.11649477	0.058465853	-0.13621095	-0.066713534	0.3238433	-0.18372275	0.1146569	-0.041740667	-0.1464029	-0.06295497	0.07733777	0.04325466	-0.3107723	0.04910822	0.47982606	-0.0038932562	-0.053528756	0.32435396	0.22726162	-0.08098824	0.080770336	-0.08370032	-0.09801619	0.06512191	0.056255344	0.00056396605	0.10095117	-0.040206414	0.13132767	0.026602078	0.00010306896	0.023773253	
-0.0006458936	-0.03254926	0.24430281	-0.4839611	0.11430516	-0.042900138	-0.24870591	0.020862155	-0.010437579	-0.048024375	-0.14294848	0.009712083	0.113838844	0.20230588	0.059967678	0.020903334	-0.022259716	0.09361799	0.103655465	0.044357236	0.10753784	-0.09799909	0.04352125	-0.08124168	0.30776656	-0.03194937	0.11802001	0.15577987	-0.055136207	0.09720731	0.007890451	-0.3705334	-0.03395696	-0.0756818	0.054434713	-0.014092734	-0.095562354	-0.07559937	0.1284699	0.22630017	0.14432302	0.056589153	0.24283424	-0.013012318	-0.35143006	-0.008328477	0.21376419	0.09360696	0.20274386	-0.103767715	0.062278215	-0.008274695	0.0003453623	0.11800041	-0.07783292	0.104049474	-0.05124943	0.028064396	0.16250698	-0.135713	0.037267953	0.11579193	0.049898874	0.043631822	
0.057970878	-0.11273033	-0.12101178	0.06962461	-0.11344522	-0.20341513	0.07673836	0.19039816	0.070599	-0.028180677	-0.07494372	0.078045644	0.19823326	0.0056395833	0.058154125	0.08602406	-0.057769652	-0.12934469	0.15435039	-0.03602776	0.33787152	0.037677273	0.013283595	0.358676	0.13446543	0.13760272	-0.16270433	-0.04936139	0.18469983	0.081897624	0.0014036599	-0.046391282	-0.0013703242	0.037088532	0.04425119	0.086773865	-0.15561712	0.045620598	-0.19715784	0.41384596	0.0270002	0.057969503	0.06715949	0.037815	0.0033592985	0.024925182	-0.09928246	0.11291218	-0.4103799	0.089137696	-0.10644918	0.1630359	-0.24128251	0.15478882	0.119524226	-0.074806705	0.060540766	0.32489473	0.050643396	-0.19748373	0.028583307	-0.018936021	-0.11952636	-0.04106608	
-0.26728353	0.0019063039	-0.21005683	-0.008544734	0.03271702	-0.12839076	0.15623811	-0.19864619	0.11121675	0.2622198	0.19211406	0.123094834	0.024664788	-0.013077395	0.03293305	-0.15574543	-0.061207965	0.21265097	-0.23109499	-0.15983266	-0.057902094	-0.093387865	-0.109018005	-0.07759653	-0.39789298	0.19040786	0.11162655	-0.16052316	-0.07930474	0.0505806	0.034066416	-0.06461381	-0.2434795	-0.16073938	-0.005922348	-0.09877692	0.16655815	-0.048262253	0.09120903	-0.35714972	-0.12161738	-0.111378014	-0.011990397	-0.05150612	-0.15132877	0.20174134	-0.0094054965	0.005943407	0.04743726	-0.2842665	0.19457355	-0.07650991	0.13741967	-0.04677253	0.15122986	0.049635954	0.13662218	0.16300505	0.22726251	-0.011380772	-0.009145888	-0.25747362	-0.06270668	-0.1778414	
-0.0648816	0.27679077	0.028550161	-0.05379233	0.19934262	-0.17864305	0.22495446	-0.024575904	-0.15768337	0.1971686	-0.05853557	0.020591522	0.0285999	-0.031704355	0.09693198	0.15841018	0.08469654	-0.056161758	-0.004516512	0.030796595	-0.11580988	0.11890639	0.08415776	-0.21862718	0.057189506	0.098048784	0.0855802	0.023562437	0.08226116	-0.010871373	-0.030478206	-0.016809925	0.20976707	0.030674685	-0.08438019	-0.0543513	0.04173419	-0.014991328	-0.027744213	-0.05246355	-0.20599309	0.059036057	0.14426719	-0.0018492705	0.11553148	-0.062012117	-0.026058292	-0.05099393	0.04809041	0.0620502	0.057301585	0.45397606	-0.054798633	0.20188673	0.082500175	0.082031034	-0.1719451	-0.38145086	0.10433414	-0.27721542	0.1613642	-0.032808714	0.016464217	-0.059076514	
-0.04879933	-0.19109155	-0.0889876	-0.2694454	0.100101545	0.1793308	-0.13820507	0.12261372	0.037527107	0.07224208	0.1677898	-0.24730027	-0.10539378	-0.29374692	-0.19344147	-0.30026004	0.19763759	-0.048209507	-0.3786541	0.003375742	-0.33795023	0.070808336	-0.083525546	-0.0351647	0.14965779	-0.37027025	0.03357339	0.010283163	-0.06344382	-1.0947386	-0.26087272	-0.1587749	0.35828152	0.12933263	0.06419129	-0.022210758	0.2700701	0.14140993	-0.040201705	-0.45205796	0.103112586	-0.035140425	-0.00827972	0.056085065	0.061570857	-0.093909845	-0.103121996	-0.05221103	-0.040388722	0.30679652	0.32891124	-0.12663183	-0.21416304	0.0746912	0.3148632	0.033870697	0.14728764	-0.09841254	-0.19133957	0.20639032	-0.17185226	0.096535124	0.30630797	0.16320664	
-0.06790142	-0.0636022	0.20530516	0.030352654	-0.037876457	-0.06574036	-0.0821011	0.053184234	0.008136468	0.05482839	0.108435735	0.07797785	-0.009959118	0.10092117	-0.2731308	0.38232622	0.04063268	-0.18129951	-0.269701	0.08413547	0.17417072	-0.02338141	-0.16913909	-0.07832072	0.077629976	0.19925414	0.0842443	-0.0418817	-0.06545277	0.05051283	0.1621462	0.1351786	0.04746785	-0.13057403	0.00037438973	0.0928103	-0.11463594	0.091758564	-0.31394732	-0.103990376	-0.071569644	0.116983965	-0.0744313	0.32696316	0.072290756	0.14542553	-0.030426575	-0.065009184	-0.2803671	0.0867547	-0.0072923545	-0.06486565	-0.1158567	-0.004370321	0.30642542	-0.18780902	-0.014123022	-0.011167941	0.023106283	-0.004693468	0.15551353	0.08306785	0.07827339	0.25492743	
0.04684101	-0.055897593	-0.21412918	-0.121804595	0.06479592	-0.04963248	-0.09777497	0.01705287	-0.024800852	-0.037416916	-0.025355963	0.07291464	0.07458433	-0.05024971	0.25287247	0.030214699	-0.4263178	-0.0096209245	0.01610829	0.0047192876	0.06319942	-0.02495562	-0.08301372	-0.016971188	-0.5487882	-0.33594456	-0.040803783	-0.107496455	-0.09949422	-0.03499589	0.0071840077	0.20257027	0.009095938	0.17482121	-0.043090872	0.038935326	0.36073443	-0.026179787	-0.08838491	0.012305804	0.02139108	0.2724409	-0.12534943	-0.17114103	-0.02370223	-0.118142635	0.0806435	-0.16264579	0.063127145	-0.04469572	0.16109148	0.03433404	0.082747765	-0.13077907	-0.03154036	-0.011196335	0.14480111	0.015020059	-0.020806374	-0.08170416	0.09729384	0.10338543	0.04015032	-0.049371187	
-0.20978467	-0.15944779	-0.13895494	-0.20902367	-0.058092676	0.140749	0.022714606	-0.19601966	0.088980645	0.04059544	0.14396895	-0.050261497	-0.18919076	0.1265276	-0.017352607	-0.10392369	0.17688948	0.22816919	0.3658061	0.04974428	-0.0020293754	0.17435253	0.0326798	-0.51447195	0.1594772	0.2718104	0.1356477	0.11128491	0.09323788	0.27120575	-0.25585473	0.030945284	-0.16059333	-0.06189873	-0.00035538417	0.19311954	0.14929982	-0.020644348	0.06831249	-0.05117375	0.025155583	0.16114071	-0.1528137	-0.00036205677	0.043530192	0.112972185	0.30109912	-0.18200685	0.15110944	-0.029717207	0.02399174	0.04231943	0.059154082	-0.08177887	-0.15805691	-0.1204352	-0.17157705	-0.0037255455	-0.012071121	0.09349497	-0.074601926	0.12256692	-0.092523396	-0.2236065	
-0.012244472	-0.045699243	0.098041385	0.05224814	0.035971444	0.14202616	-0.03165741	0.0954481	0.22440167	0.040223356	0.08215525	0.033678643	0.091492526	0.051001582	0.11030673	0.006236899	0.035382953	0.06786648	-0.0024785118	0.0056585097	0.08238429	0.008398031	-0.103091426	0.02586694	-1.0708541	-0.38029107	0.07668763	-0.005513402	-0.17106129	0.0018854243	0.051427547	-0.008317457	-0.13820745	0.075084314	-0.026240364	-0.04452214	-0.11532743	0.05542922	0.011167584	0.12940149	-0.08012333	-0.0035172426	0.019205702	-0.024932496	0.04846	-0.001761054	0.0958669	-0.10833489	0.0019026443	0.26410303	0.07333981	-0.1227885	0.029391583	0.0088729225	0.033433232	0.03816514	-0.1331931	-0.01329601	0.122767396	0.011078135	0.107047945	-0.056225497	-0.05095667	0.050011896	
-0.11847073	0.06752035	-0.20154072	-0.1966242	-0.240892	-0.08675387	0.028804569	0.20121191	-0.092031315	-0.07149785	-0.036218803	0.2355138	0.18854725	0.06081131	0.14918184	0.3195146	0.10768854	0.17201826	-0.3141532	-0.085061766	0.07720106	-0.164489	0.2194242	0.22663276	-0.112003826	-0.073584646	0.30587822	0.18314297	-0.11028127	0.16210385	-0.040344168	-0.20275468	0.019123603	0.09198581	0.23756965	0.11932037	-0.31251812	0.0007210769	-0.007908102	-0.008956541	0.037513103	-0.064421974	0.19595903	0.100481555	-0.025838928	-0.1494466	0.28043044	0.00053058256	-0.009852917	0.19976568	0.039746366	-0.085794665	-0.057677113	-0.07203463	0.19039966	0.040209327	-0.02142142	-0.07077788	0.054238405	-0.13746513	0.11078787	0.021830976	0.18712486	0.26486477	
0.14003414	-0.116139755	-0.17526455	0.07730479	-0.009311242	-0.12233147	0.105917424	0.2977909	-0.023202516	0.056162413	-0.10408479	-0.20178548	0.15004945	-0.1685525	-0.034098122	-0.17997606	0.2557411	0.03219637	0.38607484	-0.14450093	-0.15630455	0.15672565	0.0793902	-0.2038553	0.30846104	0.05876512	-0.27240714	0.044323675	0.33205667	-0.1113726	0.06968001	0.10062622	0.28446412	0.10175305	0.18401872	0.07634842	0.024525864	0.19662502	0.2725981	-0.32017025	-0.061566886	0.011872165	0.084698774	0.33645016	0.21673334	-0.45159787	-0.03895242	0.14156175	-0.5085958	0.14846285	-0.1560679	-0.18943532	-1.2785659	0.28260314	-0.12238411	-0.2558816	0.11546049	-0.173971	-0.34298518	-0.011248613	0.10929304	0.11660931	0.5002661	-0.01166874	
-0.024923632	-0.28315896	0.22992706	-0.003662691	0.102538	-0.12156119	-0.274892	0.07788895	0.010803909	0.020569272	0.012775324	0.046451855	0.0063441745	0.098831855	0.20503895	0.12742485	0.033507567	0.2447816	0.057824206	-0.025220858	0.053695213	0.07591375	-0.050799068	-0.15558349	0.2881597	0.08932718	0.2585999	-0.043512993	-0.106883526	0.01063703	0.1266017	0.12593114	0.0036356417	0.042737592	-0.11644576	0.23768966	0.33452648	0.12320583	0.13923144	-0.17412287	0.15385324	-0.08017525	-0.029708289	-0.023063133	-0.25916222	-0.054862827	-0.18714729	0.22476284	0.098634735	0.22113925	0.13575806	-0.055461854	-0.045020603	0.049588177	0.09204185	0.024434745	-0.14637412	-0.122238584	-0.16143782	0.04879306	0.066379085	0.055478837	0.043357827	-0.17926537	
-0.010364008	-0.3094954	0.116168775	-0.080588974	0.12408586	0.2074145	-0.17096765	0.28170532	0.17996615	0.16966191	0.00028529903	0.06100771	0.031939123	0.29019555	0.34046704	0.007007581	-0.017626613	0.13297941	-0.060718164	0.007698071	0.06786087	-0.04959089	-0.122090615	0.15984462	-0.51310664	-0.1540799	0.07244874	-0.08147534	-0.30427998	0.030146133	-0.09570512	0.03610558	-0.19101278	0.053797584	-0.04713033	-0.30366307	0.17481318	-0.026336253	0.032939944	0.008133981	-0.12773776	-0.11332832	0.10217411	-0.012973567	0.12947226	0.03127	0.09070629	-0.09075189	0.051589027	0.26869434	0.071913674	-0.17650369	-0.011593304	-0.06032182	0.02272623	0.13383193	0.048359174	-0.0071972413	0.077812634	-0.102442436	0.15630277	-0.038604375	-0.009922534	0.12862462	
0.10061516	0.32690883	-0.20425747	0.08744707	-0.069199204	-0.19746926	0.38571823	-0.07628784	0.05980017	-0.21570799	-0.0069064572	-0.058185827	0.061245922	-0.05702058	-0.08298536	0.03313437	-0.027692998	-0.020655997	0.19357333	-0.019396558	0.06451928	-0.0036115278	-0.039600816	-0.008116794	0.011839437	0.09201618	-0.048361875	0.031162085	0.25805286	-0.045749698	0.40355262	0.017784094	0.06496055	0.058797035	0.17375176	0.2014621	-0.063948266	0.02521664	0.01515688	0.07341862	0.095203266	0.08441876	0.06909496	-0.05265093	0.15348005	0.08448767	-0.060662974	0.12634264	-0.05159924	-0.12552644	0.27051127	0.36748368	0.21426068	0.22014236	-0.07981105	-0.09699303	0.09750146	0.015425688	0.2069423	0.035181392	0.0670442	-0.012171808	0.056183018	0.015409291	
0.039717156	0.37859923	0.26674846	0.21483858	0.19006798	0.10446672	0.117150314	0.006106856	0.32802	-0.45189258	-0.045983527	-0.05412449	0.20135799	0.013575688	0.41405317	0.28222382	-0.13840224	-0.089888416	-0.29885176	0.020058317	0.11617569	-0.07884363	0.17967029	0.08701202	0.32838476	0.15633006	-0.012814244	0.11351014	0.21559937	0.046484027	0.26015896	0.14809848	0.31567097	0.17634064	-0.01798744	0.31544545	0.015292668	0.15212572	-0.33919862	0.023355627	0.31102428	0.12398117	-0.13735728	-0.44480294	0.011533603	0.24577443	0.016413487	0.124194056	-0.049889527	0.040038195	-0.44927493	0.23313548	-0.06589418	0.09541323	0.1643686	-0.2573747	-0.10272967	-0.20011	-0.20942365	0.084024645	-0.101853855	0.12104752	0.48361817	-0.20027138	
0.25132158	-0.041055802	-0.053265013	0.117571376	0.012904499	-0.06546226	0.012566531	0.013264605	0.053405315	-0.31911206	-0.0049121547	-0.34544888	0.001111099	-0.030558528	0.18619272	0.11599316	0.12338429	0.05141939	-0.42732695	-0.10215433	-0.14528552	-0.07482062	0.2674009	0.03948247	0.119846575	-0.05267372	-0.23642533	0.20141812	0.21069674	0.123581626	-0.023785077	0.09502517	0.23945415	0.047392257	0.052638352	0.12581012	0.04594675	0.15740167	-0.1454825	-0.007532975	0.15541185	0.031298816	-0.030321607	-0.10224188	0.05047281	0.28168488	0.007757278	0.2776916	-0.10017877	0.11316755	-0.15081288	0.022152921	-0.11000212	0.003311018	0.29398912	-0.3507954	0.13092087	0.05166108	0.111742154	-0.06309128	-0.059014913	0.10532983	0.35511565	-0.0036084359	
