90
64
2
5
2
2
0.019736476	0.038041808	0.09247075	-0.048734467	-0.04032984	0.003476961	0.014594853	0.1349927	0.061254404	0.030048855	0.18896782	-0.018136032	0.05019508	-0.034276646	-0.021247767	0.07257578	-0.015248224	0.025421932	0.013651268	0.09135081	0.076951735	-0.01527044	0.13854972	-0.062618904	-0.011276338	-0.05214118	0.13219674	0.17777872	-0.0979778	-0.075514495	-0.07517285	-0.2113224	-0.026874136	0.0044665397	0.042649105	0.07508935	0.029417224	0.32142925	0.087850116	0.24400935	0.10967094	-0.22379827	0.052758887	0.03714317	0.030880468	0.0030247136	-0.2349795	0.16070841	0.20141046	0.102973096	-0.119752534	0.3914514	-0.0045438004	-0.0070129666	0.056800686	0.007965051	0.16450416	-0.06480411	0.10672588	0.22134309	-0.061984077	-0.043322366	-0.102875896	-0.014967669	
0.09925127	-0.04796747	0.09763585	-0.20268127	0.079705596	0.06589436	-0.047422595	-0.03811403	0.11652645	0.2335508	0.019704035	0.0129515305	-0.026968135	-0.12758821	0.10581554	0.16078834	0.072211914	0.08906079	-0.013632474	0.096301705	0.21346428	0.10220166	-0.013424437	0.06682155	0.111467294	-0.026830118	0.104231484	0.22384621	-0.23722653	0.025003174	-0.0062537706	-0.105462775	0.04376654	-0.1685877	-0.0039941734	0.07778636	-0.024572482	0.043766424	-0.045968436	0.19523512	0.30638775	-0.082255736	-0.010913068	-0.049948018	-0.053346552	-0.033722192	0.039343327	0.099826984	0.20328219	0.16709398	-0.041794844	-0.09948232	-0.06668077	-0.0034048015	-0.18346831	-0.0037914664	-0.054233745	-0.14332841	-0.049406756	0.050142426	-0.28427425	0.1535036	-0.13055064	-0.014611772	
-0.29621908	-0.040450137	-0.06263942	0.31428388	0.038375463	-0.1007792	0.076346785	-0.013481673	0.19269194	0.0955849	-0.1675231	0.14277855	-0.07543269	0.14723007	0.2907853	-0.103983186	0.018125588	0.13976012	0.25405103	0.10557491	-0.07956758	-0.068286546	0.049108047	0.088669956	-0.13045308	0.012401229	0.05735227	-0.34748283	-0.029495934	-0.1488103	-0.035463933	0.21684533	0.016429776	0.034693424	-0.027354017	0.17628922	-0.016951531	0.13547991	0.29329816	-0.16526113	-0.029433548	0.05036382	0.003255372	0.13628922	-0.04067088	-0.038789738	0.01909021	-0.18037722	-0.021298714	-0.20030297	0.21751729	0.2507107	-0.09300421	-0.02895597	0.001163675	0.0041176635	-0.027189525	0.08949004	-0.042926025	0.0046903123	0.11001682	-0.018650703	-0.048201207	0.084666945	
-0.18432048	-0.056224152	-0.06377857	0.06841609	0.029522594	-0.021720627	0.17560008	-0.071221694	0.08523333	-0.14062382	0.40396887	0.08133184	0.05235682	0.07370182	-0.32195872	-0.1216362	0.102043174	-0.11484516	0.42403153	-0.12216876	0.26878566	0.115494624	-0.17696218	0.22133943	0.10076016	-0.10895931	0.0065173837	0.25690535	-0.027288394	0.14650081	0.09406497	0.22212636	-0.00699384	-0.043283917	0.110875204	0.31995663	-0.016246708	-0.034109488	0.18128791	0.11430212	-0.04151073	0.1634962	-0.18066396	0.03534566	-0.038428925	0.014219632	0.21320806	-0.0528716	0.31323317	-0.13249463	0.11313691	-0.08505639	-0.08629484	0.08275475	0.118044	-0.044670973	0.21628952	0.41141966	0.23485628	0.17251778	-0.119633585	-0.20876184	0.01975099	0.014095473	
0.030777307	-0.08521652	0.11093121	0.009589383	0.089184515	-0.051990118	-0.09749348	0.00077037344	-0.004571054	0.0126335425	0.4272186	-0.0060351416	-0.00028636694	-0.16667448	0.2501183	0.2413744	-0.044329274	0.15942702	-0.398924	-0.01875425	-0.15321723	-0.21402766	0.03729701	0.08306385	0.22447027	0.010747007	0.30114195	-0.010917093	-0.04267146	-0.1700899	0.18705225	0.3294959	0.033762056	-0.06916313	-0.05879383	0.097303234	0.043932166	-0.17067853	0.077542566	0.34948328	0.22415867	-0.04867618	-0.19446027	-0.12019685	-0.025824267	0.10902409	-0.34185418	-0.21919611	0.15428138	0.02613879	0.057920363	0.008681727	0.24953684	-0.006894989	0.13902025	0.09708059	0.034251496	0.06925244	0.09802728	0.20077516	-0.04052403	-0.13209832	0.085898206	-0.050911427	
-0.15374939	0.026342873	-0.07556167	0.1625791	0.002435465	-0.10949892	0.019674582	0.044035234	0.122750714	-0.21725051	-0.13105676	0.06874428	-0.029667797	-0.045155425	-0.0123062655	-0.0023162002	0.027596617	0.0019796614	0.15460068	-0.08453477	-0.008369001	0.0733056	-0.014935271	-0.08298241	-0.27525052	-0.10089939	-0.124701075	-0.06661804	-0.00810809	0.07607347	-0.07871524	0.11792547	-0.12231749	0.053549115	-0.13324763	-0.24112639	0.036691908	-0.054071896	0.06214308	-0.13592346	-0.08816575	-0.12287351	-0.11990136	0.04494012	0.07486286	-0.0012296017	0.084835306	0.14846505	-0.12856689	-0.20737071	-0.020654287	0.02733047	-0.016189858	-0.15594098	-0.039076433	-0.0034079717	-0.048436753	-0.023557516	0.1495068	-0.290084	-0.049689185	0.003910105	-0.02754876	-0.14811085	
-0.03407028	-0.023123205	0.1569903	-0.088664055	0.040516704	0.13136287	0.16314831	-0.06748634	-0.08890617	0.0004581914	-0.16432749	0.19735163	0.062484045	0.04835084	-0.13861631	0.5092157	0.01523852	0.028284578	-0.03178727	0.11711031	-0.004573301	-0.058766305	0.19405441	0.2071295	0.0044385795	-0.018075082	-0.071454704	-0.08126097	0.054519363	0.20589578	-0.06077976	-0.16763197	0.021272112	-0.0033390198	0.07247989	-0.04968152	0.01231909	0.22182815	0.07488687	0.07191252	0.1355475	0.0048010326	0.088002466	-0.14666754	-0.04222964	-0.2578097	0.06511977	0.048401758	0.056483697	0.042966995	0.15394704	-0.11908335	0.1343489	0.072313644	0.01352297	-0.054396365	0.059204087	0.4102679	0.20407577	0.2011121	0.08475115	0.07156912	0.11763931	0.13374388	
-0.027875016	0.029320605	0.062809505	0.07501287	-0.06934759	0.06910363	0.05351343	-0.08470817	0.068580106	-0.12426265	0.047059797	0.30773735	-0.021564225	-0.20180763	0.046800755	0.17472334	0.0062402487	0.06510453	0.045518216	-0.074239254	0.025513157	0.15048873	-0.04337532	-0.08828199	0.09189029	0.020585408	0.069271915	0.031232389	-0.11888712	0.07873237	-0.032585688	0.19486026	0.07237938	0.0022329513	-0.07140919	-0.29515678	0.13777156	-0.3883721	-0.16503182	-0.004447212	0.07035802	-0.12651205	-0.04783802	-0.1800044	-0.01518324	0.04237014	0.29024315	0.2233434	-0.05828389	-0.13902889	0.055137996	-0.2218171	0.10010118	0.066270165	-0.30138373	-0.038872737	-0.025802283	0.19384354	-0.032723054	-0.04106653	0.028102066	0.030406905	-0.090144455	-0.04645664	
0.034719575	0.0639486	0.01084729	0.08484914	-0.06236063	0.02910744	0.0149059	-0.08431954	-0.08860314	0.17343336	2.6606904e-07	-0.19616766	0.028322885	-0.17003448	-0.1384449	-0.09682112	0.10058277	-0.031491566	0.0649146	-0.009293646	-0.04058459	-0.014479215	-0.079817936	0.021997597	-0.1448835	-0.01781706	-0.046200294	-0.13782677	0.003487767	-0.022008706	-0.05643337	0.26589984	0.031496204	0.15845309	-0.100685865	-0.011303633	-0.11875329	-0.0277036	-0.2986804	-0.058264207	-0.15697311	0.1694107	-0.04695248	0.014547105	-0.060986914	-0.060416453	0.19373596	0.10375157	0.13145629	-0.17357846	0.16598226	0.11663961	0.026180595	-0.04951754	-0.22192158	0.020101829	0.16584466	0.01665715	-0.0010734164	-0.17387506	-0.0068276124	-0.01115335	0.08891238	0.26273856	
-0.016614323	0.0030489687	-0.06517967	-0.09620422	0.03733113	-0.021428742	0.026578916	-0.049388282	-0.051283207	0.13920312	-0.4030816	-0.19016765	0.06287833	-0.064200684	0.09035482	0.05911792	0.07227904	-0.045563575	-0.18277848	0.010783816	-0.1652759	0.04127166	0.096094914	0.14422706	0.013228666	0.036097445	-0.07405202	0.075704016	0.009011332	0.08909659	-0.14541623	-0.28503457	-0.02248883	-0.0075462325	-0.06609906	-0.0008037537	0.14252023	0.10422409	-0.105456814	0.13917881	-0.0034479813	-0.15650634	0.13498083	-0.14163856	0.01061164	0.13312176	-0.24410184	0.17457369	-0.054358073	0.022241967	-0.084884636	-0.07815331	-0.0061838003	-0.14316802	0.020070558	-0.0010761938	-0.27025738	0.02599319	-0.067596726	-0.04148991	-0.09521184	-0.013227355	-0.23148498	-0.13132808	
0.14969838	0.016006539	0.002623434	0.08097431	0.041402318	0.050761733	-0.014835712	0.16454035	0.21037653	0.053719934	-0.08304969	0.06416293	-0.027327472	0.29858422	0.24490863	0.11582898	0.03234361	-0.025959387	0.107184745	-0.17101032	-0.10751374	0.07846582	0.017240085	0.033103064	-0.036667697	-0.01176327	-0.048184186	-0.12921032	-0.063010946	-0.1600693	-0.025463458	0.05805371	-0.043696463	0.04320957	0.14056064	0.0019702716	-0.08619613	0.056916498	0.28209767	0.18005803	0.4777059	0.019550074	0.22599828	-0.034416083	0.003870798	-0.0062850467	-0.18234672	0.023398371	-0.035359155	0.21894313	-0.0006231137	0.16604549	0.060767878	0.081452355	-0.0726677	-0.053095177	0.1532829	0.12017528	0.061157487	0.31592688	0.20269193	-0.0462385	0.18520702	0.23687257	
0.07799658	-0.048828542	-0.0076926276	0.13551655	0.022585306	0.18001997	-0.07701713	-0.041632712	0.08759866	0.0646654	0.3835777	-0.588227	0.034817677	-0.24536254	0.3488923	-0.0033890174	-0.06444962	-0.23661356	0.1297222	0.038436953	-0.16971175	-0.18152842	0.02261726	-0.1672576	0.14262792	0.08188517	-0.08311144	0.32408613	0.005372513	-0.1558028	0.07965594	-0.118004195	0.055993345	0.029064719	0.02070624	0.25062656	-0.0060102157	-0.22382797	0.14896367	0.031458788	-0.13442531	-0.10759576	0.29968357	0.014920552	-0.01909343	0.119914405	-0.3181095	-0.019700114	0.11999753	-0.06353218	-0.2182375	0.1628321	-0.046838943	0.05527717	0.116192944	-0.006079478	-0.0749168	-0.41628748	-0.14380603	0.44805977	-0.14596611	-0.17317571	-0.26694003	0.12168418	
0.08161823	0.04877116	0.01620537	0.10749646	0.0014075647	0.1396801	0.12905528	0.11486378	0.12440279	-0.046778988	0.0255567	0.34176442	-0.09701409	0.17695312	0.076409705	0.19276994	0.017078243	-0.16702308	-0.16291192	-0.10640501	0.20538577	0.1362157	-0.33342487	0.09240785	0.10488683	0.10988006	0.16101316	-0.053391673	-0.27481544	0.095813766	-0.08298963	0.25535724	0.09555255	-0.02202633	-0.019985557	0.12134296	-0.44741166	-0.115228	0.34610164	0.1431131	0.19831094	-0.028006695	-0.06505794	-0.10112726	-0.005943353	-0.023720121	0.09166648	-0.34187382	0.022822473	0.09909191	-0.18271795	0.15240465	0.09980937	-0.05664063	0.21750958	-0.017542921	-0.00085450226	0.14960557	0.17182639	-0.00867632	-0.042160593	-0.25082076	0.29315898	0.05112943	
-0.065764785	-0.0069214106	0.031779163	0.23985901	0.086480156	0.11878144	-0.04390251	-0.22101088	-0.013851988	-0.037998058	-0.1782422	0.066228084	0.061693784	0.36552134	0.083550975	-0.15506706	-0.12311934	-0.09261564	-0.042405922	-0.09469787	-0.05802514	0.13102563	0.017816706	-0.099849366	-0.063256375	0.042509843	-0.18588214	0.046517868	0.1383048	-0.109861456	0.06477296	-0.21775939	0.06586787	0.041725736	0.04500589	-0.3195887	-0.04526937	0.271353	0.10800376	-0.14260621	-0.19807029	0.10506895	-0.08694342	-0.1117431	0.021595458	-0.088034876	-0.09839636	0.04102068	-0.12425363	-0.053897284	0.009187042	-0.09988443	0.02682576	0.088418014	0.19117136	-0.004071219	0.031262603	0.11181106	0.0874917	0.18746158	-0.08525437	0.122791104	-0.17527728	-0.16169274	
0.28906307	-0.023794478	0.16100132	-0.0072178766	0.14289318	0.012136833	-0.31647032	0.06131945	0.20269567	0.15302508	0.0026768642	-0.3090902	-0.12316809	-0.6395565	0.08257162	-0.45664823	-0.053068068	-0.26765174	0.34444225	-0.2875239	0.07833728	-0.014526565	-0.1870671	0.16591726	-0.2518231	-0.01976925	0.21130027	0.1851187	0.06156798	-0.01738437	-0.06177317	0.52913827	0.028465115	-0.12848765	0.10996797	0.061914653	0.044419784	0.06703271	-0.30169904	0.2848924	0.6075268	0.2310452	-0.21143293	0.025698522	0.012696632	0.081504226	0.053832687	0.41362926	0.16886553	0.31279242	0.0031024097	0.1102612	0.013285986	0.10510128	-0.32143474	-0.16487576	-0.3243261	-0.6333585	0.40533134	-0.49863538	0.36183345	0.34792995	0.033833325	0.22949262	
-0.0568432	0.013581347	0.044420905	-0.1418133	0.051194314	0.10597225	-0.11641089	-0.04946506	-0.15305036	-0.095943354	0.079980455	-0.004512801	0.049538914	-0.06347834	0.025516935	-0.041793823	0.11329872	0.079385534	-0.16037819	0.04796603	-0.13211171	0.013363636	0.11413815	-0.058301702	-0.007262581	-0.123845525	0.24649192	0.04000028	0.13720119	0.11164481	0.045177855	-0.07672693	-0.017645285	0.009188437	0.06704491	0.104898594	0.09282924	-0.1573707	-0.12506881	-0.08396102	-0.048019264	0.06271912	0.078570485	0.05673903	-0.045375355	0.07100526	0.097706504	0.21826373	-0.0026120236	0.010882339	0.10752101	-0.17746764	-0.00553483	-0.009848887	0.0831636	-0.013121635	0.16942745	0.09284589	-0.008833313	-0.17268515	0.006369019	0.14187856	-0.3107417	0.114427306	
0.14236584	-0.06631939	0.14927362	0.04873346	0.014512476	-0.14493763	-0.08999654	-0.21087696	0.051332396	0.19269401	-0.124911055	0.18932313	0.013849832	0.3203652	0.14894514	-0.26102874	0.025764173	-0.026070276	0.114577964	-0.076067455	-0.1686318	-0.10296689	0.007153058	0.00027333878	-0.18923673	0.006355226	0.104433335	-0.022627397	0.20689483	-0.19286941	-0.0030718974	0.2527674	-0.07973217	-0.027662644	0.10575388	0.122517414	-0.03602719	0.106435165	-0.071626194	0.09008054	0.13218342	-0.02398642	0.06420307	0.12703413	-0.05291525	-0.074739195	0.14245033	0.22520761	0.077761956	0.16771294	0.08788223	0.0045785266	-0.06749601	-0.19724956	0.06682253	0.0016957523	0.16272406	0.07751418	0.16809186	0.030831859	0.24025995	0.026992232	-0.04044448	0.20969081	
0.018895186	-0.04158245	-0.26407647	-0.15544839	-0.010345953	0.0266682	0.09805276	0.117692195	-0.18060908	-0.3272091	0.12320762	0.24377346	0.09422955	-0.102448	-0.26198313	-0.11314718	-0.03355552	0.11005742	0.101552404	-0.08787258	-0.0034410355	0.029657774	-0.05986983	0.26589853	0.18160348	0.053655732	-0.01164631	0.016647175	0.11649746	0.57568836	-0.02492969	0.39712456	-0.0036187905	-0.07696977	-0.03031076	0.0788255	0.05161016	-0.33776745	-0.037404347	0.019044124	-0.056988813	0.15312997	-0.3014792	0.1170602	-0.10971314	0.12076816	0.25630346	0.23786232	-0.021668157	0.11284646	0.17525066	-0.15444392	-0.11440234	-0.021339972	0.028605433	-0.012614198	0.29404175	0.099264935	-0.1656793	-0.09009986	0.1273103	0.11201523	0.042453364	0.06383516	
0.068615995	0.07381793	0.14669864	0.07807625	0.26154166	0.0912311	-0.3010976	-0.09079916	0.69564086	0.581471	-0.55050695	-0.5157178	0.020406319	-0.38926458	0.96072197	-0.101716764	-0.30874705	-0.24636883	0.12018458	0.40697992	-0.15482374	-0.14339769	0.16234978	-0.1109918	0.15166631	0.03442956	0.6571807	0.28222886	0.0022443593	-0.04540745	-0.040674463	0.023263829	-0.0054633487	-0.05094706	0.038449604	-0.21023689	0.036020707	0.39334366	0.060864348	-0.3985425	0.22052015	-0.15230185	-0.05313211	0.12127551	-0.012060273	-0.08413568	0.07069827	-0.28459918	-0.07243446	0.4402109	-0.28746638	0.59537196	-0.35189146	0.0073335012	-0.11591421	-0.18303873	-0.559661	-0.49981052	0.01672369	-0.119599074	0.37611723	0.8556118	0.22492447	0.20525296	
0.26296484	0.051344074	0.12990329	-0.10589151	-0.070547305	0.0008570359	-0.06119432	-0.37491864	-0.014301666	-0.16460258	-0.04895281	0.09945049	-0.060108777	0.18824494	-0.110891454	0.003231226	-0.049374662	-0.06403999	0.13362569	-0.12491837	-0.017628396	-0.011798453	0.12230754	-0.07670992	-0.11651335	0.06340799	0.11137772	0.26950976	0.01137297	0.00042442087	0.046814	0.21003214	0.008909729	0.0116624925	-0.118258424	0.30525193	-0.05712714	0.13766663	-0.18182969	0.14496529	0.19161013	0.15084663	-0.08542787	0.08060102	0.029951494	-0.01381219	0.026059821	0.097865574	0.2546106	0.0050827395	0.04645063	0.13365395	-0.048562437	-0.015874302	-0.09137314	-0.0010676152	0.36909455	-0.0028277668	0.017405588	0.13542081	-0.010047788	0.02256145	0.12544307	0.02300609	
-0.08006547	0.010525673	-0.0892077	-0.048887737	0.011412617	-0.16184536	0.064161256	-0.2651955	0.2512196	-0.050512858	0.0006949473	0.24286617	-0.016890222	-0.017608408	-0.04205758	-0.059018146	-0.12885994	0.026448008	0.08928516	0.079025656	0.13972875	0.029305588	-0.07866767	0.08546629	-0.0013045468	-0.04981974	0.13180122	0.11999176	-0.009389544	-0.09719701	-0.07125336	0.2018639	0.024240972	0.042171404	-0.06092661	0.10442581	0.079048954	-0.1726244	0.15118064	-0.003656876	-0.09806953	0.026583672	-0.03507667	0.022847872	0.115253545	0.09970789	-0.0794314	0.12970014	0.19178285	-0.029401263	-0.0789416	0.076805815	-0.06394155	-0.0030041286	0.05272646	-0.053054877	-0.0065791593	-0.05206058	0.0651414	-0.037683118	-0.072230086	-0.028751608	-0.04124745	0.23237514	
-0.070155874	-0.0015746402	0.03763656	0.102280706	-0.048381317	0.008779588	0.042830158	0.022557516	0.13261688	-0.07496761	-0.08938799	0.11527932	-0.026499119	-0.0699494	-0.050317388	0.12902689	0.08184866	-0.09631656	0.05231197	0.012705142	-0.0395053	-0.0986637	-0.020479927	0.24736767	0.0017908454	0.024819316	0.08698113	-0.15776399	0.24965222	0.26238498	0.015409809	0.26582468	-0.055558562	0.07067261	-0.021662777	0.18730263	0.03497807	0.06290466	-0.109326154	0.35652134	-0.13847809	-0.033432595	0.11402345	-0.021940801	-0.03347334	0.0011532938	-0.008989485	0.28017938	0.07413944	-0.24670176	0.08455009	-0.08738017	-0.015346574	-0.0697956	-0.08671046	0.038910996	-0.093175605	0.30958563	0.11300394	0.02755689	0.0048205056	0.33602446	0.1183392	0.020777633	
-0.039163668	0.016549967	0.15849924	-0.01035308	0.16128193	-0.10892937	-0.18550473	0.19717723	0.055950355	0.11303336	0.16260396	-0.20274831	0.03985163	0.40152395	-0.002743038	-0.34906444	0.11932661	0.06749414	-0.076367274	-0.083658144	0.09620669	-0.067699514	0.011397199	-0.38749865	-0.009637954	-0.08008636	0.027426194	0.1270596	-0.09721292	-0.07343382	0.029324923	0.15517817	0.03129519	-0.09267955	0.11170404	0.038120065	-0.0035892485	-0.16805156	-0.004584634	0.16197337	-0.16888107	-0.017257495	-0.066732556	0.21179506	0.09640294	0.07345341	0.36657986	-0.1718202	0.05133154	-0.03361131	0.08957785	-0.09537312	-0.13958888	0.038846236	0.16478391	0.0033861757	0.6106413	-0.25487974	0.13940775	-0.33846354	0.108620286	-0.006200913	-0.07323363	0.2658548	
-0.09087824	-0.009972096	-0.22099967	0.011692068	-0.023303255	0.112489164	-0.0030001022	-0.040972516	-0.06610533	-0.017450012	-0.24060549	0.3264748	-0.0142626725	0.13464372	-0.046041198	-0.020402098	-0.07497975	-0.13450329	-0.009446152	0.18246014	0.05802056	0.11678885	-0.07869066	0.2702781	0.049955044	-0.048680495	0.113904715	0.112850964	0.022680283	0.23642606	0.014778281	-0.16480781	-0.024418464	-0.12869696	-0.19188768	-0.4036295	0.1475018	-0.032447	0.018709648	0.2676452	-0.23085253	0.13925588	0.0804075	-0.076649465	-0.055916518	0.2102916	-0.20148362	0.05514482	0.08496567	-0.055318695	0.10054572	-0.313193	0.035229966	-0.11358643	0.07701295	-0.004110879	0.22278695	0.35385314	0.049005393	0.015296454	-0.10848009	0.1434065	-0.27019516	-0.07371248	
0.039425936	-0.051277097	-0.06317527	-0.14507003	0.052650336	-0.06169851	-0.091598675	0.16660272	-0.06271896	0.25229988	-0.005496581	-0.027745802	0.0774964	0.048600413	0.11413224	-0.042071108	-0.021917442	-0.09140516	-0.11876167	0.107522994	-0.050612476	0.15035467	0.028379256	0.021566601	0.10715279	0.07183308	0.11504403	-0.1162521	0.23216514	0.007200435	0.12495768	-0.111538865	0.020405319	0.020618241	0.11354832	-0.022203587	-0.004255866	0.18292424	-0.098832875	-0.056262128	-0.2989735	0.011785066	-0.059031054	0.08379792	-0.032380782	0.058916673	-0.21680938	-0.18329693	-0.013654911	0.13716553	-0.24006653	-0.00999102	0.07303162	0.082075365	0.14761181	-0.024109045	-0.032291766	-0.13984284	-0.047409277	0.096501775	0.11325326	-0.037787806	0.11479201	-0.06730923	
0.013818738	-0.007906672	0.20462589	-0.097873695	-0.04125993	0.009946369	0.027336668	-0.48580325	0.27440503	0.014610905	0.10477513	0.050676238	0.0705923	0.15464154	0.4216342	0.35856423	-0.09934903	0.098283626	0.12148296	0.0044618854	0.086162664	-0.039888453	-0.015382614	0.012838754	-0.09569853	-0.06279238	0.036036633	0.4197579	-0.03247407	0.42824048	0.0016943128	0.2670002	0.04873833	0.051756583	0.01843579	0.038104217	0.02746805	0.10195236	0.28398654	0.09142388	0.13129424	0.10521996	0.10242091	0.0056561544	0.025837243	0.25698408	0.21257934	0.08050429	0.19251929	-0.061529867	-0.048324138	0.38976333	-0.13758676	-0.06810465	0.45933878	0.020495677	0.039563797	0.33096054	0.041774504	-0.03556697	0.030657096	0.017641088	-0.07916395	0.019344991	
-0.13560389	-0.010817721	0.21120265	0.09263745	0.052313875	-0.12495604	0.0939365	0.32338133	-0.062790126	0.08504338	0.16855805	-0.03957354	-0.007124487	0.12224542	0.0036748024	0.1346673	0.1590956	-0.022982946	-0.034707885	0.036152083	-0.0117580015	-0.14679712	0.07864856	-0.12503509	0.25094077	-0.005132265	0.021809082	-0.2952148	0.052949935	0.095924355	-0.004076239	0.058833558	-0.054627337	0.068395995	0.032108996	0.1591637	0.0070262365	0.17699242	0.1885759	0.08572203	0.0895196	-0.1527909	-0.050912715	0.0013830794	-0.021616485	-0.117771916	0.16547176	-0.28014797	-0.1380678	0.19089676	0.12878217	0.34654078	0.0031274569	0.013295979	0.24205454	0.004216943	0.27169076	-0.027109325	0.18353713	0.09215463	0.1374375	0.27564493	0.3187956	0.41124865	
-0.10710349	0.030540528	-0.1629146	-0.48154858	0.103962734	0.07673208	-0.019757835	0.15731423	0.117637806	0.2531589	0.23570268	-0.043908097	-0.03593474	0.35216284	-0.011976731	0.21635355	0.11209881	0.03954239	0.19070026	0.01498879	-0.02541711	-0.042698357	0.026920239	0.35772544	-0.19041254	0.014553514	-0.23440334	-0.00054443657	-0.014774395	-0.043273896	0.01434419	0.08820248	0.032347616	0.062063426	0.017675737	0.39596695	0.034506813	0.07438565	0.10615425	-0.16693151	0.019014686	0.03436477	0.3877963	0.12474927	-0.027497986	-0.07913341	-0.23378688	-0.13708423	0.19162	0.2856881	-0.27651435	0.2198864	-0.020542307	0.0017283281	0.39806786	-0.025597136	-0.24695379	-0.13880138	0.08451299	0.52070695	0.056973424	-0.11963991	0.17910452	-0.0007510884	
-0.0610691	-0.09121596	0.18678406	0.3933101	0.016531682	0.020815996	0.07520377	0.1385364	0.22234517	0.060324192	-0.39392462	-0.0612708	0.16032963	0.173889	0.048021797	-0.13106242	-0.03884939	-0.01927825	-0.0964532	0.12396163	0.025217783	0.18206532	0.03523401	-0.014050482	0.08534278	0.006860008	0.21197478	-0.28068006	0.0817348	-0.07754753	0.025121635	0.23391952	-0.043072388	-0.1305368	0.024192343	0.14770162	0.11423406	0.025667328	-0.08410314	0.27430597	-0.1758801	-0.008039224	0.06498155	0.07405743	-0.038054116	-0.15404609	0.18793346	0.20501654	0.22910906	0.107243806	0.25819287	0.06499744	-0.033842307	-0.0053267437	-0.010612239	-0.035408612	-0.049940575	0.32463858	-0.021528063	0.13175319	0.18057209	0.008521876	0.005969401	0.2254324	
-0.042817514	-0.018201137	-0.13017848	-0.06454414	0.033267766	-0.039643448	-0.06535983	0.031423885	-0.1331863	-0.15131015	-0.07028333	0.08669044	0.10196559	0.12063566	-0.10152737	-0.17449889	-0.05160279	0.08890312	0.050339505	-0.08603829	-0.028017651	0.0076469313	0.00793125	-0.14989232	0.06524182	0.021249609	-0.06704445	-0.09921913	-0.043705817	-0.17701174	-0.08221426	-0.0038718092	-0.01167262	0.03523022	0.042789444	-0.32205194	0.04533136	0.014745282	0.015304916	0.08619829	-0.058324315	0.0066879904	-0.09165297	-0.10830221	0.017233059	0.027040325	-0.010949059	-0.050989144	0.00097518694	-0.32269052	-0.06630985	-0.36925793	-0.0439501	-0.10583478	-0.11082834	-0.009261348	0.09466357	0.10784985	-0.024810283	-0.045341183	0.06448553	0.054176774	-0.1662947	-0.09390104	
0.019065004	-0.036972314	-0.0031020807	-0.062696055	0.09910415	-0.00920066	-0.09034292	0.06631284	-0.38366312	-0.06328416	0.14225191	0.08104766	-0.009152683	-0.15754059	0.02980358	-0.18533957	0.0403557	-0.018316682	-0.13188154	-0.0043885815	0.19661258	-0.031138718	-0.024632627	-0.19597022	0.011942652	0.04359016	0.17568685	-0.04984779	-0.12586409	-0.050360307	-0.07849312	0.025466057	0.034265686	0.028293224	0.02280824	-0.29136443	0.07779241	-0.1304727	-0.1330818	-0.07441468	-0.1067638	0.015545977	0.17478351	-0.040194497	-0.017275175	-0.27292815	0.08595391	-0.2434306	-0.081759766	0.20936279	0.032074284	-0.12298035	0.08918842	-0.0673863	-0.0905673	-0.05008739	0.15794224	-0.044238687	0.023031814	0.018812364	-0.00529014	-0.115010776	-0.088074535	-0.07865061	
-0.003722241	0.09665751	0.0617812	-0.034226835	0.011831404	-0.056977406	0.12472338	-0.17279552	0.12165864	0.011249851	0.28832743	-0.13102685	-0.08362932	0.02815774	0.05423845	-0.09647155	-0.06861736	-0.007979004	0.03209068	-0.15441996	-0.1179986	0.13715935	0.027812453	0.1297186	-0.017073857	0.07873074	-0.16895816	-0.06089341	0.09675059	-0.13700396	-0.05158393	0.4375101	-0.015701363	0.028698172	0.078863025	0.08727138	-0.007057838	-0.21865758	0.14388603	-0.05877693	0.111473486	0.09198499	-0.16307573	-0.028191563	0.1625896	0.09846259	0.022846233	0.055597886	0.20509191	-0.10882087	0.007325116	0.11262623	0.07585	0.07630812	0.11025882	-0.056572236	0.044870093	-0.26666927	0.069451086	-0.11398877	0.09617921	0.042151745	-0.07303937	0.26756492	
-0.09783747	-0.0051006414	-0.010481908	-0.09334544	0.012654296	0.055515096	-0.055381097	-0.17555179	-0.018808288	0.16828747	0.13940802	0.3091513	0.020234216	-0.12270747	0.58769065	0.009639452	-0.021208195	-0.11875118	-0.12814015	0.16754305	0.28500012	-0.08276297	0.26389012	0.11482721	-0.15991046	-0.031971205	0.3209015	-0.024155738	-0.85692024	-0.010884249	0.024988279	-0.10991815	-0.02089737	0.049634185	-0.043252777	0.20224194	-0.14794901	-0.09496171	-0.019908557	0.105364166	0.12419237	0.009287054	-0.13096315	0.12028123	0.011910058	-0.07245119	0.1018381	-0.06452649	0.22435327	-0.024518514	-0.00041879815	-0.20925893	-0.11481011	0.075811304	0.09331421	0.025285142	0.2013043	0.01381564	0.6942619	-0.20030794	0.1993864	-0.124765895	-0.066061795	0.12314392	
0.38658077	-0.032829914	0.21332894	-0.096220806	-0.004293235	0.057835504	0.11351977	-0.25093472	0.25932357	0.11500985	0.2570212	-0.02875525	0.067608476	-0.030793743	0.43497178	0.29962853	0.08528181	0.045860793	-0.22723423	0.16086997	0.052497175	0.06321993	-0.10001894	0.10052741	0.16534854	0.060949504	0.110600494	-0.45406717	-0.009790405	-0.055982616	0.021149458	0.36961287	0.050611492	0.007722506	-0.06419133	0.062685005	0.0031208473	-0.1899756	-0.122964576	0.39640632	0.42940235	0.09937791	0.0902644	0.019842805	-0.067390636	-0.13658784	-0.41850504	0.16149415	0.24882765	0.27508813	0.05602938	0.046446107	-0.23258078	-0.0256636	-0.11054955	-0.0060303085	0.21921405	0.11830427	-0.06927158	0.2396106	0.041116156	0.16763593	0.23119485	0.17716211	
-0.24027476	0.09718472	0.066445895	0.29756862	-0.11801046	0.07455237	0.11502688	0.08245103	0.14431253	0.14009297	0.16640075	0.009254472	-0.1269821	0.15919188	0.09880524	-0.093516104	0.07990945	0.24176876	0.038002092	0.045455575	0.12241329	0.0070837494	-0.0032204418	0.07496047	0.022779657	-0.07552651	0.030330682	-0.097780414	-0.17015916	-0.17796735	-0.01620272	-0.03563389	-0.069801286	0.008144624	-0.05433977	-0.1455342	-0.08856747	-0.020045022	0.35400772	-0.1399087	-0.112652756	0.040049713	0.015656924	-0.11481619	0.04911544	-0.116459526	0.40912816	-0.027112102	0.14967638	0.0026016084	0.23901825	0.11224407	-0.032868695	0.023595078	0.024624543	0.06527924	0.041919764	0.3531373	-0.010630627	-0.12091973	-0.055160027	-0.11955079	0.03564254	0.18182898	
0.05597646	0.0049695186	-0.048799075	-0.03805537	0.046338953	0.08414881	-0.10720475	0.55942875	0.0750732	0.008247364	0.18092896	-0.23653865	0.058058448	0.033778317	-0.02061117	-0.044497687	0.025605902	-0.048439234	-0.2096622	0.24778704	0.066764005	0.20510177	-0.05559225	-0.2779135	0.34602708	0.016892383	0.023292642	0.07506943	-0.23196726	0.17219856	0.022491671	-0.037499286	-0.084294446	0.019662825	0.061060023	-0.015983906	-0.085173875	0.19023153	0.26490816	-0.006696277	0.13618237	-0.24550422	-0.17772791	-0.12980425	0.029795647	0.031577706	-0.10166578	0.0821953	0.20325214	0.037072264	0.078914024	0.20528549	0.10050321	-0.008256727	-0.007788211	-0.02082493	0.1429339	0.101826705	0.07310446	-0.101129755	0.16188987	-0.036950245	-0.050259344	-0.00012559893	
0.2013508	-0.022251753	-0.32585588	-0.2525168	0.026791329	0.09322645	0.037468553	0.17488769	0.26458618	0.14614768	0.1795241	0.0106431665	0.018365197	0.019547619	0.122982666	-0.3362669	-0.041342974	-0.011875288	0.12623319	0.1136272	0.13251379	0.04928115	0.004038059	0.17626205	0.095728725	-0.08431036	-0.27311614	-0.15617263	-0.051102895	0.1581267	-0.06659559	-0.025113197	0.055192474	0.079984665	-0.13383055	0.26063222	-0.077775955	-0.08945926	0.055987075	0.13684408	0.20090869	0.1569592	-0.10777564	0.3714321	-0.08356089	-0.03481747	-0.12077229	0.20035481	0.062919565	0.14714003	-0.040687382	-0.025254637	-0.054186467	-0.08393903	0.13807741	0.020978298	0.19690254	-0.14001971	0.123673484	0.034492046	0.0022706739	0.37155452	-0.12724093	0.3179264	
0.13829988	-0.061177023	0.031243827	0.24660191	0.09204735	0.05371223	-0.081700854	-0.013795362	0.22141668	0.099258244	0.23008357	0.02532441	0.07514056	0.066050395	-0.07450706	-0.09210185	0.070572995	-0.059559356	0.11720183	-0.047658753	-0.057835013	0.089211404	0.084632345	-0.16231655	-0.004102479	0.06641038	0.017471697	-0.30867836	0.067800805	0.29025283	-0.09266725	0.047553282	0.012948333	-0.043184135	0.069607474	0.15224993	0.01532972	0.14979687	-0.165166	-0.08809984	0.12103439	-0.104233034	0.34727386	-0.24071789	-0.09323372	-0.14876607	-0.07317682	-0.19646743	-0.222728	0.59466535	0.05935733	0.34225765	0.24081647	-0.05262449	-0.23355277	0.06490437	0.40838522	0.209014	-0.050476838	0.024592334	0.050569255	0.004287283	0.006228278	0.22265948	
0.064902164	0.0093906205	0.08775874	-0.013149701	-0.09174708	0.013863177	-0.07750589	-0.020789053	0.025494624	0.0903824	0.10240715	0.16256972	-0.1221102	0.3038157	0.017451834	0.11104345	-0.031441044	-0.17522582	0.034268953	-0.014789909	-0.49030077	0.06820793	0.19367501	0.047660924	0.13466135	0.060096554	0.14801921	0.147548	0.5343155	0.1443306	0.010929696	0.18545802	-0.00065068464	-0.08116503	0.031468015	0.118203215	0.14055012	0.27111256	0.09627362	0.18910514	-0.022698963	-0.03636305	-0.067183375	0.08755075	-0.067310534	0.12403708	0.39566773	0.014223523	0.028209183	0.17398122	0.059996035	0.12857279	0.03941091	0.022938909	0.26949102	-0.016996907	0.06752214	0.012534665	-0.26220775	0.080013394	0.003953715	0.21356408	0.6571544	-0.08037623	
-0.06728341	0.06815551	-0.008863482	0.019409832	0.038696945	0.0024483434	-0.11041453	-0.11882387	-0.017891401	-0.23145168	0.25435653	0.21083948	0.06294986	0.07317629	-0.1331125	-0.15605503	-0.09573888	-0.087321505	0.034538805	-0.06371848	0.014474898	-0.059493255	-0.18309477	-0.050937485	0.074641556	0.043876808	0.09513992	-0.08316436	0.009085987	-0.023495669	-0.027076548	-0.031658687	-0.048928432	-0.02729792	0.037298307	-0.094629414	-0.0040616584	-0.11544608	-0.09578003	0.13080657	-0.10466466	-0.13786706	0.09208358	-0.05624911	0.037249185	0.054263372	-0.0058338735	-0.049745087	-0.010209756	0.18272105	-0.12968567	-0.1737847	0.02701508	0.02746561	0.018597567	-0.009650821	0.03985139	-0.037231777	-0.12494712	0.21756911	0.09694679	0.03688801	0.010436012	-0.06186419	
-0.047475796	0.021152982	0.052172553	0.06651418	0.028477173	-0.10935792	-0.07235809	-0.024584686	-0.14599441	0.11376648	-0.08139385	0.08574991	-0.0030720616	0.15923496	0.23268022	-0.20192227	-0.054741032	-0.14851397	0.06826849	-0.006170881	0.021249117	0.08164024	0.011257719	-0.071546674	0.0915603	-0.048271496	-0.0014695065	-0.105483584	0.09974452	-0.12110748	-0.04258852	-0.05550686	-0.064893536	-0.0008600743	-0.060792748	0.0016149262	-0.031209977	0.0034666974	-0.056692336	0.12868144	-0.109994374	-0.005525694	0.18960173	0.05339456	-0.01756583	0.04212471	-0.024635334	-0.029450385	0.056585327	0.015221924	0.0018116225	0.17747138	-0.10997331	-0.038240116	0.18140402	-0.04796866	-0.013788462	-0.09082118	-0.09194976	0.07692452	0.43645227	-0.044726275	0.030660842	-0.19465551	
0.07971624	-0.008698124	-0.03673963	0.03931179	-0.017338498	0.048428748	0.0380007	0.21523447	-0.02393878	-0.12777705	0.048704993	0.21322866	-0.029552342	0.2475351	0.124382615	-0.064378165	-0.016375238	0.0070925364	0.12691507	-0.009591847	0.007125987	-0.083621085	0.024264645	-0.07396229	0.029146472	0.018475713	-0.10591973	-0.06494717	0.088919654	0.16434263	-0.0060224063	0.00676078	-0.049176145	0.11891014	-0.06284391	-0.09313229	0.10036478	-0.019335331	0.18830739	0.25712398	-0.035947952	-0.016243624	0.10465331	0.010424785	-0.0051585687	0.092332125	0.1296019	-0.06157204	0.021811917	0.102679245	-0.007886988	0.09400512	0.062724486	-0.011231817	0.25421876	0.013647003	0.20214306	0.19360304	0.13769339	0.23123614	0.048541524	0.05455452	0.0099616945	0.013237118	
0.008251577	0.066271916	0.012017434	-0.030908745	-0.00860762	-0.023075731	0.02083495	0.14046817	0.018680178	-0.12896183	0.247755	0.15091193	-0.082793094	0.2707689	-0.17654358	0.038653683	-0.06091513	-0.7874711	0.031276044	0.04951432	-0.44988847	-0.00542769	0.18794546	0.00030115378	-0.24462147	-0.030327927	-0.0516293	-0.22519758	0.15139027	0.10575305	-0.08672214	0.059647042	-0.010030096	0.013594943	-0.010243222	-0.10950391	0.13161765	-0.015616187	0.06684427	0.068349026	0.02475662	-0.0026581094	0.14757831	-0.04500752	0.007425987	0.02829141	0.014005334	0.006405143	0.051722046	-0.15399864	-0.08809325	-0.23040402	-0.087819226	-0.020242408	0.21370962	-0.052602857	0.2186315	0.04550273	-0.041063495	-0.10253721	-0.16021985	0.059112463	0.03904188	-0.11972078	
-0.013774701	0.024146501	-0.042628303	0.028842388	-0.04040384	0.06779743	-0.10743065	0.21265484	0.1386118	0.062865354	0.027090257	-0.19537741	-0.05645866	-0.28478655	-0.183185	-0.031929746	-0.022156512	-0.08953568	-0.1880543	0.17027098	-0.021441674	0.14786364	0.0077818413	-0.14436491	-0.090969175	0.033490684	0.052953817	-0.03481915	-0.014462656	-0.19210199	-0.053077757	0.106102206	0.03323614	0.003386818	-0.02120058	-0.478446	0.023119709	-0.09149176	-0.051045638	-0.0438546	0.072548226	0.030216841	-0.1658472	-0.00024031181	-0.07515344	0.093703195	-0.06846895	0.3258691	0.12823962	-0.1250167	0.09523206	0.044868935	0.016294554	0.020992337	-0.18679504	0.009504273	-0.19122946	-0.25667384	-0.08817022	-0.10491709	-0.08042928	-0.071436785	-0.25567463	0.13348556	
0.08960368	0.05823544	-0.020934641	-0.22622436	-0.040304072	-0.026879547	-0.1882829	-0.014064514	-0.052717667	0.047823574	-0.06897834	-0.10891937	-0.010442123	0.07714913	-0.016132906	-0.01476943	0.023271231	0.029047262	-0.04844934	-0.081326164	-0.0670315	-0.15694232	-0.043044563	-0.04487581	0.20822215	0.08195065	0.28658786	0.35827634	-0.17785816	0.011068504	0.11551769	0.03733606	0.047754653	-0.024364555	0.012082466	0.041362558	-0.058851186	0.0066788364	-0.08331998	0.031261943	0.13337722	-0.046019554	0.10527846	0.026414398	-0.00255619	0.14757086	-0.22876063	-0.011257108	-0.12528743	0.24065855	-0.11004859	0.0125553515	-0.09710134	0.021251567	-0.13673475	0.096487634	-9.2942966e-05	0.00838736	-0.23701228	0.0007587687	-0.0653056	-0.017328065	0.13593173	-0.14475504	
0.27353635	-0.037318967	-0.13785566	0.088836595	-0.07691532	-0.11687826	0.16629411	0.236123	0.08460513	0.047267772	-0.18852267	0.3528527	0.0002617075	0.38795424	-0.13893269	-0.22921458	-0.2484905	0.090714626	0.26626915	0.021533115	0.10752854	0.074981466	0.15956989	-0.27031004	-0.099113494	0.03445886	0.035746858	-0.020182816	-0.06562179	-0.08604279	-0.0471745	-0.18939379	0.033209223	-0.068937406	-0.02406693	-0.2384672	0.18061687	0.2506159	0.15903181	0.25075132	0.30622038	0.030056445	0.13427018	-0.12641008	0.00808772	-0.13864873	0.12023233	0.16881508	0.0437566	-0.032695696	0.100425445	0.11697886	0.20510711	0.006540716	-0.2126838	-0.05049728	0.5457205	0.16944854	-0.046366177	0.29801056	0.025140984	0.13467626	-0.16719133	0.4611927	
0.06374992	0.09708804	0.09461272	0.13035204	-0.07827811	0.11234233	-0.017828641	-0.14839153	0.13903677	0.17182411	0.05601352	-0.254898	0.026574718	-0.14336756	0.08481711	0.02570802	-0.028783875	0.10389117	-0.09850226	0.08034705	0.14742094	0.013290267	-0.008344467	-0.14150411	-0.047239378	-0.026676787	-0.11916621	0.19716491	-0.17292796	-0.068509124	0.06913089	-0.08934025	0.01167596	0.07614566	-0.052978635	0.02386594	-0.06114757	0.054549668	-0.043538723	0.09829266	-0.10067852	-0.105107054	-0.028948056	0.025507294	0.05271811	-0.13444419	-0.20271689	0.16780116	0.19515505	-0.16589782	0.018024229	0.2440523	0.10149869	0.02998108	-0.1976221	0.050234318	-0.13631955	-0.07735532	-0.043313727	0.105235025	-0.15347826	-0.00060893694	0.0130473105	-0.1850297	
0.032863487	-0.07640377	0.024401436	0.18953872	-0.099019736	0.0027173888	0.018103078	0.16702545	-0.0027408323	0.037898142	-0.059715457	-0.22465871	-0.027932987	0.08214625	0.13885888	-0.12826915	0.11296067	0.015795987	0.07388977	0.024976129	-0.020437662	-0.11058413	-0.03942483	-0.15575664	-0.121041775	-0.02121765	0.005186761	-0.13321756	0.074023925	-0.22237837	0.02198413	-0.17202276	0.056631062	0.07984634	-0.0073106	0.08311637	0.082036436	0.046972394	0.15587834	-0.10317439	-0.0927292	0.084480196	0.10149424	0.08314667	-0.059552815	0.079522066	0.25781137	-0.14906025	-0.12074656	-0.1711274	0.027767565	0.029745676	-0.02249692	0.017452743	0.10641702	0.050923776	-0.08845228	-0.028972818	0.034607653	-0.03370057	-0.18016344	0.104455784	-0.020575931	0.0968602	
-0.047903128	0.016336994	-0.0943685	-0.034985177	0.011255373	0.032194488	-0.054388627	0.15366617	0.13025461	-0.09210065	0.017985879	0.016097164	0.09576822	-0.03798001	0.41066083	0.07025961	0.0585657	-0.0011313652	-0.13385408	0.064263254	0.07997079	0.0006746984	-0.045956343	0.043526098	0.285245	-0.0416366	0.07216469	-0.20339766	0.03220585	-0.038114987	0.1281003	0.08419521	-0.062815025	-0.055883177	-0.10440595	0.20238993	-0.1442349	-0.018998224	0.32793683	0.03733097	0.08642309	0.024959255	0.044267565	-0.0029302028	-0.0050954865	0.041681133	-0.0255365	-0.24649136	-0.016701387	-0.036411762	0.10749284	0.17880242	-0.18795782	-0.064343594	0.25939834	0.0024793108	-0.19027233	0.22424017	-0.0065197237	0.022803172	0.067268476	0.13045603	-0.17338468	0.0031069212	
0.117357604	-0.0019611514	0.04422387	0.2630275	0.027869241	0.041365035	-0.039924543	0.27049303	0.22411817	0.13803832	-0.37373558	-0.0804299	-0.049355336	0.25761622	0.2230171	0.03864108	0.07880832	0.06098604	0.08121663	0.19354057	0.15253338	-0.047591276	-0.07290125	-0.046280466	-0.0544377	-0.0077400017	-0.0670247	0.04604325	0.058863916	0.22291058	0.05812889	-0.05000174	-0.0053787623	-0.0495991	0.06250868	0.28897732	-0.02730967	0.4530566	0.26877117	0.2739123	0.196502	-0.0926667	-0.015704524	0.24779521	0.005437305	0.06226554	0.07769027	-0.07584909	0.12760292	-0.03559512	0.021095892	0.124659434	0.067828566	0.055774502	0.30739295	0.059130844	-0.07598078	0.27780235	-0.020902213	0.2167447	-0.19245239	0.18563795	-0.19316252	0.08312365	
-0.03452927	-8.9419205e-05	-0.083373226	-0.026095754	-0.018277263	-0.06266053	0.05840846	-0.06544864	-0.15381707	-0.13249287	0.11595654	0.066375956	0.021420488	-0.009829352	-0.031855732	0.08521602	0.024132296	0.03222855	0.36231256	-0.19465208	0.030575933	-0.06506932	0.013832742	-0.14441171	-0.03549389	-0.050819702	-0.25797513	0.03263081	-0.06546333	-0.11557806	0.007852935	-0.27317196	-0.013855271	-0.05116836	0.02685914	-0.19234401	0.020477256	0.14003532	-0.0028285985	0.068839945	0.11664377	0.03869978	-0.08624493	-0.0003938446	0.04333717	-0.07988544	-0.083481245	0.09691375	-0.103324614	0.036550622	-0.07451108	-0.13508101	-0.0056569804	-0.0024738356	-0.13182937	-0.0057799784	-0.023664685	0.08662233	0.056472298	0.38608584	-0.17236906	0.04516904	-0.13600208	0.06299949	
-0.010898199	0.06236248	-0.05587769	0.24509718	0.019594988	0.1505606	-0.23215124	0.19027893	0.17651255	-0.1307895	0.28756025	0.12645248	-0.105248794	-0.14110401	-0.021346968	0.22076821	-0.061601147	0.056218468	0.0898793	0.08465466	0.066503055	-0.13860193	0.02134684	-0.030111963	0.045146003	0.048555866	0.121003136	-0.32283306	-0.1929732	0.18677926	0.011208165	0.31806263	0.03594621	0.032533225	0.055896737	0.014355437	-0.022331024	0.00862826	0.28117815	-0.10805491	-0.020545626	-0.057546288	-0.056793664	0.053775966	0.01906606	-0.06828103	0.26313725	0.057790995	0.09441863	-0.06950432	0.25925866	0.058683887	-0.014834273	0.012394618	-0.07061209	0.007276871	-0.08311251	0.32096398	-0.040511146	0.29775062	0.06719035	-0.09418531	-0.010167818	0.22064109	
0.16125691	-0.046566635	0.20184366	-0.19006492	0.22543286	-0.010093982	-0.12225773	-0.030545497	0.10122139	-0.029830163	0.17569263	0.09307602	-0.035312854	-0.023187403	0.09138206	0.39606217	0.04006635	0.14629184	0.09723918	0.021234417	-0.094493225	0.02126851	-0.01565212	-0.1146194	0.17598736	-0.016431492	-0.118524455	-0.029586542	-0.09882688	0.525007	-0.0036278768	0.14100072	-0.031362582	0.005569483	0.15907161	0.048206642	0.041746855	0.03350265	0.07952954	0.16635408	-0.13099365	0.059375342	0.20351535	0.114826	-0.020770827	-0.16850586	0.24422958	0.16447264	0.18530121	0.07701077	0.056617863	0.16380812	0.1343784	0.16427158	0.24508965	-0.11041527	0.12582856	0.2684528	-0.07713277	0.21139574	0.13125479	0.19688508	-0.15114336	0.05983801	
0.020444408	-0.013298516	0.039148487	-0.4149769	0.04529387	-0.008083463	-0.030784348	0.16111325	-0.044193797	-0.12958667	0.20301573	0.06329778	0.052758034	0.18624265	-0.20175727	0.28530446	0.08485196	-0.03530929	0.024708377	0.016547598	-0.07876066	-0.0047106324	-0.0007678174	-0.1507084	0.46195266	0.07929012	-0.18104632	0.15799257	0.0072136777	0.30941156	-0.13265608	-0.115684375	0.0046282853	0.09178655	-0.010056177	-0.010340547	-0.10468551	0.28540924	0.13276848	0.38763434	0.032112595	-0.089051	0.062064797	-0.003746089	-0.054503385	-0.04136393	0.0044963956	0.0049435757	-0.17125511	0.3090953	-0.17107834	-0.0957505	-0.045656696	-0.036001835	-0.008159283	0.043482054	0.4267045	0.15867949	-0.03917216	0.11357338	-0.03451868	0.23464811	0.106412545	0.07031881	
-0.060418013	-0.037035897	-0.062705874	0.028526966	0.0052723526	0.015041327	0.015465463	0.1344427	-0.06091837	-0.03043686	-0.22210672	-0.08889044	0.04688787	-0.006063637	-0.18780819	0.034543976	0.02736879	0.08996261	-0.065764464	-0.062148888	0.026596649	-0.0011286472	-0.09976894	0.04538187	-0.26183566	-0.06969212	0.1478073	-0.03738847	-0.039428387	-0.07008767	0.0112999985	0.08658428	0.056557823	-0.108049095	-0.018982792	-0.22426938	-0.13179524	-0.06341253	-0.049747698	-0.04932416	-0.036448415	-0.005673654	-0.017836256	-0.021191608	-0.030457502	-0.014160626	-0.020094559	0.06391986	-0.055702265	-0.20579657	-0.049002834	-0.12256441	-0.08542604	0.04856591	-0.08163938	0.0193518	-0.16215992	0.0086091	-0.2363589	-0.115588024	0.0776261	-0.023023611	0.24047074	-0.11106767	
-0.017692491	-0.058450174	-0.052487776	-0.06335242	-0.038235474	-0.08725701	-0.028756158	0.0364221	0.030690657	-0.119266376	0.069159135	-0.016046759	0.0072869593	-0.016793245	0.12678917	-0.114094056	-0.12729265	-0.01915836	-0.17144962	0.021041783	0.20193751	0.016030136	-0.057545345	-0.061477687	0.031521596	0.13687412	-0.06897425	-0.04852129	-0.10531195	-0.14157654	-0.061958592	0.0763488	0.009416323	-0.0748227	0.13461179	-0.029474847	0.021223135	-0.20704634	0.050717186	-0.14388989	0.0042652753	0.02409665	-0.19707116	0.17213163	0.051211245	-0.12762845	0.1055961	0.04597708	-0.12572813	-0.16520713	0.10199572	-0.0933602	-0.011691894	0.00043683083	-0.007994293	-0.048074838	-0.101103045	-0.031463265	-0.02644092	0.17257918	-0.0187274	-0.071415685	-0.058970448	0.05061531	
0.11296591	0.009346768	0.107718304	0.2860499	-0.16654864	-0.09978003	0.08110857	-0.22181894	0.23379456	0.23214099	0.40618557	0.027006272	-0.016414765	-0.077305794	0.1041594	-0.14793143	-0.02454729	0.10604068	0.48139042	-0.09114912	0.09914659	-0.09944844	0.017867608	0.20987917	0.1299255	-0.031114437	0.25339302	-0.051604755	-0.18935606	0.28302327	-0.106739156	-0.037889697	-0.09315167	0.0074747414	-0.11893273	0.10068269	-0.061845098	0.41176674	0.10063802	0.08076871	-0.42064485	0.050657853	0.35552338	-0.16364142	-0.006639286	0.19399299	0.5274416	-0.128925	0.28534868	0.53226006	-0.012667983	0.3612652	-0.022633785	-0.048085112	0.24094053	-0.0090684015	-0.08377858	0.105687775	0.009322265	0.29992083	0.1119993	0.4445661	-0.046112522	0.10033056	
-0.12008759	0.00877912	0.022359844	0.023681823	-0.1424862	0.019492077	0.09056414	0.2693245	0.049189184	-0.24457799	0.15923114	0.10779043	-0.11146821	-0.05196001	-0.19225681	0.6507046	0.007667463	-0.037747398	-0.05424582	0.16361886	0.052300747	-0.055221044	0.10039697	0.09604333	-0.0823813	-0.030547427	0.114930786	-0.34352466	0.033748522	0.27274793	0.035988964	0.17616557	0.0028950118	-0.027089158	-0.20108062	0.15928116	0.0015102928	-0.05616944	0.1668085	-0.047221437	-0.02546216	-0.0047534336	-0.09374543	-0.024361359	-0.0027192766	-0.07280313	0.3328707	-0.022135822	-0.0057176044	0.25270835	0.1605494	0.311092	0.042935975	-0.093963526	0.17092353	0.025345568	0.20863299	0.22251557	0.05096644	0.090967745	-0.18025085	0.01827659	-0.15167864	0.385576	
0.05332119	0.045413245	-0.028438762	0.02831614	-0.020721264	0.2398186	-0.03637302	-0.050722215	0.12440543	0.076301165	-0.03116254	0.018827088	-0.077130415	0.0013050974	-0.08064288	0.17247187	0.012063366	-0.11946902	0.08510781	0.047732446	-0.14824358	-0.02852907	0.039398007	-0.011344405	0.07206793	0.07241887	0.009108887	0.015896354	0.03694528	-0.13883322	0.09970551	-0.05760902	0.020804763	0.06930597	-0.08017373	0.0067375163	0.027520765	0.01314683	0.020552939	-0.091180205	-0.10476305	0.013664732	0.072607145	-0.14542376	-0.038690515	0.018808309	-0.117515035	-0.08571239	0.028819632	0.08372719	-0.092344396	0.21166176	-0.055358548	0.009029824	-0.18427531	-0.01438762	0.05338796	-0.033299193	-0.0677418	-0.17604287	0.03412188	-0.13663062	0.26450342	0.05871105	
0.121814504	-0.06250875	-0.16235636	-0.037364736	-0.007651722	-0.06608907	-0.16552663	-0.07025714	0.15915665	0.009906511	0.234884	0.16966766	-0.05743541	0.24016479	-0.03238123	-0.3145527	0.040212855	0.073352106	0.11691287	-0.07337359	0.04688437	0.011241879	0.035606693	0.18080707	0.21991237	-0.036342286	0.26863626	0.18019916	0.072745204	-0.14229086	0.053817116	-0.0051270477	0.02612775	-0.053884488	0.07463386	0.017926281	0.016542299	-0.015597474	-0.040035103	0.19886124	0.20833313	-0.08101321	0.048448164	0.1209816	0.06500606	0.11999336	-0.3011143	-0.1101804	0.107388854	0.3309936	-0.11837009	-0.012303211	-0.024526412	0.0075718802	-0.040177736	-0.045232188	0.1716863	0.44042763	-0.0075569395	0.36664915	-0.00084365305	-0.1865329	-0.08020104	-0.13006668	
-0.06393007	0.06606295	-0.031430442	0.11455035	-0.1276087	-0.092519835	0.102804966	0.05073149	-0.04644469	-0.16366294	-0.018151732	-0.13044865	-0.18833034	0.1103209	0.077940375	-0.1971024	0.028367592	-0.12108903	-0.14359233	0.06433788	0.03400738	0.14460607	-0.1803753	-0.05584544	0.10550446	-0.16629753	-0.016834678	-0.07104686	-0.118881226	-0.08055504	-0.046116818	0.15659255	0.11446561	0.11049932	-0.21016489	-0.1355315	-0.09771343	-0.12113195	0.14690137	-0.07842716	-0.06428297	-0.0056076953	-0.061179258	-0.16839394	-0.046806686	-0.049903564	0.09622828	-0.14765716	0.17675368	-0.12994358	-0.0656377	0.058483444	0.12740344	-0.15306623	0.16625501	-0.16450734	0.08990612	-0.06376383	-0.08099514	0.018743714	0.030143408	0.05741526	-0.12543964	0.01823104	
-0.1133591	-0.002866005	0.041054226	-0.14153168	-0.09242698	-0.091428295	0.009065362	0.21206097	-0.25841716	-0.046620965	-0.090996176	0.21819411	0.12473419	0.11342992	-0.10246251	0.14655188	-0.13340679	-0.021947555	-0.033090193	0.13372622	-0.27762315	-0.040908422	0.026767727	-0.10678477	-0.030592103	-0.034487363	-0.26619318	0.038022213	0.11687505	0.07484788	0.0384368	-0.0017607418	-0.059809268	0.05579369	-0.026589606	-0.3341107	0.20710862	0.09289258	0.053878937	0.12103628	-0.1516739	-0.052614503	0.15277904	-0.27314016	0.085213274	-0.14353497	0.06933588	0.08599855	-0.13516194	-0.34444216	0.23170948	-0.24086165	0.056906942	-0.01384668	-0.17623493	0.042259816	0.24032533	-0.10340625	-0.11737423	-0.12734021	0.005854775	0.17819852	0.24476394	-0.19613954	
-0.16214213	0.01791012	-0.19810185	0.11378316	0.03673366	-0.016918883	0.115379944	0.5815829	0.256854	0.10223378	-0.07425166	0.18460259	0.0883782	0.19088584	0.06747421	-0.3445065	0.0739796	-0.061381593	-0.0679705	0.33332938	-0.24501196	0.05404142	0.16731805	-0.035891987	0.10897538	0.016781403	0.21491526	0.19175057	0.42628357	0.16558862	0.0065223374	0.23905653	0.0021816131	-0.06731945	0.06998324	0.101468235	-0.029444441	0.12517858	0.1188221	-0.24528556	0.13056386	-0.019060353	-0.023676112	0.10467211	-0.00830015	-0.09445816	0.2688864	0.085529864	0.20538197	0.15605104	0.19618113	0.25513685	0.026323691	0.032810293	-0.03208661	-0.00818915	-0.009998584	0.16587433	-0.12088463	0.0680303	0.03410865	-0.2847044	0.12921415	-0.1334256	
0.16555142	-0.1121682	-0.15306678	-0.040031206	-0.09013113	-0.14592026	0.05255645	0.3885298	0.25772586	0.24441426	0.011859202	-0.053918548	-0.08062508	0.05733052	0.41350105	-0.53181446	0.015459167	0.057006694	-0.1590409	0.030813254	0.022304662	0.10769899	0.05088293	-0.20223781	0.046883505	-0.007637963	0.043988608	0.46442464	-0.049169235	0.24724181	-0.062444013	0.07869856	-0.013211774	-0.10860129	-0.014078298	0.13255358	0.05626609	0.15634753	0.031545755	0.2619923	-0.05408303	0.036885113	-0.06604834	-0.0024323545	-0.025957795	0.08462621	0.353147	0.009266586	-0.007242692	0.19703132	0.061754446	0.5477086	-0.08553631	-0.112458564	0.17486233	0.007982004	0.153071	0.30546877	-0.15509398	-0.024623128	-0.12224592	-0.19190289	-0.31101847	0.13046068	
-0.0102614835	-0.017457109	-0.0031190347	-0.0013919811	0.0015381752	0.020061601	-0.013312214	-0.004217031	-0.00020885254	-0.0001823602	-0.011686341	0.007872417	0.007583802	0.009161924	-0.012470457	-0.013020635	0.0017688724	0.02018158	-0.007964895	0.004890621	0.0018251233	-0.0015272953	0.009082091	0.007439904	-0.002208482	-0.009758625	0.009312358	0.0015884431	-0.008126235	-0.0035952458	0.07562383	0.0021198958	0.017131398	0.001174085	-0.0022589646	-0.008835365	-0.0028053732	0.00273213	0.003437369	-0.0066304095	-0.0027069724	-0.001790641	0.009731638	0.0072892536	-0.022300376	-0.007808845	-0.0021413986	-0.019221965	-0.007346945	0.00016851406	-0.0009251449	-0.002587792	-0.01063022	-0.013478727	0.002266444	0.0007790424	0.00053933664	0.0037148946	0.00014623403	0.009764394	0.0022258768	0.012737133	0.01708311	0.004776689	
0.0139545975	-0.087313235	-0.0031903402	-0.005203509	0.0008012471	-0.015526329	0.02408321	0.01506597	0.0045126197	-0.008342727	-0.02536487	0.012812974	0.034389384	-0.0063197254	0.009137145	0.005265897	0.007334394	0.005766966	-0.0045735724	-0.0023521911	0.05724016	-0.068881735	-0.034847144	-0.013110032	0.034119368	0.00010209395	0.00080607313	0.004173214	0.0022946922	0.009858494	-0.022606373	0.056524478	-0.012938345	0.016638352	-0.0353074	-0.009501389	0.0027716304	-0.019726159	0.0026593835	0.006530233	0.0006825469	-0.00021944345	-0.009166829	0.00072151073	0.032046586	0.0034857122	0.0066144685	0.037095558	-0.01025932	-0.008882735	0.012506264	0.0063015474	0.018259088	0.028785318	-0.016259598	0.00034069712	-9.76248e-06	-0.011723249	-0.008547452	-0.0044647073	0.003961961	0.004370524	-0.015364575	-0.01255503	
0.15627892	-0.014127917	0.0010042324	0.013166284	0.0047932644	-0.4032817	-0.015101071	0.015768668	0.0042275395	-0.0011863743	0.10756435	0.0029145125	0.017010514	-0.070734926	-0.010990669	-0.0007237543	-0.030373693	-0.041895226	0.038674124	0.0061144265	-0.0122499615	0.05497437	-0.018157585	-0.0058189523	0.0497312	-0.019568965	-0.001192168	-0.001948874	-0.0063187475	0.010458237	-0.004920334	-0.11936047	-0.0042282394	-0.14416435	-0.03932695	0.069378234	-0.011346783	0.022177605	-0.004059907	-0.06270387	-0.011062708	-0.011023064	0.008398865	0.007990052	0.56177163	-0.0018094273	-0.04264694	-0.0013539504	-0.06888115	-0.12828131	-0.0057605947	0.16176035	-0.025882702	0.04483622	-0.00610157	-0.0054638954	0.0388871	0.029053777	0.00896629	0.0072876965	-0.0026902203	-0.027402004	-0.005697303	-0.0031677235	
-0.024053564	0.036656257	-0.00033819847	-0.0072001885	-0.014131234	-0.121044196	-0.008113929	0.007091189	0.021105109	-0.003854307	-0.007906068	-0.0017800868	-0.035911962	-0.0030397938	-0.0057913493	-0.0041062348	0.027205946	-0.006015243	0.0052691936	0.0004188524	-0.015393156	0.015953356	0.05188716	0.0014891119	0.004628195	-0.005261597	0.0071901693	0.0034534764	0.0011645152	0.007212918	0.041695427	-0.022248989	-0.01594449	0.0041047526	0.08184489	0.028902255	0.002262926	0.0044922335	-0.006907538	0.020055471	-0.0017841804	0.009509013	0.009634782	-0.0026969565	0.120238535	0.005132474	-0.014958872	-0.0028496452	0.007953011	-0.04768761	0.0021965436	0.022101507	-0.013362873	-0.19199066	-0.008594531	0.00046694244	0.015214123	0.034352478	0.010155642	-0.021739744	0.003633479	0.027723806	0.0030587858	0.014719667	
-0.08154567	0.015889669	-0.0005687606	0.0049069384	0.014335819	0.022205813	0.008880715	-0.005465698	-0.004958335	0.0066035986	-0.028554859	-0.009174843	0.0059479116	0.0044530965	0.0017138246	0.0028341264	-0.014287383	0.0017466795	-0.025329923	0.0013665694	0.0022534323	-0.05112656	-0.0069103516	0.0043919217	-0.046392333	0.03256962	-0.01009951	-0.004677253	0.0012476082	0.0050610476	0.004600454	0.023121657	0.0075487136	0.051473632	0.14111803	-0.01769177	-0.00947898	-0.006123799	-0.005226143	0.035912097	0.008989128	0.010636366	-0.0011441975	0.0009105014	-0.054674517	0.004555544	0.0041948585	-0.0152887665	0.045136932	0.028352283	-0.00027378846	-0.04686696	0.029167173	-0.23262669	0.009283248	0.00036081567	-0.020311968	-0.035734903	0.00016421915	-0.0024575763	-0.0026191592	-0.02280377	0.013104747	-0.012315402	
-0.022341207	0.1050023	0.010323144	0.0048720604	-0.0026696534	0.0052195084	-0.004682334	-0.009785108	-0.0009836995	0.006680438	-0.010636507	-0.010918324	-0.0477799	-0.008385238	0.029935759	0.014736963	0.0015513966	-0.066321924	-0.0069420515	-0.0091430405	0.032139175	0.17327449	-0.040674455	-0.003636624	-0.021158062	0.054983586	-0.010779241	-0.0029083414	-0.01138581	-0.013848593	-0.27083853	0.013567223	0.10601983	0.01907712	0.011866652	-0.014870418	-0.017196884	-0.027489388	0.0040132725	-0.0019512502	0.010812818	-0.0062491223	-0.0071091997	-0.0011907878	0.008093331	0.013890059	0.013093936	0.036789026	0.024200246	0.0051307473	0.013464304	-0.007597481	0.010709796	0.007608873	0.0010048604	0.0035414258	-0.018369552	-0.010986204	0.008404223	-0.006066052	0.0034040143	-0.03204182	0.021864511	-0.01407106	
-0.11942397	0.10813674	0.0021221584	0.009615903	0.008736306	0.059092224	0.002782489	-0.027307352	0.0019606324	-0.018603789	0.029832419	-0.008440172	-0.0025087383	-0.002126551	-0.029623246	0.010158281	0.011366434	0.093639255	0.068480894	-0.0056225806	-0.2941393	0.15960518	0.23645991	0.025011836	-0.07193864	-0.0720026	-0.0046516117	0.008624205	0.046257213	0.02410371	-0.58133674	-0.10949157	0.09994907	0.25607908	-0.004663547	0.0055904547	-0.021443784	0.056233767	0.0040202853	0.07550498	-0.0074153487	-0.0014864156	0.015260395	-0.0066537354	-0.10934723	0.0027651475	-0.013513348	-0.021299915	0.07543311	0.0631662	-0.023628654	-0.13140461	-0.0081495885	-0.024732409	0.0115010245	0.00064146775	0.015440842	0.046729248	0.06664833	0.00301399	-0.0017721967	0.008666473	-0.17620535	0.07596282	
0.07959158	-0.42655385	0.0021152156	-0.016967798	0.003836304	0.14651248	-0.0023159992	0.019219741	-0.05112602	0.0072651417	-0.13292667	0.008811426	0.1624167	0.06792733	-0.032602463	-0.015070901	0.015575176	0.15206364	-0.06750884	-0.013748806	0.03399419	-0.2062444	0.48831734	-0.009217908	-0.037027206	0.3918732	-0.022803165	-0.0064112335	-0.07813082	-0.032890327	0.15814923	0.23209478	-0.027182503	-0.27549988	0.012843833	-0.087286964	0.061340053	-0.008571303	-0.009776887	-0.03041438	0.016941354	0.023422621	0.011008126	0.0040610693	-0.27332157	-0.0018883166	0.03062788	-0.06353555	0.006205348	0.035557173	0.02072721	0.010405852	0.017462492	0.038936596	0.023639223	0.005387072	-0.02754033	-0.10027738	-0.23520586	0.045369018	0.008684878	0.009465386	0.12244804	-0.06834932	
0.082243115	0.5273335	-0.0121283885	0.0033230986	0.0027184675	0.19600631	0.0010274062	0.007795636	-0.009154332	-0.00091390405	0.030149573	0.008995718	-0.35971922	-0.025683476	0.017785536	-0.0016867546	-0.025102215	-0.017617082	-0.003295806	-0.005624734	0.004098052	0.20974974	-0.026442891	0.0064644916	0.041724052	0.060481355	-0.0036745344	-0.004570785	0.029506622	-0.018838603	-0.076810196	-0.0028767376	-0.012219886	-0.49960786	-0.026711557	0.0130408285	0.004669355	-0.0301831	-0.01022703	-0.0445999	0.0037364927	-0.019768069	-0.015347712	0.009525384	-0.18599041	-0.0050609	-0.012749422	-0.0021547622	-0.0650428	-0.018673856	-0.005707758	0.047763478	0.01465904	0.1577595	-0.014018181	-0.00070328196	-0.020433627	-0.030403472	-0.20316361	-0.024613926	-0.0027742009	-0.038873468	0.048928306	-0.053140696	
-0.17410412	-0.21220559	-0.0026649975	-0.005058874	0.0062722494	-0.0076203067	0.0003460804	0.0029370538	0.06578114	0.0072178785	0.029013801	0.0035267067	0.17510553	0.051105104	0.010793302	-0.008662371	0.013233908	-0.015326976	0.014807694	0.0012312656	0.011195303	-0.0147605175	-0.027324358	-0.00397424	0.027270323	-0.5335596	0.016788298	-0.0017096566	0.3067701	0.021635648	0.008160497	-0.030001724	0.027824793	0.08501717	-0.15617841	-0.005650421	-0.016888415	0.012489061	0.024393873	0.038728435	0.0022053858	0.00045211703	0.0028540636	-0.0055808607	0.019666202	-0.0042124465	0.044135388	0.023586087	0.0030184772	0.15512818	-8.219251e-05	-0.11476911	-0.029676951	0.20439962	-0.010333277	0.0027585959	-0.015021051	0.022051536	-0.02606687	-0.012584158	0.0051186993	0.0030425831	-0.062115777	0.01019868	
-0.039646223	-0.035797477	-0.010277549	0.0031178105	-0.0017912599	-0.019340692	0.0068273037	-0.018621009	0.023211688	0.009416882	-0.013640092	0.002816828	-0.11040817	-0.010183442	-0.019752461	-0.0008226611	0.0013129349	0.1601452	0.03860963	0.005280909	0.0413665	-0.33958238	0.040576834	0.01185946	0.025872724	-0.017984001	-0.0187241	0.029771242	0.0214814	0.07148746	0.1580754	0.0144421905	-0.699256	0.020467063	-0.024352899	0.033293888	0.17842995	0.02016021	-0.015406517	0.018269615	0.024516819	-0.008831469	-0.013106313	-0.007880344	-0.016117478	-0.0009917849	-0.044648062	0.035929553	-0.024218898	0.04359448	-0.00823657	-0.027295204	-0.010707394	-0.005243536	-0.038552463	-0.00059955707	0.031738978	-0.03666013	-0.03396023	-0.07849597	0.005764335	0.03218761	-0.31437886	-0.020345801	
0.042740047	-0.01944889	-0.25069305	0.0680086	0.031726945	-0.028028797	-0.48213762	-0.07566301	-0.19504392	-0.09653435	0.06341927	-0.06519015	-0.02565965	0.20747729	0.05197216	0.06370075	0.04034539	0.022969376	0.04825922	-0.18964672	0.0055781314	-0.035584193	-0.0069484455	0.037891854	0.11940845	-0.010742759	0.44902274	-0.11135676	0.02325212	0.34870058	0.11293659	-0.09304989	0.034397744	-0.0026581232	0.013194223	-0.21583937	0.021774277	-0.102965824	0.050539866	-0.0146687385	0.09008873	0.109997414	-0.07496785	-0.39211226	-0.033989035	-0.07461796	-0.03409079	0.057651617	-0.1045282	-0.11039999	0.092331246	0.02401372	-0.11947697	-0.021451466	-0.0034352797	0.30186766	-0.017910035	-0.17966568	0.0054695937	0.17486449	0.019485382	-0.09586425	0.013026424	0.033115815	
-0.054966453	-0.09921363	-0.48646882	-0.14137763	-0.008214433	-0.045085065	0.92782164	-0.09808911	0.31598192	0.14820611	-0.1381779	-0.550512	-0.06964832	-0.26062718	-0.16221577	0.37386742	0.115535475	0.010752895	0.018156422	-0.3601292	0.00040554468	0.17469548	-0.05889631	0.014866864	-0.23016176	-0.012124413	0.029936511	-0.04408071	-0.015732244	-0.34247032	-0.05256634	-0.021013781	-0.029944737	0.019718917	0.07845552	0.07829058	-0.0085120145	0.08327588	0.14026283	-0.012108799	0.0136888	-0.22827005	0.1372782	0.20511901	-0.00713093	-0.22216861	-0.008921258	-0.28978002	-0.02617358	0.09807706	-0.029711567	-0.048799653	0.31348154	0.05246225	0.25491115	-0.8204253	0.35520986	-0.024889292	0.00978035	-0.11902238	-0.002654793	0.19850323	-0.02703667	-0.4609042	
-0.24364798	-0.018065814	0.45405826	-0.03365943	-0.08984253	0.66339093	-0.22561832	0.5210185	-0.19543357	0.33183494	-0.1572369	0.31023523	-0.019087212	0.20631383	-0.131032	0.16528137	-0.62098646	-0.019333092	-0.35710675	-0.48086268	-0.022337811	-0.11475462	0.033786226	-0.38293514	-0.13186657	-0.0141276065	-0.041385647	-0.29957223	0.007614861	0.21428598	0.020171659	-0.05853351	-0.008573356	-0.13940442	0.30585277	0.14067838	-0.009302333	-0.07910258	-0.112993665	-0.3539678	0.07041378	0.0014912459	-0.0009257907	0.09222361	0.57331175	0.85449356	0.021656694	-0.07189303	0.3090538	-0.022488657	-0.06957953	0.009726817	-0.5422559	0.3010595	-0.45880157	0.7887567	-0.23933245	0.09371291	0.010465702	0.086269364	0.029596522	0.08990625	0.03743317	0.24505924	
0.15331055	0.038284756	0.4265643	0.16184497	-0.33363274	0.17948164	-0.39407936	0.0028869607	0.13915145	0.31047252	0.0039805793	0.26278	0.056395248	-0.05005194	-0.16472314	0.036108907	0.8686211	0.0015798981	0.038311943	-0.28445518	0.008097093	0.005633135	0.069535755	-0.16063133	0.2697681	-0.008612642	-0.22567174	0.007994037	-0.033030264	0.0034813257	0.05794119	-0.040594652	-0.002667893	0.03012369	-0.3743237	0.027722288	-0.0120891975	0.057691433	0.04821886	-0.24342775	-0.18355723	-0.16568394	-0.15592565	0.14750917	0.078703895	-0.27726966	-0.23330744	-0.07223131	0.2951594	-0.15989952	0.05857096	-0.0970324	-0.11921321	-0.45761693	0.11357427	-0.3264214	0.14961766	-0.16370977	-0.026852494	0.06946927	-0.036709744	-0.2338863	-0.048552595	0.0739839	
0.064279616	0.02065782	-0.16423033	-0.103370056	0.6436491	-0.13407068	0.10953952	-0.0036983204	0.025364585	0.08322513	0.045804907	-0.03998944	0.0059635695	0.014740794	0.034802523	0.08180249	-0.4407258	-0.017768202	0.04467688	-0.061435204	0.0065950854	0.08608798	-0.0068760267	-0.047029734	0.17349996	0.039840776	0.062331844	0.0507771	0.027114011	0.061935376	-0.017513946	0.023426086	-0.0038746593	0.027918682	-0.75394285	-0.005947712	0.009664973	-0.06412163	0.05192822	0.07725792	-0.03869817	-0.028616937	-0.07559619	-0.022702193	-0.08678077	-0.084766895	0.18053527	0.019762304	0.02876038	-0.018851966	-0.048219047	0.013900077	0.5632091	-0.6676715	-0.04385858	0.03326091	0.019841876	0.09309505	0.0023262387	-0.19415265	0.00037389252	0.13359882	0.022079231	-0.018445572	
-0.12176585	0.11696545	-0.4521968	-0.02840123	0.029161021	-0.0134006	-0.37367702	0.06678897	0.076154254	0.101839066	-0.18236956	-0.15253592	0.079081126	-0.57014173	-0.039960697	0.45620507	-0.084274165	-0.031561557	0.11397153	0.3685156	0.0036101623	-0.34901276	-0.045067407	-0.16259506	0.0005282306	0.0682395	-0.7765077	-0.18560065	-0.0070148986	-0.53359586	-0.27030775	0.11516132	0.10813866	0.010697604	-0.1019931	0.17115514	-0.013944445	0.121516354	0.14033964	-0.081071295	0.05379333	-0.17727768	-0.00028772157	0.6856197	0.04777629	0.28458866	0.37329665	-0.31497315	0.17370279	0.24437444	-0.0067519164	0.07554718	0.16836038	-0.02322754	0.06938503	0.13112918	0.38710833	0.383	0.007470036	-0.06687798	-0.010524966	0.29480785	-0.083065204	-0.26991093	
0.3565682	0.21253654	0.21843205	0.5838367	0.044425596	-0.09600124	0.41220638	-0.9143187	-0.45059305	0.57606214	0.4885523	1.0194349	0.03680743	0.60732967	-0.5060271	-0.33045426	0.2440156	-0.010178359	-0.36492717	0.78717434	-0.04108252	-0.31977677	0.30274972	-0.65210444	0.43641737	-0.08912527	0.057875447	0.3524357	0.014555309	0.626105	-0.5572016	-0.17352985	0.090430245	0.2615953	-0.008763661	-0.54126096	-0.031793043	0.17222594	-0.164319	0.27015534	-0.15268822	-0.3713112	0.13096456	0.49726453	-0.10481263	-0.18395725	-0.30791017	-0.3807377	0.30111927	-0.16872355	-0.28917667	0.4076602	-0.31015095	-0.05441024	-0.5126109	-0.26742133	-0.8060061	-0.08296753	-0.04883915	-0.3761916	-0.046796925	-0.5125028	0.10826291	0.7908668	
-0.48816285	-0.6304702	0.23977567	-0.5010171	0.43887162	-0.2795731	-0.15718107	-0.114310466	0.5963423	0.38236433	-0.040279847	-0.28571594	-0.43072084	-0.5139311	-0.5925943	-0.32550249	0.07173641	0.05374999	0.6013118	0.81101	0.06900752	0.3854398	0.17369835	-0.34287724	0.072340585	0.3346708	-0.018484674	0.15128714	-0.04064348	-0.28051728	0.1259301	0.304001	-0.03579623	-0.24846418	-0.033205792	0.43577385	0.06776085	-0.45931673	0.15861304	0.3961834	0.50812507	0.89483744	-0.8027591	-0.99931127	-0.3251404	-0.9126514	0.36894214	0.5952769	-0.8706653	-0.090817556	0.33498973	-0.5310644	0.34597337	-0.037702292	0.8703022	0.43730292	0.26585063	-0.04012248	0.03372233	0.5883028	0.067516506	-0.06707424	-0.034166597	-0.26881573	
-0.07726252	0.71656376	-0.42869413	-0.17513414	-0.8087556	-0.28230998	0.06754256	0.035565034	-0.51809144	-0.2805751	0.1801537	-0.41604918	0.8120342	0.1981548	0.2760381	-0.21569881	-0.5480488	-0.008356451	0.36663952	0.26890895	-0.0024333338	-0.40619692	-0.086405076	0.39575723	-0.5720912	0.08882142	0.4126278	-0.14289303	0.0166292	-0.12777255	-0.037450362	-0.033345412	0.013612937	-0.41657987	0.14944842	0.2793771	-0.014825334	-0.41863137	0.40042165	0.20067848	0.26890874	0.46915236	-0.35652885	-0.10266923	-0.13239047	0.30391514	-0.1607095	0.13806623	-0.3153477	0.19110224	0.05302913	0.31307808	0.4455293	0.2853453	-0.11775023	-0.39948604	-0.14533995	0.12424517	-0.03176964	-0.257456	-0.004688582	0.3512055	0.011593019	-0.17205006	
0.43937328	-0.29686746	0.020279197	0.16003071	0.061052088	0.08772073	0.13033521	-0.11502538	0.16864426	-0.17507878	-0.15101242	0.12217504	-0.4409088	-0.09563909	0.082939096	-0.05123311	0.38981542	0.027568731	-0.22074725	0.0074279546	-0.0055580097	0.031905983	-0.033909403	0.13029127	-0.49706408	-0.46276617	-0.17841074	-0.25577298	0.019038053	0.019103123	-0.006871067	0.020290675	0.03692393	0.094681844	0.72721905	-0.17500444	0.005971472	-0.003054273	0.5797946	0.2761796	-0.32903486	0.12870812	-0.14626458	0.032609116	0.03148956	0.07033329	-0.00024263067	0.030826665	0.018617852	0.16298291	0.0030572272	-0.12946168	-0.7300926	0.5629504	-0.07342911	0.15740202	0.019667665	-0.09132171	0.014918493	0.21757485	0.020763367	-0.16543837	-0.004535024	0.11529851	
0.18376996	-0.042729948	0.7337575	-0.88416016	-0.10792338	0.054174103	0.521737	0.15479185	0.18114275	0.049708623	0.0463523	0.12846902	0.16380885	0.39627936	0.054832026	-0.099348836	-0.055491537	0.0072177514	0.20754066	-0.13257624	0.0247994	0.62171596	0.09152439	0.0062758606	0.1204196	-0.030173093	0.2682978	0.6888783	-0.021729795	0.17983048	0.16144462	0.025067387	-0.6670205	-0.0083044125	0.076947	-0.11647005	0.003146439	-0.1031766	-0.29687992	0.13675606	-0.47696662	-0.2811968	0.25430673	-0.32832095	-0.01275385	-0.2190587	-0.39127243	-0.6016056	-0.058574498	0.09912385	1.5194019	-0.25562483	-0.06380916	0.019401139	0.040680096	-0.06553233	-0.47614762	-0.20481037	-0.009225709	-0.16702387	-0.04288764	-0.21503699	0.01859259	0.34745723	
0.05478771	-0.029257212	-0.0027223267	-0.023062345	-0.017471496	0.053220376	0.0074682343	-0.07093379	0.008640716	0.018805254	0.04751011	-0.01246438	0.018210806	-0.04884787	-0.018245004	-0.012663367	-0.011376476	0.70310366	0.003051567	0.0059041493	0.58017564	0.031951968	-0.5998383	0.029242277	-0.07127715	0.107664295	0.014565678	0.012979581	-0.41436	-0.0033499522	0.06832834	-0.2041874	0.10543886	-0.011159126	-0.019258074	-0.05391112	-0.82256675	-0.02159606	-0.051221132	0.048003618	-0.08634021	0.03579942	0.0144708855	0.019907445	-0.09721262	0.013395801	0.03612473	0.080131784	0.057758234	-0.05242879	-0.029518938	-0.04072515	-0.0046221428	0.015011189	0.022045225	-4.549507e-05	0.002384965	0.09984718	0.7463226	0.0032801605	-0.009177301	0.081203	-0.27760673	0.055397507	
-0.00832243	0.014144045	0.0016478754	0.015695883	0.0040125814	0.025024742	-0.011074933	0.05067514	-0.0067405836	-0.0048250225	-0.009701034	-0.020401604	0.031687696	0.048451275	-0.029674442	-0.006018591	0.0023731687	-0.12196633	-0.020133628	-0.0005469128	-0.10606933	-0.016355997	0.12781182	-0.016006395	0.011151886	-0.06416477	-0.0032373434	-0.022620892	0.15806188	-0.023622964	-0.050498266	0.028635904	-0.035767518	0.06251266	0.016905602	-0.015395634	0.059847638	0.025535693	0.037453797	0.02421159	0.031884696	-0.026426207	0.0077858255	-0.008211519	-0.03565285	-0.0077400454	0.022830041	-0.010444983	-0.00027793145	0.050555795	0.0013221522	-0.05889782	-0.00088909373	-0.08849368	-0.000527647	-0.00033533882	-0.026606152	-0.029933207	-0.22813003	-0.0102989655	0.0013272521	-0.015583568	0.08510291	-0.041731942	
-0.07879232	0.014885931	0.063262396	0.06835668	-0.015886063	-0.13266112	-0.07913002	0.29403672	-0.5254552	0.34988073	-0.96057725	0.27564198	0.009318232	0.2637708	0.25028884	0.028185835	-0.03332359	-0.20042226	-0.3727459	0.18132578	-0.25590804	-0.021217294	0.21378568	-0.51511264	-0.07357353	-0.040028326	0.5427257	0.0002929267	0.077831805	0.33391413	0.0093198335	-0.071827956	-0.050041996	-0.022821717	0.011667128	0.033719204	-0.17178294	0.7297832	-0.14867349	-0.021173745	-0.6352016	-0.34761167	-0.011536873	-0.14873233	0.0031190796	-0.074447915	-0.46601912	0.025170902	-0.26990107	0.4126568	-0.21225148	0.32534707	0.0015403061	-0.002818281	0.3584696	-0.021359485	0.25667122	0.94280106	-0.029413136	-0.28962705	1.7471648	-0.6909539	-0.10010366	-0.090063155	
0.032591157	-0.13991043	-0.052742764	-0.10727577	0.038632907	-0.087888084	0.03381509	0.19556715	-0.06858931	-0.13685143	-0.02182456	-0.12558033	0.08802166	-0.012932904	-0.076060064	-0.12605266	-0.016186317	0.023874892	0.188555	0.05564967	-0.040650748	-0.112631425	0.13853356	0.37704232	0.17607252	-0.02117094	-0.21229762	-0.1605378	0.19611791	0.06283011	0.07689544	0.29871693	-0.10804109	-0.0396065	-0.010429793	-0.1715787	0.1594831	-0.092777446	0.055968788	0.018893415	0.018848052	0.18899584	0.028647067	0.058229912	-0.062299035	0.08892143	0.16966544	-0.05359966	0.14537042	-0.38944522	0.20137699	-0.13463199	-0.026339823	-0.1416911	-0.022737354	0.022256967	0.019495346	-0.22181536	-0.055477258	0.0031711364	0.09937218	0.19867344	0.07680014	-0.06792286	
-0.29107538	0.19235468	-0.31236246	0.009250791	0.108470984	0.13520026	-0.010477988	-0.026060306	-0.07011125	0.17419411	-0.018710433	-0.014261024	-0.05093909	-0.051320028	0.06623225	0.102022395	0.08424679	-0.038898747	0.05527362	0.056482982	0.025061421	0.009065275	0.00066438166	-0.37462667	-0.4620115	-0.27421424	0.08498936	0.09617722	0.061043326	-0.019674236	0.04851835	-0.09846017	0.01822235	-0.07072962	-0.04011483	-0.3186961	-0.06330226	-0.00029583497	0.036478534	0.12148151	0.05418741	0.22021376	0.09926591	0.007084752	0.020347755	0.021618508	0.12070108	0.044157814	0.11604158	-0.019518752	0.04052898	0.07334014	-0.09358768	-0.069879666	0.31062964	-0.046111707	0.019503273	0.21344742	-0.08273115	-0.009080548	-0.01859969	-0.005221801	0.24550538	0.06417261	
0.3684645	0.053274076	0.0035057236	0.063267715	-0.051158752	-0.0033276333	0.061719134	-0.061206065	-0.11066415	-0.012329725	0.078078724	-0.04583787	0.00050701207	-0.020687224	-0.09255529	-0.08091589	-0.05500591	0.033493847	0.11937213	0.05602001	-0.049029104	0.10723052	-0.029729638	0.4900872	0.04518962	0.06515251	0.027443249	0.02248295	-0.027251627	0.08036363	0.026180727	0.020408584	-0.12722316	0.011608371	0.074824885	0.5713469	-0.013699505	0.008479254	0.013256064	0.058469012	0.010488439	-0.8207422	0.0015881365	0.12362004	0.026063155	0.010481417	0.022851799	0.16823556	-0.018077038	-0.16388251	-0.12532553	0.022358691	-0.08282386	-0.10061844	0.0645831	0.14170353	0.041527886	-0.12303524	-0.0139859505	0.027454332	0.033545695	0.0064872075	-0.825888	-0.06790868	
0.1200728	-0.213873	-0.06737015	0.10081691	0.14485171	-0.23067072	0.0358431	0.0956785	0.17988004	-0.18442006	0.058495767	0.24035382	0.16314231	-0.089429885	-0.044746976	0.3016526	0.25468197	0.15160343	-0.047818363	0.22764574	0.39780027	-0.25148425	-0.055165917	0.069186196	0.057390153	0.17528144	-0.17777756	0.20261005	-0.18935819	-0.5858307	0.20936708	0.5625397	0.0148243215	-0.19712122	0.057862774	0.1443278	0.14271922	0.05202618	0.05488681	0.15029858	0.036585797	0.093689375	0.074054144	0.16816127	0.18132071	-0.20844114	0.17211202	-0.03406511	0.25118384	0.19669363	0.18082446	-0.03619793	-0.123942524	-0.111528024	0.08051839	0.0039250683	0.30868152	-0.09914343	0.06966792	0.1455174	0.012911718	0.0020484396	0.08393231	0.38574728	
0.10713859	0.05241868	0.31728357	-0.03814891	0.22418371	0.59861565	0.012329883	-0.09107452	-0.056153823	0.1756323	-0.087952144	0.011128175	0.1224307	-0.0042112246	-0.043938197	-0.1494232	-0.034366954	0.10956805	0.024463423	0.14347197	0.11293277	0.39885545	-0.03936124	-0.022495184	0.11198821	0.046283044	0.29771623	0.32722765	0.24288057	-0.23379545	0.43292764	-0.034756806	0.08823996	0.29628664	-0.2012222	0.0071309083	-0.06768333	-0.14796233	-0.22186114	-0.06371497	0.07667186	0.08599355	0.16634452	-0.38902754	0.14932555	0.04907553	0.05594348	0.0049455073	0.047187567	0.16643251	-0.062009003	0.13987313	-0.010331254	0.1065635	-0.039735734	0.2034238	0.09401378	0.31254777	0.18757345	0.028186293	0.23229018	-0.020982279	0.123553686	-0.122047715	
0.41319677	0.17776184	-0.017158076	0.092573486	0.05155823	2.4481222e-05	-0.023622349	-0.22807911	0.22310941	-0.22019221	0.024115898	0.041449904	0.0009235714	-0.057970144	0.055951096	0.3340097	0.3728364	0.32072482	0.097912304	0.082730584	-0.01611863	-0.043862626	-0.6254938	0.025662089	-0.40591347	0.15026556	0.014290666	0.2365935	0.0012456258	-0.0016417386	0.031093586	-0.03835117	0.07053561	0.09397797	0.030260453	0.16466668	0.0835955	0.13122965	0.110342056	0.0012183611	0.007507249	0.1195216	-0.07918636	0.2724768	0.15515281	0.021617435	-0.033971734	-0.03349311	0.47039452	0.10001631	0.011358737	-0.28928694	-0.07708468	-0.18155721	0.1754461	0.1741939	0.03359161	-0.31195313	0.009464365	0.019908046	0.009111819	0.16925405	0.06824672	0.20181577	
-0.3821751	-0.07095343	0.020060059	0.15867382	-0.07097663	0.048003092	-0.054784082	0.060619052	0.009146916	0.014452104	0.06661287	0.03611782	0.013197978	0.022332625	0.0770886	0.12248145	-0.009303102	0.058704358	-0.123625346	-0.051683556	0.11219932	-0.05630328	-0.04490976	-0.55191445	0.011862524	0.06335748	-0.012930199	-0.06696286	0.05838227	-0.010809929	0.02199462	-0.009349808	-0.019976873	0.082678236	-0.046171214	-0.5861201	-0.035482023	0.014356026	0.015842967	-0.01595511	-0.038347166	0.21098994	0.011090153	-0.010087552	0.0045148777	-0.0056355074	0.064485036	0.13439295	-0.036333088	0.05772922	0.033347413	-0.049447604	-0.021112958	0.10273955	-0.02418119	-0.0028574641	-0.07089929	0.063600585	0.047979593	0.040534988	0.12042555	0.030143188	0.34653723	0.06889704	
0.07541586	-0.005659951	-0.06854248	-0.0248217	0.10365881	0.19480972	0.09383949	0.19683719	0.11063347	-0.15472561	0.15599479	0.032296456	-0.044917177	0.07327492	-0.19400178	0.13020484	0.3564458	0.3709714	-0.019653754	0.030694189	0.029519953	-0.016547006	0.29644513	0.20679699	-0.15678906	-0.087243706	-0.08814619	0.040045455	0.22485808	-0.16120407	0.21767323	0.44484165	-0.16714261	0.1659242	0.08481803	0.1462742	0.23125339	-0.16146867	-0.15556322	0.0038385808	0.21924849	0.083446965	0.4860528	0.16526921	-0.6331259	-0.19427739	-0.06456722	-0.18034233	0.1702229	0.19109647	0.13775463	0.078233816	0.19276865	0.0055107214	-0.043921854	0.06739979	-0.51247096	-0.08047721	0.09426491	0.019452918	0.18288395	0.1696092	0.14418757	0.19860455	
-0.075865686	-0.08234442	0.2858627	-0.09092088	-0.2772721	-0.08620388	0.09370433	0.050332267	0.010799984	0.3928281	-0.0969036	-0.032697693	0.016746128	0.13606733	0.2312957	-0.078351595	-0.0020867893	0.046328794	-0.03152828	-0.08847107	0.09743118	-0.40720597	-0.05822724	0.04192266	0.13614422	0.01474365	0.41904488	-0.4424262	-0.26236308	-0.24853875	0.58363456	-0.09609179	-0.020655915	-0.06901584	0.010423983	0.0099717565	0.056644134	-0.06743971	-0.09920294	0.16733384	0.24599425	0.048941832	0.07798749	-0.22008754	0.096321225	0.0061770733	-0.007151511	-0.025096403	0.039045047	0.14589673	-0.33892813	0.050407693	-0.15223992	-0.08221984	0.07353103	-0.10313632	-0.1364488	0.1288347	-0.027123999	0.14983343	-0.15932636	-0.12105549	0.041868433	0.091771275	
0.052949406	0.18015432	0.07780734	-0.03218641	0.13844118	0.008546676	-0.24858205	-0.089973226	0.047548544	0.0455935	-0.21122476	0.17233343	-0.0868019	-0.094663285	0.25344214	-0.0030506824	-0.2585696	-0.025334148	0.034013834	-0.047350608	0.26492527	0.07228815	-0.07807086	-0.04728014	0.0345395	-0.19838208	0.120115675	-0.208188	0.36186096	-0.08631593	0.059561122	0.041411307	0.07898717	-0.4604215	0.3002756	-0.1352363	0.22866344	-0.2189174	0.30781728	0.24303456	0.046854086	-0.21509095	0.083882526	0.026311554	-0.060128916	0.13497382	-0.193288	0.18897352	-0.19567992	-0.33206123	-0.029005056	-0.30681795	0.25935733	-0.14514759	0.0742958	0.13999298	-0.10949536	0.27274683	-0.05840809	0.13524139	0.15156229	0.156054	-0.22478189	-0.062472522	
-0.039446484	-0.5417739	0.034471605	-0.15188614	-0.1290394	-0.299345	-0.00469607	-0.24846213	0.012624494	-0.075017594	0.08765078	-0.08187748	-0.09672747	0.0011690984	-0.0076531083	0.08011697	0.16560152	-0.027688319	-0.026249908	-0.013559239	0.16270705	0.1801863	-0.19065689	-0.06723557	0.08344838	0.055758607	-0.26243198	-0.04488432	0.10761274	0.31809092	0.0031871807	-0.0890084	0.1375717	-0.015410288	-0.060342025	-0.102117695	0.017528813	0.19851765	-0.026954025	-0.033253588	-0.28663197	0.027336093	0.12714015	0.09031972	-0.21257834	-0.002406146	0.14287972	-0.09519772	0.055072203	0.10837306	0.039433647	0.22021759	-0.17413566	-0.028146276	-0.12369504	0.24127877	-0.030761097	0.12067565	-0.08758309	0.42837277	0.010720566	-0.022308048	0.028963739	0.100047596	
-0.03816098	-0.05873109	-0.06158604	0.009303913	0.100584365	0.15379164	-0.54205775	0.028821297	-0.23553734	-0.20863473	-0.19319648	0.111911535	0.08496061	-0.09288795	-0.07664838	-0.033271134	-0.099130936	-0.054998104	0.5654765	-0.11140959	-0.033321664	0.08369928	-0.042598277	-0.058768556	0.21498963	0.052744146	-0.26616573	0.110717066	0.21875164	-0.20709452	0.25434977	0.24944337	0.090222746	0.36714664	-0.4269446	-0.19539696	0.27665958	0.082403585	-0.042219695	-0.15233055	-0.0873718	0.09493267	0.109584756	-0.06240679	-0.31368446	-0.13236398	-0.026773885	0.096332476	-0.00673592	0.1312566	0.120630436	0.06327358	0.055299465	0.24270914	-0.18115431	-0.14674857	0.104439296	0.176497	0.04584727	-0.09719453	0.0047916337	0.3028715	0.112966835	-0.030488292	
-0.11153375	-0.106802836	0.11518109	0.03527707	0.06284602	0.22585745	0.07599626	-0.29072168	-0.2836944	-0.06529573	0.061804593	0.090160064	-0.06700751	0.09516183	-0.056165155	0.18156278	0.08221841	-0.036187787	0.0030620983	-0.11566794	0.20763092	0.5851747	-0.0975723	0.07786307	-0.15464517	-0.25457802	0.08649951	-0.48429722	-0.29535735	-0.08442514	0.36853176	-0.07792058	0.31081623	-0.046247434	-0.27673894	0.07749972	-0.060496733	0.15812291	0.010312915	0.08170427	0.03502568	0.067531936	0.10676752	0.09501203	-0.22334687	0.27597752	0.2451219	-0.03264845	0.14046691	0.13286984	0.11080101	0.11492599	0.081818916	0.23805676	-0.17229713	-0.02768194	0.3647926	0.11993811	0.051162057	0.13564943	-0.016075814	0.0044390582	0.15780766	-0.06574827	
-0.5851482	-0.03188802	-0.04069217	0.036850784	-0.06552476	0.17917214	0.014316614	0.036524348	-0.066069655	0.023245797	0.11616476	-0.03851775	-0.06663469	0.05923507	0.13575338	0.11360783	0.009030534	0.016982496	-0.029827941	-0.075114734	0.062984645	0.0083801355	-0.049175315	-0.615444	0.11751118	0.17700692	0.051871587	-0.020822916	0.118957676	0.08965605	-0.03609041	-0.09434547	0.07471622	0.13952821	0.060331956	-0.5972171	-0.037055768	-0.0074582146	0.008810007	0.09163662	0.038625225	0.35004187	-0.058001217	-0.004325285	0.07387936	0.07745291	0.06178521	0.14045401	0.02031851	-0.16292673	0.06547994	0.1252897	-0.1254604	0.011891638	0.22171393	0.124410786	-0.010222188	0.058455203	0.017365031	-0.024877602	0.16088681	0.057778295	0.42708978	0.0735964	
0.08451492	0.20972729	-0.22046636	0.14248306	-0.013248744	0.31538677	0.20895588	0.14965342	0.04061473	0.20630185	0.3174316	0.12866056	0.056003425	-0.46284243	-0.36982104	-0.19115533	-0.14660689	-0.0748323	-0.020736039	0.0056133294	-0.2534917	-0.19098678	0.06583942	0.002883374	0.15942091	0.02498884	0.2717007	-0.13265413	-0.09751891	-0.018083531	0.095814444	0.2205881	0.23960598	0.39946833	-0.19298075	0.2413063	-0.07009402	-0.021489127	-0.21237792	0.22195278	0.18298268	-0.016154429	0.12750603	-0.25883776	-0.081808105	0.10485089	-0.0077795936	0.06971426	0.32746938	-0.0027202477	0.08757076	-0.064309865	-0.022489604	-0.09048103	0.22213458	-0.08097944	-0.16958468	0.08564024	-0.00292892	-0.05235594	-0.08682617	0.015617603	-0.1130049	0.09236454	
0.017047279	0.040316526	-0.19080028	0.27124286	-0.10752768	-0.012577414	0.20931211	0.14588052	-0.020442791	0.38729396	0.11749715	0.11973497	-0.17833665	-0.03181831	0.030560095	-0.070241615	0.10188643	-0.122652896	-0.069187164	-0.12417685	-0.074838236	-0.25383484	0.04954194	0.09981958	-0.13686974	-0.04930259	0.32010597	0.16461244	0.07636204	-0.2072532	0.017999029	-0.018409183	-0.13144201	0.101622574	-0.07509402	0.016468914	0.037128747	-0.03454567	-0.08886922	-0.017601296	0.3825692	-0.08814777	-0.010158835	-0.075212985	0.16327868	-0.19302598	-0.14765038	-0.05772533	-0.114748776	-0.13645077	-0.17786148	-0.0623181	-0.047640096	0.07922244	0.17284195	-0.084630296	-0.14994296	-0.10521828	-0.020865066	-0.072111994	-0.0353854	-0.15903357	-0.056610316	0.050858125	
0.035480388	-0.07211365	0.12020873	0.14454687	0.18804938	0.26959413	-0.11244949	0.12775826	-0.22835352	0.47544196	-0.012714154	0.076851636	0.21555835	-0.017693024	0.07674569	-0.35752246	0.1331017	0.08184982	0.10463941	-0.17327593	0.307151	0.26522785	-0.027803712	0.10043715	-0.010498892	-0.1133689	0.5674472	0.19955754	0.33084744	0.39474785	-0.12347058	-0.05773104	0.03530713	0.09362002	0.078718655	0.064545184	-0.075932205	-0.016258784	-0.07619997	0.19127907	-0.07584448	0.05912293	0.047449682	-0.35536873	0.1301111	0.027265193	0.13756457	0.14077868	0.17615284	-0.011351289	0.01810224	-0.03305288	0.2185826	0.085931584	0.069002874	0.0019914848	-0.037914548	0.32939404	-0.065499514	0.16990674	-0.1810995	-0.23275329	0.020660475	-0.2759531	
0.37743935	0.21947294	-0.069712445	0.009555296	0.008332477	0.06480098	0.031118214	-0.20807026	0.3004989	-0.24652143	0.03240357	-0.055533726	-0.09117478	-0.2583441	-0.37999013	0.57318807	0.25619435	0.33017766	0.053368278	0.06024506	-0.12439848	0.07412783	0.01666281	0.24638757	-0.18472964	-0.22351137	0.17992318	0.04819422	0.17096321	-0.19211386	0.17138222	0.17692144	0.051949337	0.0867878	-0.013562488	0.26419994	0.4345031	0.14187002	0.2326587	-0.22658849	0.038752288	0.14602782	0.5447117	0.2376022	-0.22122997	0.07691845	-0.10445351	-0.3613571	0.11012825	0.4006595	0.025277447	0.024655374	-0.1985369	0.026677461	0.2031231	0.008090614	0.6004272	-0.41177857	0.19677307	-0.10874571	0.046246257	0.15982877	0.12308137	0.09063322	
0.14775874	-0.017537486	-0.011306208	-0.1865782	-0.08682988	0.0893305	-0.064937115	-0.016483624	0.017848158	-0.041779026	-0.05386044	0.012477525	-0.23060623	-0.032906912	0.18774627	0.12681197	-0.7950648	0.06263102	-0.03663621	0.05532269	0.07313675	-0.05111111	0.059305597	0.08509323	-0.042317927	0.06385461	-0.06691159	0.030270055	0.12689404	0.015706582	0.041747004	-0.1042688	0.019791607	0.09262916	-0.13041268	-0.029206654	0.02538267	-0.090787455	-0.010464647	-0.08450684	0.12400176	-0.10702465	0.02736348	0.043796096	0.013885236	-0.036393598	0.11768944	0.3283499	-0.022588363	-0.82323307	-0.22511025	0.088100225	0.028518563	0.12979855	0.28277177	0.24373028	0.0213225	-0.07856279	0.025086029	0.010942687	0.06692697	0.025538119	-0.42471793	0.10228633	
0.06260367	-0.21770935	0.13339457	0.13644367	-0.35874	0.20916206	-0.1474286	0.034969956	0.020773677	-0.01673048	0.24518684	-0.07286712	0.11296206	-0.11335299	0.05291412	0.01718767	0.29172578	0.07685568	0.029248772	-0.18947846	0.0035119068	0.21205828	0.15842715	-0.109009296	0.18735644	0.18804988	-0.2740059	0.11055596	0.08796617	0.040632155	0.041556343	0.1183761	-0.06988977	0.086570606	0.2490307	-0.088872135	-0.028101165	0.14330986	0.01354658	0.22324297	-0.15709619	0.021254648	0.1100822	0.027613029	0.25633642	-0.017528825	0.073011644	0.0007487159	0.057648834	0.24020381	-0.0022887352	0.24866629	-0.08134051	-0.45983216	-0.0021484706	0.05418847	-0.20180787	0.080797896	-0.315902	-0.18910472	0.023096668	0.40340248	0.09279607	-0.11889391	
0.0044405973	-0.256103	0.02577639	0.23659876	-0.09518394	-0.2872414	0.14149942	0.17877823	0.18864413	0.033481434	0.042532552	-0.20746261	0.1435602	-0.020388655	0.08583208	0.0983772	0.17308266	0.06731785	-0.06409847	0.26780862	0.07863635	0.01854456	0.05967671	-0.08616648	0.060459413	0.18290848	-0.010150498	0.08311328	0.18291406	-0.029992377	-0.04826048	0.014138031	0.019324677	0.08832357	-0.039962508	-0.027786272	0.13927975	0.7103768	0.08564919	0.047028296	-0.11614681	0.11561064	0.17865169	0.23860258	-0.057645153	-0.2467198	-0.021229858	0.036883123	0.12354677	0.08957801	0.10307891	-0.08740562	-0.010816061	0.008173299	0.13753816	0.30879545	0.08671959	-0.0535108	-0.0005726131	-0.7095901	-0.2712978	0.04427655	0.059989575	0.13470274	
-0.15785803	-0.04918173	-0.05374928	0.22139357	-0.038554665	0.14285424	0.2136573	0.018570011	-0.18687837	-0.008172714	0.30637267	-0.07115722	0.0941996	-0.0013953802	-0.17798425	-0.2633417	-0.5376227	-0.11357606	0.17081442	-0.12472938	-7.3692645e-05	0.10465529	-0.042710036	0.04396413	0.03941745	0.051644318	0.09223748	-0.015007218	0.10487334	0.006973836	-0.01349543	0.058440175	-0.21725512	-0.0183745	0.27257413	-0.07755921	-0.06967354	0.15713122	-0.04195356	0.31911406	0.0007727962	-0.17479073	0.01780848	0.010643885	0.122411534	-0.021089658	0.053090952	-0.019393424	-0.08264025	0.4781418	0.25380087	0.06586921	-0.03269129	-0.19708614	-0.18906274	0.10365929	-0.0745302	-0.09179455	-0.020677736	0.02918892	0.06540804	0.009802931	-0.28801918	0.0041878833	
-0.6007704	-0.07910957	-0.04801084	-0.032460343	0.06906912	0.11685584	0.008860851	0.0044474723	0.04675653	-0.0068307538	-0.06353699	-0.053144135	-0.15985113	-0.0082244165	0.15256916	0.14893273	-0.04757836	0.0039529884	-0.11041993	-0.06623543	0.020884356	-0.13101591	-0.042724103	-0.500819	-0.0725074	-0.021160722	0.09336767	-0.03906858	0.096499614	0.015646886	-0.028922997	-0.082131125	-0.020695806	-0.030228999	0.04164644	-0.532914	-0.029711396	-0.043267082	0.020022972	0.047038738	-0.005402908	0.25712585	0.08446147	0.04097807	-0.029277837	0.039285105	0.1613724	0.16672246	-0.01249872	-0.057057265	0.032271665	0.019618679	0.0736028	0.084850684	0.063162565	-0.06450182	-0.0037896172	0.036035053	0.009633287	-0.024607366	0.019457644	0.09132331	0.38380444	0.17636064	
0.2599032	-0.029973751	0.046228696	0.4499061	-0.0025584989	-0.05270984	0.038331684	0.08427183	-0.0774277	0.07137874	0.079607226	0.0227373	0.027968267	-0.0022496341	-0.030242885	0.0072984826	0.11400547	-0.028219065	0.076979265	0.006342168	0.09525588	0.115187	-0.051187657	-0.036625467	0.17418212	-0.045501735	0.012014746	0.01744789	0.005580684	-0.0069317417	0.018991249	0.17899753	-0.1491348	0.020850869	0.065486625	0.2790062	0.0043016043	0.055026837	0.019714104	-0.035414763	-0.14464581	-1.1749403	0.06425019	0.059092063	-0.011777382	-0.051477324	-0.052571215	0.14389497	-0.0017103301	0.19899656	0.051347833	-0.053051185	-0.032592095	0.07388568	-0.3589407	-0.070208386	-0.04830445	-0.11645514	0.025982123	0.025504844	-0.04124967	-0.05569347	-0.21184894	-0.10453826	
-0.030097816	0.29077736	-0.018460805	0.3141677	0.16944337	0.044449773	-0.18893744	0.4693909	0.094324335	-0.18535356	0.07369557	0.12020278	0.40600243	0.008389874	0.13275416	0.15356834	-0.020983899	-0.04558023	0.02990797	0.05228124	0.021045206	-0.19256058	-0.44980678	-0.014037015	0.07447838	-0.15377136	0.08152854	-0.05003444	-0.13803905	0.26073414	-0.07180877	0.17712834	0.15344064	0.037869874	0.24212152	0.02023507	0.05440884	-0.11062622	0.18838243	0.097711526	0.26994058	0.08315998	0.021370415	0.23942089	0.205889	-0.28740072	-0.007442848	0.07628918	-0.011179544	0.062316254	0.23034887	-0.079537965	-0.08645268	0.010944366	0.19962007	-0.067392856	0.0419887	-0.09116031	0.12191282	-0.2247122	0.020564046	0.21255864	0.09369698	0.023925412	
-0.1280518	-0.055526428	0.08947799	0.04779193	-0.14937572	-0.018649392	0.059239745	-0.096668854	0.028320827	-0.147359	-0.097264074	0.2603235	-0.1282374	-0.07703946	0.017466066	0.13442667	-0.0030570356	-0.3039921	-0.12827356	0.15859309	0.21083973	0.14955197	-0.09404931	-0.09337218	0.42393357	0.07101663	-0.14805655	0.066079944	-0.029255511	0.15562212	-0.08062255	-0.086225726	0.10324027	-0.1521749	-0.012105897	-0.13945718	-0.005550149	-0.18916622	0.030959781	-0.16706279	0.2289193	0.026035069	0.104638726	0.09494241	0.066910654	0.016073395	0.22264622	-0.082014225	-0.010194173	-0.1312251	-0.05111682	-0.0012846511	0.32351282	0.17102577	-0.05637957	-0.074361436	0.11585403	0.04833498	-3.250246e-05	-0.011206851	0.0896059	0.13581984	0.09492903	0.02439057	
0.15969683	-0.048093226	0.079447985	0.03393375	-0.039966654	0.02113014	-0.03079512	0.027112529	-0.075015046	-0.03146394	-0.054062117	0.048685525	-0.028667474	0.0003196013	-0.005993597	0.011707071	-0.011904472	-0.016068457	-0.05757038	0.021347644	0.014385348	0.011038808	-0.02095864	0.32671207	0.019597253	0.042689648	-0.02353529	-0.035461143	0.015056257	0.012550404	0.0726677	0.05089023	-0.12986048	0.011988246	0.014787069	0.25346288	0.043438602	-0.053579573	0.020245586	0.03041933	0.04410904	-0.65556216	0.06261699	0.019572971	-0.0062907813	0.096394524	0.014297583	0.25972095	-0.032952476	-0.040444884	0.05527839	0.069485575	0.057721652	0.047185194	-0.16627881	0.039542858	-0.02963885	-0.021023905	-0.00483465	-0.008916739	-0.00914877	-0.02717025	-0.7999146	0.004109699	
0.17471457	-0.080458045	-0.05979446	-0.024195256	0.0029998699	-0.25634205	-0.0011624516	0.2580427	0.3778565	0.081468634	-0.17244262	-0.03581059	-0.12487619	-0.5111294	0.049511362	0.31453356	0.28275543	0.08503974	-0.11281596	0.062530205	-0.23952836	-0.2630871	0.0045281746	0.12017297	0.2872623	0.08638238	0.017998876	0.23960829	0.2709134	0.2172907	-0.19208147	-0.037243295	-0.06657787	0.14919041	-0.19440964	0.10367381	-0.00507662	-0.42573076	0.1591307	-0.009094491	0.053955495	0.14134178	0.44369102	0.0721476	0.051318396	0.12915196	-0.07676546	-0.093662076	0.23131768	0.29290292	-0.15176873	0.022465013	-0.063170835	0.08447793	0.12109613	-0.24463332	-0.37923032	-0.0039066966	0.0562889	-0.0016641011	-0.29631948	-0.011867958	0.18604943	0.2627563	
0.048853785	0.00086799474	0.22143427	0.06650015	-0.07363175	0.24646097	-0.15174167	0.005010242	-0.12616153	0.2877332	-0.25839558	-0.062128093	0.26534888	0.00023073284	0.033386618	-0.3149988	0.086382665	0.2208851	-0.03752646	-0.13044205	0.16179276	0.20172606	-0.067132235	0.061520156	-0.0032564148	-0.0041096336	0.27223313	0.13298303	0.20868541	0.09305612	0.28905293	-0.25620526	0.09507864	0.101849765	-0.08710837	0.074549906	-0.26099604	-0.034645244	0.010970285	0.02582715	0.115850925	0.012773888	0.09755014	-0.21725151	-0.0043221195	0.0911982	0.102000095	0.0064821113	0.0618322	0.006219345	0.024493614	0.047380976	-0.069305085	0.045975536	-0.0897195	0.1184507	0.09542728	0.11189874	-0.018074373	-0.038048405	-0.09393126	0.06311913	-0.04529525	-0.22785749	
-0.24611779	0.03192628	0.089962915	-0.054513022	-0.19256553	0.042681374	-0.037680767	-0.044347215	0.054222785	-0.025393782	-0.017835328	-0.07227451	-0.04015455	0.010955963	0.16614854	-0.03461855	0.09914021	0.07956851	0.011657208	0.003907117	0.08123368	-0.028308865	-0.076683424	-0.42154938	-0.5673247	0.31867036	0.01356789	0.10709337	0.04404771	0.03872944	0.033854894	-0.20797406	0.09800597	0.029782956	0.042153098	0.01569998	-0.05077499	0.08363103	0.0029226618	0.0027085862	-0.042844325	-0.23180538	-0.12146736	0.08229049	0.10390304	-0.11271469	0.06398044	-0.09075601	0.14623682	0.12321782	-0.1053249	-0.1501806	-0.009914287	-0.08188298	0.23339574	0.11291811	0.02378769	-0.28109848	0.042354736	0.0431884	0.02386458	0.029090244	-0.25505614	0.033530593	
-0.15542147	0.059717003	0.05630346	-0.113567434	-0.17752396	0.037420005	0.21601276	0.30433413	0.055924412	-0.2286075	0.3158733	-0.07290385	-0.12543538	-0.60016036	-0.2020834	0.041202	0.02204324	0.15173776	-0.038468603	0.14317988	0.055457473	-0.041038472	-0.031487398	-0.15091898	-0.030788679	-0.07997234	-0.11693501	-0.20398887	-0.071324445	-0.021598648	0.12031875	0.059086025	0.078713976	-0.07668229	-0.32540983	-0.21714883	0.1106466	-0.042712104	0.056772586	-0.035834804	-0.027821949	-0.15063475	0.0003600465	0.2964008	-0.023158554	0.17174807	0.0693624	0.27655613	0.091558196	-0.13391678	0.22113273	-0.11617073	-0.17927688	0.08600046	-0.2140206	-0.20095524	-0.14803888	-0.07284323	0.11791129	0.26583174	0.04139257	-0.05638033	-0.051849544	0.3010258	
0.3425061	-0.05381177	0.017287185	0.18257928	-0.015454032	0.05687887	-0.039470773	0.06039946	-0.07477011	-0.033290695	-0.05399791	-0.003768464	0.022078883	0.0099263145	0.05215943	0.034611482	0.1027233	0.057827305	-0.06123565	0.020402135	0.084372565	0.021405697	0.00879734	0.26870266	-0.048928086	0.038238194	0.03325482	0.012963999	0.0046063107	0.035876468	0.061384063	0.04794664	-0.10292742	0.022538854	0.013967914	0.29359582	-0.03225394	-0.026631009	0.00024029866	-0.03323224	-0.04334328	-0.63501716	0.057715483	0.014646182	0.02329735	-0.0071626566	0.06914031	0.31024444	-0.0077550584	-0.16341472	-0.042720996	-0.004856919	0.02483444	0.041946173	-0.118043505	-0.028228916	0.0017972998	-0.09246205	-0.008904947	0.0029013758	0.014279183	0.00027585446	-0.7156536	0.01930626	
-0.28050625	-0.054333184	-0.036677256	-0.029394735	-0.073952615	-0.063401684	-0.11796656	-0.0919046	0.20360011	-0.033059984	-0.16928814	-0.21201128	-0.09627353	0.019668382	0.032351643	-0.15209734	0.23465276	0.20848596	0.31075656	-0.12725866	-0.11502082	0.09526925	-0.14066151	-0.090939306	-0.07185464	0.14412887	-0.14834364	0.025986273	0.24536951	-0.15217766	-0.0006603063	-0.20495784	0.20945293	-0.041707035	0.0829692	0.2581912	-0.08232007	0.1430406	-0.13298677	-0.1465685	-0.039785698	-0.16169435	-0.17581508	-0.021042619	-0.12007104	-0.22884919	-0.034690343	0.19711016	-0.1952921	0.04931173	-0.4863281	-0.021951227	-0.058869846	-0.053524338	0.11631354	0.09737616	-0.02222756	0.13315839	0.011828754	-0.14057003	-0.06503601	0.0906947	-0.04615517	0.014522415	
0.2883137	0.005550071	-0.034554314	-0.008500317	-0.026706465	0.0052752257	0.041105174	-0.025529675	-0.10575401	0.024443632	0.00793427	0.029219596	-0.055464804	0.00035357615	-0.042908862	-0.045086876	-0.2380364	0.02358481	-0.021428825	0.120077185	-0.012332342	0.042033713	-0.047629863	0.38977402	0.01964057	0.034029324	-0.047533195	0.034784675	0.017603192	0.037008554	0.07708102	-0.004953804	-0.12009145	0.041113354	-0.010909603	0.36311644	-0.03127445	0.020785263	-0.0010396496	0.04898184	0.076580204	-0.54948694	-0.0029805899	0.04160928	0.06179203	0.039138038	-0.008607234	0.24371892	-0.025031442	-0.14906149	-0.065257356	0.008112665	-0.033604063	-0.04583087	0.034102622	0.11547549	0.0318776	-0.052102238	0.01237933	0.0069470406	0.008948718	0.023391716	-0.60500103	-0.030295152	
0.117405176	-0.009916518	-0.0049702525	0.023056276	-0.005205848	0.016693315	-0.026290301	-0.016352423	-0.033831507	0.045573685	-0.033940963	0.017254371	-0.07611229	-0.013192122	-0.077828914	0.0056913067	-0.015666956	0.043880723	-0.05418747	0.012931507	-0.0011863715	0.02113787	0.020049743	0.17543353	-0.037174683	-0.023954729	-0.009580257	0.028501151	0.04807728	0.0062991655	0.035948705	0.03681761	-0.13612975	0.016171297	0.015297646	0.21061204	0.033391107	0.007983055	0.040364478	0.007866756	0.045102183	-0.773453	-0.023304043	0.046836123	0.02526644	-0.05932581	0.0016373073	0.26143172	-0.040386263	-0.19941755	-0.064989954	-0.034051336	0.025404569	0.04140405	0.085899256	0.13723938	-0.0034591584	-0.042116776	0.012488837	-0.0014122064	-0.0047007212	0.021878628	-0.78030807	-0.019655868	
-0.35690355	-0.07352488	0.08705081	0.08681235	0.17115203	0.10035714	-0.049072336	0.12752046	0.06476897	0.15861486	0.0016863542	0.0057221185	0.23858082	0.00980624	0.205901	0.13862035	0.14355062	0.24253793	0.047210667	-0.011555205	0.17309272	-0.025167152	-0.26618463	-0.54803073	-0.0009913278	0.04604752	-0.0011815327	0.015732784	-0.019914232	0.07258948	0.24568765	-0.06726563	0.09412936	-0.10504905	0.0026077316	-0.55831873	0.0026678385	0.115718625	0.06005175	0.017766485	-0.081077084	0.36682898	0.037771493	0.05645144	-0.055168927	-0.058012284	0.20632006	0.10070601	0.140595	0.009148785	0.03463295	-0.07255013	-0.12499657	0.09161313	0.0032346428	-0.061154716	0.088157155	-0.020641778	-0.012836076	-0.06034564	-0.06957438	0.15635568	0.43635076	0.20849481	
-0.10712671	-0.17267978	0.07326244	0.058647532	-0.2746623	0.31501248	0.14560476	-0.015960474	0.06420758	-0.16661091	-0.0030292554	-0.24449272	0.024466278	0.26771548	-0.10963744	-0.012771738	-0.11930011	0.14571981	0.056416653	-0.11784562	-0.09786334	0.0070049707	0.13314265	-0.13316596	0.16540803	-0.060956847	0.08087502	-0.32959142	-0.18883906	-0.15140265	0.019964786	-0.26634622	-0.06934973	0.037453536	0.0038692362	-0.101473555	-0.16521189	-0.13224827	0.012985349	0.22850251	-0.111951314	0.12989025	-0.085632026	0.055072337	0.10306381	0.18921326	-0.28115463	-0.008451299	0.043196354	-0.22584857	-0.18503636	0.22362871	-0.051853053	0.0214511	0.053807635	0.21055658	-0.24171935	0.1861813	0.09992928	0.125273	0.090814464	-0.1282235	0.07509745	-0.016288599	
-0.5587962	0.010966384	0.015163979	-0.059140854	0.1656432	0.0380804	-0.05793367	-0.01355394	-0.23144005	-0.038606685	0.012969359	0.093152046	-0.069816574	0.027877897	0.18803482	0.07413635	-1.1688137	-0.18991889	0.075577594	0.15549955	0.016338184	-0.00605657	-0.032523938	-0.2233587	0.102455825	-0.06699067	0.019471418	0.049848	0.05008737	-0.006805078	-0.023609303	0.09186269	-0.083364695	0.00017128272	0.021660715	-0.057149813	0.022313649	-0.041856505	0.030110354	0.107747726	0.11370592	0.05736779	0.07672091	-0.010402704	-0.029571505	0.08908408	0.110789776	0.0020908352	0.10306581	-0.19181408	0.04142322	0.02892784	-0.018859278	0.123585425	0.04285509	0.12923035	0.08661367	-0.05235134	0.0012264606	-0.011205865	-0.040325217	-0.04714848	0.44135222	0.026418371	
-0.07246198	0.1779917	0.05836408	0.13234855	0.13236798	-0.062229734	0.09303728	-0.03926436	-0.012570885	0.21483648	0.035116605	-0.002022642	-0.016942816	0.039878573	0.00215686	0.084509686	-0.0020986183	0.06858536	-0.13834354	-0.31032005	-0.14664377	-0.15702511	0.065712556	-0.096947916	0.056482796	-0.08668133	-0.05998629	0.076104276	0.068632804	-0.011409523	-0.09880352	-0.17570578	-0.054500774	-0.108531006	0.1565918	0.09114884	-0.033123557	-0.002089968	-0.025808727	-0.13515076	0.4254531	0.038046263	0.042297333	0.09366022	-0.02320016	-0.06290908	0.22726256	-0.10076091	-0.19889215	0.13137466	-0.04533072	-0.054864194	0.08499283	-0.023045057	-0.23227476	0.04242394	0.036911637	-0.19183497	0.013485769	-0.1842646	0.14279996	-0.17123109	0.020004144	0.17733	
0.10329328	0.114410274	-0.08835482	0.22562593	0.18286419	0.0010982212	0.11185716	0.23428527	0.031482663	-0.030585725	-0.031743504	-0.09128983	0.11235014	0.03780577	0.13329357	0.028562719	0.12320806	0.186714	0.025884349	0.30102828	-0.015944086	-0.100209676	0.0024615675	0.026020192	-0.41608664	-0.47102615	-0.02052753	0.03641129	0.04108818	0.020197272	0.038975418	0.17984302	0.1251729	0.10822695	0.05593381	0.05212157	0.10813926	-0.06714503	-0.022799226	-0.092973284	0.097241424	0.011008462	-0.15873332	0.024397032	-0.02675345	0.31130126	0.13270563	-0.056935042	0.060843777	-0.007227943	-0.045498084	0.3442332	-0.43961543	0.048856072	0.19487293	0.2562892	0.118868634	-0.020093523	0.0497821	0.16171308	0.10091303	0.052699585	0.01838043	0.23721829	
-0.07684069	-0.23675896	-0.45412424	-0.026754396	0.34219757	0.05051549	-0.006766835	-0.021622837	-0.23810777	-0.06945507	-0.16690193	-0.031237794	0.20683692	-0.06115642	-0.206221	0.0371121	-0.25533435	-0.019724566	-0.007205931	-0.06708303	-0.11802666	0.010931535	0.003917646	0.19236891	-0.025800632	-0.17845875	0.0033107477	0.23145501	0.107627116	-0.029505618	-0.1888813	-0.06582581	0.04555489	0.018083762	-0.056470796	0.048999663	-0.18164167	0.11416127	-0.035054844	-0.08854198	-0.16135187	-0.16795672	0.04811468	-0.16869494	-0.12937415	0.017501676	0.039652336	0.008778047	-0.029800063	-0.036873344	-0.046229355	0.17529774	0.03693998	0.06720632	-0.09324981	0.18169352	-0.13750136	0.10119496	-0.09559167	-0.3499221	-0.09635109	-0.1999027	-0.13362558	-0.007803379	
0.111373045	0.015602703	-0.011522245	-0.1287861	-0.17673112	-0.0033173596	0.103587516	-0.26394606	0.07698264	-0.23377427	0.03162908	0.060397804	0.065039	0.06043883	0.17426261	0.15642978	-0.00023932506	-0.11545687	0.14705105	0.3493625	-0.022293672	0.10182994	-0.08577185	-0.11667272	0.14694549	0.513921	0.14319764	0.06382544	-0.038982857	0.08754306	0.03393033	0.16760682	0.13753533	0.09377109	0.15877086	-0.03529141	0.13162018	0.06300831	0.22267383	-0.07810505	0.075982705	0.06236358	-0.18293029	0.2451371	0.06586959	-0.13151963	0.13731216	0.072441705	0.05830941	-0.11843336	0.0722315	-0.08099956	0.20180331	-0.065110356	0.08229153	0.3349088	-0.040564325	0.0020083634	0.26493928	-0.034965124	0.008795458	0.14686123	0.048272733	0.16962285	
