90
64
2
5
2
2
0.26201907	0.24704371	-0.008572308	0.05991028	0.11174114	-0.18688594	-0.011948426	-0.42137137	0.10059038	0.1831917	0.49556038	0.21134289	-0.09784393	0.12673643	-0.15337418	0.0633133	0.116347685	0.16715598	0.10502546	-0.013963716	-0.18562612	-0.05262662	0.116023466	-0.043763902	-0.022505151	0.024338076	0.0012190554	0.31489575	0.162585	0.09338232	-0.09640255	0.032519884	0.50720984	-0.037118882	0.03355112	0.20180802	0.23012683	-0.025066057	0.12617262	0.18166918	-0.28314653	0.14102603	0.091019675	0.13647602	-0.023420516	-0.019405084	-0.11658785	0.014263732	-0.072452925	-0.054814313	-0.12969483	-0.092709765	-0.1825993	0.031205043	-0.007379084	0.28127033	-0.113621905	0.3109615	0.0564508	0.09539434	0.05456223	0.21820922	-0.1233039	0.065253705	
-0.02081619	-0.1040061	0.011469738	-0.012575198	-0.053896412	0.19542524	0.054473214	-0.018582184	-0.051589992	0.09997772	0.20767756	-0.079203814	0.17532602	0.24920917	0.060149975	-0.09624848	-0.105814725	-0.04368832	0.11390265	-0.05205442	-0.12984066	-0.019386474	0.14361578	0.19474928	0.024738545	-0.098177694	-0.1757002	0.16581741	-0.017768027	-0.15239765	0.15684922	0.09856015	0.5184973	-0.030965101	-0.05199165	0.19016252	0.16646497	-0.08026115	0.099681	0.10825106	-0.33682778	0.009109494	-0.0015344955	0.010419305	0.09205958	0.01556357	-0.021110114	-0.12423058	-0.17278841	0.40253165	0.1112552	0.12291055	0.05004912	0.014070237	-0.12225933	-0.012359596	0.13251452	0.13961008	0.10058953	-0.0007913444	-0.12532377	-0.07375827	0.16290458	0.046319593	
-0.13081089	-0.25253806	0.09195012	-0.06370647	-0.15241358	-0.008945598	-0.14390439	-0.4760504	0.42357785	-0.08098489	0.28621292	-0.09842225	0.001616861	-0.051384807	-0.19331923	0.026738003	-0.020053713	-0.07966036	-0.02637256	0.023209982	0.33255696	-0.20064539	-0.23452827	0.29492962	0.12734058	-0.24001588	0.113205865	-0.33042192	-0.2025381	-0.04943031	-0.06689384	-0.04855416	0.012647115	0.12925808	0.13015641	-0.032337807	0.1064959	0.016570529	0.2526994	-0.12384254	-0.094252504	-0.02235081	-0.061691113	0.45243976	-0.022663074	0.11276855	-0.13551284	-0.21142711	0.25590488	0.2118349	-0.20153067	0.033077125	-0.00520694	-0.08250916	0.038834274	-0.110308014	0.033152685	0.008314568	-0.25906214	0.06658423	-0.21365578	0.047594503	-0.10206977	0.23992437	
0.0272787	0.061295237	-0.07813058	-0.021844665	-0.15693192	0.026086962	-0.11790307	-0.2665398	-0.12083141	0.09198861	0.14188753	-0.23760214	0.27443033	0.074728206	-0.116580665	0.15844972	0.017623626	-0.025335679	0.2212472	0.12255872	0.46879894	0.06467516	-0.18789591	0.16525723	-0.085345425	-0.09308334	0.035465833	-0.042693343	0.14246595	0.13060656	-0.0498819	0.056703154	0.21186048	-0.056167882	0.05714307	0.25783747	0.23743184	0.020382438	-0.03858623	0.112419955	0.029887248	0.09939454	0.0873767	0.10092835	-0.016121743	0.11450532	-0.0025829014	-0.11486705	-0.058396652	0.18061793	0.28124696	0.31801555	0.11505415	-0.0048114737	0.2358477	0.42283037	-0.10147533	0.027379798	0.13569836	0.00085143844	0.35390034	0.1636893	0.088452846	0.18032564	
-0.09267125	0.2739023	0.06937795	-0.13694279	0.0044950396	0.07299176	-0.068560705	0.0030821546	0.09630196	-0.29211965	0.030340562	0.0009488035	-0.05870345	-0.071006164	-0.19519058	-0.18040043	-0.010189799	-0.095257096	0.14748463	-0.14976223	-0.33865404	-0.008144121	0.02277545	0.06634333	-0.053710997	-0.16257036	-0.04628105	-0.27318165	0.08153764	-0.059195377	-0.30212018	0.19369112	-0.121359125	-0.098168	-0.09952333	-0.17990315	-0.0039368016	-0.08337001	0.060138196	0.036410645	-0.05990773	-0.17620502	-0.09089396	-0.18045159	-0.029011108	0.011225234	0.027777953	0.046849158	0.034438085	-0.07845736	-0.083841614	0.22864974	-0.07173709	-0.09137979	-0.2542764	0.08711208	-0.14478086	-0.06566503	-0.009143077	-0.05295931	-0.23033862	0.034660928	-0.036667723	-0.14707957	
-0.08831446	-0.050871637	-0.01476111	-0.053988982	-0.035400365	0.1969661	-0.0053671272	-0.10795174	0.038096532	0.29549852	0.106969684	-0.05643171	-0.19642247	-0.04609996	0.12833719	0.07064962	-0.17013839	0.118445724	0.1374964	0.14758223	0.023159238	0.010434746	-0.03757109	-0.081359	-0.0065838685	0.08598246	0.025576018	-0.09222866	0.1053456	0.17217417	-0.17631252	0.0438917	0.048203927	-0.0045876238	-0.11024568	0.11110027	-0.13521054	-0.14472327	-0.08843679	-0.20438261	0.068601616	0.09235799	-0.1211568	-0.1942561	-0.016324854	-0.058598492	0.2431816	-0.010791654	0.10552623	-0.25089037	-0.16800459	0.11865911	0.03816662	0.047287792	0.32581484	-0.26533657	-0.21951586	-0.04589678	0.045121673	0.046169277	-0.21263643	0.052708622	0.0853107	0.24028067	
0.032951135	0.013020601	-0.04679036	0.028313387	-0.19840631	-0.01690434	0.007805351	-0.12640968	-0.06404361	-0.046129737	0.03148542	0.008278464	-0.13641834	0.03033372	-0.1089149	-0.16220184	-0.044483155	0.045051623	-0.21795638	-0.056493793	-0.39508852	-0.026016356	0.06619527	-0.017123148	-0.010567019	-0.055623144	-0.075995676	-0.14116271	-0.043896496	-0.10076526	0.040962934	-0.086250626	0.05971547	-0.15046866	0.04712331	-0.18338381	-0.1528688	0.044999458	0.0608569	-0.009435538	-0.051008537	-0.07327547	-0.08874337	-0.08543678	-0.10852458	0.035288997	0.06580722	-0.17260598	-0.15290256	-0.3375366	-0.19214359	-0.20327556	-0.014257274	0.08913108	-0.11036588	-0.099993415	-0.09228851	0.03167491	-0.005331755	-0.09780735	-0.06372846	-0.32074955	-0.06595775	-0.20119914	
0.09232564	0.03241699	-0.18811134	0.028135376	-0.08145409	-0.071187936	-0.057160534	0.40356052	0.13152052	-0.1596531	-0.25386667	-0.08633667	0.13541655	0.20887779	0.045370076	-0.15470277	0.12692958	-0.08717523	0.1509894	0.07036918	0.010931434	0.17467512	0.27338725	0.01566417	-0.05552577	0.102426454	-0.040335022	0.34163082	0.18029536	0.056978296	-0.266542	0.21050793	-0.17883609	-0.029653275	-0.03293822	0.20393915	-0.0010499507	-0.24063876	0.08910247	0.09011916	0.122764185	0.04373034	-0.11281905	0.09049222	-0.1522124	-0.02158444	-0.032746714	0.09816115	0.18665208	0.09362514	0.27246222	0.35014674	0.21705441	-0.095187105	-0.06854139	0.2070052	0.03475014	0.20955339	-0.12419999	-0.03520347	0.028547766	0.30306557	-0.01487626	0.052191902	
-0.05093189	0.18375513	0.03548293	-0.0421377	-0.09013065	-0.18957102	-0.029569255	-0.2509969	-0.06275658	0.13129967	0.14617783	-0.054885	0.19441918	-0.041690648	0.109796904	0.36678138	0.086476564	0.04181347	-0.055700246	0.12176236	0.008555181	0.0051718317	-0.16250086	-0.24997258	-0.008828735	0.035871997	-0.12985848	-0.007682977	0.44978574	0.06574728	0.2729527	0.1135066	-0.037239812	0.027042668	-0.08735509	0.1365539	0.23818907	0.09552477	0.00796621	0.15720694	0.012529378	0.056535646	0.11130463	0.2643386	0.011208474	-0.031798255	0.13721518	-0.09724844	-0.20765626	-0.04221211	-0.030362379	0.31295407	0.1404618	-0.004432853	0.24343733	0.13915989	0.23185703	0.10774032	0.27836356	0.00035423206	0.29086584	0.2531082	0.106499165	-0.04699511	
0.07594039	0.2948247	0.03055149	0.11249383	-0.024031771	0.10344291	-0.10870101	0.23516092	0.028559746	0.13517325	-0.036331277	-0.004396483	-0.051287916	0.07362319	0.14555745	0.05572316	-0.034461863	0.056576252	-0.03511043	0.16607441	0.034260742	-0.09492545	-0.04040841	0.30205625	0.0037103347	0.6796099	0.079485245	0.25370666	0.13017048	-0.21390413	-0.64569277	0.17451584	0.15300705	0.07925837	-0.03219975	0.10105738	0.109798685	-0.09924337	0.20056146	0.06031501	-0.008454738	0.19231687	-0.031037185	0.11512719	0.06279254	0.025544962	0.09577718	-0.08414504	-0.22672255	0.15065846	0.29738355	0.066807576	0.0972088	0.103390895	-0.2863991	-0.12936974	0.119216196	0.11721692	-0.18841073	-0.057716466	0.2958558	0.115697	0.08973661	0.14614558	
-0.34436	-0.19131096	0.22369725	-0.11644912	-0.086000055	0.023483755	-0.06803229	0.028032375	-0.1497014	0.10422043	-0.30537254	-0.15554501	0.08713126	-0.023341915	-0.23314635	0.1549903	-0.025485775	0.040571164	0.0075198766	-0.0503244	0.30766743	-0.02298571	0.1577242	-0.3222264	0.035012484	-0.20880716	-0.042104915	0.034662694	0.0069425064	0.24861042	0.00860724	0.20362692	-0.25194076	0.011409649	-0.034779146	0.36938086	0.15862657	-0.065968126	-0.12725541	0.16156785	0.015932199	0.022210026	-0.20123038	0.030511366	0.04793432	0.016169311	-0.12775488	-0.3107667	-0.23272435	-0.0915192	0.048595447	0.09407701	-0.22468589	-0.089991696	-0.090309024	0.046966936	0.04242467	0.08649664	-0.176557	-0.18599741	-0.026554754	0.24484307	0.03102287	-0.11473792	
-0.10025817	-0.36133426	0.055561453	-0.12031874	-0.034113433	0.21134444	-0.018841367	-0.17105374	0.01805847	0.36390364	-0.17683388	0.0029196213	0.18946448	0.14122845	-0.20955722	-0.08682025	0.22508304	0.01289073	-0.0072133536	0.23442437	0.27903056	-0.09853148	-0.05531221	0.06665163	0.0029403241	0.11274579	-0.060416754	0.059099425	0.22614068	-0.13918401	-0.22560236	0.073718965	-0.20596372	-0.080510624	-0.01685929	0.14643304	0.1545465	0.057876445	0.037425917	-0.04040299	0.07132713	0.28509715	0.042807918	0.18739766	0.07785159	0.011980461	0.108777046	-0.14622812	0.07272629	0.1302284	0.06692799	0.17683925	0.05084275	-0.09200058	-0.16216199	0.47237378	0.0034064483	-0.2056075	0.06888375	-0.08571464	0.023446122	0.20361023	0.052473094	0.01792141	
-0.105898544	-0.145504	-0.08345843	-0.06315432	0.082415536	0.14227991	0.007445964	-0.0984004	-0.061329145	0.20825158	0.032116015	0.29285282	0.046035808	0.09045337	0.041156456	0.031221962	0.051730078	-0.006817723	0.023178272	0.040908262	-0.03873977	0.13340771	0.37248614	0.057828747	0.06451634	-0.051600736	0.12638456	0.24091168	0.16847476	0.021792358	0.21467291	-0.08264057	-0.34382537	0.15550417	-0.0112613905	-0.04934833	0.034017805	0.06119044	-0.08014688	-0.0006412604	0.016133338	-0.12753633	0.057473112	-0.0033165903	-0.04270171	0.02702213	0.04911575	0.0509319	0.45170528	-0.13659689	-0.32669324	0.060002234	0.0831969	0.08103169	-0.033894278	0.10135877	-0.06411641	0.57021946	0.10077277	0.11774721	-0.07127342	0.25620675	-0.01393549	-0.08118642	
0.15836619	0.21025024	0.13079292	-0.09009239	-0.020068478	0.16505396	0.023784429	0.25496352	0.37756684	0.049524993	-0.0046007303	-0.013728756	-0.0267956	0.10964226	-0.15280274	0.15412915	-0.29110965	-0.10460176	0.15310803	-0.060840894	-0.016566828	-0.24355997	-0.12416598	0.1495737	0.013353736	-0.3974909	-0.18116687	-0.23864076	-0.1377279	-0.24787794	-0.18477805	0.023994092	-0.20771469	0.048525117	-0.043899707	0.30661997	0.1382193	0.024964917	-0.039954934	-0.14582647	0.057832748	0.18916425	0.13827865	-0.021043679	0.055384144	0.010590882	0.04625144	-0.17461817	-0.1229076	0.11332812	-0.22260994	0.191141	0.0151025	-0.06264209	0.17452225	0.14833464	-0.12129581	0.036838092	-0.03757472	0.020434076	-0.099957384	0.15558828	-0.09593583	-0.046840645	
0.14810231	0.03213467	-0.03548789	-0.016007857	-0.032813672	0.23819749	0.03316445	0.26080006	-0.15468793	0.0024182268	0.12481044	0.21453848	0.035884175	0.08495394	0.04311113	0.022568714	0.38898388	0.020250827	0.22915958	-0.0031592238	0.2397977	-0.080196984	0.14548786	0.122023515	0.0835328	-0.057538427	0.04897983	-0.022320919	-0.068444066	0.12013125	-0.16902518	0.119045116	0.27454442	-0.05640282	-0.024062734	0.031306148	0.109860614	0.054790143	-0.13064365	-0.009364399	0.06210049	0.1839476	-0.09553512	0.17361629	0.21451871	-0.019124221	0.065171614	-0.12727147	0.043242026	0.081236705	0.11890541	-0.1652194	0.095754035	-0.05049511	-0.43166003	0.05925128	0.1174913	-0.24725878	0.48042458	-0.01314988	0.09017291	0.039348997	0.0013489076	-0.0032766785	
-0.28330278	0.15763637	0.06705978	-0.010275104	-0.015030288	-0.19861971	-0.03308674	0.20840462	0.035167076	0.1380065	-0.107995205	-0.019948408	0.14822412	-0.11375942	-0.011947265	0.09146085	-0.17565182	0.07100049	-0.053945802	0.15394165	-0.09620812	-0.0027787825	0.08960355	-0.51062596	-0.023908198	0.020200612	0.2583426	-0.10712597	-0.03562837	0.11612107	0.058996588	0.14735286	-0.66182476	0.106751636	-0.062164422	0.21197982	0.09496152	-0.12795006	0.040780995	0.020523759	0.145635	0.11965506	0.1994312	-0.11703838	0.085677974	-0.0076681958	-0.13820657	0.1248149	0.15094727	-0.049177308	-0.105047554	0.13459285	-0.10123152	-0.054157227	-0.14618206	0.065059446	0.20575587	0.0056039984	0.07396929	0.087791875	-0.045354683	0.22738443	-0.08013787	0.06880666	
-0.11667455	0.2757348	-0.020563051	-0.054278616	-0.044885222	-0.14980686	-0.06217363	0.113729626	0.082794614	-0.049546067	-0.1686391	0.06972407	0.021916088	-0.014684781	-0.027567342	0.007816167	0.12605909	0.07318391	-0.02117429	-0.1156284	0.027186954	-0.026687063	-0.25018084	0.05455155	-0.00205368	0.07637195	0.03446142	-0.043283246	0.12505716	-0.15389024	0.06801398	-0.018258767	0.08122211	0.018420918	-0.04430004	0.12102525	0.12901174	-0.052979764	0.090221204	-0.03869152	-0.059297226	0.10937072	0.1796687	0.022294305	-0.037607215	-0.06737615	-0.13414203	0.0032895238	0.45358184	0.15597834	0.15591747	0.047253635	0.007474176	-0.13181317	-0.1590288	0.007407782	-0.0129107395	0.049034834	0.06643236	-0.0064627905	-0.05984336	0.047779836	0.04376746	-0.03336336	
0.0061405427	-0.17777915	-0.03313156	-0.039453484	-0.13806045	0.09111412	0.07426779	-0.013411839	0.15440293	-0.036750745	-0.09427193	0.12031365	-0.06642752	-0.058746703	-0.08497855	0.027753511	0.02400213	-0.0012448282	-0.014453222	0.013770067	-0.12413659	0.1047404	0.26414117	-0.020207606	-0.034334734	-0.046991058	0.064564906	-0.2248668	-0.0022122655	0.09428043	-0.08933876	0.060759716	-0.16402188	0.034521714	-0.07749195	0.002244592	0.02385616	-0.05908422	-0.03582218	-0.06329638	0.061905563	0.01189423	0.074681155	0.02536923	-0.11559118	-0.01690603	0.092063695	-0.06373281	-0.05778079	-0.22079162	0.008381008	0.09538005	-0.12526345	-0.07155644	0.14013706	0.16363859	-0.005978605	-0.047744855	0.015491464	-0.033866275	-0.002641193	0.002754101	-0.017738838	0.021325478	
0.12400939	-0.25265688	-0.075359076	0.011861128	0.1407177	0.030808223	-0.076009	-0.32839862	-0.12619469	0.08673126	0.15213425	-0.0661442	0.11646432	0.027104387	-0.2216745	0.3220144	0.23897447	0.030561525	0.20238428	-0.010840891	0.1368599	-0.10601971	0.22428428	0.063048355	-0.05142545	0.16120149	0.07345267	0.1233538	0.0963889	-0.02754777	-0.10044607	-0.05595273	-0.10170897	0.010444657	0.13631189	-0.06907047	-0.17968908	0.05094858	0.08171649	-0.33077547	0.006730146	0.17178907	-0.15926154	0.39489725	-0.22181188	0.062262196	0.05401638	-0.11530877	-0.12982939	0.098477796	-0.061481938	0.09290725	-0.010315811	-0.010726033	0.0691886	0.22233446	0.16084424	0.123463385	0.066171765	0.05124966	0.21862453	-0.11558404	0.0012012606	0.042649616	
0.018199576	-0.13041419	0.030008169	-0.040432554	0.093361124	0.13082679	-0.14054942	0.20804201	-0.0556165	0.14223336	-0.16451247	0.0117503	-0.064151056	-0.10045842	0.0817907	-0.18730237	-0.07562353	0.062080663	-0.0022082508	-0.09788476	-0.009446514	0.039094165	-0.16884011	-0.04901255	0.057146717	-0.11033053	-0.06918092	0.15479338	-0.03072107	-0.108848535	-0.11711887	-0.059007924	0.2904327	-0.106290154	0.104671605	-0.013525187	-0.14916085	0.091902934	0.060046405	0.012701156	-0.1396708	0.05261694	-0.0033113402	0.08635635	0.19052969	-0.012935899	0.048598655	-0.11429703	-0.117990464	0.046310622	0.15947461	-0.13499686	0.025023866	0.035480622	-0.13538128	-0.07404853	-0.060068995	0.0624052	-0.00017904217	-0.051857293	0.11506953	0.005007604	0.059461296	-0.067753926	
0.06763536	-0.35766584	0.052190036	-0.09350054	0.010553919	0.1128694	-0.05654169	0.28936294	0.082861476	0.21242625	-0.25648358	0.21031871	0.39137134	0.09534505	0.0030840684	-0.24749427	0.4696212	-0.06911098	0.1697259	-0.03966174	0.25577036	0.09638722	0.23075017	0.124387994	-0.07796523	-0.029685656	0.06611526	0.27059028	0.037739635	0.22276032	0.46458778	-0.007261749	-0.004815897	0.05934214	-0.018194562	0.17019111	0.049079295	0.16148035	0.061707713	0.33837184	0.01853354	0.03668382	-0.06497659	0.3298181	0.05427225	-0.017442778	-0.069252156	0.043834113	0.11439071	0.20502591	-0.0875352	0.24793784	0.013870424	-0.10143378	-0.121562645	0.16395368	0.24864508	0.32109505	0.08388467	-0.049047016	0.12474287	0.13506514	-0.041504525	-0.030455679	
-0.01651316	-0.08317124	-0.026443439	-0.0033488844	-0.06735033	-0.09077329	0.097293556	0.104169056	-0.060584065	0.1919238	0.10012731	-0.03033441	0.13416347	0.14970377	-0.10274234	0.051923547	-0.007028464	-0.024087938	-0.08343534	-0.071526	0.10791541	-0.19562003	-0.048155405	0.17603758	-0.029777925	-0.10763815	0.0209842	-0.07912631	-0.051105063	0.08297384	-0.1366309	-0.003662204	-0.018449511	0.03972132	0.022301104	-0.0053403894	0.1272637	0.10807116	-0.052703716	-0.059358984	-0.01794159	-0.053113446	-0.077693895	0.25328347	-0.07399658	-0.014538976	-0.05187686	0.018053267	0.0063970797	0.040803533	-0.2100287	0.114948206	0.025982652	0.017687218	0.12607619	-0.022200659	-0.025532985	0.10835755	-0.0864716	0.0046870722	-0.04209559	0.04803017	-0.098633446	-0.101119794	
-0.14548984	0.118216746	0.017608019	-0.11092028	0.028355632	0.018839909	0.079946876	0.01725124	0.043085225	-0.14977789	-0.046161745	-0.033466935	0.055477314	0.09916546	0.14551476	-0.055696428	0.0055896854	-0.045104653	-0.1554587	-0.047388043	-0.17901167	0.051465232	-0.028345495	0.11782471	-0.04552844	0.13080393	0.05236793	-0.14893907	-0.15782054	-0.16542599	0.14865732	-0.110325485	0.05204625	0.059355184	0.009195346	-0.25327653	-0.13561112	-0.004165322	0.10851108	0.0031988819	-0.037821405	0.053956524	0.07075601	-0.02596026	0.042765897	-0.021321489	-0.035630144	-0.054019447	-0.082259834	0.023664832	0.25400174	0.015249165	0.23010176	-0.054562505	0.035373442	-0.15814342	0.12592216	0.06471028	-0.02889831	-0.082658194	0.00478648	-0.32614917	-0.039662886	0.07860453	
0.082645565	-0.099730514	0.014204258	-0.033147484	-0.09075073	0.066907994	0.07050287	0.064035825	0.084020786	0.31108436	0.067704625	0.21630895	0.27980328	0.14046554	0.20288642	0.17600523	0.060776077	-0.00791119	-0.039436087	-0.008177067	-0.12532242	-0.03188051	-0.10883313	-0.05191818	0.054350097	0.0582591	-0.04960013	-0.012779878	0.43509787	0.08042211	0.23457998	0.061867792	0.21305622	0.010206409	-0.033280622	0.30810085	-0.0247544	0.10779123	0.11043535	-0.078824244	0.035532918	0.29001772	0.2649676	0.08877027	0.017321525	0.054940555	0.0893245	0.015544568	-0.27397412	0.1763756	0.43707678	0.25430176	0.10664632	0.020983784	0.02257256	-0.06080504	0.38834086	0.12778603	0.043638494	-0.065255	0.05710234	-0.030212399	0.14515628	0.007999063	
-0.12236492	0.20425169	-0.0895703	0.20458767	0.026513845	-0.09352338	-0.07625317	-0.20281027	-0.079867475	-0.12145482	0.06331554	-0.2221513	0.13416089	-0.38774794	-0.44042486	0.173647	-0.14054625	-0.08567274	-0.008936703	0.22120936	0.0509324	0.054837763	-0.12642907	-0.02071565	0.10857571	-0.3905601	-0.029057983	-0.2668458	-0.19992305	-0.16592939	-0.15583828	-0.28916484	-0.008513577	0.011211684	-0.045619242	-0.009648359	0.29494828	0.0005738726	0.10810618	0.016382148	-0.059073105	-0.37795162	0.14327414	-0.017805386	-0.17268722	0.071457714	0.09236426	0.06265142	-0.049397275	0.07343422	-0.027024958	-0.19060741	-0.15390964	0.14543876	0.14301176	0.29316595	-0.27911338	-0.13970047	-0.13746057	0.05847513	0.2421529	0.1869927	-0.08629105	0.008614389	
0.21128465	-0.026347212	-0.11830165	0.027200963	-0.13621469	0.05000022	-0.20809825	-0.17469592	0.023705179	0.018673128	0.14635134	-0.01745158	0.06191111	0.18807109	0.12624449	-0.12031377	-0.047855277	-0.0978409	0.16550046	0.18116137	0.7476526	0.20749319	0.08569217	0.2211613	-0.017247107	0.34617087	0.020355726	0.074098706	0.24984692	0.1000476	-0.08247482	0.17996478	-0.048450172	-0.049094744	-0.1512386	0.26986983	-0.14061901	0.04114692	0.1558778	0.24524596	0.1420925	0.11536107	0.054055896	-0.10362012	-0.1878357	-0.030235963	0.12025331	-0.21858165	-0.29367095	-0.054619934	-0.0038666388	0.18877849	0.13598272	0.0649315	-0.10420178	-0.18771449	0.34626007	0.010124249	0.043135293	0.033076353	-0.21625048	-0.02234114	0.006437718	0.24008068	
-0.029806415	0.16158755	3.1031464e-06	0.021338472	0.2691792	0.30622298	0.19428205	0.06971858	-0.13800298	-0.013875321	0.18913858	0.2785702	-0.1515297	0.16529453	0.092016995	0.02534593	0.3623857	-0.046009775	0.06028437	-0.072805606	-0.017010551	0.08512882	0.20595953	0.08853191	-0.06840008	0.2133191	-0.04359041	-0.0652078	-0.033602968	-0.14104185	0.07131211	-0.011423226	-0.100274146	0.08266029	-0.015733914	-0.011237293	0.09450761	0.025436468	-0.051723123	-0.061204564	0.047432926	0.20355597	-0.0028753541	0.06375549	0.07507487	-0.05511686	-0.17330103	0.14021114	0.17331612	0.12565742	0.33743495	-0.009802253	0.06935147	-0.024054147	0.23258086	-0.037407182	0.12535633	0.25385913	0.13433006	0.022696348	0.023360338	0.07772497	0.0014493589	-0.11681326	
-0.019875988	-0.21938795	0.005278945	0.069581665	-0.054631013	-0.3433816	-0.08469691	0.17990656	0.16641054	0.09873353	-0.17926344	-0.35604036	0.061487593	0.100052364	0.08283102	-0.1977302	-0.10395509	-0.16488087	-0.10845793	-0.10945742	0.060655143	-0.17968279	-0.20573595	-0.00832926	0.1127425	0.4489388	-0.1435255	0.04507307	-0.2699766	0.0639418	-0.013343909	0.052284937	0.084662475	-0.10716668	-0.01103599	0.07172524	0.13404523	0.014455312	0.040357847	0.14526978	-0.027378917	0.08542506	-0.037349816	0.3062185	-0.038649727	0.032417096	-0.26617762	0.019728547	0.06483399	0.2958496	-0.049208853	-0.09786127	0.20520163	0.086079754	-0.10366294	-0.12325314	0.058789343	0.11867167	0.028456224	-0.034778282	-0.11629963	0.27203777	-0.04405727	-0.045274418	
-0.13742733	0.3677724	0.059568513	-0.005896687	0.12427577	0.18199512	-0.026920484	-0.31328136	0.04043186	0.08502451	-0.006911641	-0.101077974	0.30527082	0.027385537	-0.033944912	0.24284342	0.192587	0.008098394	0.06658401	-0.020956464	0.4633127	0.12256046	-0.011841375	-0.049339954	0.036005218	-0.1377708	-0.05256783	0.1798211	0.13778803	-0.0017854283	-0.1389592	-0.029393155	-0.15004316	-0.06542848	-0.043306343	0.18378332	0.052604247	-0.0807804	0.015959937	-0.16538389	-0.06625589	-0.09680747	-0.054583088	-0.13356294	-0.011469862	0.0761307	-0.10063018	-0.1151059	0.041956533	0.11205355	0.24043639	0.13176282	-0.07984598	0.044026803	0.16096102	0.14140987	0.020918207	0.38364035	0.12190729	-0.07835042	0.006642753	0.037848376	0.06904059	0.027828505	
0.15826407	0.020161176	-0.030132027	-0.0094227865	0.05794972	0.12487229	-0.06758429	-0.12110479	-0.07895905	-0.38525322	-0.0020588373	0.17950873	0.08804861	-0.008558794	0.22529991	0.01941041	-0.059144374	-0.07696129	0.026596691	-0.01765673	-0.20402938	0.060413726	0.06234542	0.15088084	-0.0049470724	0.17295766	-0.10487005	0.12891977	-0.05463569	-0.0083302725	0.20124768	0.081000455	0.23861869	-0.08316797	-0.16272303	-0.18084083	-0.2686154	-0.16060014	0.391668	4.371662e-05	-0.0517929	-0.08236596	-0.14184244	-0.14850043	0.024853157	0.061095	0.030616257	0.11496883	0.027603101	0.0012129123	-0.09802718	-0.0481475	0.09799727	0.07086127	0.20037407	-0.18539688	0.35958406	-0.05299727	0.35664076	0.14474699	-0.099757	-0.35605294	0.004620069	0.11290794	
-0.058171917	-0.33341098	-0.0012938784	-0.08468368	0.060974266	0.031794064	0.034393925	0.41466856	-0.06809334	0.38390076	-0.34474525	0.25214827	0.22115467	0.034881946	0.14031008	-0.1870958	0.2101956	-0.10337624	0.12973952	0.033901595	0.34716502	0.26420936	0.021087773	-0.17489928	0.038476545	0.17796044	-0.10200416	-0.049397856	0.32112885	0.11571841	-0.09628421	0.054306112	-0.024388138	-0.074436344	-0.10862255	0.036785163	-0.024207117	-0.15295255	0.13757439	0.038683448	0.049583465	0.23365924	0.30252713	-0.2820145	-0.076228775	-0.057114873	-0.016287904	-0.006406101	0.029474739	-0.008682197	0.44215575	0.29893723	0.0675124	-0.024190426	-0.026624832	0.18226403	0.28847018	-0.08760031	0.015555069	0.026167132	0.37228993	-0.06466561	0.057145197	0.18751565	
0.034861777	0.17096943	0.1025237	0.068065785	-0.0042377235	0.2240501	0.24107258	-0.28608364	0.091921635	-0.13212474	0.19300947	0.22279145	-0.122604236	-0.1571876	0.021277614	0.066264324	-0.29500487	-0.04668051	-0.1525022	-0.13090692	-0.09994748	-0.46653643	-0.05135953	0.34773457	0.10442566	-0.39217445	0.006439727	-0.44605848	-0.28880692	-0.8180746	0.280258	0.112207234	-0.02664112	0.045965955	0.04692416	-0.20660554	0.15803644	-0.18199503	0.16183902	-0.25813314	-0.13746065	-0.015759254	0.049321193	-0.010252062	0.13321504	-0.089949265	-0.13156132	0.14919433	0.18631932	0.11117954	-0.2988674	-0.10833487	-0.19854203	0.0741202	0.524674	-0.03652393	-0.33860457	0.016289197	-0.21085992	-0.04947476	0.025832161	-0.1866241	0.037734564	0.07373896	
-0.028240306	-0.19763209	-0.056841366	0.041591328	0.07293728	0.014554422	-0.036304943	0.16458583	0.2619278	0.07919253	-0.077018134	-0.12264443	0.18788214	-0.07361638	0.12572329	-0.041054834	-0.042318422	-0.054402437	0.06620736	0.13812226	-0.0007161429	-0.025244843	-0.18438616	0.111173436	0.022659829	0.17544462	-0.042152207	-0.09491255	0.006880605	0.20734347	-0.017566828	-0.09442665	-0.048697323	0.07187372	-0.09737536	-0.011477731	-0.047479324	0.03861439	-0.022060009	0.04270365	0.11891074	0.048806112	0.108266614	-0.22029041	-0.16320625	0.15765654	0.03309167	0.108872585	0.00089043734	-0.090677306	0.039399754	0.15545169	0.15254608	0.059906233	0.04860924	0.060196385	0.06330939	-0.008805772	-0.14278634	0.009112625	0.18915124	0.10698967	-0.017501295	0.14724548	
0.07457477	0.43481708	0.04017293	0.007991332	-0.010115509	0.04411555	-0.04570706	-0.063708074	-0.056311004	-0.073735595	0.24646309	-0.24155156	0.17972867	-0.019737465	0.08114403	0.091358446	0.07310672	0.00760927	0.023516381	0.06161429	0.3351942	-0.047903664	-0.10756281	0.10125043	-0.073703244	0.19188443	0.08862404	-0.22302693	0.10840691	0.1509336	-0.12407331	0.014018426	0.073982395	0.0927892	-0.04698524	-0.02010471	-0.07241053	-0.025134087	-0.051545687	0.08506325	-0.023453271	0.13605928	-0.22089261	-0.015594301	0.09111336	0.11286526	-0.0727615	-0.099742256	-0.0076545156	0.002383454	0.30122635	-0.037999947	0.24552117	-0.012948106	0.271632	0.1581754	0.056006745	-0.10286279	0.021157667	0.1698516	0.16613083	-0.07879371	-0.18699522	-0.15395345	
0.17854765	-0.14496647	-0.025269952	-0.08440545	0.03091334	-0.2298174	0.06775414	0.5024002	-0.00451626	0.17211513	-0.17922847	-0.06170751	0.20087905	0.016465673	0.093515664	-0.072517924	-0.010207344	0.08309467	0.18071783	0.07747042	0.8582843	0.072172254	-0.18060267	0.08632227	-0.08017806	0.08411893	-0.08883666	0.07117077	0.16029736	0.2230234	0.108944185	-0.07022328	0.19040571	0.0126626445	-0.07168062	0.16355638	-0.06068277	0.01740774	-0.10337121	0.052566066	-0.038979597	-0.037440795	-0.03046397	0.21252526	0.053434547	0.02842196	-0.047089696	-0.005795228	-0.0075867875	0.17283508	-0.10364109	-0.04287045	0.04860611	0.009422199	-0.15741454	-0.13974166	0.25164017	0.035593305	0.04130999	0.013485561	0.05792627	0.120985426	-0.072536945	0.20610204	
-0.0872896	-0.030535527	-0.18605144	0.04977652	-0.033725657	0.28141332	0.15610215	-0.067726105	-0.013365915	0.0011376234	-0.0013607792	-0.057395622	-0.012368588	-0.2396154	0.12045842	-0.23243466	0.2166923	0.059459973	-0.05033215	0.068078995	-0.24561083	-0.040194437	0.08024242	-0.009542678	0.011023036	0.22308105	-0.09632746	0.36689773	-0.22474812	-0.09947549	-0.4591341	-0.011437404	0.26864493	-0.13263848	0.05360766	-0.31144324	0.08865426	-0.25931272	0.2347892	0.20647217	-0.16466136	0.069682725	-0.14326231	-0.13106872	-0.14877254	0.0078366455	0.13390261	-0.08502778	-0.17850941	-0.1962856	0.21363963	0.038408257	-0.005709041	0.02614523	0.21260771	0.016410258	0.055133544	-0.053226653	-0.15005527	0.031293347	0.024095392	-0.0665841	-0.18860258	-0.07147935	
-0.026072258	0.25699335	-0.078202195	0.041391864	0.015197843	0.066442184	0.06251835	0.08203483	0.045773663	-0.07866203	0.3382494	0.18247578	-0.043934975	0.0015333525	-0.067032255	0.45076293	0.04832506	-0.05762974	-0.09061691	-0.048412338	-0.03461672	-0.12928054	-0.264401	-0.32549143	0.021292176	0.017515032	-0.08219883	0.1130797	0.24054186	-0.021431373	-0.053230453	0.07033479	-0.24225265	-0.15034968	0.014211873	0.099015504	0.25892606	0.13400389	-0.1720017	-0.20404434	0.16901654	0.052433863	0.08401341	-0.18843219	-0.015797006	-0.015591825	-0.020747045	0.07364913	0.16945437	-0.08207219	0.008268393	0.0051831193	-0.07860713	0.12881978	0.09990431	0.1539275	-0.1545651	0.09006457	0.025486015	0.008485834	0.100281164	0.0011657639	0.053427447	-0.074870326	
0.104146786	0.16721512	0.019095784	-0.048607424	-0.00977306	0.07176528	-0.07823963	-0.09086474	-0.037939172	-0.1651472	0.11053169	0.03624388	0.26391155	-0.10991414	0.120195895	0.10072583	-0.1689046	0.010086248	0.044441033	0.08986685	-0.10135746	0.02000065	-0.22868788	-0.09894035	-0.044118892	0.17807601	-0.05886434	-0.33227745	0.17282535	0.14883722	0.024671108	-0.08565862	0.029012913	-0.094529465	-0.06779691	0.19293097	0.1355258	-0.18264301	-0.053303923	-0.24141392	0.13426648	-0.08678449	0.19157432	-0.023734896	0.028778553	0.02299564	-0.037656117	0.39424753	0.15826565	0.097819604	0.27439114	-0.00067767216	0.0435817	-0.09656991	0.16861103	0.04006468	0.14266565	0.12982668	0.004584545	-0.042419102	0.0037442471	-0.099492185	-0.026577108	0.05932684	
0.19916001	-0.15709077	-0.0069807786	0.1291168	-0.10698178	-0.23127103	0.03173459	0.066002525	0.19039664	-0.041131414	-0.22704187	-0.49091133	0.08385342	-0.12515204	0.14341526	-0.39086992	0.04738614	-0.16332005	0.26393202	0.07296711	0.3047525	0.0057279337	0.13029099	0.26248455	-0.033687267	-0.20068589	0.118794784	-0.14083609	-0.17831035	0.07520361	-0.05872809	-0.04974799	0.28086266	0.051220696	0.019109126	-0.38527045	-0.38900742	0.07443663	-0.023389885	-0.26083413	0.059725422	0.05339868	-0.16309401	0.03845518	0.034842383	0.1769668	-0.0011874371	0.06522842	-0.014821512	-0.044069577	0.122961946	0.17352518	0.26324168	-0.16912888	0.17024274	-0.19157872	0.017020745	0.2226224	-0.27106687	0.06968974	-0.16491738	-0.15157707	-0.069340564	0.19771476	
-0.12830481	-0.23043552	-0.0772296	0.09644468	0.05323029	-0.08088443	0.032411497	-0.0005067257	-0.2108686	0.21305679	-0.0230542	-0.04136844	0.06198087	-0.13503978	0.018685697	-0.17911711	-0.4253426	0.033520684	-0.19825196	-0.16328156	-0.09984947	0.015152727	0.031108156	-0.27613848	0.015945084	-0.19780698	-0.027954357	-0.15269399	-0.08707341	0.031925492	-0.0872217	-0.26167065	-0.007576586	0.045115285	0.13240726	-0.150534	-0.11914365	-0.012938711	-0.09587687	0.09059713	-0.09361135	-0.2496278	0.15256171	-0.06666715	0.12807123	-0.12670025	0.16178618	-0.42187056	-0.22974043	0.004557928	-0.15803276	0.11304188	-0.062904306	0.07045109	-0.08694234	-0.0934418	-0.24428111	0.05746115	0.13473345	0.0057479045	0.21857743	0.01585701	-0.082185864	-0.17229667	
-0.053278312	-0.10266435	0.0018112349	-0.013036226	0.039785594	0.1000831	0.027805228	-0.39068675	-0.10315136	0.08046774	-0.001345995	-0.13231382	-0.060377423	-0.22101997	0.03158995	-0.012967726	-0.016031582	-0.023212185	0.017059365	0.006111117	-0.3158638	-0.036468018	0.14855114	0.042182554	-0.09821865	-0.11009544	-0.008113028	-0.3576402	-0.06994642	0.278691	-0.17818797	0.073710024	0.011860692	0.06306587	-0.002974013	-0.051398262	0.1654645	0.13745324	-0.036694225	-0.11235602	0.19977054	0.009196798	0.05402619	0.016809873	0.015349721	0.011386706	0.0294537	0.042656902	-0.21361391	-0.15893337	0.27922744	0.17293194	-0.09602903	0.00511043	0.15254763	0.16021428	-0.1472268	-0.1829474	0.11663771	-0.06974396	-0.016670138	0.089165136	-0.015054472	-0.10908279	
-0.023271594	-0.36145577	0.007985903	-0.0631485	-0.1090952	-0.22017777	0.09147735	-0.18448006	-0.04468031	0.29134813	0.10320224	-0.17877083	0.12441517	0.044886496	-0.08222573	-0.034308795	0.07020701	0.1230224	0.07793697	0.10018035	0.25385118	0.13264686	0.30476418	-0.063179396	0.017934242	-0.31450984	0.0015235643	-0.24553756	0.014559425	-0.008684844	-0.26858157	-0.07408306	-0.17142941	-0.025843687	-0.086153254	-0.03989976	0.06297247	-0.061787385	0.10601059	0.017406743	0.078753866	-0.22991674	0.011851067	-0.14668465	-0.047587264	0.08192502	0.051286954	-0.014267974	-0.07905929	-0.08127421	-0.33398902	0.1100101	0.008136242	-0.10961499	-0.45014215	0.1192855	-0.052526537	-0.047461137	-0.21785335	-0.1666903	-0.034105897	0.22215101	0.10447606	0.024681466	
-0.02732568	0.20492266	-0.032839544	-0.054106496	-0.019109402	-0.17315356	-0.07394429	0.1546162	0.04440937	-0.23753053	-0.036379773	0.0036837189	0.03833778	0.051536947	0.1579025	-0.02787215	-0.18688336	-0.063703164	0.18078502	0.1537288	0.15101047	0.08651251	0.041655526	-0.12220114	0.042183727	0.07692164	0.041461732	0.1739498	0.28830796	0.052298274	0.13074166	-0.13347393	-0.27018908	0.04885395	0.020950446	-0.052026533	-0.08122441	-0.033931497	0.044118516	0.09133792	0.19884638	-0.19465819	0.18789269	-0.613629	-0.03422727	0.051963262	-0.07210265	0.16656168	0.109361686	-0.24702685	0.10380267	0.111179985	0.17001288	0.034148633	0.09311251	-0.148284	0.1308224	0.35529768	-0.026122283	-0.0834427	0.06424516	-0.09783923	0.08962254	0.17057762	
0.05468923	0.036635634	0.11281799	0.0005253355	-0.08441343	0.23919298	0.106476	-0.07004723	0.10189011	-0.32844508	0.024733786	-0.120926455	0.0579085	-3.3984295e-05	0.2627197	-0.2450513	-0.16053575	0.11216462	-0.08590703	-0.002628526	-0.099316835	0.06900351	0.19058621	0.11835864	0.00038226147	0.1287561	-0.08168535	0.03753543	0.025872573	0.11696566	0.11404954	0.04097881	-0.016845569	-0.05823487	-0.005550163	-0.025480539	0.20373023	-0.013687326	-0.052135836	0.04571731	0.08480059	-0.049805667	-0.063064285	0.04304223	0.073632106	-0.059901703	0.024788354	-0.20287572	-0.19236779	0.0035745068	-0.060520075	-0.15526417	0.13387263	-0.09164961	0.039979346	-0.07420461	0.03373722	0.46131504	0.08483613	0.009534171	-0.09424098	-0.10597049	0.01887475	-0.12667146	
-0.02299399	-0.28053674	-0.01265951	0.08310181	-0.03807666	0.231277	-0.03405956	-0.088485636	-0.13465887	0.09825869	0.07838361	0.31237748	0.051448934	0.04318217	-0.10959885	0.08778813	0.12771586	0.012419719	0.025573572	-0.02110931	-0.0033434778	0.09663375	0.20361252	0.13052565	0.004652606	0.14030862	0.027903754	-0.15891407	0.19423875	0.23782672	-0.3832761	0.3044521	-0.0043570935	-0.026499867	-0.006800352	0.44864035	0.25269586	-0.10274601	0.08035034	0.06764146	0.027592205	0.22690056	0.07680523	0.19108546	0.12698367	-0.038353443	-0.012551178	-0.28115293	-0.13014255	0.0247916	0.3516959	-0.018626578	0.040104102	0.14649941	-0.095140256	0.31559342	0.14103748	-0.11112029	0.116061665	0.031960666	0.06845806	0.26320556	-0.057322964	-0.11635951	
-0.09709373	-0.021186553	0.118822604	0.025913348	0.11003927	-0.113717675	0.1342508	0.17127061	-0.17700468	0.31259647	0.041601237	0.043139733	-0.061616298	0.0007428552	0.15258355	0.00013274762	0.09040415	0.07427384	0.054852836	-0.13488267	-0.03894187	-0.023523863	0.027132088	-0.15817046	0.003731369	0.2718388	-0.056902915	0.0011305771	-0.051841002	-0.04038473	0.12469362	0.0047903387	0.10924321	-0.04014149	0.03639291	-0.004331261	0.00080986763	-0.050786566	-0.038883485	-0.04564424	-0.035368245	0.11888151	0.09882211	-0.070554756	0.14569844	0.06333949	0.049764793	-0.0855129	0.053025987	-0.014282764	0.059526976	0.038387112	-0.049047098	0.16505967	0.039328832	-0.123722866	0.07638284	-0.007074197	-0.038022246	0.047672387	-0.008933819	0.07931048	-0.022996532	-0.066643536	
-0.08006902	-0.0478582	-0.06274421	-0.100609735	0.04285765	0.21193954	-0.14004172	-0.008461393	-0.09604796	0.06012026	0.18925378	-0.08117859	-0.048346043	0.11373907	0.05658114	0.26564902	0.10866278	-0.034308944	0.18969458	0.19890508	0.17335604	0.0112117585	0.19318254	0.22308028	0.092206314	-0.123988345	0.043521013	0.14343253	-0.00015424813	-0.14188857	0.06670173	-0.1279115	0.031842124	0.064542934	0.03431086	-0.1605196	-0.21948515	-0.13035674	0.047326107	-0.043491572	0.011771691	-0.05515238	-0.05903135	-0.14007218	0.028258253	0.04289031	0.16591477	-0.10541965	0.027367745	0.11077657	-0.16212985	0.05237848	0.11322633	-0.07393404	-0.12852606	-0.032235652	-0.14344743	-0.019637827	0.050915774	-0.119663335	0.086298205	-0.014094655	0.1611784	-0.055628415	
0.03647817	-0.044820994	0.12153036	0.049727447	-0.017034579	-0.1370369	-0.015862921	0.08945643	0.028981255	0.012198991	-0.09351246	-0.025497524	0.07813909	0.28099957	0.095655255	-0.051374055	0.050599255	0.00903173	0.13690604	-0.13362497	0.09272786	0.1210574	-0.08318574	0.009785867	0.083784275	0.06468347	0.016561948	0.2640712	-0.10703256	0.12785256	0.06345708	-0.16025977	0.14424337	-0.007991157	0.055831384	0.030967016	0.054038256	0.06965228	-0.085770436	0.1386931	-0.04037613	-0.10116197	-0.0050343545	-0.14990914	-0.036828294	0.01241471	0.01658642	0.034513548	-0.0064269877	0.32669488	0.07859679	0.11120403	0.117676824	0.073694214	-0.021452432	-0.037426576	0.07127601	0.17406142	-0.23534928	0.0989511	0.04348933	0.0580316	-0.0015127463	-0.13759972	
0.18701942	-0.18443285	-0.06245991	0.07250051	-0.013771611	0.46340477	-0.06415165	-0.15494579	-0.089844406	0.062374473	0.23116867	0.1577092	0.061729528	0.104351535	0.11972067	0.312116	0.019206341	0.04231219	0.03123849	-0.09581384	0.21102841	-0.17517078	0.15533197	0.0039990065	-0.013251152	0.18118659	0.013102595	-0.045524962	0.23900445	0.07090786	-0.037512545	0.25204232	-0.20835239	0.0007758255	0.054178294	0.05600953	-0.19036378	-0.06328589	0.0028324304	-0.16315845	0.2945583	0.1549304	-0.17725606	0.48219302	0.10907121	-0.07258287	-0.0025675728	0.1655657	0.15453221	-0.03618282	-0.005705649	0.17955783	-0.027814824	0.10325413	-0.07156609	0.14881214	-0.050253496	0.45172545	0.31037194	0.10107704	0.01764328	-0.053041354	-0.126965	0.13372283	
-0.19298027	0.23024456	-0.19975318	-0.029058296	-0.040748235	-0.094762884	-0.0742071	-0.089201264	-0.005491978	-0.08725244	-0.18786381	-0.007692562	0.07173584	-0.042343657	-0.3916778	0.03642646	0.07499986	-0.07188854	0.054858956	-0.23482306	-0.19986281	-0.06770988	-0.31468067	0.022705942	-0.19469927	0.07824617	0.07111058	-0.13121144	-0.05977871	0.07650691	-0.11994567	0.08371145	0.1047705	0.0500974	-0.020769596	0.25558114	0.26938456	0.010942167	-0.05035864	0.1085505	-0.2730562	0.07967474	0.11112566	0.2627632	-0.22781533	-0.076138966	0.01873024	-0.04004443	-0.06321122	0.3423117	-0.0071629365	0.0145358825	-0.11711905	0.010420926	0.33567464	0.33931726	-0.21441457	-0.15708993	-0.009595773	-0.07270796	0.1166865	0.37590316	0.018466227	-0.18322304	
0.200073	-0.07464596	0.029746685	-0.0745188	-0.12819664	0.24175835	-0.04434944	-0.33898637	0.116795234	-0.010079418	0.31404847	0.06321311	0.17701606	0.2028854	0.075554825	0.06682043	0.30747852	0.026071459	-0.015256124	-0.11638507	0.43514737	-0.015186924	-0.0045097014	0.2885774	0.08531585	0.29036358	-0.06047704	0.20644419	0.16220526	-0.2740067	0.17119437	-0.029803265	0.34775126	-0.10042878	-0.05147113	-0.055968586	-0.04411988	0.0076702298	-0.018496618	-0.15891182	-0.09588535	-0.0019364867	-0.25157008	0.0029578768	-0.10266828	-0.058456827	0.027467238	-0.054199446	0.14526816	-0.0063912864	0.13294776	-0.018465865	0.15576406	0.05037773	-0.08417092	0.04791872	0.19931805	-0.07023119	0.071739376	0.018081507	0.11805647	-0.28636113	-0.07383883	-0.12679723	
0.18538022	0.036274124	0.015612915	-0.0007009165	-0.015920535	-0.060631648	0.15146132	0.023741601	0.0017385388	0.08069196	0.13194752	0.072506204	0.055508986	-0.030140307	0.116282724	-0.12402461	0.15308927	-0.1124041	0.17469381	0.11603315	0.18776442	0.025270892	0.004368959	0.17595018	0.0922593	0.041131325	0.02424943	-0.05941632	0.06661316	-0.0661732	0.18115371	-0.08413803	0.096421234	-0.060471997	0.049289007	-0.23205456	-0.082393594	0.20553932	0.011025921	0.08308791	0.16775686	-0.033036195	-0.021168903	-0.22248669	0.098431244	0.04528687	0.04028507	-0.1500902	0.024259739	-0.14820515	-0.16536999	0.040608514	0.029498776	0.07698748	-0.12680219	-0.0432656	0.113446645	-0.06915865	-0.13801225	-0.017469568	-0.06515837	-0.01799336	-0.03037277	0.05949801	
0.082783714	0.11413697	-0.11088397	0.12118085	0.107373655	0.030729882	0.07349662	0.02601975	-0.050973564	-0.02192022	-0.0072857346	0.017196862	-0.15042034	-0.0976004	-0.046334986	0.019717675	0.09366844	-0.04815943	0.014268715	-0.033324778	0.041562	0.013151614	0.05220844	0.15783553	0.059427157	0.15354382	-0.0026668909	0.13924527	-0.15066943	-0.07561685	0.06131718	-0.23024566	-0.090081245	-0.038814988	0.04742408	-0.16651207	-0.061891027	-0.10337895	0.059978724	-0.19556601	0.07668131	-0.007201784	-0.044183396	-0.007927693	-0.14171007	0.006703498	0.053682815	0.09258896	-0.097708724	-0.06138965	-0.027997326	-0.16548093	-0.03616394	0.0872505	-0.036601014	-0.09458973	-0.02493919	0.01467904	-0.118549205	-0.013933624	-0.02855004	-0.04494023	-0.0689102	0.029432096	
-0.04613823	-0.06478952	-0.16420786	0.025642937	-0.14562535	0.14795768	-0.02428801	0.24300623	0.02043305	-0.07100958	0.07728259	0.03834425	-0.109070584	-0.013903876	-0.11625862	0.12095806	-0.036283825	0.14824413	-0.1397936	-0.07538942	-0.25746718	-0.011081241	-0.26775932	-0.33472964	0.017545665	-0.29800266	-0.0073431837	-0.19860968	-0.06593826	-0.1372113	0.20691308	0.15152529	-0.15133384	0.020899447	-0.13837054	-0.046582874	0.026565978	0.31870392	0.2467026	0.09356166	6.530732e-05	0.03875313	-0.04743917	-0.16226865	-0.15392765	-0.07187869	0.16065536	0.2400869	-0.13548204	0.1467959	-0.01984929	0.009403438	0.019289088	0.045660753	0.09472338	0.29138008	-0.15071605	-0.17666934	0.067889415	0.17654823	0.20038635	-0.065823555	-0.031484205	-0.30267927	
-0.1371183	0.13714287	-0.019131415	0.12642069	-0.05497018	0.025570396	0.06715096	0.046014763	-0.15773012	0.01291738	-0.1459423	0.07440948	-0.111859575	-0.080549665	0.038018912	-0.02736885	-0.045272034	-0.11193815	-0.08526306	0.13281699	-0.016774762	0.111224994	-0.47281975	-0.23829575	0.01424271	0.060766287	-0.022073971	0.038028147	-0.0018180421	-0.30460215	0.09015955	-0.13796149	-0.06780882	-0.0730022	0.04879285	-0.089274794	0.06836237	0.101075605	0.04058848	0.05016666	-0.057158876	0.0017014623	0.05420284	-0.35823074	0.07445386	-0.046699297	-0.10028185	0.09935639	0.17378588	0.07002646	0.11681523	-0.10631435	-0.014576973	0.17910661	0.0890759	0.09058661	-0.16407421	-0.013841062	-0.07475583	0.019891754	0.00073770096	0.03222647	-0.011891222	-0.048836965	
0.108791135	-0.008256985	-0.06475833	-0.038933653	-0.0046262224	0.066198945	-0.016286183	-0.30089495	-0.016500799	-0.06525145	-0.014785199	0.058416236	0.34326413	0.16648276	-0.18427445	-0.21761802	-0.030930856	-0.005203317	0.064098686	0.06187351	-0.13045134	-0.110458046	-0.12839356	0.16132784	0.018478882	0.047586262	0.034516454	0.022072464	0.34089854	0.25186983	-0.31118587	0.12176943	0.13205597	-0.13920562	0.13718902	0.0462108	0.2399078	0.09415891	0.12406523	0.17658316	-0.055297766	-0.03814864	0.119883455	0.22518966	-0.04652962	-0.0029979197	0.10365341	0.22059518	-0.03667829	-0.038143907	0.24715954	0.4239345	-0.025175912	-0.027076282	0.16193332	0.12216737	0.34995762	0.4576949	-0.20580587	-0.15452324	-0.079703	-0.016052611	0.020690428	-0.049651008	
-0.08341487	-0.109495886	-0.023945995	0.041847657	0.019593596	0.022751888	0.1130581	0.28536493	-0.18335529	0.025896877	-0.0010505078	0.343262	0.038947694	-0.087527975	-0.18601917	0.04844104	0.18107538	0.04696632	-0.05519747	0.08694173	0.2800175	-0.07467833	0.21340705	-0.096743345	-0.020099722	-0.023203863	0.14126569	-0.034414276	-0.1942318	0.3236011	0.19588642	-0.026270354	-0.24254781	-0.051601768	0.07563682	-0.22893625	-0.029093536	0.11215251	0.006810176	0.045528423	0.026820986	0.059560295	-0.20953828	0.20071717	0.0980042	-0.11930802	-0.10255402	-0.060225107	-0.091795005	-0.08835054	-0.1329724	0.023818918	0.047001623	-0.09346447	-0.047294	0.200625	0.21486661	-0.021617983	-0.20449738	0.0076272115	0.28253826	-0.053940263	-0.08798422	-0.057233423	
0.0696315	0.33490467	-0.0017803671	-0.016308913	-0.025212646	0.09295249	-0.06779505	-0.10727375	0.03622225	-0.40704876	0.12646595	0.14952107	0.07280465	-0.21038252	0.05837615	0.044448998	-0.11020348	0.10174821	-0.12018366	-0.08123346	-0.043789525	-0.01807938	-0.31532496	-0.28229827	-0.06923378	0.3780001	0.036134962	-0.06659845	0.19862442	-0.20472817	-0.02036395	0.08164225	0.17664614	0.05053996	-0.0631428	0.2327182	0.017530201	-0.021119518	-0.145963	-0.0699388	-0.13601807	0.14971568	0.15107596	-0.2958408	0.002960212	0.050123554	-0.17903757	0.18383287	0.030176373	0.05508466	0.34695673	-0.19491264	-0.022698777	0.02286419	0.09082439	0.124248326	0.21384047	-0.13455164	0.09340221	0.012294727	0.22710168	-0.14984328	-0.056349922	0.092111155	
-0.17256516	0.06559763	-0.020764487	-0.042137057	0.10082911	0.058220103	-0.15994605	0.22155927	0.19121777	0.2405365	-0.22713329	-0.20078664	-0.027175799	-0.007526244	0.08577612	0.054073643	0.027533244	-0.007920987	0.08062909	0.09644266	0.19326018	0.0054012043	-0.118214674	0.03643443	0.035888933	-0.25210705	-0.053203177	-0.098106265	-0.048972473	-0.010016412	0.16622178	0.16660286	-0.10874786	0.02093379	0.123419315	0.052366026	3.897384e-05	0.004278931	-0.0118237315	-0.06937117	0.03529884	0.0715294	0.022762464	-0.03514274	-0.13471629	0.025100904	0.111308046	-0.08351126	-0.029661087	0.11910747	0.057443835	0.08622436	-0.017096933	-0.13431664	0.02761044	-0.04728151	-0.08039808	-0.22926317	0.024529083	-0.06661577	0.04294901	0.16912107	0.1255148	0.12416374	
-0.07312469	-0.1643472	0.036215745	0.05157829	0.11779873	0.06431844	0.064452335	-0.09368466	-0.069551244	0.27840483	-0.14304517	-0.16302103	0.31320634	-0.10918154	-0.07698727	-0.033877037	0.035340644	-0.07597764	0.025807435	0.27188376	0.13333863	0.034717493	-0.14995126	0.22723202	0.09369084	0.008948203	-0.13491443	-0.41283906	-0.070101626	0.20839298	0.08894174	-0.0017208034	0.2711867	-0.035330817	0.00047106264	-0.121434875	0.11711159	0.029133076	-0.021077303	0.13446374	-0.08671578	-0.05884187	-0.02714542	0.016451998	-0.12040155	-0.03544529	-0.04935631	-0.022832625	-0.18857005	0.038769934	0.04579681	0.23382796	-0.115872554	0.01710696	0.19006337	0.07418608	0.042866047	0.0509785	0.047949605	0.024809442	0.10055392	0.21218738	0.15135899	0.30951455	
-0.045580514	-0.3171638	0.11261855	-0.11221174	-0.01297014	0.16391222	-0.07006109	-0.30665028	0.11535948	0.020754432	0.20726793	0.25795755	0.11667639	0.07162262	0.01545521	-0.17162655	-0.03709907	0.007615549	-0.12688121	-0.3324842	0.07034794	-0.12379462	0.012363983	0.18673135	-0.021863775	0.38282767	-0.10359803	-0.51879627	-0.10284247	-0.16158396	0.73047197	-0.10972669	0.19433756	-0.06740869	-0.12386284	0.200929	-0.0060317772	0.010780229	0.15316224	-0.0019269242	-0.15708713	0.052693617	-0.06327211	0.23722634	0.016936509	-0.035219744	-0.15630676	0.1818519	-0.2824825	-0.045728642	0.008065767	-0.22698863	0.020964995	0.0614801	0.12642497	0.12242101	0.09246902	-0.28654376	0.0978894	-0.072288774	0.04319756	0.009500888	0.023686567	-0.06967268	
0.0447224	0.4022628	-0.015503433	-0.00096770324	-0.040249098	0.16377982	0.119083345	0.17377229	0.03284241	0.21686958	0.07749325	0.112882555	-0.07201079	0.097824946	0.105551586	-0.13394767	0.10194279	-0.13341509	-0.10986989	0.14529559	0.26433334	-0.036174845	-0.011382503	-0.18427974	-0.100776486	-0.119627915	-0.058590516	0.033819214	0.39082822	0.100273564	0.077949926	0.18298309	0.10456925	0.035169344	0.041806333	0.1552265	0.11499546	0.15389542	-0.0890091	0.22822751	0.055739235	0.16512737	0.13487874	-0.42337972	0.03920212	-0.021067234	-0.04756564	-0.023327958	0.25372815	-0.21164657	0.2932224	0.036963493	-0.068234205	-0.12483645	-0.19641615	-0.066128604	0.16906391	0.19619715	0.1585463	-0.06067025	-0.06341964	0.3185551	-0.067919046	-0.023005048	
0.025860423	-0.035414524	-0.18503919	-0.020485768	0.020868361	-0.24009004	-0.069899306	0.32377535	-0.02571135	0.116593584	-0.0441425	0.033693105	0.035027087	0.123994835	0.2546072	0.034085948	-0.2732993	0.17013727	-0.3400971	-0.4165052	-0.27079952	-0.23058887	0.24101081	0.08748348	-0.07038483	-0.42114836	0.2827944	0.040294085	-0.18062656	-0.14328274	-0.0006710943	0.089190215	0.012472217	-0.13012396	0.11883905	0.2452561	0.33703	0.0011896779	0.27534547	0.065332726	-0.093777664	0.17441615	0.32439625	-0.2747572	0.36658975	0.02783018	-0.03205932	0.27624646	-0.21528329	-0.12215861	0.072380945	-0.17598683	-0.06606184	-0.1176426	-0.2767524	0.07840369	0.1789148	-0.18485713	-0.39839467	0.096637614	-0.040093902	0.20231608	-0.06674685	-0.3139039	
0.035888873	-0.566347	0.014757796	-0.0148928035	0.17610446	0.41647756	-0.06843939	0.35388556	-0.10091258	-0.105349824	-0.4046882	0.41915482	0.011015018	0.1237556	-0.17499372	-0.48428065	0.26680353	0.06564668	0.05316914	-0.11374496	0.0027825953	0.17924328	0.042997528	-0.07497443	0.09024301	0.0898204	0.065945044	-0.06773199	0.06516716	0.09020419	-0.04804677	0.2111932	-0.11433395	0.041707195	0.016261877	-0.015739227	0.030856756	-0.042456854	-0.04112115	-0.089470014	0.0113538755	0.20141062	0.05619719	0.3555972	0.012657851	-0.022121051	0.07015751	0.0147616565	0.09569108	0.022741877	0.2627365	0.14775394	-0.14025153	-0.21737589	0.16610181	-0.09108415	0.22231731	0.19369633	0.12352536	-0.017664528	-0.2670983	-0.07862297	0.03557684	0.048996326	
0.011348619	-0.0032763928	0.15943292	0.01513999	-0.11802307	-0.04882653	0.0024906008	-0.011841197	-0.05525655	0.005942587	0.008037847	0.008471087	0.0002566208	0.0031391773	-0.008742871	0.005939913	-0.003242254	0.005456162	0.011969408	-0.013502933	0.0059439116	-0.0068535097	-0.004781197	-0.013432292	0.006537458	-0.0047486117	0.072094716	0.0020432163	0.017011702	0.0113280555	0.009278396	-0.012739866	-0.00072870794	0.062170174	-0.15422317	-0.018950969	-0.009205879	0.00408131	0.010637724	-0.006354852	0.0032759167	-0.024176503	-0.0052196477	0.0061676158	0.16740042	0.0038306182	0.009569957	-0.03670928	0.0016929033	-0.00023587233	-0.040393714	0.0069431793	0.0020717052	0.00777224	-0.0009240437	0.008524151	-0.026286695	0.0080665825	-0.00637173	-0.0037186886	0.009201274	-0.01887948	0.00018380393	-0.026540833	
0.009117628	-0.0052471794	-0.1795187	0.034631185	0.21119887	0.011294048	0.024662921	0.027029445	-0.14884274	-0.008136614	0.0076530264	0.006207523	-0.015397824	0.058773667	-0.0036889904	-0.0026152174	-0.0074214023	0.01743242	0.027926601	0.0061371485	0.0034931102	0.0031235358	-0.004031944	0.01953362	0.002439539	-0.008250012	0.039801892	-0.039269634	-0.05652792	-0.053925417	0.079581045	0.0046926313	0.0005377115	0.077773385	0.1934971	-0.016875561	0.012327251	0.0017300381	0.033333123	-0.012472999	-0.016047537	0.03408725	-0.019067723	-0.0047902972	-0.15686674	-0.0058646044	0.0047704	0.018359507	-0.002439426	0.00041013767	0.06397917	0.003923866	-0.012456066	0.035328735	-0.08486481	0.0015525783	0.11092541	0.013978059	-0.096584015	0.019906111	-0.004314023	0.0051993853	-0.0018199994	0.015379065	
-0.0129893115	0.004272416	-0.04663391	-0.09223072	0.09113574	-0.062603936	-0.029031835	-0.011228499	-0.051268067	0.0040826285	0.005374838	0.014487673	-0.06908423	-0.07926397	-0.01995029	-0.0034284885	0.0150775835	-0.0058942204	-0.04836095	0.037187234	-0.033282895	-0.011252455	-0.0022821117	-0.0404711	0.3747139	-0.046017498	0.052772764	0.016854655	-0.0031180303	0.005334508	-0.038118463	0.0010073248	0.005887746	0.08250256	0.06645146	-0.08676388	-0.021716988	-0.012753571	0.0051781144	0.0034662571	-0.0070356824	0.0057418467	0.0048667705	0.0035775555	-0.020042175	-0.009867825	0.3532738	0.01643615	-0.0065754335	0.006095424	-0.06878001	-0.03205494	-0.017795203	-0.08681388	0.15639329	-0.031409595	-0.047290336	0.0067084893	-0.07675533	0.05365038	-0.0021676912	-0.013143736	-0.011942433	0.003677177	
-0.0092649255	-0.008980741	0.031829648	0.115206584	-0.086563945	-0.015476996	0.012356404	-9.3127586e-05	0.17766178	0.03443151	-0.0010944221	-0.013448646	0.03110146	0.0029087926	-0.004636782	0.00080121163	-0.01035711	-0.0479137	-0.012608726	-0.0066029	-0.07449511	0.0033906777	0.0017900639	0.0026754944	0.35301495	0.04438919	-0.03230012	0.0052246656	-0.0141502125	0.005920233	-0.04171673	-0.034780353	-0.0022708804	-0.10763936	-0.042252913	-0.012091948	0.0057127606	0.013908413	-0.13945098	-0.0016751406	0.010498169	-0.015644932	0.0020968544	0.0004666755	0.020612871	0.007677526	0.27544013	-0.0006410861	0.002135484	-0.0035324295	0.016341943	0.023807652	0.024461675	0.13298887	-0.010987054	0.001605692	-0.0026002533	0.016702881	0.091363326	0.025266502	0.023981642	0.002803537	0.013643669	-0.03156125	
0.00029430768	0.0040786252	0.028715512	-0.040690757	-0.046112534	-3.257669e-05	0.000697061	-0.004939147	0.032776393	-0.026116924	0.0021962204	0.014079312	-0.0034067861	0.014005655	-0.017591551	0.002465063	0.0018470895	0.10781783	0.014440203	-0.030997146	-0.005655841	0.003798531	-0.001169093	0.0043605748	0.061044447	0.0037452995	-0.119262196	0.004070433	0.04107881	0.0073830476	-0.014302321	0.019935703	0.0018582501	-0.09313248	-0.02574619	0.045765415	0.00067961676	0.007082041	-0.003022936	-0.0034405626	0.00634611	-0.015971025	-0.0003169672	-0.018388394	0.0068247467	0.0018480647	-0.0008166604	-0.008584353	-0.0016210155	-0.0021928437	-0.030987527	0.024615958	0.004645682	-0.026923457	-0.021832198	0.013599683	-0.008201299	-0.054010354	0.015990118	-0.094793804	-0.021767365	-0.012792918	-0.00438709	0.020115072	
0.003656873	0.0023955614	0.40089682	-0.07121849	0.20507066	0.06767235	-0.11650166	-0.008314391	0.15848857	-0.004929188	0.013334553	0.0067099184	0.0439648	-0.0221564	0.0026060585	-0.0050049	0.02586132	-0.033253156	-0.038772635	0.058590505	-0.031163342	-0.00077727356	0.00347112	-0.010160506	-0.06116201	0.0074789105	-0.0009679355	-0.0013617997	-0.0280544	-0.008046431	-0.072916575	-0.03717812	0.013916843	-0.015871352	0.2459203	-0.04902375	-0.0038143198	-0.0015184727	-0.083182	0.010309749	0.0037332973	0.037764736	0.010936217	-0.0045138383	0.23125786	-0.0072631612	-0.08140654	0.0038597782	0.0134523725	0.008816365	0.04415283	0.002741077	0.039844368	-0.07738439	0.14647754	-0.02391938	0.036048863	0.053854164	0.06368342	0.0111341765	0.004940249	-0.021245541	-0.0014247092	0.013293298	
-0.024406176	-0.0018315754	-0.3768009	0.08968763	0.3497736	-0.023860548	-0.05139201	-0.017487641	0.16302136	0.032395028	0.024281276	0.027327038	0.009163762	-0.04972898	0.005749777	0.01674897	-0.07607468	0.0121581545	-0.036387198	-0.057963908	-0.12061093	0.007937658	-0.018439965	0.028233578	-0.17729469	0.043483876	-0.008201564	0.07390789	0.07375769	0.031849388	-0.048380893	0.02549334	0.010559048	-0.040594794	0.52029335	0.056192297	0.020740837	-0.019274455	-0.07420206	-0.0028590204	0.01846887	-0.05393039	0.016815083	0.008933237	-0.25144958	-0.0018161245	-0.15853533	-0.016101288	-0.017058507	-0.0033532295	0.018078506	0.040272098	-0.0023473771	0.10717058	-0.22179493	0.014112357	-0.07178765	0.009892826	0.15905705	-0.024459701	0.036297478	-0.024022583	-0.000386565	-0.0030947055	
0.025944421	0.013377976	0.11176505	-0.3988113	-0.19178449	0.0171016	-0.4156234	0.025346635	-0.046431176	-0.055312816	-0.019316224	-0.04095925	0.19655536	0.07060426	0.03584203	0.007221324	0.11666	0.09751913	0.052584108	-0.033674147	-0.052439034	-0.015180862	0.011203386	-0.030934691	0.0024611894	-0.11277179	0.08099969	-0.045455705	0.0042162505	0.0033628629	-0.022919238	0.030393321	-0.015370387	0.17119785	-0.26937595	0.06748891	0.0058506606	0.05909719	0.5371066	0.031925872	0.009262845	0.013209335	-0.02954143	-0.053182796	0.10534483	0.003213322	-0.020647857	0.082175136	0.008585811	-0.006036851	0.008462338	0.061763816	0.018297883	-0.35493603	-0.14641602	0.032506965	0.16795075	-0.086470895	0.295502	-0.1214825	-0.017626237	0.054915816	0.0055330414	-0.036006413	
0.0020357505	0.0060958015	-0.03385374	0.11837728	-0.011892637	0.019586153	-0.16904044	-0.019629993	-0.05990941	-0.02126796	0.0066493037	0.006458533	-0.045573235	0.0014412182	0.015526086	-0.024207423	-0.007782144	-0.26193127	0.016241055	0.010048173	0.10651219	0.017552381	-0.001180875	0.014158484	-0.3380332	-0.082945265	-0.24135646	-0.019264054	-0.008197096	-0.02890287	0.15563115	0.07475839	0.0075641656	-0.40269205	-0.07957074	0.030383673	-0.004681836	-0.051199127	0.23840617	-0.018984923	-0.009631863	0.018351236	-0.00010980253	-0.0029561382	0.013701652	0.008420509	-0.21895577	-0.031551033	-0.00029000864	-0.007532266	0.051501375	-0.049991585	-0.03660752	0.1501337	0.10401547	0.004477606	0.019543478	-0.057281904	0.03290571	0.24920428	-0.034531496	0.053290337	0.0014869367	0.010529605	
0.0048840693	0.0041598985	-0.027796242	0.4663672	0.06563308	-0.02364737	-0.0077501168	-0.020933757	-0.065585725	0.04980409	-0.0018874581	0.004502726	-0.0034442456	-0.0046909987	0.010104253	0.0021865517	-0.014758723	0.05294379	-0.0126679	0.026315492	-0.026798401	-0.014506649	-0.0009244752	-0.027973074	-0.11296424	-0.034770474	0.20392539	0.002419164	-0.048181783	-0.017537072	0.06726055	-0.058564667	0.0042483862	0.27250853	0.03279588	-0.063654765	-0.007296042	-0.018000988	-0.02399203	0.0024441448	-0.00500098	0.003944458	0.0027896895	0.0056830845	-0.014085536	-0.013511536	-0.096582845	0.015438673	-0.005375095	0.0059282547	-0.036250457	0.014289954	0.0038904299	0.40253532	0.042074528	-0.008008241	0.01546766	0.045661878	0.018547952	-0.070595175	0.019958174	-0.007370251	-0.0037706892	0.001145129	
-0.01699955	-0.0019379554	-0.12683786	0.03523878	-0.021271026	-0.012773047	0.30581287	0.008921499	-0.07102936	-0.0292335	-0.0037018629	0.0033514395	-0.042941757	0.0150611	-0.00471713	0.0039155283	-0.050051868	0.015325343	0.025405558	-0.03491681	-0.01855646	-0.016471468	-0.012008001	0.019144177	0.04287411	-0.0070900368	-0.42113644	-0.003932019	-0.0051991637	-0.013615466	-0.024524761	0.029837294	-0.03326382	-0.500357	-0.027368804	0.05078645	0.010952172	0.18775547	0.14736514	-0.009240735	-0.0069674277	-0.013984659	-0.0025496134	0.0045756637	-0.018944176	0.004988116	0.043895204	0.026799183	-0.01741314	0.00326189	-0.04036318	-0.011123441	-0.03225592	0.06741976	-0.13724887	0.013403384	-0.008978585	-0.027761329	-0.098684944	-0.03153359	-0.036379274	0.040281944	-0.00094718335	0.013635673	
-0.09358552	-0.017649814	0.12625855	0.004331933	0.24574426	-0.14006759	0.0149031505	0.0035531549	0.13581486	0.08421576	0.017200552	-0.08646624	0.028735047	-0.19759676	0.11145906	-0.069986634	-0.23482104	-0.04206376	0.08433687	0.0145743955	0.032563224	0.09436894	-0.001169714	-0.03423257	0.024538659	0.032478437	-0.18172234	0.2740792	-0.11899486	-0.046552762	-0.04604748	0.14061767	0.0073423847	0.048640393	-0.16121684	0.1468838	-0.08972381	0.009719071	0.010999977	0.03449362	0.07403913	0.2882396	0.029887503	0.037343327	-0.3659062	0.04984148	0.029695159	-0.60701686	0.030360306	0.0027725878	-0.08277111	-0.018012483	-0.11115417	-0.028965313	0.021664476	0.08104191	0.16724747	-0.04181815	-0.02535309	-0.025104279	-0.00025511757	-0.16312452	0.19801663	-0.5838209	
0.33971232	0.0455481	-0.15732273	0.031568415	-0.30716026	-0.13670477	-0.006084554	0.10209285	0.39949885	-0.22823527	-0.030775042	0.1996109	0.121835954	0.717803	0.22631243	0.12339103	0.15003945	-0.05051715	-0.16916592	0.33832526	-0.16012691	-0.0049565113	0.032671615	0.005073057	-0.046034165	-0.02684521	-0.033857934	-0.04994638	0.10072889	-0.011471503	0.10906904	-0.17026049	-0.05494332	0.080655426	0.18748008	-0.28694132	-0.07275793	-0.024414478	-0.004021239	-0.12570074	-0.010379302	-0.120746695	0.017348135	0.06179905	0.28728825	-0.077116504	0.044396143	0.0285661	-0.013211932	0.033653453	0.12522006	-0.17919478	-0.6447674	-0.04497664	-0.034279674	-0.09822441	-0.30208164	-0.18933237	-0.051596597	0.03736806	0.275404	0.1697423	-0.8421846	0.53167486	
-0.33838615	-0.020002335	-0.074330665	-0.06982765	-0.15628701	-0.030507376	0.011222353	-0.060358983	0.22774081	0.10916636	-0.14172985	-0.10912131	-0.4708896	-0.5718085	0.53624773	-0.10774811	0.22009702	0.08895686	-0.7467834	-0.3636821	0.23350462	-0.2425187	-0.008363492	-0.18070845	0.31393737	0.028857172	-0.024588857	-0.2338287	-0.14091511	-0.021263735	-0.078418	-0.039408762	0.066194445	0.10830948	0.05467593	0.1165759	0.01003369	0.02550648	0.051703885	0.13763903	-0.10041108	0.004829886	-0.24344048	0.05553823	0.048285272	0.29245993	-0.52140933	0.3007375	-0.023969328	0.063648865	-0.21538445	0.31742162	-0.10868336	0.08712956	0.009444573	0.49808112	0.4112589	0.2097571	-0.08341756	0.17311451	-0.21374325	-0.10612998	0.8425555	0.0778432	
0.18157804	-0.03522844	0.022196736	0.098138824	0.1613419	-0.28555033	0.014881089	-0.010695172	-0.4492445	0.04565984	0.15091422	0.15836109	0.2229669	0.0637621	0.2703747	-0.06460869	-0.11489156	0.18585964	-0.12946102	0.03620071	0.082181044	-0.036272246	0.010360006	0.12764136	0.34020635	0.079825945	-0.026085302	0.12145131	-0.2271483	0.14025679	0.04956643	0.2844129	0.065150514	-0.096219376	-0.059000302	-0.0147953	-0.12755261	-0.0065305103	-0.12968966	-0.33666864	0.0031133133	-0.22459336	0.08322563	0.007472805	-0.018114012	-0.24852172	-0.29845795	-0.061735902	0.02664862	-0.03480483	0.23550591	-0.099297635	0.44697	-0.12702964	-0.06560855	0.14247404	-0.04320459	0.04695724	0.11530372	0.056503586	-0.20588367	0.24668564	0.032949165	-0.32731315	
-0.066895634	0.034944028	0.022278536	-0.062146965	0.06889306	0.07508626	0.0063505876	0.12151518	-0.11189696	-0.027523495	0.18925194	-0.12848388	-0.016268203	0.112348184	0.18714145	0.06709374	0.10758502	-0.39530495	0.11493537	0.036121268	-0.10429194	-0.02272234	-0.024204308	0.17802921	0.037167333	0.015658755	0.19136883	0.042821944	-0.026071807	0.1852749	-0.0155619	0.012075955	-0.10839581	-0.11860858	-0.026580086	0.053407643	0.14405058	0.007643629	0.03236677	0.055831604	0.0978271	0.03136679	-0.091093354	-0.051742688	-0.022431199	-0.6173259	0.06705825	-0.017555064	-0.018202504	0.0180767	-0.045152523	-0.04297725	0.06026588	0.08614681	0.04105012	-0.10032525	-0.025748923	-0.05891141	-0.01284342	-0.348985	-0.06843096	-0.022402164	-0.20545508	0.25947925	
0.0018486475	0.021241825	0.5193728	-0.06632165	-0.30873907	0.35093564	-0.11747755	-0.016669033	-0.26721287	0.02275297	-0.06915885	-0.34207132	0.03373838	0.1351046	-0.1357672	0.0145856235	0.07633347	0.09484825	-0.26542327	-0.86825657	-0.017890938	-0.08828486	0.022736516	-0.1373428	-0.047741394	-0.10739838	0.04145721	-0.13384219	0.2477121	0.08146395	0.026979368	0.11756986	-0.13133197	0.017438745	0.20056705	-0.72395706	0.112254284	0.018781919	-0.08332976	-0.18936178	0.030812558	-0.35667476	-0.13141963	-0.033007	-0.34564763	0.14171462	0.14097115	-0.13845858	-0.01803414	0.06495872	0.13941436	-0.4925058	0.15430121	0.17473237	0.05904665	-0.14834476	0.042736884	0.041832585	0.039440207	-0.03133332	0.25348732	0.55251426	0.09807046	0.7842191	
0.3202704	0.006552869	-0.45012885	0.09396254	-0.31347743	-0.3138584	-0.0043249815	-0.030962488	-0.56231177	0.6909798	0.199768	0.68450326	-0.08014513	-0.69994354	-0.35397682	0.24513727	0.56870425	0.02535701	0.25595412	0.75918174	0.12225403	-0.103085645	-0.04552599	0.19045542	-0.17721556	0.15711232	-0.04562	-0.2556631	-0.5074892	-0.2915733	-0.051546793	0.5942947	0.195389	-0.06783145	0.485558	0.9903813	0.35800102	0.02021618	-0.021991521	0.27671298	0.105337694	-0.8074015	-0.5106677	-0.12947947	0.4381009	0.22460504	0.18998072	-0.30364695	-0.09215343	0.00946959	0.065765455	0.4615153	1.13759	-0.1648973	-0.047879644	-0.19565785	0.19003017	0.3441462	0.08107704	-0.06855415	-0.74434	-0.54396343	-0.31273896	-0.6455454	
-0.2181526	0.007429938	0.15597455	-0.35801682	0.3158538	-0.2093074	-0.37233242	-0.10207383	0.06514114	-0.5390766	-0.32993045	0.42839593	0.6596487	0.40285835	-0.5347628	0.112405084	-0.93768364	-0.4357025	0.7277259	-0.06911745	-0.07331769	0.7891427	-0.015668092	0.4447489	-0.035798866	-0.3817463	-0.076437056	0.3315374	0.6371874	0.043715663	0.05428319	-0.8674209	0.05389235	0.17427292	-0.26839608	-0.6137216	0.8906466	-0.028366461	0.3574506	-0.4041989	-0.0909917	1.1878582	-0.8888896	-0.19813675	-0.17588313	-0.18182597	0.1297654	0.38200995	0.13274612	-0.29704845	0.1252721	-0.4145603	0.028941749	0.30067426	0.12212237	-0.77105314	-0.44565082	-0.3720791	0.09648604	-0.44762647	-0.22117627	0.42537424	0.34668055	0.07359541	
-0.106676914	0.05520456	-0.0066722776	0.09881164	0.01418797	0.3707461	-0.13762829	-0.016761703	0.20319767	-0.091855645	-0.2789596	-0.5754801	-0.23068862	-0.090565465	-0.27093276	-0.68371135	0.15808468	0.8391737	0.22427766	0.15665056	-0.22625344	0.694237	-0.03217744	0.236217	-0.33069113	-0.08355743	0.3402233	-0.1636163	0.17536256	0.051671825	-0.07689036	-0.26647428	-0.22968192	-0.3570429	-0.031192787	0.23938078	0.48071232	-0.015644416	0.13482651	-0.2441116	0.014604028	0.046041302	-0.21755654	0.022746565	-0.042635005	-0.00912729	0.21788423	0.044581573	-0.03704457	-0.0012799556	-0.26134202	-0.025371442	-0.42719337	-0.10776616	-0.033188704	-0.44924054	0.025513802	0.1368733	-0.04985324	0.93066	0.74144685	-0.34768146	-0.37332743	0.102576174	
0.056937356	-0.05574861	-0.021710593	0.3584415	-0.10953992	-0.05230164	-0.016991517	0.07247307	0.12066435	-0.1535935	0.57177746	0.2900722	-0.069673546	-0.034024674	-0.18201141	-0.39927813	-0.072941646	-0.27145597	-0.16146794	-0.07793474	0.1743639	0.32351264	0.054205198	-0.47914279	-0.10675259	0.040677298	-0.27767912	0.004906704	-0.009754532	-0.30070966	0.038628474	0.16023037	0.17175221	0.26298553	0.036672447	-0.12966406	-0.17585318	-0.010112559	-0.07024089	-0.325192	-0.12909642	-0.05388432	0.22243252	0.05893648	0.046676546	0.7897262	0.106823206	0.031837136	0.024111291	0.021252176	0.021549935	0.36397174	-0.04791742	-0.32114846	-0.021158094	-0.095367774	0.08187695	-0.038377926	-0.009763771	-0.3691281	0.112146944	0.3507903	0.16047935	-0.17888701	
1.2150412	0.0066050594	-0.20757833	0.032785777	0.030954998	-0.06621698	0.2303253	0.114238806	0.17043048	0.13823822	0.133282	0.1987692	-0.1911238	-0.11911409	0.035638433	0.15599018	0.06582871	-0.092854425	0.15199679	0.7304972	-0.08912609	-0.40327597	0.0026503995	0.24473496	0.04720302	0.18677355	0.56206954	-0.08595743	-0.09033663	0.32495388	-0.020021548	-0.2671447	-0.9591882	-0.42692766	-0.027859649	0.37176347	0.06635785	0.028067512	0.13515091	0.23810744	-1.5207394	0.13371913	0.014426128	-0.006893351	-0.024384102	-0.22139011	-0.07809912	0.2585471	0.083104044	0.025334265	-0.0020638749	0.35554534	-0.026740136	-0.11071041	-0.059485875	0.0946373	-0.02315715	-0.22316787	-0.02394025	-0.034238886	-0.33256415	-0.32676077	0.15181588	-0.31261176	
-0.040630125	-0.005499397	0.04273042	-0.11570741	-0.09713644	0.043819048	-0.09157039	0.081793256	-0.016480412	0.060096227	-0.0020559712	-0.057984643	-0.22784342	-0.09411243	-0.011216831	-0.01643426	-0.1132712	0.008928395	-0.02090539	0.036495	0.031879015	-0.033698067	0.015985124	0.18175611	-0.0981595	0.38023418	0.022161858	0.07196997	0.015926296	-0.0076518743	-0.49454123	0.07351196	-0.0017940397	0.03208695	-0.12567623	-0.031501062	-0.0018159227	-0.70295215	-0.30487636	0.01358913	-0.0025741514	0.048804376	-0.011557168	0.03992664	0.0012797607	0.000977879	-0.07105329	-0.06227531	-0.011770247	-0.022488624	0.12609468	-0.032955747	-0.02141308	-0.123337775	-0.33965704	-0.052003313	-0.3436792	0.09748896	-0.7645344	-0.008861947	0.040419377	-0.050644558	0.00041626915	0.04755852	
0.003883194	0.013621342	0.04603023	0.00041189772	-0.010238029	-0.022490416	0.023852604	-0.049517967	0.027044475	-0.013264125	-0.014862668	0.030630965	0.039157346	0.02300917	0.0052953092	0.009930449	0.044198498	0.055872213	0.010473281	-0.02202359	0.02122857	0.043804366	-0.006969966	-0.07783197	-0.0897276	-0.040750936	-0.02156398	-0.020805245	0.026631068	0.06016027	0.19982015	-0.0483716	0.008803314	-0.04645815	0.059475023	0.016034022	-0.016504107	0.05268828	0.02566504	-0.020587632	0.014814567	-0.026078442	0.013644923	-0.017672235	0.028275229	-0.0016717822	-0.08393014	-0.01143768	-0.01338727	0.01173887	-0.013438789	0.03183786	0.017779637	-0.014724153	0.1388446	0.033115953	0.05790418	-0.046012197	0.25596434	-0.07317325	0.0033343197	-0.04743025	0.0009547267	0.0076019038	
0.057871018	-1.3744098	-0.045083553	0.029374758	0.035662968	0.1915588	0.058376525	-1.0806481	-0.042788997	-0.044152055	0.31016895	-0.09262627	0.14418635	-0.31547338	-0.4712897	0.28937396	-0.14969362	0.022008272	0.0007017058	0.10475176	-0.6418337	-0.1757822	1.6325351	0.36853823	0.012197408	0.3907491	-0.04886284	-0.7074615	-0.38608092	0.6094947	-0.5092386	0.40139902	-0.24119903	-0.022443125	0.02314998	0.0120913945	0.19791426	0.06395994	0.1464228	0.1124415	0.22247778	0.23799413	-0.29992107	1.320292	-0.00891734	-0.020856356	0.080467016	-0.285752	-1.4300792	-1.5131521	-0.21393993	0.4193241	-0.0011045642	0.029935284	0.5392358	0.38721448	0.13032512	-0.1191188	0.18309492	-0.009316366	0.3891658	-0.06916499	0.058933765	0.11581914	
0.102281764	0.3191295	-0.119823545	0.008694975	-0.009186436	-0.0051791943	-0.093725875	0.30851826	-0.023118695	0.026038807	-0.08003603	0.00490176	-0.13203493	0.12668358	0.0065176804	-0.23737244	0.26603076	0.09844531	0.004383099	-0.022254039	-0.09911823	0.1571781	-0.08714309	-0.15130788	-0.11684813	-0.19787264	0.06492758	0.4076042	0.1362526	-0.13075654	0.040760722	-0.034530412	0.12501906	0.06737488	-0.075162455	0.017519703	-0.10887171	0.067566775	0.018988283	-0.10382343	-0.2173086	-0.03788292	0.10587353	-0.36952674	-0.09628737	0.120959334	0.19702175	-0.06460666	0.020582795	0.120813355	0.08344207	-0.26111442	-0.045231294	-0.073935725	-0.0194471	0.015090145	0.03534032	0.0008262494	0.100360125	0.027001318	-0.11763699	-0.035413425	-0.097964816	-0.08134113	
-0.03159118	-0.088202044	-0.05020592	-0.24846095	0.113964304	-0.0116762975	0.15542378	-0.20224181	0.07646461	0.059962295	0.116370544	0.05138464	-0.071963675	-0.16352102	-0.08858125	0.13343926	0.047236245	0.062973045	-0.039451014	-0.06355598	0.13460946	0.25920776	0.15189804	0.025106888	0.26371646	0.1510517	0.23340616	-0.006086173	0.10084169	-0.35926184	0.07094974	0.179453	0.11877518	-0.14120558	0.06678754	0.24506454	-0.011349098	0.74485093	-0.004148365	0.035607643	-0.11048119	0.044132337	-0.10288351	-0.056702863	-0.008779572	0.38354254	0.018602364	0.032428015	0.030371275	0.09487217	0.18603785	-0.049485203	-0.3367061	-0.17448074	-0.19983688	0.0027012595	-0.06853306	-0.049027365	-0.06668611	0.17676304	-0.017296545	-0.027318131	0.06594254	0.15181132	
0.44205844	0.20759967	0.09373008	0.022233423	0.18079682	-0.18882874	-0.5191867	-0.25661525	-0.14560646	0.29613927	0.038991097	0.16050689	0.16070345	0.55326605	-0.08709743	-0.14868061	-0.07857225	-0.0678477	0.33720228	-0.08247503	0.09001935	-0.007227126	0.10537932	0.42584777	0.37065503	-0.49564856	0.18602492	0.008924383	0.046660922	0.13642015	-0.032003466	-0.21942355	-0.09057419	0.1725181	-0.077179216	0.50149864	0.0018840178	0.050906517	-0.61826175	0.15990491	0.16796	0.04606844	0.028720887	-0.23852341	-0.17481177	-0.1131096	-0.22411785	0.16440609	0.18297699	-0.10964276	0.017263945	-0.0018591968	0.16149469	-0.14943148	0.005427359	0.07268571	0.25325638	-0.0967375	0.0043806247	-0.053228237	0.24686056	0.30386612	-0.17882892	-0.09606152	
-0.076951824	-0.073994115	-0.011992326	-0.08901859	0.015402736	0.14226998	0.038614135	0.10113203	-0.06371021	-0.07068882	0.052732736	0.009727272	-0.43009096	0.018525604	0.008340502	0.01593013	-0.34286827	-0.11067847	0.062187467	-0.05058037	-0.76497066	0.07579166	-0.097559154	0.067566685	0.026297893	0.019653076	-0.13926567	-0.009661753	0.034118496	0.15448387	-0.06560301	0.052510075	-0.040230006	0.048273265	0.014759435	0.034161236	0.23903379	0.045886338	0.029074661	-0.10273268	0.040468153	0.28730285	-0.29732433	0.02058872	0.098650925	-0.020347541	-0.009720764	0.29961276	0.054469373	0.080619045	0.0052577667	-0.029875029	0.09602732	-0.012644829	0.08794088	0.16949795	0.066657566	-0.2733527	0.050094772	0.07263044	-0.02483042	-0.024949169	-0.03342002	0.040608015	
-0.07531982	-0.05677066	-0.26942337	-0.045639426	0.04213352	0.15278141	0.07573281	0.056161154	-0.18591234	-0.08735993	0.072609946	0.005371564	-0.72436213	0.025661087	-0.008998455	0.004962546	-0.53354794	0.01953868	0.045042813	0.013474561	-1.1146562	0.028002493	0.020276189	0.006444096	0.041012213	0.019462196	-0.2047296	0.058929976	0.08267842	0.1726739	0.11784488	-0.019763175	0.044523932	-0.024706805	-0.032108247	-0.14277375	0.36036867	-0.009238109	0.06815487	-0.15167068	0.11235299	0.27807325	-0.18258663	0.018168774	0.055799924	-0.02126218	0.024097046	0.29849815	0.011135219	0.0013761026	0.015138952	0.1257474	-0.0027946203	0.114109516	0.017132893	0.26612103	0.0444727	-0.5498845	0.033807643	0.02151822	0.003358164	-0.03361922	0.023327077	0.051045705	
-0.016962435	0.09082247	-0.10981743	0.011409799	-0.061653312	-0.18119715	-0.14811832	-0.06674895	0.15977643	0.05638501	-0.036137324	0.033043467	0.39051053	-0.01979211	0.040802598	0.014395948	0.30884433	-0.09251699	-0.0124532785	0.049065243	0.22571868	0.01373961	0.021902312	-0.12724335	0.11030133	0.029035525	-0.008268302	-0.072183564	0.14595997	-0.14619495	-0.04654179	0.056812547	-0.0046040607	-0.074927226	-0.13996951	0.08938131	-0.4909905	0.037203748	0.025046805	-0.07705792	-0.24641383	-0.43150297	0.0032662926	-0.0013104598	-0.046863616	-0.021915967	0.1194087	-0.4064688	-0.04547742	-0.0064427666	0.14995538	-0.1563857	0.05235431	-0.027076656	0.08433981	-0.34141776	0.07239025	0.22961773	0.06172463	-0.10658351	0.05705299	0.04383813	0.062094674	-0.03204911	
0.11239606	-0.12164691	0.022038756	0.11495962	0.00886209	0.012580241	-0.23226881	-0.1340283	-0.1988677	-0.14988792	0.006322591	-0.13863905	-0.23715243	-0.13321017	0.081448056	-0.24389073	-0.20903224	0.09268129	-0.4421433	0.12256384	-0.10843383	-0.1124108	0.061668087	0.004022272	-0.036794465	0.03315431	-0.23028585	0.31142837	0.0004599511	0.12772784	-0.10156913	0.09389522	-0.07011413	0.000817827	-0.1816828	-0.17359187	0.12585028	0.10843546	0.1073889	-0.060485534	0.32299405	-0.07480499	0.0669786	0.04284014	0.09693121	-0.004252006	-0.029785134	-0.023532694	0.055900436	0.06659138	-0.046721604	-0.01788887	0.29414347	0.27455476	0.05328979	0.028331697	0.18906693	-0.09876186	0.07318859	-0.047241785	0.07357329	0.09022442	0.26135185	-0.12564017	
-0.103793606	0.035312545	-0.14450827	0.016324013	0.042640198	0.13382228	0.060843803	-0.0540203	-0.05247656	-0.009319744	-0.034889568	-0.015033802	-0.7320513	-0.053332068	0.000120646975	-0.0345714	-0.28047392	-0.008219543	0.01140887	0.062343165	-1.3517519	-0.050540816	-0.030522438	-0.09801479	-0.010062273	0.037791036	-0.12290927	-0.05354685	-0.00069964095	-0.0139313135	0.025269706	0.052197803	-0.025432317	0.020970723	0.049705774	-0.13347238	0.17723331	0.018948095	0.11232111	0.056383803	-0.17271204	0.0737249	-0.072067514	-0.07163969	0.10549854	-0.02765372	-0.02088415	-0.0051128427	-0.04896268	0.05475466	-0.056146573	-0.05115893	0.016030155	-0.082384504	0.020368569	-0.02097714	-0.0063421386	-0.011958921	0.014772906	0.07171064	-0.093337245	0.03709239	-0.016713636	0.016830005	
0.13933519	0.100467555	0.3049162	0.086208254	0.14216557	0.17310442	-0.11330566	-0.08421145	-0.051506303	-0.07465144	0.37082076	-0.0011023366	-0.052935716	-0.37232086	0.1583402	-0.12816116	-0.17438433	-0.10223338	-0.13525128	0.13427067	-0.022156619	0.14834894	-0.012363995	-0.2405201	-0.53205824	0.16917777	-0.043360144	-0.06630361	0.14022486	-0.11605771	-0.00940933	-0.3993992	0.016705615	0.011237666	-0.03817854	-0.51938903	0.22578467	0.08139977	-0.12260934	-0.18243656	-0.07015599	-0.11531521	0.046381857	0.11755756	0.06079006	-0.04004168	0.1953211	0.06613031	0.25742546	-0.012378293	-0.039024547	0.110620916	-0.0028915752	-0.13474596	-0.074178495	-0.004689019	0.1733239	-0.055694554	0.017441453	0.29884475	0.1137346	-0.12045538	0.22803865	0.11997339	
0.03920065	0.006353293	0.054116253	0.008710818	-0.07406119	-0.22579046	-0.0055634947	0.004842598	0.0468034	-0.019491663	0.078855224	0.0849324	0.16796793	0.052911147	0.10945942	-0.17823826	0.23587829	0.09103142	0.053236827	0.08013282	0.104859166	-0.035323758	0.040555034	0.17305699	-0.020951577	0.08532154	-0.006044155	0.077492796	0.00938509	-0.29339528	0.20953056	0.05162891	0.020054534	0.010852901	-0.03027172	0.09791886	-0.36467916	-0.029832592	-0.054898724	0.18917403	0.026675118	-0.3728919	0.08931009	0.033115763	-0.008160335	-0.062718265	0.006328865	-0.3932757	-0.08409351	-0.10193405	0.27055278	0.12806812	-0.056345884	0.11244685	-0.045467023	-0.3346775	-0.049125403	0.20772485	-0.09377546	-0.009400755	0.0052075544	0.10779065	0.07643619	-0.00066732755	
-0.23406814	-0.22782442	0.16225375	0.25979954	0.1847384	-0.01101605	-0.13787568	0.07709852	-0.06522891	0.17467761	0.17047583	-0.075369634	0.18634309	0.32066646	-0.15606375	-0.14868572	-0.0612073	0.16043635	-0.009525321	-0.237314	0.11062857	0.17843607	-0.059121486	0.19425242	0.1688885	-0.084348515	-0.20488651	0.3444954	0.2398737	0.19091904	-0.0926035	0.0894636	0.073323674	-0.15171635	0.14755969	0.21553738	0.09699615	0.020340808	0.17166393	0.14165701	-0.13932166	0.06245566	-0.19381203	-0.014167441	0.1576975	0.1752081	-0.1507011	0.1522581	-0.106677	0.05811868	0.10909418	-0.34407735	-0.03464357	-0.12979963	0.12990937	0.064628534	0.015434929	0.06320781	0.13719223	-0.035475634	-0.02094382	0.09365159	-0.07686399	-0.21985886	
-0.05143873	0.21750715	0.13055171	0.14310378	-0.15847625	0.057945184	0.3536317	-0.018354898	0.087671064	0.1106145	-0.087622106	0.06071788	0.04458664	-0.79333097	0.17189369	-0.014415979	0.064981155	0.007816973	-0.16685079	0.12583707	0.076378405	0.054819647	-0.11411541	-0.25807658	-0.3936125	0.081019394	0.07716372	-0.20129132	0.20424382	-0.135121	0.1590387	0.23934929	0.15652375	0.030632218	0.16154121	-0.63897693	-0.10584996	0.014589909	0.27249306	0.19329856	-5.5364773e-05	-0.072776794	0.04614384	-0.002590098	-0.0981682	0.11349647	0.24125843	-0.086029604	-0.065911286	-0.15231402	0.12713052	-0.009533363	0.06651561	-0.055332594	0.022632152	0.019360106	0.12858477	-0.026465565	-0.06819411	0.09935158	0.026004668	-0.10371106	-0.16658841	0.05437786	
-0.16347149	0.027087897	0.10465783	0.04493349	-0.07974843	0.15756632	0.09085652	0.037143312	0.10313907	-0.16932556	0.14186798	0.08106079	0.02191571	0.044747505	-0.21531542	0.39923036	0.055597004	-0.14154543	-0.008077831	0.23594889	0.20626959	0.1261307	-0.0067006107	-0.31943974	-0.13694824	-0.007512058	-0.38442245	-0.20888709	0.17271882	-0.078287706	0.14375564	-0.05792874	0.24042904	-0.2525989	0.23246971	-0.05289495	-0.0040361374	-0.1364408	-0.03496917	-0.05266644	-0.18633197	-0.043122854	0.11127414	-0.014106534	-0.10961321	0.00037870955	-0.18437386	-0.13075228	0.0076017296	0.042232156	-0.29703367	-0.12978412	-0.30396524	-0.25924924	-0.084752984	0.06364187	-0.21857722	-0.03165158	-0.38358474	0.09242068	0.23492536	0.108827606	-0.061345417	0.22397934	
-0.01304554	-0.06681031	-0.1984136	-0.0021974759	0.20515652	-0.041712776	0.016241718	-0.04012537	0.16579671	0.05739746	-0.12237109	-0.1810428	-0.043963723	0.23195007	-0.1224315	0.30717722	0.14898954	-0.19880903	-0.00048376777	0.23089726	-0.08859877	0.020540485	0.06663781	-0.24682346	-0.1361819	-0.26863277	-0.17921425	-0.22868638	-0.047664627	-0.035836525	-0.025426209	0.06529384	0.21083666	-0.27469	-0.05389375	-0.004358728	0.0916998	-0.16267309	-0.2577775	0.14432114	0.19558232	0.04329051	0.25625938	0.027921548	0.14300887	-0.23067454	0.1118372	-0.16444851	-0.22695114	-0.033130668	-0.002806821	-0.16118369	-0.11236502	-0.22066142	0.102519855	0.33811903	-0.033887498	-0.1417154	-0.088904776	0.024461394	-0.076159224	0.2777755	-0.31009728	0.35200033	
0.18858978	-0.20951939	-0.19180319	-0.16833188	0.118777566	-0.084831424	0.172186	0.02123908	0.10838674	0.13883293	-0.40989405	-0.08816089	-0.037013177	0.021260954	0.47639814	0.32603988	-0.17727184	-0.073206775	0.02685189	0.27007163	0.03839646	0.11916106	-0.33672407	0.1820944	0.04270482	-0.062095717	-0.22755325	0.033002436	0.071626574	-0.36124745	0.22586344	-0.024323896	-0.116816945	0.22259545	0.14071321	0.07008845	0.039927833	-0.05225003	-0.19326235	-0.04363085	0.25964695	0.3379357	-0.009398146	0.10869203	0.08333602	-0.028783837	-0.126258	-0.075181	0.124719456	0.093355484	-0.097708285	0.09011788	0.4293935	0.23649706	-0.1039375	0.08182946	0.03298285	-0.18134113	0.061166823	-0.14093344	-0.17420956	0.3755716	-0.011684509	0.6437161	
0.082549326	-0.09713365	0.10002789	-0.050716627	0.013521915	-0.44123024	-0.60123825	0.015405089	-0.052071817	0.11497369	0.14511377	-0.03966857	0.108617805	-0.025821667	0.31059656	-0.079398945	0.04967285	0.09761727	0.27453983	0.24909203	0.06655374	0.03745365	-0.27884996	0.0007237117	-0.0011066553	-0.09311023	0.120384455	-0.06885265	0.092848405	-0.16936293	0.07726472	0.024950385	-0.5354363	0.36529684	0.21584257	-0.2129377	-0.00074150105	0.0012725851	0.24562351	0.19229062	-0.18529986	-0.06391816	0.051665086	-0.51126134	-0.011941323	0.07855389	0.29255447	-0.122749895	0.09321867	0.035656918	0.12050203	0.025800971	0.040161375	-0.41448396	-0.09045678	-0.048330482	-0.017800763	0.097433425	0.013377376	0.2017189	-0.02048525	0.08503345	-0.017010644	-0.0280767	
0.09691161	0.28772387	0.14512095	0.090405	0.18257618	0.16924144	0.11422986	0.183485	0.024949616	0.01380796	0.40862632	0.006472749	0.042611953	0.10453003	0.129041	0.049459685	-0.051047474	-0.0019677272	-0.22535741	0.051404182	0.10297783	0.34246662	0.07339549	-0.15045993	-0.26419765	0.15229745	-0.050524343	0.13343816	0.3046164	-0.19134441	-0.17105524	-0.0020138125	0.20395592	-0.12596236	0.08416424	-0.06810294	0.14959204	-0.05456286	-0.16395953	-0.017860647	0.08022554	0.09029496	0.12052747	0.27219805	0.097436495	0.15886052	0.13745062	-0.19962163	0.37195778	-0.31499612	-0.18704106	0.19153833	0.23157418	-0.16083024	-0.07663306	6.910137e-05	-0.018715156	-0.070611805	-0.20056441	-0.045021757	0.10098334	0.083151676	0.13673112	0.16047798	
0.08118353	-0.07133362	-0.048504632	0.16691771	0.055042125	-0.1862655	0.10697056	-0.013096083	0.18287656	0.17372526	-0.021915078	0.0829719	0.15241204	-0.21800497	-0.0055857473	-0.52307624	0.2396617	-0.08808585	0.026184859	-0.0116388835	0.024291988	0.18929856	0.048939034	0.24734402	0.052940797	0.13233297	-0.22013141	-0.1947252	0.15354551	-0.04845417	0.05448112	0.20098744	-0.042338844	-0.0797934	0.29481405	-0.06140255	-0.090914845	-0.075220644	0.03445697	-0.17769825	0.26144975	-0.013922602	0.037148166	-0.0757017	-0.22284149	0.33756757	-0.23776914	0.04315912	-0.057064235	0.16636698	-0.0069221347	0.048787486	0.028338509	-0.030830637	-0.09460124	0.2078441	-0.026242243	0.023316046	0.35093048	-0.053072236	0.098154075	0.223123	0.2438018	-0.15196183	
-0.097867265	0.06704691	0.10672072	0.0193703	0.030107724	0.01027995	0.15747112	0.10040538	-0.0036338815	-0.037404373	-0.09398475	-0.09136608	0.398797	-0.28119728	0.072383426	0.14322288	0.4010178	0.004604515	0.058859836	0.10934552	0.3657895	0.0057443986	0.0646935	-0.5865758	-0.27252045	0.18275973	-0.03825977	0.015276808	0.14244309	-0.26392296	0.18527618	0.044530157	0.12744805	-0.010008319	-0.01685528	-0.31932604	-0.43612185	0.04281351	0.12826987	0.18903008	-0.18266478	-0.41872796	0.13762136	-0.10201283	-0.04427748	-0.08764955	0.12440182	-0.49828914	-0.0635587	0.105941616	0.022060387	0.052891966	0.019875258	0.19095962	0.040564835	-0.38616326	-0.120179944	0.30189195	0.22762187	0.033267792	0.07458309	0.07938363	0.11106375	-0.07508636	
-0.11825041	0.026939953	0.18785837	0.16522025	-0.10140182	-0.08023644	-0.33371466	-0.12484524	-0.018085154	-0.12007931	-0.19651425	0.23113246	-0.04998176	0.29965556	-0.078230664	0.11032202	-0.2002351	-0.006717065	-0.5111365	0.042290825	0.005744714	-0.0006071779	0.042380106	-0.072476834	-0.17080061	-0.433278	-0.15612794	0.28037646	0.18874373	-0.19321686	0.064395376	0.08818311	0.09113175	-0.16305101	-0.33312953	0.17260286	0.16557728	-0.041444678	-0.1918773	-0.16669612	-0.20070179	0.22415234	0.1735209	-0.0422056	0.30546927	0.05061616	-0.012510208	-0.035920165	0.10487966	0.052944526	0.12371163	-0.22689766	0.16622773	-0.08635586	-0.005257729	0.089223616	0.4084216	-0.23635896	0.18129574	0.22280851	-0.07994407	0.016337167	-0.041956414	0.2153497	
-0.0133895185	0.14942527	0.27110884	0.29710308	-0.08655302	-0.19323288	0.29272708	-0.11668348	0.07801448	-0.073584214	-0.015907982	0.4234039	0.26618963	0.02873425	-0.36396056	0.24914323	0.120941356	0.017035563	-0.077927396	-0.014998593	0.22274294	0.17907834	-0.11808791	-0.079212435	0.15604426	0.03106288	0.2611405	0.2086634	-0.17430113	-0.41628578	-0.31220835	-0.16823176	-0.18360093	0.2686813	0.03618533	0.3382117	0.09276587	0.079956695	-0.10457095	0.15690836	-0.11636045	-0.028373877	-0.023842918	0.045987062	0.0617131	-0.07784139	-0.071209	0.13711168	0.22487077	0.21648134	-0.16078122	0.029047826	-0.119122416	-0.050200272	-0.46258068	-0.115154676	-0.12279707	0.07384354	0.22953182	-0.079583205	0.03215861	0.1415743	-0.036429375	0.46629304	
0.2248973	0.11131932	-0.055401605	-0.16392885	-0.044965673	-0.34261933	-0.21347055	-0.06703079	-0.22871684	0.15848896	0.02506033	0.030243136	0.02781894	0.08663194	-0.0062782313	0.037913434	-0.22399418	-0.12986	-0.018603211	0.025729429	-0.2181247	0.097304575	0.10864984	0.20357181	0.15224567	0.00048516117	0.31073928	-0.10701917	0.18589464	-0.059391323	-0.0031794498	-0.1699416	-0.04648999	-0.02946036	-0.01400908	0.02288105	-0.41286635	-0.064035304	-0.25373375	-0.32490453	-0.33464876	-0.2938349	-0.10536176	-0.2905708	0.09361607	-0.060333177	0.15579262	-0.19142812	-0.18480568	-0.18057747	0.100560404	-0.13057198	-0.19403565	-0.36157694	-0.0070165466	-0.29931575	0.14189546	-0.14648394	-0.3418399	-0.071496606	0.40039644	-0.069354646	0.15065701	-0.18704066	
-0.39037624	-0.039620664	0.03536903	0.07741902	0.30677876	-0.005803764	0.0936464	0.31385925	-0.07971491	0.021037268	0.050432615	0.030908845	0.060910176	-0.10906737	-0.025349114	0.00964169	0.02028059	-0.02294318	0.14381912	0.02527975	-0.039956976	-0.013856115	0.5079224	0.104134314	0.18744035	0.11381966	0.041029524	0.065266125	-0.06793058	-0.020816544	-0.074122064	0.009015173	0.41049495	-0.028020289	-0.1575904	-0.004589435	-0.0106235435	-0.0601977	0.085573174	0.08626724	-0.08919923	0.020538215	0.066680856	0.24171752	0.034416262	-0.08710983	0.31388173	0.0014102915	0.2207083	0.117264204	0.062023178	0.022490364	0.06996156	-0.041464817	0.020343067	0.008371024	0.11619822	0.002973315	0.21036829	0.084369615	0.10098764	-0.031082539	0.24001883	0.15335207	
-0.252599	0.37621877	-0.021926615	-0.13055395	-0.17915691	0.2224695	-0.03280015	0.07036525	0.15199563	-0.14725824	0.18897387	-0.092602864	0.13740605	0.33209434	0.15424643	0.030890485	-0.013207213	0.19725211	-0.017860569	-0.9840085	-0.04933025	0.15368326	0.14348747	0.28599027	0.1488184	0.058496293	-0.36930025	-0.02191016	0.14229546	-0.15276895	-0.25202033	0.2685284	0.17431681	0.018106613	0.016294448	0.265511	-0.05135734	-0.0119612105	0.04509555	-0.00073985796	-0.08374879	-0.14998756	-0.413339	0.018244922	-0.13515262	0.14655077	-0.027946318	-0.17049223	0.011215727	-0.06349602	-0.17245322	-0.28312507	0.28244865	-0.03600286	-0.052316494	0.014156675	0.29202142	-0.11278244	-0.13602851	0.0144332405	0.3212481	0.2229288	0.39771888	0.1264305	
-0.12929834	0.038805623	0.059041627	0.030169917	-0.07069104	0.16938679	-0.1450545	-0.14143302	-0.100379765	-0.002713717	-0.034647256	0.08977759	-0.1718149	0.3364643	0.066546135	-0.18731643	-0.077831045	0.06983426	0.087091595	0.12970674	-0.061881635	-0.058654048	-0.047998197	-0.13349567	-0.13881281	-0.093685165	-0.09747792	-0.2227182	0.002931461	-0.23410335	0.011278545	0.05974096	0.14165202	0.010237991	-0.010135619	-0.17197916	-0.038071785	0.0152638005	0.3279561	0.1824781	0.051008824	-0.16806363	0.112129584	-0.12466978	-0.14458369	0.22342092	0.11509793	0.18207525	-0.14242212	0.019527173	0.18699618	0.07588692	0.09735561	-0.30082968	-0.12877686	-0.0017970433	0.07969312	0.124458455	0.058942925	-0.06615117	0.33553806	0.10547501	0.09343872	0.14566764	
0.022973793	0.054295056	-0.019483073	-0.05617546	0.008780077	0.16927342	0.019356074	-0.07391908	-0.15060624	-0.06404721	-0.057526514	-0.0382044	-0.534317	0.12719388	0.047437355	0.08114217	-0.5895295	0.005636647	0.11639413	0.039561372	-0.9176114	-0.07717527	-0.06895669	-0.03263215	-0.021931339	-0.028215583	0.0397452	-0.059833106	0.019205457	0.20077169	0.051782444	-0.005496573	-0.06702452	0.036094647	0.047940947	-0.14812134	0.25331083	0.019820824	0.17711198	-0.15012914	0.0717477	0.26939815	-0.18687333	-0.128498	0.09786115	0.041601073	-0.0017652162	0.39751357	-0.015675476	0.11067429	-0.02088024	0.046201214	-0.034548156	-0.017386228	-0.0074327444	0.18389854	0.02760714	-0.55158633	0.044297997	0.042995293	0.095140524	-0.142557	-0.04168671	-0.0025014246	
0.04244473	0.014877774	0.27438572	0.026261782	0.107648455	0.025218543	-0.032842807	0.020383812	0.048705027	-0.22506137	0.05523586	-0.03434056	0.018096734	-0.14087473	0.027405512	0.07527046	-0.3247167	0.102230795	0.20146143	-0.24725069	-0.09380669	0.2673266	0.07701983	-0.002315785	-0.10050103	0.07115314	0.08191244	-0.08877181	-0.07025698	-0.17845634	0.039005335	0.1552709	-0.12350439	-0.016658759	0.015898632	-0.22576489	0.28159648	-0.038301766	-0.050634503	-0.107107654	-0.2680657	-0.09939921	0.028579175	-0.016908439	-0.11265375	-0.122364484	0.06453251	0.08109008	0.23439369	0.021500016	0.17169437	0.06088941	-0.07335266	0.16524348	0.0330995	-0.063618764	-0.10065022	0.1583915	-0.04566258	0.16513559	-0.01474871	-0.06282306	-0.009128003	0.093135715	
-0.13891268	0.079446614	0.08268388	0.03420077	-0.008961653	0.009092943	-0.075848445	0.006514485	0.02924178	-0.032512713	0.0069551524	0.0625461	0.23956512	0.048949223	0.023549682	-0.0036324915	0.31670898	0.012162658	-0.015923843	0.05578456	0.12973168	-0.054609433	-0.01119414	-0.06066456	0.035030562	-9.382899e-05	-0.058494527	-0.075854525	0.0048646904	-0.06560042	-0.028784629	-0.08416695	0.033350494	-0.04100035	-0.13764377	0.10389916	-0.492846	0.07683599	0.10560731	-0.038411938	-0.2163643	-0.41255227	0.21426259	0.062890284	-0.03847385	-0.0316335	-0.017751127	-0.459097	-0.086610675	-0.008166735	0.08593087	0.020723267	-0.007098419	0.12359048	0.0066636414	-0.381996	0.0089285765	0.30831912	0.12725724	-0.07588886	0.028197126	0.07022333	0.07426298	-0.016816512	
0.039287332	-0.009662854	0.049065456	-0.07657925	0.1934809	-0.08657024	-0.16442496	-0.2625257	0.15203714	0.1113012	-0.2778518	0.26654413	-0.15210658	-0.002992598	0.0005613501	0.13560572	-0.06030942	-0.26797614	0.14912687	0.019757804	0.06343054	-0.06067917	-0.13585529	0.05372735	-0.004654394	0.073553	-0.03467069	-0.085664324	-0.16583033	0.279435	0.21336964	-0.14977483	-0.09053394	0.054822415	-0.13024826	0.05781832	0.23229179	0.061922457	-0.011557821	0.29159153	-0.11964971	0.021535922	-0.0060897833	0.05352732	0.21297505	0.009246975	0.0064573353	0.1115071	0.07760813	-0.0465531	-0.01140293	0.030647317	0.23841427	-0.02603051	0.112965174	-0.1569916	-0.013023819	0.13801356	-0.047434207	0.23541765	-0.21773447	0.15692939	-0.080110334	0.014678982	
-0.32246566	-0.06208252	-0.04521411	-0.16083987	-0.19104831	0.14910454	-0.14731073	0.1444644	0.2428622	0.14106871	0.14208004	-0.28357664	-0.005821192	-0.045062378	0.31175193	-0.23820142	-0.096113734	-0.2331682	-0.29391658	-0.18731627	-0.21832153	0.10989359	-0.01985711	-0.18538687	-0.19321877	-0.20843695	-0.12241574	0.41967052	-0.050265674	0.14399715	-0.028552217	-0.2139468	0.2503153	-0.020821482	-0.0843558	-0.051795106	0.082251824	0.108775824	0.01080098	-0.1686029	0.05838378	-0.030245226	-0.25700462	0.09992057	0.32076856	-0.09835536	0.05303841	0.09897978	-0.12194646	0.13984273	0.16927496	0.10333173	0.07757384	0.23356414	-0.039924264	-0.10962606	0.07729111	0.0007587156	0.0035371406	-0.13216695	-0.12583303	-0.19999036	-0.16592489	0.012488754	
-0.039252497	0.19150484	-0.014273377	0.0079660155	-0.14408205	-0.040718812	0.035672225	0.057980582	0.12546603	-0.14317733	0.081481166	0.0312892	-0.1003314	0.098950416	0.20507263	0.0094445385	0.067735285	0.09718047	0.27329224	-0.110659644	-0.041972395	0.08802172	-0.22277294	-0.051934954	-0.08970474	0.09988256	-0.29030913	-0.22944556	0.16559748	0.2567553	-0.08531239	-0.029173665	-0.043098435	0.05362564	-0.14395672	0.045290504	0.17361993	0.31024632	-0.007463957	0.15266775	0.19619875	0.07550603	-0.030454524	0.14903513	0.22656436	0.19377093	0.18941382	-0.010273413	-0.06408029	-0.052422382	0.1766057	0.29390833	-0.030657357	0.046589717	0.08814974	0.09978773	-0.056233782	0.030866988	0.1327707	-0.07984391	-0.048637703	0.286688	0.0863824	0.30207917	
-0.07125839	0.02603361	-1.042894	0.036792345	-0.051031515	0.08392766	0.17843704	-0.08122077	0.008517001	0.08310486	-0.22517437	0.00115337	-0.09470566	-0.05555904	0.1155145	0.05664681	0.28395358	0.0329488	-0.03195516	-0.10066997	0.26569486	0.16045944	-0.021861799	-0.14417037	0.027616322	0.1560552	0.23449993	0.04604138	-0.12338082	-0.24355273	0.17035154	0.11839346	0.117363766	-0.015763177	-0.067181736	-0.17034018	-0.8792048	0.03952845	0.077221446	-0.0053393203	-0.092125356	0.21541496	0.0860771	0.027193222	-0.14817771	-0.050053913	0.14479174	-0.27438715	0.23795487	-0.05345773	0.0090633705	-0.022476368	-0.0049408474	0.024620762	-0.009947362	0.014775893	-0.09967606	0.21266395	0.037164666	0.2821455	0.002326373	0.15052661	-0.16196428	-0.06740344	
0.018108672	-0.15136734	0.011646707	0.086876266	0.23463574	-0.44416758	0.3398916	0.124806896	-0.21286431	0.104124166	-0.062683925	-0.07054789	0.116596065	-0.08947353	-0.122018434	0.25707772	0.14548498	0.2285711	0.21034923	0.15764475	0.043636195	0.1979295	0.046570312	-0.022532694	0.21851158	0.17627722	-0.122414	-0.24421144	0.064792015	-0.06261117	-0.11759261	0.32283872	-0.012370768	-0.030398032	-0.077440076	0.031511575	-0.13070802	-0.09074196	0.19642769	0.36482316	-0.24220096	-0.21888429	0.06106233	-0.06290604	-0.021215463	0.106093034	-0.24412915	-0.028066907	0.13099818	0.026243519	-0.24175605	-0.07019433	-0.038905933	0.18958646	0.39847022	-0.30063173	-0.12978148	0.112110816	0.15725891	0.2885202	0.089612044	0.29887247	0.16895525	-0.09281477	
-0.13158704	0.22866626	0.07011256	0.39909667	0.17011201	0.12234533	-0.10790553	0.33884707	-0.14780515	-0.07450319	-0.5874199	-0.11129189	-0.020570429	-0.0699051	0.06904783	0.08256805	-0.020012103	0.014548172	0.05186356	-0.35623556	0.09438272	0.11023727	-0.042265426	0.18364154	-0.058529105	0.13924672	-0.04117986	0.05613108	0.022544278	-0.058660123	-0.0583371	-0.23859464	0.03264606	-0.057875082	-0.16101542	0.1478464	0.1154827	-0.3724511	-0.14635532	-0.19859082	-0.062210247	0.005747481	-0.15402265	0.02806967	-0.012463395	-0.15028973	0.07049818	-0.12747562	0.26195702	-0.05023766	-0.30237997	0.068836495	0.39359465	-0.00575641	-0.027639886	-0.014964054	-0.08763498	-0.015061115	-0.12026585	-0.061829742	0.011039939	-0.044639245	0.22265299	0.07294838	
-0.058611244	-0.06753846	-0.17746487	-0.023934994	-0.008817081	0.1652417	0.076821804	0.038842913	-0.02420176	-0.04225431	-0.03522586	-0.03065716	-0.4716375	-0.05694077	0.035637356	0.007811024	-0.387915	0.08833947	0.061338127	-0.07375462	-1.0626781	0.002953331	-0.0218117	-0.036540084	-0.030811587	0.05110108	-0.05686898	0.08369242	0.04329667	0.035241824	0.11720684	0.21275677	0.03092026	0.024002418	0.10968699	-0.10323626	0.21167736	-0.07868468	-0.19132341	0.01592739	0.26355574	0.24499738	-0.19925018	-0.0014380687	0.061183102	0.043985847	-0.006448746	0.3587537	0.07794021	0.083366394	-0.091047436	0.006212199	0.057685085	0.020052219	0.018759225	0.18791573	0.003919983	-0.36825582	-0.12103273	0.091689855	-0.0010993431	-0.13874108	-0.060430523	0.030292306	
-0.000607648	0.008758774	-0.0040546674	-0.028444827	0.05828773	0.1434279	0.08651298	0.027374877	-0.17273405	-0.019593917	0.0043323766	-0.029064558	-0.80984163	0.038703684	0.04157561	-0.05292061	-0.4259839	0.05175664	-0.0057414947	-0.047208454	-0.98487246	-0.0347287	-0.034876704	0.19884306	-0.021850599	-0.018526148	0.009640888	0.03492703	0.014280697	0.09689052	0.0472323	0.059534803	-0.027813178	0.049741145	0.111249186	-0.03472982	0.3729935	-0.032297373	-0.1423286	-0.15573345	0.12073926	0.30743816	-0.2607225	-0.10080562	0.082612135	0.018495405	-0.08735073	0.27091166	0.02206739	0.096201226	-0.06501306	0.041140344	-0.10275393	-0.11652708	-0.058261197	0.19928214	0.072886676	-0.3880826	-0.044480808	0.09897364	0.119122095	-0.08217037	0.0011837971	0.067320436	
-0.14866763	0.09025887	-0.18514211	0.10780345	-0.20432787	0.1377193	0.20246045	0.07883234	-0.3704532	0.085716076	-0.05768076	0.46567816	-0.24729273	-0.1456021	-0.48843166	-0.17988227	-0.18168171	0.25182626	0.1379727	0.06401068	-0.41197425	-0.10663416	0.12847218	-0.20583236	0.12746571	0.21309417	0.06646866	0.16737033	0.20321661	-1.1984713e-05	-0.12314939	0.08917547	-0.09745157	0.19382885	-0.03201352	-0.0076505635	0.03079633	-0.0806197	-0.040868387	-0.19277608	-0.25196132	0.07957009	-0.14172435	0.03517761	0.13836262	-0.103908844	0.041421365	-0.07081386	0.073153324	0.16174723	-0.23915657	-0.08442951	-0.049475566	0.0370185	-0.27866232	0.13013113	-0.003661792	-0.1283569	0.40752783	-0.0059905653	-0.15146722	-0.3524831	-0.14050001	-0.17151235	
0.11743327	0.10544968	0.15706313	-0.08588258	0.027700981	0.0022166434	-0.24220437	0.07114128	0.013290435	0.008686486	-0.14703257	0.06869563	-0.02386373	0.0256551	0.037294522	-0.3031035	-0.0002637816	0.26796874	0.26053396	0.16795811	0.07930158	0.024148501	0.1623282	0.0724006	0.03128668	-0.13750616	-0.08710385	0.00895056	-0.10486121	-0.174274	-0.07158454	-0.150165	0.33973438	-0.121934466	0.33797592	-0.19121647	0.008980685	0.10837639	0.0839521	-0.111622036	-0.046016533	-0.0023936024	0.042431347	0.37730655	0.024860611	-0.18692295	-0.12111065	-0.05549664	0.18491462	0.2215086	0.057324074	-0.10142482	-0.08896387	-0.16862993	-0.05098249	-0.10739641	-0.20744732	0.116348736	0.1701094	-0.026798304	0.042364486	0.05103754	-0.20510562	-0.10490386	
-0.2540631	0.052202906	-1.6835878	0.004745599	-0.091295496	0.015175304	-0.0832183	0.26634052	0.17048194	0.10908292	0.21631688	0.07570875	-0.6435286	0.14073582	0.0638884	0.02668119	0.13895486	0.09134792	0.036616772	-0.61504173	0.18719324	0.12536065	0.034497935	0.23374325	0.050947685	-0.042774316	0.012572901	0.021379123	-0.054206453	-0.063272715	0.014133321	0.16638863	0.12978356	-0.029096546	-0.054470755	0.19191526	-0.3526933	-0.022986043	0.008269076	-0.27265826	0.1280943	0.03759957	0.07479027	0.14225428	-0.20232621	0.1570151	0.039576378	0.1011017	-0.030720793	0.025755994	0.19124234	0.24405593	0.012875197	0.20788069	-0.018049296	-0.025297573	0.08053591	-0.06836217	-0.015783453	0.107433096	0.043017402	-0.033614215	-0.0011290659	0.044068296	
0.063731685	0.0625955	-0.645826	-0.016806105	0.001190216	-0.07480037	-0.13921613	0.02004489	-0.27264473	-0.026825272	0.07707458	0.05295443	-0.16854614	0.010139731	0.11078795	-0.025933227	-0.1314592	0.110558905	-0.06628398	-0.09660852	-0.9908547	-0.062555596	-0.022681778	-0.02428142	-0.055390224	0.018079307	-0.07984575	0.064909436	0.0033987057	0.0073814453	0.102473825	0.024462441	0.057231005	0.020897593	-0.0013594793	-0.17991903	-0.05192239	-0.023438701	0.17763354	-0.0072896113	0.09065911	0.090556465	0.23665234	-0.018409824	0.045262393	-0.00435216	-0.022786243	0.06356605	-0.06267906	0.05529162	0.25780606	0.23519064	0.11517984	0.09285875	-0.055399235	-0.058566015	0.012474581	-0.52687055	0.018767731	0.21503797	0.0028853812	-0.082914844	-0.025871474	0.07227048	
0.0040738387	0.10120264	0.0034220947	-0.22992274	0.04766612	0.06116126	0.09742792	-0.087691	0.0032505225	0.089777485	-0.22755113	0.12870874	-0.04755855	0.08482837	0.066136286	-0.045719743	-0.023912694	0.20866257	-0.0029849336	0.14843328	-0.09670296	-0.05716222	0.086381264	-0.117285654	-0.44607657	0.02702466	0.1786421	0.119186565	0.14440143	0.17819084	0.32131657	0.36543468	0.09847478	0.07222915	-0.0536723	-0.25534385	-0.07516698	0.014051097	-0.39811906	-0.0573815	0.047112823	-0.045617405	0.07431005	0.23165798	-0.18139058	0.17524125	0.078479454	0.17081602	-0.11054719	0.024946349	-0.023176825	0.039197672	-0.17138124	0.09632174	-0.03072864	0.062150948	0.08100403	0.07785866	-0.011823159	0.118328415	0.061266698	-0.02911204	-0.12367042	0.019100225	
-0.012385904	-0.00023484923	0.07279052	-0.085007526	-0.26199675	0.028148644	0.3302415	0.2759628	0.021247508	0.24657153	-0.40146947	0.026554734	0.033443153	0.25093725	0.14983544	-0.064357795	-0.0155417295	0.25836542	-0.024856584	-0.300991	0.039975844	-0.3593478	-0.007960211	0.14247282	-0.16753595	0.14705615	-0.06123109	-0.07254633	-0.02339382	0.18435203	0.12157617	0.17671695	0.14608002	0.074945696	0.14877312	0.05846883	0.052923016	-1.0437528	0.15754092	0.18150312	0.016847352	0.07783657	0.121778205	0.09409635	0.0317744	0.012279587	-0.06498853	0.09907716	-0.033544257	-0.16887592	-0.48834535	-0.013603209	-0.045731615	0.12483767	0.2924438	0.046659555	0.1359129	0.06396764	0.15680982	0.30631587	-0.069616646	0.08789391	-0.03853875	0.16971788	
-0.20908065	0.37150413	0.18973275	-0.20024112	-0.020027703	0.3029979	-0.09933929	0.30236188	0.02948829	-0.19395074	-0.26344013	0.1784698	0.12411702	0.18109262	0.2251625	-0.009766075	-0.062485915	-0.14794482	-0.010155298	0.005662226	0.09708874	-0.15706374	0.32277313	-0.23784782	-0.16160999	-0.21633299	-0.031834804	-0.023788664	-0.14473015	0.19938178	0.3369342	0.26630417	0.095887475	0.13522601	0.17708926	0.1082145	-0.03998129	0.18893363	-0.2389319	-0.13475446	0.03878915	0.05148556	-0.28578952	0.28217167	0.11506693	-0.39604035	0.61157805	0.14173643	0.020858599	0.22150804	0.19216281	-0.36280257	0.111405276	0.15024245	-0.008949244	0.16774109	0.00415302	0.088665605	-0.36437654	-0.016396524	-0.18454039	0.1223858	0.063532665	0.08079061	
